booster[0]:
0:[f2<79.1694031] yes=1,no=2,missing=2
	1:[f3<165.851578] yes=3,no=4,missing=4
		3:[f3<138.969437] yes=7,no=8,missing=8
			7:leaf=-0.522126615
			8:leaf=-0.268785328
		4:[f2<55.3698883] yes=9,no=10,missing=10
			9:leaf=-0.128217548
			10:leaf=0.225808233
	2:[f3<117.545197] yes=5,no=6,missing=6
		5:[f2<96.8495178] yes=11,no=12,missing=12
			11:leaf=-0.40403235
			12:leaf=0.30575785
		6:[f6<0.176859662] yes=13,no=14,missing=14
			13:leaf=0.228378862
			14:leaf=0.470279068
booster[1]:
0:[f2<67.3615341] yes=1,no=2,missing=2
	1:[f3<171.399323] yes=3,no=4,missing=4
		3:[f6<0.268445313] yes=7,no=8,missing=8
			7:leaf=-0.441143185
			8:leaf=-0.308303982
		4:[f1<16.8695812] yes=9,no=10,missing=10
			9:leaf=-0.488960356
			10:leaf=0.0581255406
	2:[f3<126.697479] yes=5,no=6,missing=6
		5:[f2<96.0975571] yes=11,no=12,missing=12
			11:leaf=-0.315779775
			12:leaf=0.330318689
		6:[f4<0.402739733] yes=13,no=14,missing=14
			13:leaf=-0.0360815786
			14:leaf=0.293330699
booster[2]:
0:[f2<84.2551498] yes=1,no=2,missing=2
	1:[f6<0.268445313] yes=3,no=4,missing=4
		3:[f4<0.510381758] yes=7,no=8,missing=8
			7:leaf=-0.401468664
			8:leaf=-0.25533247
		4:[f2<63.8862648] yes=9,no=10,missing=10
			9:leaf=-0.120348923
			10:leaf=0.240165383
	2:[f2<135.304077] yes=5,no=6,missing=6
		5:[f6<0.144623503] yes=11,no=12,missing=12
			11:leaf=0.0955073535
			12:leaf=0.329807013
		6:[f6<1.07412183] yes=13,no=14,missing=14
			13:leaf=-0.851975322
			14:leaf=0.239651009
booster[3]:
0:[f4<0.437911123] yes=1,no=2,missing=2
	1:[f3<184.15242] yes=3,no=4,missing=4
		3:[f2<98.9412766] yes=7,no=8,missing=8
			7:leaf=-0.285751075
			8:leaf=0.274883449
		4:[f1<73.2212677] yes=9,no=10,missing=10
			9:leaf=-0.0782785118
			10:leaf=0.147401422
	2:[f1<21.744175] yes=5,no=6,missing=6
		5:[f6<0.171077147] yes=11,no=12,missing=12
			11:leaf=-0.425164253
			12:leaf=-0.209383845
		6:[f3<113.967659] yes=13,no=14,missing=14
			13:leaf=-0.149212807
			14:leaf=0.178568125
booster[4]:
0:[f4<0.405857533] yes=1,no=2,missing=2
	1:[f3<197.868347] yes=3,no=4,missing=4
		3:[f2<98.9412766] yes=7,no=8,missing=8
			7:leaf=-0.252600431
			8:leaf=0.20099397
		4:[f6<0.0890906975] yes=9,no=10,missing=10
			9:leaf=-0.549918413
			10:leaf=0.143698841
	2:[f1<45.5327911] yes=5,no=6,missing=6
		5:[f6<0.167493924] yes=11,no=12,missing=12
			11:leaf=-0.28410089
			12:leaf=-0.0116358781
		6:[f3<133.099075] yes=13,no=14,missing=14
			13:leaf=-0.0260802079
			14:leaf=0.19212684
booster[5]:
0:[f2<94.2709198] yes=1,no=2,missing=2
	1:[f6<0.192983612] yes=3,no=4,missing=4
		3:[f6<0.122970082] yes=7,no=8,missing=8
			7:leaf=-0.346504867
			8:leaf=-0.189023331
		4:[f2<73.5461349] yes=9,no=10,missing=10
			9:leaf=-0.046313744
			10:leaf=0.221629664
	2:[f2<135.304077] yes=5,no=6,missing=6
		5:[f3<232.108749] yes=11,no=12,missing=12
			11:leaf=0.243447691
			12:leaf=-0.0432476662
		6:[f6<1.07412183] yes=13,no=14,missing=14
			13:leaf=-0.639774442
			14:leaf=0.113162205
booster[6]:
0:[f4<0.464943975] yes=1,no=2,missing=2
	1:[f3<145.054092] yes=3,no=4,missing=4
		3:[f2<100.361366] yes=7,no=8,missing=8
			7:leaf=-0.255710483
			8:leaf=0.222650856
		4:[f6<0.15303351] yes=9,no=10,missing=10
			9:leaf=-0.292826891
			10:leaf=0.0310673974
	2:[f1<82.3303604] yes=5,no=6,missing=6
		5:[f1<16.54216] yes=11,no=12,missing=12
			11:leaf=-0.31459263
			12:leaf=0.0181761216
		6:[f2<135.304077] yes=13,no=14,missing=14
			13:leaf=0.203242227
			14:leaf=-0.486869544
booster[7]:
0:[f2<98.9412766] yes=1,no=2,missing=2
	1:[f6<0.221357048] yes=3,no=4,missing=4
		3:[f6<0.115875743] yes=7,no=8,missing=8
			7:leaf=-0.297081172
			8:leaf=-0.110801391
		4:[f2<70.2410431] yes=9,no=10,missing=10
			9:leaf=-0.0349495597
			10:leaf=0.18099229
	2:[f2<135.304077] yes=5,no=6,missing=6
		5:[f3<212.479431] yes=11,no=12,missing=12
			11:leaf=0.231888279
			12:leaf=0.00514405593
		6:[f6<1.07412183] yes=13,no=14,missing=14
			13:leaf=-0.426646143
			14:leaf=0.0965944231
booster[8]:
0:[f4<0.399032176] yes=1,no=2,missing=2
	1:[f6<0.578787744] yes=3,no=4,missing=4
		3:[f1<223.538483] yes=7,no=8,missing=8
			7:leaf=-0.196474239
			8:leaf=0.10617277
		4:[f2<48.9334297] yes=9,no=10,missing=10
			9:leaf=-0.0559696965
			10:leaf=0.283094615
	2:[f6<0.38329047] yes=5,no=6,missing=6
		5:[f2<87.0674133] yes=11,no=12,missing=12
			11:leaf=-0.102827542
			12:leaf=0.127876669
		6:[f3<114.414825] yes=13,no=14,missing=14
			13:leaf=0.775717139
			14:leaf=0.131456301
booster[9]:
0:[f3<140.79567] yes=1,no=2,missing=2
	1:[f2<102.182549] yes=3,no=4,missing=4
		3:[f4<0.526431859] yes=7,no=8,missing=8
			7:leaf=-0.19365865
			8:leaf=0.0207692869
		4:[f0<437.139496] yes=9,no=10,missing=10
			9:leaf=0.256970376
			10:leaf=-0.00657951785
	2:[f6<0.0975496024] yes=5,no=6,missing=6
		5:[f2<102.182549] yes=11,no=12,missing=12
			11:leaf=-0.437601775
			12:leaf=0.0660928711
		6:[f2<48.3776207] yes=13,no=14,missing=14
			13:leaf=-0.0967679694
			14:leaf=0.0672451034
booster[10]:
0:[f6<0.306916893] yes=1,no=2,missing=2
	1:[f2<91.8872223] yes=3,no=4,missing=4
		3:[f4<0.538196921] yes=7,no=8,missing=8
			7:leaf=-0.202779859
			8:leaf=-0.0341977589
		4:[f2<135.304077] yes=9,no=10,missing=10
			9:leaf=0.0948215798
			10:leaf=-0.397194058
	2:[f2<68.6814041] yes=5,no=6,missing=6
		5:[f6<0.47009325] yes=11,no=12,missing=12
			11:leaf=-0.131972104
			12:leaf=0.0705867335
		6:[f2<111.8405] yes=13,no=14,missing=14
			13:leaf=0.181985095
			14:leaf=-0.551368296
booster[11]:
0:[f1<15.1012011] yes=1,no=2,missing=2
	1:[f0<697.766296] yes=3,no=4,missing=4
		3:[f5<418.059235] yes=7,no=8,missing=8
			7:leaf=-0.330341369
			8:leaf=-0.00047992816
		4:[f1<10.5272741] yes=9,no=10,missing=10
			9:leaf=1.36676061
			10:leaf=-0.440647304
	2:[f6<0.0951756462] yes=5,no=6,missing=6
		5:[f2<102.182549] yes=11,no=12,missing=12
			11:leaf=-0.231345236
			12:leaf=0.104058869
		6:[f2<81.3652573] yes=13,no=14,missing=14
			13:leaf=-0.0128268301
			14:leaf=0.103682652
booster[12]:
0:[f6<0.379723519] yes=1,no=2,missing=2
	1:[f2<80.0824432] yes=3,no=4,missing=4
		3:[f4<0.538196921] yes=7,no=8,missing=8
			7:leaf=-0.205394164
			8:leaf=0.0137167256
		4:[f6<0.142941192] yes=9,no=10,missing=10
			9:leaf=-0.051452633
			10:leaf=0.113215737
	2:[f2<61.3401833] yes=5,no=6,missing=6
		5:[f1<109.921883] yes=11,no=12,missing=12
			11:leaf=0.0232512392
			12:leaf=-0.183152884
		6:[f3<244.363892] yes=13,no=14,missing=14
			13:leaf=0.1937273
			14:leaf=-0.111106187
booster[13]:
0:[f1<15.1012011] yes=1,no=2,missing=2
	1:[f5<418.059235] yes=3,no=4,missing=4
		3:[f0<697.766296] yes=7,no=8,missing=8
			7:leaf=-0.314916819
			8:leaf=0.0551652797
		4:[f5<464.195801] yes=9,no=10,missing=10
			9:leaf=0.348921895
			10:leaf=-0.411982536
	2:[f4<0.395368367] yes=5,no=6,missing=6
		5:[f6<0.635453522] yes=11,no=12,missing=12
			11:leaf=-0.097070463
			12:leaf=0.0827604681
		6:[f0<401.667297] yes=13,no=14,missing=14
			13:leaf=0.0440964773
			14:leaf=-0.129098162
booster[14]:
0:[f3<267.001709] yes=1,no=2,missing=2
	1:[f6<0.47009325] yes=3,no=4,missing=4
		3:[f2<82.7463989] yes=7,no=8,missing=8
			7:leaf=-0.0629149973
			8:leaf=0.0514156856
		4:[f2<51.7793961] yes=9,no=10,missing=10
			9:leaf=-0.0293169785
			10:leaf=0.157225221
	2:[f0<600.332947] yes=5,no=6,missing=6
		5:[f2<124.973129] yes=11,no=12,missing=12
			11:leaf=-0.121567719
			12:leaf=-0.490987569
		6:[f6<0.180815876] yes=13,no=14,missing=14
			13:leaf=-0.4851515
			14:leaf=-0.838597476
booster[15]:
0:[f6<0.122970082] yes=1,no=2,missing=2
	1:[f2<102.182549] yes=3,no=4,missing=4
		3:[f5<60.3739929] yes=7,no=8,missing=8
			7:leaf=-0.068437621
			8:leaf=-0.337306261
		4:[f4<0.713295937] yes=9,no=10,missing=10
			9:leaf=0.179303169
			10:leaf=-0.0839401931
	2:[f5<91.1538544] yes=5,no=6,missing=6
		5:[f6<0.306916893] yes=11,no=12,missing=12
			11:leaf=0.103293084
			12:leaf=0.393619955
		6:[f6<0.250429988] yes=13,no=14,missing=14
			13:leaf=-0.0962399021
			14:leaf=0.0188964121
booster[16]:
0:[f2<124.973129] yes=1,no=2,missing=2
	1:[f4<0.510381758] yes=3,no=4,missing=4
		3:[f6<0.376286298] yes=7,no=8,missing=8
			7:leaf=-0.0818462223
			8:leaf=0.0177978743
		4:[f3<202.683807] yes=9,no=10,missing=10
			9:leaf=0.0741512328
			10:leaf=-0.0519488752
	2:[f3<187.36412] yes=5,no=6,missing=6
		5:[f6<0.151306778] yes=11,no=12,missing=12
			11:leaf=-0.0903003886
			12:leaf=-1.51800191
		6:[f2<135.304077] yes=13,no=14,missing=14
			13:leaf=-0.642660737
			14:leaf=-0.323485434
booster[17]:
0:[f6<0.0447899401] yes=1,no=2,missing=2
	1:[f2<107.727898] yes=3,no=4,missing=4
		3:[f2<91.4473877] yes=7,no=8,missing=8
			7:leaf=-0.345325232
			8:leaf=-0.192328289
		4:[f0<490.736938] yes=9,no=10,missing=10
			9:leaf=0.0816510022
			10:leaf=-0.905443966
	2:[f5<45.3612213] yes=5,no=6,missing=6
		5:[f1<27.3482647] yes=11,no=12,missing=12
			11:leaf=-0.266075075
			12:leaf=0.146328047
		6:[f6<0.0975496024] yes=13,no=14,missing=14
			13:leaf=-0.192795604
			14:leaf=0.0056134765
booster[18]:
0:[f1<15.1012011] yes=1,no=2,missing=2
	1:[f5<418.059235] yes=3,no=4,missing=4
		3:[f0<697.766296] yes=7,no=8,missing=8
			7:leaf=-0.293176055
			8:leaf=0.162218392
		4:[f6<0.718503416] yes=9,no=10,missing=10
			9:leaf=0.291167587
			10:leaf=-0.395907342
	2:[f4<0.365430206] yes=5,no=6,missing=6
		5:[f3<170.678085] yes=11,no=12,missing=12
			11:leaf=-0.107187279
			12:leaf=0.0115267849
		6:[f1<129.566971] yes=13,no=14,missing=14
			13:leaf=0.000219319671
			14:leaf=0.0879701972
booster[19]:
0:[f6<0.0760635957] yes=1,no=2,missing=2
	1:[f2<104.672981] yes=3,no=4,missing=4
		3:[f3<127.532509] yes=7,no=8,missing=8
			7:leaf=-0.0908463672
			8:leaf=-0.302197784
		4:[f2<135.304077] yes=9,no=10,missing=10
			9:leaf=0.0623646341
			10:leaf=-0.357712239
	2:[f5<51.9120522] yes=5,no=6,missing=6
		5:[f0<399.942078] yes=11,no=12,missing=12
			11:leaf=0.178242058
			12:leaf=-0.143589914
		6:[f6<0.167493924] yes=13,no=14,missing=14
			13:leaf=-0.0746787116
			14:leaf=0.0123208687
booster[20]:
0:[f2<124.973129] yes=1,no=2,missing=2
	1:[f2<98.9412766] yes=3,no=4,missing=4
		3:[f6<0.172942862] yes=7,no=8,missing=8
			7:leaf=-0.0833882168
			8:leaf=0.0113692228
		4:[f4<0.699550271] yes=9,no=10,missing=10
			9:leaf=0.133684471
			10:leaf=-0.0511316992
	2:[f0<206.562073] yes=5,no=6,missing=6
		5:[f2<135.304077] yes=11,no=12,missing=12
			11:leaf=-1.27025914
			12:leaf=-0.331997871
		6:[f6<0.151306778] yes=13,no=14,missing=14
			13:leaf=-0.111041099
			14:leaf=-0.35589087
booster[21]:
0:[f4<0.502809823] yes=1,no=2,missing=2
	1:[f2<78.0037537] yes=3,no=4,missing=4
		3:[f6<0.45588848] yes=7,no=8,missing=8
			7:leaf=-0.133124277
			8:leaf=0.011478004
		4:[f6<0.133397356] yes=9,no=10,missing=10
			9:leaf=-0.15506573
			10:leaf=0.111639105
	2:[f3<214.824402] yes=5,no=6,missing=6
		5:[f6<0.301139921] yes=11,no=12,missing=12
			11:leaf=0.014717631
			12:leaf=0.145725608
		6:[f1<94.8475418] yes=13,no=14,missing=14
			13:leaf=-0.0412001163
			14:leaf=-0.287632316
booster[22]:
0:[f2<48.1095886] yes=1,no=2,missing=2
	1:[f4<0.287937015] yes=3,no=4,missing=4
		3:[f2<31.3403797] yes=7,no=8,missing=8
			7:leaf=-0.0535015352
			8:leaf=-0.325023383
		4:[f0<314.099762] yes=9,no=10,missing=10
			9:leaf=-0.0704629347
			10:leaf=0.150568932
	2:[f6<0.587076604] yes=5,no=6,missing=6
		5:[f5<261.271362] yes=11,no=12,missing=12
			11:leaf=0.0123583311
			12:leaf=-0.0912446603
		6:[f0<244.484619] yes=13,no=14,missing=14
			13:leaf=0.186710119
			14:leaf=-0.00716900779
booster[23]:
0:[f6<0.783821285] yes=1,no=2,missing=2
	1:[f2<62.4217644] yes=3,no=4,missing=4
		3:[f1<68.5815964] yes=7,no=8,missing=8
			7:leaf=-0.000193328378
			8:leaf=-0.146089464
		4:[f6<0.34322226] yes=9,no=10,missing=10
			9:leaf=-0.00990023743
			10:leaf=0.0825581476
	2:[f3<145.53244] yes=5,no=6,missing=6
		5:[f6<0.849207103] yes=11,no=12,missing=12
			11:leaf=-0.346993417
			12:leaf=1.18687379
		6:[f2<36.3907127] yes=13,no=14,missing=14
			13:leaf=-0.172684506
			14:leaf=0.136213854
booster[24]:
0:[f3<260.263428] yes=1,no=2,missing=2
	1:[f4<0.846340835] yes=3,no=4,missing=4
		3:[f2<84.2551498] yes=7,no=8,missing=8
			7:leaf=-0.00689356588
			8:leaf=0.0554525591
		4:[f1<71.8924103] yes=9,no=10,missing=10
			9:leaf=-0.0957098231
			10:leaf=-0.474052817
	2:[f0<600.332947] yes=5,no=6,missing=6
		5:[f1<18.2965221] yes=11,no=12,missing=12
			11:leaf=-0.391025901
			12:leaf=-0.063657403
		6:[f6<0.184851468] yes=13,no=14,missing=14
			13:leaf=-0.408991337
			14:leaf=-0.664632797
booster[25]:
0:[f6<0.0447899401] yes=1,no=2,missing=2
	1:[f2<91.4473877] yes=3,no=4,missing=4
		3:[f2<84.2551498] yes=7,no=8,missing=8
			7:leaf=-0.312332034
			8:leaf=-0.349076062
		4:[f4<0.495741427] yes=9,no=10,missing=10
			9:leaf=-0.226625815
			10:leaf=0.00120283011
	2:[f3<103.420471] yes=5,no=6,missing=6
		5:[f5<128.821609] yes=11,no=12,missing=12
			11:leaf=0.071389176
			12:leaf=0.976309359
		6:[f4<0.529158652] yes=13,no=14,missing=14
			13:leaf=-0.0189554319
			14:leaf=0.0228655729
booster[26]:
0:[f6<0.625423431] yes=1,no=2,missing=2
	1:[f5<261.271362] yes=3,no=4,missing=4
		3:[f6<0.271185368] yes=7,no=8,missing=8
			7:leaf=-0.0250559282
			8:leaf=0.0417270474
		4:[f1<195.493652] yes=9,no=10,missing=10
			9:leaf=-0.0988231078
			10:leaf=0.198150903
	2:[f5<240.656555] yes=5,no=6,missing=6
		5:[f2<61.7584457] yes=11,no=12,missing=12
			11:leaf=0.555109203
			12:leaf=-0.816815078
		6:[f3<174.426483] yes=13,no=14,missing=14
			13:leaf=-0.127196103
			14:leaf=0.0636602417
booster[27]:
0:[f3<267.001709] yes=1,no=2,missing=2
	1:[f6<0.578787744] yes=3,no=4,missing=4
		3:[f2<78.8709641] yes=7,no=8,missing=8
			7:leaf=-0.0314716883
			8:leaf=0.0296319593
		4:[f4<0.332898378] yes=9,no=10,missing=10
			9:leaf=-0.0307892617
			10:leaf=0.115902156
	2:[f2<40.009922] yes=5,no=6,missing=6
		5:[f1<16.8695812] yes=11,no=12,missing=12
			11:leaf=-0.336366177
			12:leaf=-0.508406639
		6:[f5<153.921524] yes=13,no=14,missing=14
			13:leaf=-0.567371666
			14:leaf=-0.0595123023
booster[28]:
0:[f1<15.1012011] yes=1,no=2,missing=2
	1:[f3<188.496246] yes=3,no=4,missing=4
		3:leaf=-0.314208925
		4:[f5<51.9120522] yes=7,no=8,missing=8
			7:leaf=0.867340028
			8:leaf=-0.111181661
	2:[f4<1.01786971] yes=5,no=6,missing=6
		5:[f0<99.114769] yes=9,no=10,missing=10
			9:leaf=0.368560702
			10:leaf=0.00125720829
		6:[f2<86.2352524] yes=11,no=12,missing=12
			11:leaf=-0.46656388
			12:leaf=-0.869862497
booster[29]:
0:[f2<135.304077] yes=1,no=2,missing=2
	1:[f2<102.182549] yes=3,no=4,missing=4
		3:[f6<0.186915815] yes=7,no=8,missing=8
			7:leaf=-0.0538878255
			8:leaf=0.00973819289
		4:[f6<0.359254539] yes=9,no=10,missing=10
			9:leaf=0.0752870739
			10:leaf=-0.279576451
	2:[f6<1.07412183] yes=5,no=6,missing=6
		5:leaf=-0.336749732
		6:[f5<387.52655] yes=11,no=12,missing=12
			11:leaf=0.524249375
			12:leaf=-0.398959517
booster[30]:
0:[f2<48.1095886] yes=1,no=2,missing=2
	1:[f4<0.287937015] yes=3,no=4,missing=4
		3:[f1<66.6046066] yes=7,no=8,missing=8
			7:leaf=-0.0801630616
			8:leaf=-0.3338615
		4:[f0<314.099762] yes=9,no=10,missing=10
			9:leaf=-0.0565951504
			10:leaf=0.117289998
	2:[f3<70.8286743] yes=5,no=6,missing=6
		5:[f5<36.6083679] yes=11,no=12,missing=12
			11:leaf=-0.357758731
			12:leaf=3.74520802
		6:[f6<0.447053701] yes=13,no=14,missing=14
			13:leaf=-0.00734917494
			14:leaf=0.0462440029
booster[31]:
0:[f3<79.4797516] yes=1,no=2,missing=2
	1:[f0<236.421509] yes=3,no=4,missing=4
		3:[f0<235.361816] yes=7,no=8,missing=8
			7:leaf=-0.15352802
			8:leaf=0.623743355
		4:[f6<0.390568405] yes=9,no=10,missing=10
			9:leaf=-0.333475083
			10:leaf=-0.561894238
	2:[f3<96.6185532] yes=5,no=6,missing=6
		5:[f0<697.766296] yes=11,no=12,missing=12
			11:leaf=0.139233604
			12:leaf=5.42933083
		6:[f5<106.613007] yes=13,no=14,missing=14
			13:leaf=0.0287249964
			14:leaf=-0.0141894547
booster[32]:
0:[f6<0.783821285] yes=1,no=2,missing=2
	1:[f2<62.4217644] yes=3,no=4,missing=4
		3:[f1<74.0147476] yes=7,no=8,missing=8
			7:leaf=-0.000123293867
			8:leaf=-0.126456931
		4:[f6<0.301139921] yes=9,no=10,missing=10
			9:leaf=-0.0152579881
			10:leaf=0.0539089069
	2:[f0<451.53186] yes=5,no=6,missing=6
		5:[f1<175.401596] yes=11,no=12,missing=12
			11:leaf=0.103081979
			12:leaf=-0.606467783
		6:[f2<87.8991699] yes=13,no=14,missing=14
			13:leaf=-0.704872549
			14:leaf=0.143223092
booster[33]:
0:[f3<232.108749] yes=1,no=2,missing=2
	1:[f4<0.529158652] yes=3,no=4,missing=4
		3:[f3<138.969437] yes=7,no=8,missing=8
			7:leaf=-0.0721506253
			8:leaf=0.00937012676
		4:[f6<0.268445313] yes=9,no=10,missing=10
			9:leaf=0.00576727279
			10:leaf=0.0843594074
	2:[f0<243.475403] yes=5,no=6,missing=6
		5:[f2<82.0245209] yes=11,no=12,missing=12
			11:leaf=0.0943864733
			12:leaf=-0.245026037
		6:[f0<246.436539] yes=13,no=14,missing=14
			13:leaf=-0.845745265
			14:leaf=-0.0930835083
booster[34]:
0:[f3<190.940231] yes=1,no=2,missing=2
	1:[f0<379.646851] yes=3,no=4,missing=4
		3:[f2<87.0674133] yes=7,no=8,missing=8
			7:leaf=-0.0340896286
			8:leaf=0.0729134455
		4:[f2<85.4342499] yes=9,no=10,missing=10
			9:leaf=0.196447358
			10:leaf=-0.0263880379
	2:[f0<664.121033] yes=5,no=6,missing=6
		5:[f1<157.576599] yes=11,no=12,missing=12
			11:leaf=-0.035331443
			12:leaf=0.11417383
		6:[f1<134.719666] yes=13,no=14,missing=14
			13:leaf=-0.561898649
			14:leaf=-0.0664985552
booster[35]:
0:[f6<0.0530777276] yes=1,no=2,missing=2
	1:[f2<24.3505249] yes=3,no=4,missing=4
		3:[f5<94.2929688] yes=7,no=8,missing=8
			7:leaf=-0.276559621
			8:leaf=15.60357
		4:[f3<102.867233] yes=9,no=10,missing=10
			9:leaf=-0.356520414
			10:leaf=-0.0637191236
	2:[f5<13.4385986] yes=5,no=6,missing=6
		5:[f4<0.49104324] yes=11,no=12,missing=12
			11:leaf=-0.413561106
			12:leaf=0.423471123
		6:[f3<83.217453] yes=13,no=14,missing=14
			13:leaf=-0.201543376
			14:leaf=0.00302883796
booster[36]:
0:[f2<22.2866077] yes=1,no=2,missing=2
	1:[f6<0.0530777276] yes=3,no=4,missing=4
		3:[f5<43.2006302] yes=7,no=8,missing=8
			7:leaf=-0.25336355
			8:leaf=-10.9669981
		4:[f6<0.442378402] yes=9,no=10,missing=10
			9:leaf=-0.311771631
			10:leaf=-0.381525546
	2:[f2<23.0135555] yes=5,no=6,missing=6
		5:[f1<25.7595291] yes=11,no=12,missing=12
			11:leaf=-0.361147374
			12:leaf=1.06107533
		6:[f0<99.114769] yes=13,no=14,missing=14
			13:leaf=0.370834142
			14:leaf=-0.00183142582
booster[37]:
0:[f6<0.45588848] yes=1,no=2,missing=2
	1:[f2<82.7463989] yes=3,no=4,missing=4
		3:[f5<196.712723] yes=7,no=8,missing=8
			7:leaf=-0.00717862975
			8:leaf=-0.123374209
		4:[f6<0.221357048] yes=9,no=10,missing=10
			9:leaf=-0.0146249533
			10:leaf=0.114024982
	2:[f5<202.134232] yes=5,no=6,missing=6
		5:[f3<85.370903] yes=11,no=12,missing=12
			11:leaf=-0.516031742
			12:leaf=0.273881853
		6:[f3<159.672241] yes=13,no=14,missing=14
			13:leaf=-0.148846135
			14:leaf=0.0277216174
booster[38]:
0:[f2<124.973129] yes=1,no=2,missing=2
	1:[f2<107.727898] yes=3,no=4,missing=4
		3:[f6<0.115875743] yes=7,no=8,missing=8
			7:leaf=-0.0693382546
			8:leaf=0.00565398997
		4:[f6<0.174886897] yes=9,no=10,missing=10
			9:leaf=0.126449078
			10:leaf=-0.131065786
	2:[f4<0.287937015] yes=5,no=6,missing=6
		5:[f5<93.2165527] yes=11,no=12,missing=12
			11:leaf=-0.554559767
			12:leaf=0.392396241
		6:[f0<429.795898] yes=13,no=14,missing=14
			13:leaf=-0.120671831
			14:leaf=-0.517124593
booster[39]:
0:[f1<15.1012011] yes=1,no=2,missing=2
	1:[f3<188.496246] yes=3,no=4,missing=4
		3:[f0<697.766296] yes=7,no=8,missing=8
			7:leaf=-0.321273267
			8:leaf=-0.602944255
		4:[f0<364.687897] yes=9,no=10,missing=10
			9:leaf=-0.325625509
			10:leaf=0.167595848
	2:[f5<91.1538544] yes=5,no=6,missing=6
		5:[f4<0.405857533] yes=11,no=12,missing=12
			11:leaf=-0.162704527
			12:leaf=0.0473730825
		6:[f6<0.260586679] yes=13,no=14,missing=14
			13:leaf=-0.0561060309
			14:leaf=0.00717839692
booster[40]:
0:[f4<1.01786971] yes=1,no=2,missing=2
	1:[f3<190.940231] yes=3,no=4,missing=4
		3:[f1<35.6862717] yes=7,no=8,missing=8
			7:leaf=0.0938595757
			8:leaf=-0.00234875036
		4:[f1<65.9583664] yes=9,no=10,missing=10
			9:leaf=-0.0584160127
			10:leaf=0.019808244
	2:[f1<24.2195511] yes=5,no=6,missing=6
		5:leaf=-0.352911979
		6:[f2<69.8026581] yes=11,no=12,missing=12
			11:leaf=-0.283898562
			12:leaf=-0.709739208
booster[41]:
0:[f6<0.0530777276] yes=1,no=2,missing=2
	1:[f2<84.6339645] yes=3,no=4,missing=4
		3:[f2<24.3505249] yes=7,no=8,missing=8
			7:leaf=-0.608890653
			8:leaf=-0.333493322
		4:[f2<85.4342499] yes=9,no=10,missing=10
			9:leaf=0.723738849
			10:leaf=-0.063396953
	2:[f5<45.3612213] yes=5,no=6,missing=6
		5:[f4<0.415136486] yes=11,no=12,missing=12
			11:leaf=-0.192582011
			12:leaf=0.109680369
		6:[f6<0.0890906975] yes=13,no=14,missing=14
			13:leaf=-0.165183038
			14:leaf=0.00140533224
booster[42]:
0:[f1<240.079437] yes=1,no=2,missing=2
	1:[f6<0.783821285] yes=3,no=4,missing=4
		3:[f4<0.327337116] yes=7,no=8,missing=8
			7:leaf=-0.0709087104
			8:leaf=0.000468068611
		4:[f5<600.832092] yes=9,no=10,missing=10
			9:leaf=0.0950058922
			10:leaf=-0.0819904655
	2:[f3<134.437927] yes=5,no=6,missing=6
		5:[f6<0.330761135] yes=11,no=12,missing=12
			11:leaf=-0.355310887
			12:leaf=0.186383739
		6:[f4<0.229897693] yes=13,no=14,missing=14
			13:leaf=-0.685804188
			14:leaf=0.218954042
booster[43]:
0:[f1<104.918922] yes=1,no=2,missing=2
	1:[f3<127.949989] yes=3,no=4,missing=4
		3:[f0<363.229401] yes=7,no=8,missing=8
			7:leaf=-0.00418547774
			8:leaf=0.217323065
		4:[f4<0.227636307] yes=9,no=10,missing=10
			9:leaf=0.40996936
			10:leaf=-0.0215582419
	2:[f3<145.054092] yes=5,no=6,missing=6
		5:[f5<90.0777893] yes=11,no=12,missing=12
			11:leaf=0.0228020381
			12:leaf=-0.124485001
		6:[f2<57.891777] yes=13,no=14,missing=14
			13:leaf=-0.142581359
			14:leaf=0.0793327391
booster[44]:
0:[f6<0.142941192] yes=1,no=2,missing=2
	1:[f2<53.4748459] yes=3,no=4,missing=4
		3:[f0<639.052917] yes=7,no=8,missing=8
			7:leaf=-0.329426527
			8:leaf=-0.632681549
		4:[f2<75.2869644] yes=9,no=10,missing=10
			9:leaf=0.175363973
			10:leaf=-0.0504995212
	2:[f5<117.333481] yes=5,no=6,missing=6
		5:[f2<117.224167] yes=11,no=12,missing=12
			11:leaf=0.06996122
			12:leaf=-0.368269503
		6:[f6<0.250429988] yes=13,no=14,missing=14
			13:leaf=-0.112021774
			14:leaf=0.00451058848
booster[45]:
0:[f6<0.390568405] yes=1,no=2,missing=2
	1:[f2<91.4473877] yes=3,no=4,missing=4
		3:[f0<382.634308] yes=7,no=8,missing=8
			7:leaf=-0.0498543717
			8:leaf=0.0606513061
		4:[f5<229.787994] yes=9,no=10,missing=10
			9:leaf=0.0152014298
			10:leaf=0.154510334
	2:[f5<217.623627] yes=5,no=6,missing=6
		5:[f2<43.8956375] yes=11,no=12,missing=12
			11:leaf=0.301865429
			12:leaf=0.0605333261
		6:[f1<157.576599] yes=13,no=14,missing=14
			13:leaf=-0.0101219388
			14:leaf=0.115467183
booster[46]:
0:[f2<26.6635132] yes=1,no=2,missing=2
	1:[f5<427.868622] yes=3,no=4,missing=4
		3:[f1<25.7595291] yes=7,no=8,missing=8
			7:leaf=-0.231952384
			8:leaf=0.216641322
		4:leaf=-0.427851111
	2:[f0<99.114769] yes=5,no=6,missing=6
		5:[f4<0.38242656] yes=9,no=10,missing=10
			9:leaf=2.92584753
			10:leaf=0.124662183
		6:[f6<0.511865139] yes=11,no=12,missing=12
			11:leaf=-0.00711502926
			12:leaf=0.0268864464
booster[47]:
0:[f2<48.1095886] yes=1,no=2,missing=2
	1:[f0<261.911011] yes=3,no=4,missing=4
		3:[f4<0.598224223] yes=7,no=8,missing=8
			7:leaf=-0.114153147
			8:leaf=0.231028348
		4:[f6<0.376286298] yes=9,no=10,missing=10
			9:leaf=-0.24270685
			10:leaf=0.0939591601
	2:[f3<232.108749] yes=5,no=6,missing=6
		5:[f6<0.578787744] yes=11,no=12,missing=12
			11:leaf=0.00233245525
			12:leaf=0.116865404
		6:[f4<0.331549346] yes=13,no=14,missing=14
			13:leaf=-0.362206638
			14:leaf=-0.0300516989
booster[48]:
0:[f2<135.304077] yes=1,no=2,missing=2
	1:[f0<194.404358] yes=3,no=4,missing=4
		3:[f3<180.344711] yes=7,no=8,missing=8
			7:leaf=-0.0790303424
			8:leaf=0.0483107902
		4:[f3<180.344711] yes=9,no=10,missing=10
			9:leaf=0.0252331682
			10:leaf=-0.024419181
	2:[f6<1.07412183] yes=5,no=6,missing=6
		5:leaf=-0.325361967
		6:[f5<387.52655] yes=11,no=12,missing=12
			11:leaf=0.425065815
			12:leaf=-0.305133522
booster[49]:
0:[f6<0.0760635957] yes=1,no=2,missing=2
	1:[f3<189.695312] yes=3,no=4,missing=4
		3:[f5<33.0539856] yes=7,no=8,missing=8
			7:leaf=0.0106582912
			8:leaf=-0.201859757
		4:[f2<58.1247559] yes=9,no=10,missing=10
			9:leaf=4.91626453
			10:leaf=0.144637078
	2:[f5<51.1576233] yes=5,no=6,missing=6
		5:[f0<427.303284] yes=11,no=12,missing=12
			11:leaf=0.0973716751
			12:leaf=-0.29039073
		6:[f6<0.118668474] yes=13,no=14,missing=14
			13:leaf=-0.0755233318
			14:leaf=0.00333523913
