booster[0]:
0:[f2<73.2229309] yes=1,no=2,missing=2
	1:[f3<165.838242] yes=3,no=4,missing=4
		3:[f4<0.433818996] yes=7,no=8,missing=8
			7:leaf=-0.542830706
			8:leaf=-0.361549556
		4:[f1<16.8109436] yes=9,no=10,missing=10
			9:leaf=-0.489764154
			10:leaf=0.0985576436
	2:[f3<119.764458] yes=5,no=6,missing=6
		5:[f2<96.1903152] yes=11,no=12,missing=12
			11:leaf=-0.430301577
			12:leaf=0.352383316
		6:[f4<0.40224424] yes=13,no=14,missing=14
			13:leaf=0.0497914255
			14:leaf=0.384653658
booster[1]:
0:[f2<84.1867218] yes=1,no=2,missing=2
	1:[f3<152.073746] yes=3,no=4,missing=4
		3:[f6<0.173023] yes=7,no=8,missing=8
			7:leaf=-0.461582303
			8:leaf=-0.291639268
		4:[f2<63.9890556] yes=9,no=10,missing=10
			9:leaf=-0.0893038511
			10:leaf=0.209769771
	2:[f6<0.149619326] yes=5,no=6,missing=6
		5:[f2<99.1085892] yes=11,no=12,missing=12
			11:leaf=-0.252860904
			12:leaf=0.347064734
		6:[f2<135.010574] yes=13,no=14,missing=14
			13:leaf=0.401143909
			14:leaf=-0.734842837
booster[2]:
0:[f2<68.8352966] yes=1,no=2,missing=2
	1:[f3<171.419464] yes=3,no=4,missing=4
		3:[f4<0.424942434] yes=7,no=8,missing=8
			7:leaf=-0.365427494
			8:leaf=-0.233829856
		4:[f6<0.452124476] yes=9,no=10,missing=10
			9:leaf=-0.147264853
			10:leaf=0.112353116
	2:[f6<0.221191257] yes=5,no=6,missing=6
		5:[f2<94.3289413] yes=11,no=12,missing=12
			11:leaf=-0.244945988
			12:leaf=0.253991395
		6:[f2<117.415871] yes=13,no=14,missing=14
			13:leaf=0.296991765
			14:leaf=-0.423747301
booster[3]:
0:[f4<0.437441766] yes=1,no=2,missing=2
	1:[f3<182.262634] yes=3,no=4,missing=4
		3:[f2<99.1085892] yes=7,no=8,missing=8
			7:leaf=-0.281577796
			8:leaf=0.248689204
		4:[f1<73.1215591] yes=9,no=10,missing=10
			9:leaf=-0.15017347
			10:leaf=0.124778613
	2:[f1<28.7888699] yes=5,no=6,missing=6
		5:[f1<15.0632858] yes=11,no=12,missing=12
			11:leaf=-0.426205397
			12:leaf=-0.147364169
		6:[f2<135.010574] yes=13,no=14,missing=14
			13:leaf=0.175230652
			14:leaf=-0.733663857
booster[4]:
0:[f3<127.049637] yes=1,no=2,missing=2
	1:[f2<93.2731094] yes=3,no=4,missing=4
		3:[f6<0.350368083] yes=7,no=8,missing=8
			7:leaf=-0.309800088
			8:leaf=0.0678672493
		4:[f4<0.399611056] yes=9,no=10,missing=10
			9:leaf=-0.445305943
			10:leaf=0.215585962
	2:[f2<78.7916565] yes=5,no=6,missing=6
		5:[f6<0.340853065] yes=11,no=12,missing=12
			11:leaf=-0.206948683
			12:leaf=0.0572824664
		6:[f6<0.163875371] yes=13,no=14,missing=14
			13:leaf=0.042614352
			14:leaf=0.255391449
booster[5]:
0:[f4<0.399611056] yes=1,no=2,missing=2
	1:[f3<193.593933] yes=3,no=4,missing=4
		3:[f1<230.88884] yes=7,no=8,missing=8
			7:leaf=-0.252579659
			8:leaf=0.0710180923
		4:[f1<116.652939] yes=9,no=10,missing=10
			9:leaf=-0.0272391271
			10:leaf=0.167361304
	2:[f1<21.1738472] yes=5,no=6,missing=6
		5:[f6<0.171106488] yes=11,no=12,missing=12
			11:leaf=-0.370220065
			12:leaf=-0.152214095
		6:[f3<127.049637] yes=13,no=14,missing=14
			13:leaf=-0.0862396657
			14:leaf=0.132447436
booster[6]:
0:[f4<0.464571953] yes=1,no=2,missing=2
	1:[f6<0.380777627] yes=3,no=4,missing=4
		3:[f2<97.9254761] yes=7,no=8,missing=8
			7:leaf=-0.246066317
			8:leaf=0.190365896
		4:[f2<61.2447929] yes=9,no=10,missing=10
			9:leaf=-0.089082174
			10:leaf=0.230382293
	2:[f1<63.2468071] yes=5,no=6,missing=6
		5:[f6<0.167493924] yes=11,no=12,missing=12
			11:leaf=-0.17643936
			12:leaf=0.0376945734
		6:[f2<135.010574] yes=13,no=14,missing=14
			13:leaf=0.178741723
			14:leaf=-0.539379835
booster[7]:
0:[f2<84.1867218] yes=1,no=2,missing=2
	1:[f6<0.273731858] yes=3,no=4,missing=4
		3:[f4<0.537793934] yes=7,no=8,missing=8
			7:leaf=-0.288447559
			8:leaf=-0.134842217
		4:[f2<61.2447929] yes=9,no=10,missing=10
			9:leaf=-0.0605598502
			10:leaf=0.134506658
	2:[f6<0.122970082] yes=5,no=6,missing=6
		5:[f2<100.530655] yes=11,no=12,missing=12
			11:leaf=-0.178442091
			12:leaf=0.150566474
		6:[f3<260.613922] yes=13,no=14,missing=14
			13:leaf=0.207991675
			14:leaf=-0.21191895
booster[8]:
0:[f2<86.9939804] yes=1,no=2,missing=2
	1:[f6<0.173023] yes=3,no=4,missing=4
		3:[f1<54.4525871] yes=7,no=8,missing=8
			7:leaf=-0.197905689
			8:leaf=-0.305890441
		4:[f4<0.515237272] yes=9,no=10,missing=10
			9:leaf=-0.0458214171
			10:leaf=0.105001792
	2:[f2<135.010574] yes=5,no=6,missing=6
		5:[f0<411.065857] yes=11,no=12,missing=12
			11:leaf=0.146859914
			12:leaf=-0.0733030215
		6:[f3<155.264084] yes=13,no=14,missing=14
			13:leaf=0.141052634
			14:leaf=-0.512251675
booster[9]:
0:[f2<48.2582893] yes=1,no=2,missing=2
	1:[f6<0.637543321] yes=3,no=4,missing=4
		3:[f1<50.1230164] yes=7,no=8,missing=8
			7:leaf=-0.156696498
			8:leaf=-0.337038934
		4:[f5<245.569031] yes=9,no=10,missing=10
			9:leaf=1.09000814
			10:leaf=-0.0604701675
	2:[f6<0.387917131] yes=5,no=6,missing=6
		5:[f2<80.3376923] yes=11,no=12,missing=12
			11:leaf=-0.121212885
			12:leaf=0.0572168753
		6:[f2<104.862221] yes=13,no=14,missing=14
			13:leaf=0.117663302
			14:leaf=-0.521778703
booster[10]:
0:[f4<0.391475528] yes=1,no=2,missing=2
	1:[f6<0.580788255] yes=3,no=4,missing=4
		3:[f2<78.7916565] yes=7,no=8,missing=8
			7:leaf=-0.201230645
			8:leaf=-0.0381007716
		4:[f2<48.8229103] yes=9,no=10,missing=10
			9:leaf=-0.0695139691
			10:leaf=0.217772946
	2:[f1<15.0632858] yes=5,no=6,missing=6
		5:[f0<697.766296] yes=11,no=12,missing=12
			11:leaf=-0.337447733
			12:leaf=0.144012988
		6:[f6<0.116006345] yes=13,no=14,missing=14
			13:leaf=-0.0651162043
			14:leaf=0.0657739565
booster[11]:
0:[f4<0.50257659] yes=1,no=2,missing=2
	1:[f6<0.216922835] yes=3,no=4,missing=4
		3:[f2<100.530655] yes=7,no=8,missing=8
			7:leaf=-0.236624226
			8:leaf=0.169689476
		4:[f2<77.9184418] yes=9,no=10,missing=10
			9:leaf=-0.0410238653
			10:leaf=0.189432934
	2:[f1<93.1937866] yes=5,no=6,missing=6
		5:[f1<19.4068623] yes=11,no=12,missing=12
			11:leaf=-0.194419265
			12:leaf=0.0201417096
		6:[f2<125.074158] yes=13,no=14,missing=14
			13:leaf=0.178389415
			14:leaf=-0.249302223
booster[12]:
0:[f6<0.0793843046] yes=1,no=2,missing=2
	1:[f2<104.862221] yes=3,no=4,missing=4
		3:[f6<0.0447421446] yes=7,no=8,missing=8
			7:leaf=-0.327290237
			8:leaf=-0.142021969
		4:[f3<169.231949] yes=9,no=10,missing=10
			9:leaf=0.167248994
			10:leaf=-0.246380895
	2:[f2<66.8482361] yes=5,no=6,missing=6
		5:[f6<0.580788255] yes=11,no=12,missing=12
			11:leaf=-0.0906893462
			12:leaf=0.0745648295
		6:[f6<0.310153842] yes=13,no=14,missing=14
			13:leaf=0.00605003862
			14:leaf=0.133559376
booster[13]:
0:[f4<0.322548687] yes=1,no=2,missing=2
	1:[f1<98.4655914] yes=3,no=4,missing=4
		3:[f1<87.993721] yes=7,no=8,missing=8
			7:leaf=-0.176738918
			8:leaf=-0.452004522
		4:[f3<171.419464] yes=9,no=10,missing=10
			9:leaf=-0.141484037
			10:leaf=0.0685474128
	2:[f3<267.328857] yes=5,no=6,missing=6
		5:[f6<0.456512064] yes=11,no=12,missing=12
			11:leaf=-0.00149404036
			12:leaf=0.117384166
		6:[f0<238.59433] yes=13,no=14,missing=14
			13:leaf=-0.0072764582
			14:leaf=-0.235114023
booster[14]:
0:[f4<0.528855741] yes=1,no=2,missing=2
	1:[f6<0.380777627] yes=3,no=4,missing=4
		3:[f2<99.1085892] yes=7,no=8,missing=8
			7:leaf=-0.128153786
			8:leaf=0.139857471
		4:[f3<111.646721] yes=9,no=10,missing=10
			9:leaf=0.464848965
			10:leaf=0.0139355771
	2:[f4<0.835486054] yes=5,no=6,missing=6
		5:[f3<236.131836] yes=11,no=12,missing=12
			11:leaf=0.087409772
			12:leaf=-0.0963302106
		6:[f2<125.074158] yes=13,no=14,missing=14
			13:leaf=-0.0943764374
			14:leaf=-0.451160312
booster[15]:
0:[f1<15.0632858] yes=1,no=2,missing=2
	1:[f5<410.795258] yes=3,no=4,missing=4
		3:[f0<697.766296] yes=7,no=8,missing=8
			7:leaf=-0.299526393
			8:leaf=0.16779156
		4:[f6<0.720245123] yes=9,no=10,missing=10
			9:leaf=0.515696645
			10:leaf=-0.381353199
	2:[f2<86.9939804] yes=5,no=6,missing=6
		5:[f6<0.273731858] yes=11,no=12,missing=12
			11:leaf=-0.0933081657
			12:leaf=0.0185283199
		6:[f3<210.395081] yes=13,no=14,missing=14
			13:leaf=0.0812191814
			14:leaf=-0.128866419
booster[16]:
0:[f6<0.0998772234] yes=1,no=2,missing=2
	1:[f2<102.297905] yes=3,no=4,missing=4
		3:[f1<65.8194427] yes=7,no=8,missing=8
			7:leaf=-0.0543458089
			8:leaf=-0.25386405
		4:[f2<135.010574] yes=9,no=10,missing=10
			9:leaf=0.104410462
			10:leaf=-0.369441539
	2:[f2<62.5008774] yes=5,no=6,missing=6
		5:[f6<0.761355519] yes=11,no=12,missing=12
			11:leaf=-0.0721072704
			12:leaf=0.10272669
		6:[f3<191.046204] yes=13,no=14,missing=14
			13:leaf=0.0689338073
			14:leaf=-0.0176364277
booster[17]:
0:[f4<0.322548687] yes=1,no=2,missing=2
	1:[f2<41.7583237] yes=3,no=4,missing=4
		3:[f1<51.3702354] yes=7,no=8,missing=8
			7:leaf=-0.106794983
			8:leaf=-0.344528973
		4:[f3<76.4980011] yes=9,no=10,missing=10
			9:leaf=0.752817094
			10:leaf=-0.0620164871
	2:[f6<0.186748475] yes=5,no=6,missing=6
		5:[f5<92.188736] yes=11,no=12,missing=12
			11:leaf=-0.00195985055
			12:leaf=-0.176211879
		6:[f2<79.0964127] yes=13,no=14,missing=14
			13:leaf=0.00667552557
			14:leaf=0.108752966
booster[18]:
0:[f2<125.074158] yes=1,no=2,missing=2
	1:[f2<102.297905] yes=3,no=4,missing=4
		3:[f6<0.173023] yes=7,no=8,missing=8
			7:leaf=-0.0852996036
			8:leaf=0.0156786963
		4:[f3<176.079529] yes=9,no=10,missing=10
			9:leaf=0.159411609
			10:leaf=-0.0233218409
	2:[f3<165.162872] yes=5,no=6,missing=6
		5:[f4<0.6796422] yes=11,no=12,missing=12
			11:leaf=0.165402606
			12:leaf=-0.335398376
		6:[f0<314.461212] yes=13,no=14,missing=14
			13:leaf=-0.518280327
			14:leaf=-0.214360833
booster[19]:
0:[f4<0.528855741] yes=1,no=2,missing=2
	1:[f6<0.380777627] yes=3,no=4,missing=4
		3:[f2<78.7916565] yes=7,no=8,missing=8
			7:leaf=-0.151866972
			8:leaf=0.0073700794
		4:[f2<57.1181526] yes=9,no=10,missing=10
			9:leaf=-0.0344397351
			10:leaf=0.080518797
	2:[f0<402.056427] yes=5,no=6,missing=6
		5:[f0<383.00705] yes=11,no=12,missing=12
			11:leaf=0.0370603614
			12:leaf=0.256370544
		6:[f6<0.216922835] yes=13,no=14,missing=14
			13:leaf=-0.0406269133
			14:leaf=-0.297645956
booster[20]:
0:[f6<0.0447421446] yes=1,no=2,missing=2
	1:[f2<90.5415649] yes=3,no=4,missing=4
		3:[f3<119.764458] yes=7,no=8,missing=8
			7:leaf=-0.322976172
			8:leaf=-0.382452816
		4:[f1<24.6150894] yes=9,no=10,missing=10
			9:leaf=0.701171935
			10:leaf=-0.0815292522
	2:[f5<5.28494072] yes=5,no=6,missing=6
		5:[f1<70.4936447] yes=11,no=12,missing=12
			11:leaf=1.38241673
			12:leaf=-0.262254655
		6:[f5<45.2516022] yes=13,no=14,missing=14
			13:leaf=0.0974635482
			14:leaf=-0.00345673133
booster[21]:
0:[f6<0.0793843046] yes=1,no=2,missing=2
	1:[f5<32.985836] yes=3,no=4,missing=4
		3:[f3<109.282326] yes=7,no=8,missing=8
			7:leaf=-0.177252442
			8:leaf=0.0801141113
		4:[f4<0.215906277] yes=9,no=10,missing=10
			9:leaf=2.09180403
			10:leaf=-0.151535213
	2:[f5<51.8343544] yes=5,no=6,missing=6
		5:[f4<0.847260058] yes=11,no=12,missing=12
			11:leaf=0.161123067
			12:leaf=-0.308865458
		6:[f6<0.114601277] yes=13,no=14,missing=14
			13:leaf=-0.156123668
			14:leaf=0.00655536959
booster[22]:
0:[f1<15.0632858] yes=1,no=2,missing=2
	1:[f0<458.632599] yes=3,no=4,missing=4
		3:[f5<410.795258] yes=7,no=8,missing=8
			7:leaf=-0.319836259
			8:leaf=0.000543316884
		4:[f0<461.930542] yes=9,no=10,missing=10
			9:leaf=1.66378331
			10:leaf=-0.0746396333
	2:[f4<0.528855741] yes=5,no=6,missing=6
		5:[f3<140.734894] yes=11,no=12,missing=12
			11:leaf=-0.0790649429
			12:leaf=0.00626373058
		6:[f4<0.793097436] yes=13,no=14,missing=14
			13:leaf=0.0450599827
			14:leaf=-0.0580777228
booster[23]:
0:[f2<125.074158] yes=1,no=2,missing=2
	1:[f2<91.464035] yes=3,no=4,missing=4
		3:[f6<0.273731858] yes=7,no=8,missing=8
			7:leaf=-0.0609270781
			8:leaf=0.0131446002
		4:[f6<0.426521569] yes=9,no=10,missing=10
			9:leaf=0.0613969453
			10:leaf=-0.368870169
	2:[f3<254.719238] yes=5,no=6,missing=6
		5:[f0<430.260071] yes=11,no=12,missing=12
			11:leaf=-0.0670995861
			12:leaf=-0.415975302
		6:[f2<135.010574] yes=13,no=14,missing=14
			13:leaf=-0.615453124
			14:leaf=-0.343660474
booster[24]:
0:[f2<70.4038086] yes=1,no=2,missing=2
	1:[f6<0.627018869] yes=3,no=4,missing=4
		3:[f1<71.1030579] yes=7,no=8,missing=8
			7:leaf=0.00960461237
			8:leaf=-0.134328246
		4:[f5<280.152191] yes=9,no=10,missing=10
			9:leaf=0.378050774
			10:leaf=0.0301540475
	2:[f6<0.310153842] yes=5,no=6,missing=6
		5:[f5<402.819183] yes=11,no=12,missing=12
			11:leaf=-0.00328506134
			12:leaf=-0.367629737
		6:[f3<189.823029] yes=13,no=14,missing=14
			13:leaf=0.185050681
			14:leaf=0.0166189112
booster[25]:
0:[f2<35.8643951] yes=1,no=2,missing=2
	1:[f5<418.797363] yes=3,no=4,missing=4
		3:[f6<1.07899392] yes=7,no=8,missing=8
			7:leaf=-0.0694959462
			8:leaf=1.633587
		4:[f2<30.7723694] yes=9,no=10,missing=10
			9:leaf=-0.18731077
			10:leaf=-0.463561505
	2:[f6<0.761355519] yes=5,no=6,missing=6
		5:[f5<354.426605] yes=11,no=12,missing=12
			11:leaf=0.00628410419
			12:leaf=-0.101712696
		6:[f1<26.1707916] yes=13,no=14,missing=14
			13:leaf=-0.328105569
			14:leaf=0.125344217
booster[26]:
0:[f6<0.0316024236] yes=1,no=2,missing=2
	1:[f5<9.31851864] yes=3,no=4,missing=4
		3:[f1<21.6436234] yes=7,no=8,missing=8
			7:leaf=1.4270364
			8:leaf=0.023842819
		4:[f2<104.862221] yes=9,no=10,missing=10
			9:leaf=-0.371111929
			10:leaf=-0.0502557158
	2:[f2<84.1867218] yes=5,no=6,missing=6
		5:[f6<0.470889926] yes=11,no=12,missing=12
			11:leaf=-0.0354959518
			12:leaf=0.0315963216
		6:[f6<0.221191257] yes=13,no=14,missing=14
			13:leaf=0.00333387894
			14:leaf=0.0949294195
booster[27]:
0:[f5<257.083069] yes=1,no=2,missing=2
	1:[f6<0.466155738] yes=3,no=4,missing=4
		3:[f3<69.0704193] yes=7,no=8,missing=8
			7:leaf=-0.315098464
			8:leaf=0.00470804097
		4:[f5<202.620224] yes=9,no=10,missing=10
			9:leaf=0.302810282
			10:leaf=0.0585952625
	2:[f3<174.454178] yes=5,no=6,missing=6
		5:[f2<56.4345398] yes=11,no=12,missing=12
			11:leaf=-0.252254844
			12:leaf=0.0529151186
		6:[f6<0.627018869] yes=13,no=14,missing=14
			13:leaf=-0.0575558543
			14:leaf=0.0431099012
booster[28]:
0:[f3<267.328857] yes=1,no=2,missing=2
	1:[f1<32.6968002] yes=3,no=4,missing=4
		3:[f5<218.151978] yes=7,no=8,missing=8
			7:leaf=0.0949568301
			8:leaf=-0.0838538557
		4:[f2<78.7916565] yes=9,no=10,missing=10
			9:leaf=-0.0236678366
			10:leaf=0.0238868725
	2:[f0<664.717773] yes=5,no=6,missing=6
		5:[f2<39.5517044] yes=11,no=12,missing=12
			11:leaf=-0.475438684
			12:leaf=-0.0530292876
		6:[f6<0.199237481] yes=13,no=14,missing=14
			13:leaf=-0.414512664
			14:leaf=-0.76217109
booster[29]:
0:[f4<0.884015143] yes=1,no=2,missing=2
	1:[f3<63.0946732] yes=3,no=4,missing=4
		3:[f6<0.373842627] yes=7,no=8,missing=8
			7:leaf=-0.305361778
			8:leaf=-0.41661796
		4:[f2<149.825378] yes=9,no=10,missing=10
			9:leaf=0.00523518305
			10:leaf=-0.371633738
	2:[f6<0.144706205] yes=5,no=6,missing=6
		5:[f0<414.929596] yes=11,no=12,missing=12
			11:leaf=-0.137753725
			12:leaf=-0.599283397
		6:[f1<61.319706] yes=13,no=14,missing=14
			13:leaf=0.0523290448
			14:leaf=-0.905429602
booster[30]:
0:[f1<15.0632858] yes=1,no=2,missing=2
	1:[f5<410.795258] yes=3,no=4,missing=4
		3:[f0<697.766296] yes=7,no=8,missing=8
			7:leaf=-0.270715863
			8:leaf=0.256890059
		4:[f5<465.207916] yes=9,no=10,missing=10
			9:leaf=0.533428609
			10:leaf=-0.340444326
	2:[f2<149.825378] yes=5,no=6,missing=6
		5:[f5<10.9127798] yes=11,no=12,missing=12
			11:leaf=0.166185543
			12:leaf=0.000676228839
		6:leaf=-0.346292198
booster[31]:
0:[f6<0.0285885297] yes=1,no=2,missing=2
	1:[f2<104.862221] yes=3,no=4,missing=4
		3:[f5<7.54030466] yes=7,no=8,missing=8
			7:leaf=0.115020782
			8:leaf=-0.45065251
		4:[f0<362.018097] yes=9,no=10,missing=10
			9:leaf=0.135716856
			10:leaf=-0.397522092
	2:[f4<0.240421623] yes=5,no=6,missing=6
		5:[f2<88.2737808] yes=11,no=12,missing=12
			11:leaf=-0.197127149
			12:leaf=0.34036392
		6:[f0<838.738892] yes=13,no=14,missing=14
			13:leaf=0.004525478
			14:leaf=-0.496889323
booster[32]:
0:[f6<0.122970082] yes=1,no=2,missing=2
	1:[f2<107.85302] yes=3,no=4,missing=4
		3:[f0<302.661926] yes=7,no=8,missing=8
			7:leaf=-0.163922459
			8:leaf=-0.00561825093
		4:[f4<0.721601665] yes=9,no=10,missing=10
			9:leaf=0.151164144
			10:leaf=-0.0698524714
	2:[f5<91.1710739] yes=5,no=6,missing=6
		5:[f4<0.405268401] yes=11,no=12,missing=12
			11:leaf=-0.120257907
			12:leaf=0.105646148
		6:[f6<0.243046179] yes=13,no=14,missing=14
			13:leaf=-0.0671840087
			14:leaf=0.00817223825
booster[33]:
0:[f2<125.074158] yes=1,no=2,missing=2
	1:[f2<62.5008774] yes=3,no=4,missing=4
		3:[f0<520.234802] yes=7,no=8,missing=8
			7:leaf=-0.0291709974
			8:leaf=0.438889265
		4:[f6<0.406582177] yes=9,no=10,missing=10
			9:leaf=0.000148477557
			10:leaf=0.0669096485
	2:[f6<0.271127582] yes=5,no=6,missing=6
		5:[f5<135.582306] yes=11,no=12,missing=12
			11:leaf=-0.12188334
			12:leaf=0.241119966
		6:[f3<260.613922] yes=13,no=14,missing=14
			13:leaf=-0.864207566
			14:leaf=-0.412478089
booster[34]:
0:[f3<267.328857] yes=1,no=2,missing=2
	1:[f6<0.565140486] yes=3,no=4,missing=4
		3:[f5<264.43045] yes=7,no=8,missing=8
			7:leaf=0.0057069012
			8:leaf=-0.0826960802
		4:[f2<56.4345398] yes=9,no=10,missing=10
			9:leaf=-0.00931576174
			10:leaf=0.178541064
	2:[f1<19.8277149] yes=5,no=6,missing=6
		5:[f2<71.0878983] yes=11,no=12,missing=12
			11:leaf=-0.429942816
			12:leaf=-0.0119690355
		6:[f6<0.228117928] yes=13,no=14,missing=14
			13:leaf=0.111228451
			14:leaf=-0.0715125129
booster[35]:
0:[f6<0.850581288] yes=1,no=2,missing=2
	1:[f3<232.198349] yes=3,no=4,missing=4
		3:[f1<53.2112122] yes=7,no=8,missing=8
			7:leaf=0.0396257415
			8:leaf=-0.0109233074
		4:[f2<67.2933655] yes=9,no=10,missing=10
			9:leaf=-0.158159554
			10:leaf=-0.0213023107
	2:[f4<0.737152338] yes=5,no=6,missing=6
		5:[f3<142.121063] yes=11,no=12,missing=12
			11:leaf=0.534792781
			12:leaf=0.0746467859
		6:[f1<21.1738472] yes=13,no=14,missing=14
			13:leaf=-0.397933096
			14:leaf=-1.24082386
booster[36]:
0:[f4<0.322548687] yes=1,no=2,missing=2
	1:[f1<44.7597656] yes=3,no=4,missing=4
		3:[f2<27.1159821] yes=7,no=8,missing=8
			7:leaf=0.000917087484
			8:leaf=-0.376879543
		4:[f1<46.5229187] yes=9,no=10,missing=10
			9:leaf=0.661476672
			10:leaf=-0.0394635275
	2:[f6<0.660831928] yes=5,no=6,missing=6
		5:[f3<197.877655] yes=11,no=12,missing=12
			11:leaf=0.0101172943
			12:leaf=-0.0391387343
		6:[f1<177.444519] yes=13,no=14,missing=14
			13:leaf=0.0732504651
			14:leaf=-1.55133295
booster[37]:
0:[f2<22.2493916] yes=1,no=2,missing=2
	1:[f6<0.627018869] yes=3,no=4,missing=4
		3:leaf=-0.309158832
		4:leaf=-0.397423714
	2:[f2<24.2657566] yes=5,no=6,missing=6
		5:[f6<0.049473986] yes=7,no=8,missing=8
			7:leaf=7.00587225
			8:leaf=0.216448605
		6:[f0<52.4458542] yes=9,no=10,missing=10
			9:leaf=0.826787531
			10:leaf=-0.000652019808
booster[38]:
0:[f3<63.0946732] yes=1,no=2,missing=2
	1:[f6<0.049473986] yes=3,no=4,missing=4
		3:[f2<24.2657566] yes=7,no=8,missing=8
			7:leaf=-0.917055726
			8:leaf=-0.290671557
		4:leaf=-0.322829515
	2:[f6<0.0588553213] yes=5,no=6,missing=6
		5:[f2<84.1867218] yes=9,no=10,missing=10
			9:leaf=-0.325535357
			10:leaf=-0.0244578999
		6:[f5<45.2516022] yes=11,no=12,missing=12
			11:leaf=0.100102492
			12:leaf=-0.00230797171
booster[39]:
0:[f3<63.0946732] yes=1,no=2,missing=2
	1:[f6<0.049473986] yes=3,no=4,missing=4
		3:[f2<24.2657566] yes=7,no=8,missing=8
			7:leaf=-0.627594352
			8:leaf=-0.28534326
		4:leaf=-0.317784458
	2:[f6<0.186748475] yes=5,no=6,missing=6
		5:[f4<0.215906277] yes=9,no=10,missing=10
			9:leaf=1.10214567
			10:leaf=-0.0256761592
		6:[f5<113.69593] yes=11,no=12,missing=12
			11:leaf=0.104297258
			12:leaf=-0.00432024803
booster[40]:
0:[f3<63.0946732] yes=1,no=2,missing=2
	1:[f6<0.049473986] yes=3,no=4,missing=4
		3:[f2<24.2657566] yes=7,no=8,missing=8
			7:leaf=-0.519373417
			8:leaf=-0.279168606
		4:leaf=-0.312855482
	2:[f0<313.07843] yes=5,no=6,missing=6
		5:[f3<152.073746] yes=9,no=10,missing=10
			9:leaf=-0.0620068684
			10:leaf=0.0150930323
		6:[f2<49.3497658] yes=11,no=12,missing=12
			11:leaf=0.188202232
			12:leaf=0.00462529575
booster[41]:
0:[f3<63.0946732] yes=1,no=2,missing=2
	1:[f6<0.049473986] yes=3,no=4,missing=4
		3:[f4<0.215906277] yes=7,no=8,missing=8
			7:leaf=-0.548381388
			8:leaf=-0.415694594
		4:leaf=-0.307916164
	2:[f2<43.1243401] yes=5,no=6,missing=6
		5:[f0<197.010025] yes=9,no=10,missing=10
			9:leaf=-0.263368577
			10:leaf=-0.00781571586
		6:[f3<77.8793869] yes=11,no=12,missing=12
			11:leaf=0.34666869
			12:leaf=0.00280220201
booster[42]:
0:[f3<69.0704193] yes=1,no=2,missing=2
	1:[f2<56.4345398] yes=3,no=4,missing=4
		3:[f6<0.049473986] yes=7,no=8,missing=8
			7:leaf=-0.41529575
			8:leaf=-0.345439792
		4:[f2<56.6619453] yes=9,no=10,missing=10
			9:leaf=0.379966676
			10:leaf=-0.387508899
	2:[f2<91.464035] yes=5,no=6,missing=6
		5:[f6<0.273731858] yes=11,no=12,missing=12
			11:leaf=-0.0409469046
			12:leaf=0.00896671601
		6:[f6<0.456512064] yes=13,no=14,missing=14
			13:leaf=0.033868622
			14:leaf=-0.300629467
booster[43]:
0:[f3<69.0704193] yes=1,no=2,missing=2
	1:[f2<56.4345398] yes=3,no=4,missing=4
		3:leaf=-0.370253474
		4:[f2<56.6619453] yes=7,no=8,missing=8
			7:leaf=0.328034073
			8:leaf=-0.361554772
	2:[f3<95.8480682] yes=5,no=6,missing=6
		5:[f3<95.1515198] yes=9,no=10,missing=10
			9:leaf=0.0302213114
			10:leaf=1.26117599
		6:[f3<97.6880112] yes=11,no=12,missing=12
			11:leaf=-0.349639416
			12:leaf=-0.000972852111
booster[44]:
0:[f4<0.240421623] yes=1,no=2,missing=2
	1:[f2<45.0418816] yes=3,no=4,missing=4
		3:[f3<176.92067] yes=7,no=8,missing=8
			7:leaf=-0.342866033
			8:leaf=-0.45758605
		4:[f2<45.3546257] yes=9,no=10,missing=10
			9:leaf=1.14456964
			10:leaf=-0.0754716992
	2:[f0<838.738892] yes=5,no=6,missing=6
		5:[f0<501.982666] yes=11,no=12,missing=12
			11:leaf=-0.0019049783
			12:leaf=0.0690601543
		6:[f2<111.955002] yes=13,no=14,missing=14
			13:leaf=-0.534812093
			14:leaf=0.107786335
booster[45]:
0:[f1<15.0632858] yes=1,no=2,missing=2
	1:[f2<71.0878983] yes=3,no=4,missing=4
		3:[f4<0.364837885] yes=7,no=8,missing=8
			7:leaf=-0.0145990746
			8:leaf=-0.320874602
		4:[f2<75.4673386] yes=9,no=10,missing=10
			9:leaf=0.565405488
			10:leaf=-0.370677114
	2:[f1<23.6047592] yes=5,no=6,missing=6
		5:[f1<21.6436234] yes=11,no=12,missing=12
			11:leaf=0.00270867115
			12:leaf=0.202682495
		6:[f2<23.6427002] yes=13,no=14,missing=14
			13:leaf=0.58060652
			14:leaf=-0.00360547402
booster[46]:
0:[f6<0.0285885297] yes=1,no=2,missing=2
	1:[f2<104.862221] yes=3,no=4,missing=4
		3:[f5<7.54030466] yes=7,no=8,missing=8
			7:leaf=0.0913073793
			8:leaf=-0.427896082
		4:[f0<514.323242] yes=9,no=10,missing=10
			9:leaf=0.0454057939
			10:leaf=-0.815282643
	2:[f2<62.5008774] yes=5,no=6,missing=6
		5:[f0<276.405457] yes=11,no=12,missing=12
			11:leaf=-0.0598645508
			12:leaf=0.0535843596
		6:[f3<180.369873] yes=13,no=14,missing=14
			13:leaf=0.0291753504
			14:leaf=-0.0260229781
booster[47]:
0:[f6<0.470889926] yes=1,no=2,missing=2
	1:[f2<78.7916565] yes=3,no=4,missing=4
		3:[f1<52.5691872] yes=7,no=8,missing=8
			7:leaf=0.0342159569
			8:leaf=-0.0892432332
		4:[f6<0.243046179] yes=9,no=10,missing=10
			9:leaf=-0.0142708225
			10:leaf=0.0975938961
	2:[f0<452.117889] yes=5,no=6,missing=6
		5:[f2<51.68433] yes=11,no=12,missing=12
			11:leaf=-0.0232849643
			12:leaf=0.0758336261
		6:[f6<1.07899392] yes=13,no=14,missing=14
			13:leaf=-0.343433172
			14:leaf=0.213785231
booster[48]:
0:[f2<149.825378] yes=1,no=2,missing=2
	1:[f1<103.982803] yes=3,no=4,missing=4
		3:[f3<143.587021] yes=5,no=6,missing=6
			5:leaf=0.0417397097
			6:leaf=-0.0251583308
		4:[f3<145.535004] yes=7,no=8,missing=8
			7:leaf=-0.0534071662
			8:leaf=0.0599858351
	2:leaf=-0.332709849
booster[49]:
0:[f6<0.0998772234] yes=1,no=2,missing=2
	1:[f5<45.2516022] yes=3,no=4,missing=4
		3:[f1<21.1738472] yes=7,no=8,missing=8
			7:leaf=-0.346689254
			8:leaf=0.0296262316
		4:[f3<162.102203] yes=9,no=10,missing=10
			9:leaf=-0.200762302
			10:leaf=0.0182798728
	2:[f5<71.957016] yes=5,no=6,missing=6
		5:[f0<697.766296] yes=11,no=12,missing=12
			11:leaf=0.065166302
			12:leaf=0.815697491
		6:[f6<0.16565536] yes=13,no=14,missing=14
			13:leaf=-0.0696084946
			14:leaf=0.00410734722
