booster[0]:
0:[f2<118.847786] yes=1,no=2,missing=2
	1:[f2<111.081352] yes=3,no=4,missing=4
		3:[f5<0.383222401] yes=7,no=8,missing=8
			7:leaf=-0.570291221
			8:leaf=-0.0516474359
		4:[f4<31.3114147] yes=9,no=10,missing=10
			9:leaf=0.295751721
			10:leaf=-0.373973399
	2:[f1<28.8685646] yes=5,no=6,missing=6
		5:[f5<0.288846433] yes=11,no=12,missing=12
			11:leaf=-0.556478202
			12:leaf=-0.10030625
		6:[f3<0.405299455] yes=13,no=14,missing=14
			13:leaf=-0.101817846
			14:leaf=0.348795444
booster[1]:
0:[f2<136.275299] yes=1,no=2,missing=2
	1:[f3<0.435595542] yes=3,no=4,missing=4
		3:[f1<167.602081] yes=7,no=8,missing=8
			7:leaf=-0.462749958
			8:leaf=-0.266156316
		4:[f1<84.8602905] yes=9,no=10,missing=10
			9:leaf=-0.355373114
			10:leaf=0.179029807
	2:[f1<26.7288227] yes=5,no=6,missing=6
		5:[f5<0.176942885] yes=11,no=12,missing=12
			11:leaf=-0.471632153
			12:leaf=-0.164542824
		6:[f3<0.405299455] yes=13,no=14,missing=14
			13:leaf=-0.00981601607
			14:leaf=0.285129964
booster[2]:
0:[f2<113.854736] yes=1,no=2,missing=2
	1:[f5<0.323741615] yes=3,no=4,missing=4
		3:[f4<11.5909557] yes=7,no=8,missing=8
			7:leaf=-0.124095939
			8:leaf=-0.397932976
		4:[f4<144.828964] yes=9,no=10,missing=10
			9:leaf=0.246972829
			10:leaf=-0.44755736
	2:[f1<46.6527023] yes=5,no=6,missing=6
		5:[f2<171.397491] yes=11,no=12,missing=12
			11:leaf=-0.335924953
			12:leaf=-0.00819915161
		6:[f3<0.370739371] yes=13,no=14,missing=14
			13:leaf=-0.121610001
			14:leaf=0.205433279
booster[3]:
0:[f2<148.599777] yes=1,no=2,missing=2
	1:[f1<99.3360291] yes=3,no=4,missing=4
		3:[f3<0.570517004] yes=7,no=8,missing=8
			7:leaf=-0.354940206
			8:leaf=-0.152511433
		4:[f3<0.474847376] yes=9,no=10,missing=10
			9:leaf=-0.218113273
			10:leaf=0.269776464
	2:[f5<0.148500264] yes=5,no=6,missing=6
		5:[f3<0.808308899] yes=11,no=12,missing=12
			11:leaf=-0.0867985785
			12:leaf=-0.415679038
		6:[f1<131.035583] yes=13,no=14,missing=14
			13:leaf=0.123610623
			14:leaf=0.328150213
booster[4]:
0:[f1<28.8685646] yes=1,no=2,missing=2
	1:[f5<0.288846433] yes=3,no=4,missing=4
		3:[f3<0.928593397] yes=7,no=8,missing=8
			7:leaf=-0.360132694
			8:leaf=-0.182813868
		4:[f1<17.5956173] yes=9,no=10,missing=10
			9:leaf=-0.522483706
			10:leaf=0.092118077
	2:[f3<0.464794815] yes=5,no=6,missing=6
		5:[f2<192.176926] yes=11,no=12,missing=12
			11:leaf=-0.172187537
			12:leaf=0.228765219
		6:[f1<67.7709579] yes=13,no=14,missing=14
			13:leaf=0.0315065645
			14:leaf=0.213967472
booster[5]:
0:[f2<140.833755] yes=1,no=2,missing=2
	1:[f1<149.483429] yes=3,no=4,missing=4
		3:[f3<0.510084629] yes=7,no=8,missing=8
			7:leaf=-0.311343104
			8:leaf=-0.0536288731
		4:[f3<0.390727043] yes=9,no=10,missing=10
			9:leaf=-0.209112376
			10:leaf=0.282797307
	2:[f5<0.123302087] yes=5,no=6,missing=6
		5:[f2<174.124756] yes=11,no=12,missing=12
			11:leaf=-0.0578205548
			12:leaf=-0.320208311
		6:[f4<200.055267] yes=13,no=14,missing=14
			13:leaf=0.186171755
			14:leaf=0.0188210681
booster[6]:
0:[f1<30.6160755] yes=1,no=2,missing=2
	1:[f5<0.281398565] yes=3,no=4,missing=4
		3:[f0<477.651215] yes=7,no=8,missing=8
			7:leaf=-0.334108114
			8:leaf=-0.148101225
		4:[f3<0.644604206] yes=9,no=10,missing=10
			9:leaf=-0.284385294
			10:leaf=0.149896309
	2:[f2<164.953201] yes=5,no=6,missing=6
		5:[f4<146.772446] yes=11,no=12,missing=12
			11:leaf=0.0458362103
			12:leaf=-0.282043397
		6:[f4<77.1233368] yes=13,no=14,missing=14
			13:leaf=-0.31921798
			14:leaf=0.139474079
booster[7]:
0:[f2<105.83358] yes=1,no=2,missing=2
	1:[f5<0.225140408] yes=3,no=4,missing=4
		3:[f4<11.5909557] yes=7,no=8,missing=8
			7:leaf=-0.0342957079
			8:leaf=-0.340602458
		4:[f3<0.4699094] yes=9,no=10,missing=10
			9:leaf=-0.0453136042
			10:leaf=0.593432963
	2:[f1<118.534676] yes=5,no=6,missing=6
		5:[f3<0.519880891] yes=11,no=12,missing=12
			11:leaf=-0.148408949
			12:leaf=0.0593825541
		6:[f3<0.675346375] yes=13,no=14,missing=14
			13:leaf=0.152483165
			14:leaf=-0.493932128
booster[8]:
0:[f1<21.2251778] yes=1,no=2,missing=2
	1:[f1<15.1843357] yes=3,no=4,missing=4
		3:[f2<172.291977] yes=7,no=8,missing=8
			7:leaf=-0.327805281
			8:leaf=-0.401505619
		4:[f5<0.176942885] yes=9,no=10,missing=10
			9:leaf=-0.327874482
			10:leaf=0.00491424743
	2:[f2<171.397491] yes=5,no=6,missing=6
		5:[f4<205.213684] yes=11,no=12,missing=12
			11:leaf=0.00893739238
			12:leaf=-0.288206369
		6:[f5<0.219305545] yes=13,no=14,missing=14
			13:leaf=-0.109309562
			14:leaf=0.131686434
booster[9]:
0:[f1<19.6172485] yes=1,no=2,missing=2
	1:[f1<15.1843357] yes=3,no=4,missing=4
		3:[f5<0.277650595] yes=7,no=8,missing=8
			7:leaf=-0.324733347
			8:leaf=-0.398010343
		4:[f3<0.717478395] yes=9,no=10,missing=10
			9:leaf=-0.349397004
			10:leaf=0.0476964563
	2:[f1<163.027679] yes=5,no=6,missing=6
		5:[f3<0.331960708] yes=11,no=12,missing=12
			11:leaf=-0.282639742
			12:leaf=0.015845051
		6:[f3<0.627915561] yes=13,no=14,missing=14
			13:leaf=0.18104507
			14:leaf=-0.847480297
booster[10]:
0:[f2<155.009918] yes=1,no=2,missing=2
	1:[f4<133.553452] yes=3,no=4,missing=4
		3:[f2<105.83358] yes=7,no=8,missing=8
			7:leaf=-0.235513076
			8:leaf=0.0374693908
		4:[f5<0.806264222] yes=9,no=10,missing=10
			9:leaf=-0.24494198
			10:leaf=1.28678656
	2:[f1<72.8097916] yes=5,no=6,missing=6
		5:[f3<0.644604206] yes=11,no=12,missing=12
			11:leaf=-0.116223216
			12:leaf=0.0697478428
		6:[f3<0.88257575] yes=13,no=14,missing=14
			13:leaf=0.109879047
			14:leaf=-0.796836853
booster[11]:
0:[f5<0.307730526] yes=1,no=2,missing=2
	1:[f1<82.2556686] yes=3,no=4,missing=4
		3:[f3<0.675346375] yes=7,no=8,missing=8
			7:leaf=-0.239575326
			8:leaf=-0.0344060138
		4:[f3<0.507077336] yes=9,no=10,missing=10
			9:leaf=-0.0890779048
			10:leaf=0.122094236
	2:[f4<257.989502] yes=5,no=6,missing=6
		5:[f5<0.585271299] yes=11,no=12,missing=12
			11:leaf=0.115608551
			12:leaf=0.627496302
		6:[f2<179.902191] yes=13,no=14,missing=14
			13:leaf=-0.29339394
			14:leaf=0.0559116676
booster[12]:
0:[f1<187.647095] yes=1,no=2,missing=2
	1:[f3<0.390727043] yes=3,no=4,missing=4
		3:[f2<208.857773] yes=7,no=8,missing=8
			7:leaf=-0.202050418
			8:leaf=0.142462879
		4:[f1<50.3504143] yes=9,no=10,missing=10
			9:leaf=-0.0854339004
			10:leaf=0.0474979803
	2:[f2<112.211731] yes=5,no=6,missing=6
		5:leaf=-0.355383873
		6:[f3<0.566632986] yes=11,no=12,missing=12
			11:leaf=0.251846522
			12:leaf=-0.568922698
booster[13]:
0:[f5<0.176942885] yes=1,no=2,missing=2
	1:[f4<49.6515579] yes=3,no=4,missing=4
		3:[f2<97.1725464] yes=7,no=8,missing=8
			7:leaf=-0.328354508
			8:leaf=0.100588389
		4:[f2<127.479103] yes=9,no=10,missing=10
			9:leaf=-0.410991609
			10:leaf=-0.083228454
	2:[f4<106.229507] yes=5,no=6,missing=6
		5:[f0<238.596466] yes=11,no=12,missing=12
			11:leaf=0.0603471361
			12:leaf=0.263092697
		6:[f2<142.665176] yes=13,no=14,missing=14
			13:leaf=-0.212585747
			14:leaf=0.0397719815
booster[14]:
0:[f1<15.1843357] yes=1,no=2,missing=2
	1:[f5<0.176942885] yes=3,no=4,missing=4
		3:leaf=-0.313758254
		4:leaf=-0.357187331
	2:[f1<226.770447] yes=5,no=6,missing=6
		5:[f3<0.487604767] yes=7,no=8,missing=8
			7:leaf=-0.0496228077
			8:leaf=0.04206248
		6:[f3<0.452898622] yes=9,no=10,missing=10
			9:leaf=0.300624579
			10:leaf=-0.514459848
booster[15]:
0:[f5<0.263492435] yes=1,no=2,missing=2
	1:[f0<237.44754] yes=3,no=4,missing=4
		3:[f3<0.546722353] yes=7,no=8,missing=8
			7:leaf=-0.36721319
			8:leaf=-0.0970384926
		4:[f4<126.772438] yes=9,no=10,missing=10
			9:leaf=0.0289526526
			10:leaf=-0.155197665
	2:[f4<162.937912] yes=5,no=6,missing=6
		5:[f2<115.558411] yes=11,no=12,missing=12
			11:leaf=0.38877669
			12:leaf=0.11021208
		6:[f2<159.251175] yes=13,no=14,missing=14
			13:leaf=-0.145326748
			14:leaf=0.0346614011
booster[16]:
0:[f1<107.135521] yes=1,no=2,missing=2
	1:[f2<172.291977] yes=3,no=4,missing=4
		3:[f0<237.44754] yes=7,no=8,missing=8
			7:leaf=-0.25169608
			8:leaf=-0.0452549644
		4:[f3<0.345154077] yes=9,no=10,missing=10
			9:leaf=-0.279031813
			10:leaf=0.0302455891
	2:[f2<132.361572] yes=5,no=6,missing=6
		5:[f4<43.9343491] yes=11,no=12,missing=12
			11:leaf=0.125183254
			12:leaf=-0.195108324
		6:[f3<0.675346375] yes=13,no=14,missing=14
			13:leaf=0.120670862
			14:leaf=-0.396357983
booster[17]:
0:[f1<128.545853] yes=1,no=2,missing=2
	1:[f4<11.5909557] yes=3,no=4,missing=4
		3:[f2<97.1725464] yes=7,no=8,missing=8
			7:leaf=-0.107072808
			8:leaf=0.605310023
		4:[f5<0.462062418] yes=9,no=10,missing=10
			9:leaf=-0.0654063597
			10:leaf=0.0489951186
	2:[f2<112.211731] yes=5,no=6,missing=6
		5:[f4<142.75856] yes=11,no=12,missing=12
			11:leaf=-0.37219125
			12:leaf=0.522397697
		6:[f2<284.164307] yes=13,no=14,missing=14
			13:leaf=0.100422166
			14:leaf=-0.454985499
booster[18]:
0:[f1<15.1843357] yes=1,no=2,missing=2
	1:[f5<0.277650595] yes=3,no=4,missing=4
		3:leaf=-0.312643707
		4:leaf=-0.354116261
	2:[f3<0.52606374] yes=5,no=6,missing=6
		5:[f0<262.296295] yes=7,no=8,missing=8
			7:leaf=-0.0928185955
			8:leaf=0.0370738469
		6:[f2<459.248108] yes=9,no=10,missing=10
			9:leaf=0.0501092672
			10:leaf=-0.890062392
booster[19]:
0:[f5<0.150233045] yes=1,no=2,missing=2
	1:[f4<67.3054504] yes=3,no=4,missing=4
		3:[f2<97.1725464] yes=7,no=8,missing=8
			7:leaf=-0.3159796
			8:leaf=0.0184839778
		4:[f2<143.2379] yes=9,no=10,missing=10
			9:leaf=-0.387953043
			10:leaf=-0.118950769
	2:[f4<135.339554] yes=5,no=6,missing=6
		5:[f3<0.937166691] yes=11,no=12,missing=12
			11:leaf=0.104753919
			12:leaf=-0.672115028
		6:[f5<0.24357675] yes=13,no=14,missing=14
			13:leaf=-0.32782197
			14:leaf=0.0105275121
booster[20]:
0:[f1<163.027679] yes=1,no=2,missing=2
	1:[f3<0.292837083] yes=3,no=4,missing=4
		3:[f2<216.298828] yes=7,no=8,missing=8
			7:leaf=-0.392436117
			8:leaf=0.133755207
		4:[f5<0.462062418] yes=9,no=10,missing=10
			9:leaf=-0.0343064442
			10:leaf=0.068635501
	2:[f3<0.627915561] yes=5,no=6,missing=6
		5:[f2<132.361572] yes=11,no=12,missing=12
			11:leaf=-0.0346993506
			12:leaf=0.152198449
		6:[f3<0.669186771] yes=13,no=14,missing=14
			13:leaf=-0.783681631
			14:leaf=-0.461890727
booster[21]:
0:[f1<15.1843357] yes=1,no=2,missing=2
	1:leaf=-0.315725595
	2:[f4<202.545883] yes=3,no=4,missing=4
		3:[f5<0.307730526] yes=5,no=6,missing=6
			5:leaf=-0.00364765991
			6:leaf=0.114939153
		4:[f5<0.462062418] yes=7,no=8,missing=8
			7:leaf=-0.150804073
			8:leaf=0.0231849458
booster[22]:
0:[f1<107.135521] yes=1,no=2,missing=2
	1:[f3<0.575116575] yes=3,no=4,missing=4
		3:[f5<0.462062418] yes=7,no=8,missing=8
			7:leaf=-0.151827559
			8:leaf=0.022842288
		4:[f1<67.7709579] yes=9,no=10,missing=10
			9:leaf=-0.015793832
			10:leaf=0.117903925
	2:[f0<297.910522] yes=5,no=6,missing=6
		5:[f3<0.398970276] yes=11,no=12,missing=12
			11:leaf=-0.160391495
			12:leaf=0.0776679665
		6:[f3<0.57966733] yes=13,no=14,missing=14
			13:leaf=0.160641104
			14:leaf=-0.783088863
booster[23]:
0:[f0<627.222046] yes=1,no=2,missing=2
	1:[f0<201.887329] yes=3,no=4,missing=4
		3:[f3<0.532734394] yes=7,no=8,missing=8
			7:leaf=-0.129965439
			8:leaf=0.0313887484
		4:[f1<33.7771301] yes=9,no=10,missing=10
			9:leaf=-0.104098819
			10:leaf=0.0241616927
	2:[f2<255.855972] yes=5,no=6,missing=6
		5:[f5<0.0741755739] yes=11,no=12,missing=12
			11:leaf=-0.439379573
			12:leaf=0.404411405
		6:[f5<0.195439577] yes=13,no=14,missing=14
			13:leaf=-0.509054065
			14:leaf=-0.841114104
booster[24]:
0:[f3<0.995818853] yes=1,no=2,missing=2
	1:[f4<16.9271355] yes=3,no=4,missing=4
		3:[f2<139.675507] yes=7,no=8,missing=8
			7:leaf=0.247690514
			8:leaf=-0.875095308
		4:[f5<0.106753506] yes=9,no=10,missing=10
			9:leaf=-0.0939247608
			10:leaf=0.0124006765
	2:[f1<30.6160755] yes=5,no=6,missing=6
		5:leaf=-0.341382623
		6:[f1<105.154694] yes=11,no=12,missing=12
			11:leaf=-0.622193635
			12:leaf=-0.347692668
booster[25]:
0:[f2<85.2513046] yes=1,no=2,missing=2
	1:[f3<0.554255188] yes=3,no=4,missing=4
		3:[f5<0.323741615] yes=7,no=8,missing=8
			7:leaf=-0.309963048
			8:leaf=-0.434951693
		4:[f3<0.558184445] yes=9,no=10,missing=10
			9:leaf=0.401979238
			10:leaf=-0.334796131
	2:[f4<21.8993969] yes=5,no=6,missing=6
		5:[f2<146.185852] yes=11,no=12,missing=12
			11:leaf=0.197499692
			12:leaf=-0.610563755
		6:[f5<0.0813012049] yes=13,no=14,missing=14
			13:leaf=-0.108223654
			14:leaf=0.00769841531
booster[26]:
0:[f0<627.222046] yes=1,no=2,missing=2
	1:[f1<92.8748627] yes=3,no=4,missing=4
		3:[f3<0.575116575] yes=7,no=8,missing=8
			7:leaf=-0.080791831
			8:leaf=0.0192702599
		4:[f3<0.405299455] yes=9,no=10,missing=10
			9:leaf=-0.0493523255
			10:leaf=0.0747170672
	2:[f2<255.855972] yes=5,no=6,missing=6
		5:[f3<0.315547407] yes=11,no=12,missing=12
			11:leaf=-0.265113652
			12:leaf=0.3230986
		6:[f5<0.122034572] yes=13,no=14,missing=14
			13:leaf=-0.362980038
			14:leaf=-0.591292381
booster[27]:
0:[f5<0.565070987] yes=1,no=2,missing=2
	1:[f4<288.528809] yes=3,no=4,missing=4
		3:[f1<62.323494] yes=7,no=8,missing=8
			7:leaf=-0.0551304333
			8:leaf=0.0257040393
		4:[f0<252.602127] yes=9,no=10,missing=10
			9:leaf=-0.500532806
			10:leaf=-0.0317248292
	2:[f0<360.676849] yes=5,no=6,missing=6
		5:[f2<145.54921] yes=11,no=12,missing=12
			11:leaf=0.563391685
			12:leaf=0.0753287673
		6:[f0<655.011108] yes=13,no=14,missing=14
			13:leaf=-0.775995433
			14:leaf=0.120262727
booster[28]:
0:[f0<204.776352] yes=1,no=2,missing=2
	1:[f2<159.251175] yes=3,no=4,missing=4
		3:[f5<0.585271299] yes=7,no=8,missing=8
			7:leaf=-0.201120317
			8:leaf=0.172389239
		4:[f1<59.2583504] yes=9,no=10,missing=10
			9:leaf=-0.556382
			10:leaf=0.0517384447
	2:[f2<85.2513046] yes=5,no=6,missing=6
		5:[f5<0.374095708] yes=11,no=12,missing=12
			11:leaf=-0.305200994
			12:leaf=-0.419140607
		6:[f2<459.248108] yes=13,no=14,missing=14
			13:leaf=0.0210440606
			14:leaf=-0.595460415
booster[29]:
0:[f3<0.23883003] yes=1,no=2,missing=2
	1:[f2<147.417557] yes=3,no=4,missing=4
		3:leaf=-0.347660005
		4:[f1<165.148773] yes=7,no=8,missing=8
			7:leaf=-0.429370105
			8:leaf=-0.648946345
	2:[f1<226.770447] yes=5,no=6,missing=6
		5:[f5<0.383222401] yes=9,no=10,missing=10
			9:leaf=-0.0267959777
			10:leaf=0.0385842398
		6:[f0<270.004425] yes=11,no=12,missing=12
			11:leaf=-0.3044779
			12:leaf=0.210158721
booster[30]:
0:[f1<15.1843357] yes=1,no=2,missing=2
	1:leaf=-0.310594082
	2:[f1<15.3438234] yes=3,no=4,missing=4
		3:[f0<250.261353] yes=5,no=6,missing=6
			5:leaf=1.18815684
			6:leaf=-0.338689268
		4:[f0<292.289612] yes=7,no=8,missing=8
			7:leaf=-0.020686537
			8:leaf=0.0346373171
booster[31]:
0:[f3<0.331960708] yes=1,no=2,missing=2
	1:[f1<175.098053] yes=3,no=4,missing=4
		3:[f5<0.850264192] yes=7,no=8,missing=8
			7:leaf=-0.245243996
			8:leaf=0.148406982
		4:[f5<0.157354668] yes=9,no=10,missing=10
			9:leaf=-0.447474152
			10:leaf=0.115023434
	2:[f3<0.33339861] yes=5,no=6,missing=6
		5:[f2<103.449913] yes=11,no=12,missing=12
			11:leaf=6.10007191
			12:leaf=0.357400745
		6:[f1<128.545853] yes=13,no=14,missing=14
			13:leaf=-0.011585867
			14:leaf=0.0633130968
booster[32]:
0:[f3<0.501335323] yes=1,no=2,missing=2
	1:[f5<0.383222401] yes=3,no=4,missing=4
		3:[f1<149.483429] yes=7,no=8,missing=8
			7:leaf=-0.162561089
			8:leaf=0.0240832437
		4:[f0<201.887329] yes=9,no=10,missing=10
			9:leaf=-0.0809297711
			10:leaf=0.0693467185
	2:[f1<83.1276779] yes=5,no=6,missing=6
		5:[f4<11.5909557] yes=11,no=12,missing=12
			11:leaf=0.325589716
			12:leaf=-0.0164677501
		6:[f2<316.053558] yes=13,no=14,missing=14
			13:leaf=0.0943410173
			14:leaf=-1.02554059
booster[33]:
0:[f5<0.150233045] yes=1,no=2,missing=2
	1:[f4<54.6764526] yes=3,no=4,missing=4
		3:[f2<174.124756] yes=7,no=8,missing=8
			7:leaf=0.0322924331
			8:leaf=-0.509608746
		4:[f2<127.479103] yes=9,no=10,missing=10
			9:leaf=-0.422971219
			10:leaf=-0.0758719966
	2:[f4<44.4906349] yes=5,no=6,missing=6
		5:[f4<41.8717384] yes=11,no=12,missing=12
			11:leaf=0.196793109
			12:leaf=0.68045491
		6:[f4<202.545883] yes=13,no=14,missing=14
			13:leaf=0.0411979593
			14:leaf=-0.0277924705
booster[34]:
0:[f0<627.222046] yes=1,no=2,missing=2
	1:[f5<0.225140408] yes=3,no=4,missing=4
		3:[f4<123.67907] yes=7,no=8,missing=8
			7:leaf=-0.0130293863
			8:leaf=-0.186580688
		4:[f4<107.517273] yes=9,no=10,missing=10
			9:leaf=0.201479524
			10:leaf=0.00434731413
	2:[f3<0.6389575] yes=5,no=6,missing=6
		5:[f5<0.266890973] yes=11,no=12,missing=12
			11:leaf=0.316291362
			12:leaf=-0.108698204
		6:[f1<26.7288227] yes=13,no=14,missing=14
			13:leaf=-0.323159039
			14:leaf=-0.486694366
booster[35]:
0:[f2<85.2513046] yes=1,no=2,missing=2
	1:[f3<0.554255188] yes=3,no=4,missing=4
		3:[f3<0.331960708] yes=7,no=8,missing=8
			7:leaf=-0.334400535
			8:leaf=-0.441220969
		4:[f3<0.558184445] yes=9,no=10,missing=10
			9:leaf=0.320376098
			10:leaf=-0.338091165
	2:[f0<292.289612] yes=5,no=6,missing=6
		5:[f3<0.450518399] yes=11,no=12,missing=12
			11:leaf=-0.0864407271
			12:leaf=0.0198835731
		6:[f5<0.0552008934] yes=13,no=14,missing=14
			13:leaf=-0.0961541459
			14:leaf=0.0479723029
booster[36]:
0:[f5<0.662009299] yes=1,no=2,missing=2
	1:[f3<0.36643073] yes=3,no=4,missing=4
		3:[f0<295.138092] yes=7,no=8,missing=8
			7:leaf=-0.321674198
			8:leaf=0.0247722156
		4:[f0<136.357697] yes=9,no=10,missing=10
			9:leaf=-0.299372494
			10:leaf=0.00740578538
	2:[f0<355.240479] yes=5,no=6,missing=6
		5:[f2<159.952301] yes=11,no=12,missing=12
			11:leaf=0.420272022
			12:leaf=0.0862132013
		6:[f1<191.56459] yes=13,no=14,missing=14
			13:leaf=-0.575281441
			14:leaf=-1.19435632
booster[37]:
0:[f1<128.545853] yes=1,no=2,missing=2
	1:[f3<0.52606374] yes=3,no=4,missing=4
		3:[f5<0.383222401] yes=7,no=8,missing=8
			7:leaf=-0.148515433
			8:leaf=0.00941341929
		4:[f1<75.3478241] yes=9,no=10,missing=10
			9:leaf=-0.0170258861
			10:leaf=0.076913096
	2:[f2<113.854736] yes=5,no=6,missing=6
		5:[f4<142.75856] yes=11,no=12,missing=12
			11:leaf=-0.347485781
			12:leaf=0.368470937
		6:[f3<0.57966733] yes=13,no=14,missing=14
			13:leaf=0.0782092288
			14:leaf=-0.188135266
booster[38]:
0:[f3<0.291243762] yes=1,no=2,missing=2
	1:[f1<107.135521] yes=3,no=4,missing=4
		3:[f2<208.857773] yes=7,no=8,missing=8
			7:leaf=-0.355155587
			8:leaf=-0.567005932
		4:[f5<0.323741615] yes=9,no=10,missing=10
			9:leaf=-0.420068026
			10:leaf=0.0149780661
	2:[f0<236.208298] yes=5,no=6,missing=6
		5:[f2<149.834717] yes=11,no=12,missing=12
			11:leaf=-0.150990561
			12:leaf=0.0201884136
		6:[f1<72.8097916] yes=13,no=14,missing=14
			13:leaf=-0.00777732395
			14:leaf=0.0561055019
booster[39]:
0:[f3<0.23883003] yes=1,no=2,missing=2
	1:[f2<140.277863] yes=3,no=4,missing=4
		3:leaf=-0.34207204
		4:leaf=-0.457830817
	2:[f3<0.995818853] yes=5,no=6,missing=6
		5:[f5<0.565070987] yes=7,no=8,missing=8
			7:leaf=-0.00766017986
			8:leaf=0.0530006588
		6:[f1<28.8685646] yes=9,no=10,missing=10
			9:leaf=-0.32152006
			10:leaf=-0.459344536
booster[40]:
0:[f3<0.337881178] yes=1,no=2,missing=2
	1:[f1<34.4096985] yes=3,no=4,missing=4
		3:[f2<159.952301] yes=7,no=8,missing=8
			7:leaf=0.788770676
			8:leaf=-0.398128033
		4:[f1<195.729675] yes=9,no=10,missing=10
			9:leaf=-0.152539954
			10:leaf=0.075650759
	2:[f1<115.240891] yes=5,no=6,missing=6
		5:[f0<204.776352] yes=11,no=12,missing=12
			11:leaf=-0.0853433311
			12:leaf=0.00351737184
		6:[f2<113.303253] yes=13,no=14,missing=14
			13:leaf=-0.298632294
			14:leaf=0.0627098233
booster[41]:
0:[f1<15.1843357] yes=1,no=2,missing=2
	1:leaf=-0.312234044
	2:[f0<627.222046] yes=3,no=4,missing=4
		3:[f5<0.216582283] yes=5,no=6,missing=6
			5:leaf=-0.0321519226
			6:leaf=0.0150018558
		4:[f5<0.0741755739] yes=7,no=8,missing=8
			7:leaf=-0.401834846
			8:leaf=0.213250801
booster[42]:
0:[f4<42.8917389] yes=1,no=2,missing=2
	1:[f5<0.108965427] yes=3,no=4,missing=4
		3:[f2<118.847786] yes=7,no=8,missing=8
			7:leaf=-0.109279111
			8:leaf=0.0965052024
		4:[f5<0.110099845] yes=9,no=10,missing=10
			9:leaf=1.35242295
			10:leaf=0.222085133
	2:[f5<0.0640162528] yes=5,no=6,missing=6
		5:[f2<234.100769] yes=11,no=12,missing=12
			11:leaf=-0.385329098
			12:leaf=0.135183007
		6:[f2<140.833755] yes=13,no=14,missing=14
			13:leaf=-0.0634579808
			14:leaf=0.0104876403
booster[43]:
0:[f4<261.183868] yes=1,no=2,missing=2
	1:[f5<0.585271299] yes=3,no=4,missing=4
		3:[f2<272.585541] yes=7,no=8,missing=8
			7:leaf=0.0119925942
			8:leaf=-0.321861386
		4:[f2<198.637268] yes=9,no=10,missing=10
			9:leaf=0.403442055
			10:leaf=-1.79979479
	2:[f2<179.902191] yes=5,no=6,missing=6
		5:[f1<50.3504143] yes=11,no=12,missing=12
			11:leaf=0.276798427
			12:leaf=-0.299047738
		6:[f5<0.64690876] yes=13,no=14,missing=14
			13:leaf=-0.0474146046
			14:leaf=0.0561328195
booster[44]:
0:[f2<85.2513046] yes=1,no=2,missing=2
	1:[f3<0.554255188] yes=3,no=4,missing=4
		3:[f3<0.331960708] yes=7,no=8,missing=8
			7:leaf=-0.334745944
			8:leaf=-0.428867579
		4:[f3<0.558184445] yes=9,no=10,missing=10
			9:leaf=0.296698809
			10:leaf=-0.337224752
	2:[f4<6.09107399] yes=5,no=6,missing=6
		5:[f2<113.854736] yes=11,no=12,missing=12
			11:leaf=-0.419882268
			12:leaf=-1.22162199
		6:[f4<11.5909557] yes=13,no=14,missing=14
			13:leaf=0.239511862
			14:leaf=-0.00117311825
booster[45]:
0:[f1<107.135521] yes=1,no=2,missing=2
	1:[f3<0.575116575] yes=3,no=4,missing=4
		3:[f5<0.176942885] yes=7,no=8,missing=8
			7:leaf=-0.223106667
			8:leaf=-0.0317021869
		4:[f1<35.034935] yes=9,no=10,missing=10
			9:leaf=-0.0447420776
			10:leaf=0.0488638505
	2:[f5<0.311615825] yes=5,no=6,missing=6
		5:[f4<87.8695297] yes=11,no=12,missing=12
			11:leaf=0.0599578954
			12:leaf=-0.0833038166
		6:[f3<0.650573432] yes=13,no=14,missing=14
			13:leaf=0.0915261656
			14:leaf=-0.628637314
booster[46]:
0:[f0<256.220703] yes=1,no=2,missing=2
	1:[f2<343.094482] yes=3,no=4,missing=4
		3:[f3<0.474847376] yes=7,no=8,missing=8
			7:leaf=-0.0705287009
			8:leaf=0.0184987616
		4:[f2<459.248108] yes=9,no=10,missing=10
			9:leaf=-0.988109887
			10:leaf=-0.00820724666
	2:[f5<0.0552008934] yes=5,no=6,missing=6
		5:[f2<144.97522] yes=11,no=12,missing=12
			11:leaf=-0.0170970745
			12:leaf=-0.336938202
		6:[f3<0.299057931] yes=13,no=14,missing=14
			13:leaf=-0.132227898
			14:leaf=0.0372935981
booster[47]:
0:[f1<66.1512833] yes=1,no=2,missing=2
	1:[f3<0.695319533] yes=3,no=4,missing=4
		3:[f2<123.246826] yes=7,no=8,missing=8
			7:leaf=0.173939854
			8:leaf=-0.111359052
		4:[f2<169.714142] yes=9,no=10,missing=10
			9:leaf=-0.0777759627
			10:leaf=0.115556106
	2:[f3<0.900927365] yes=5,no=6,missing=6
		5:[f1<68.5842896] yes=11,no=12,missing=12
			11:leaf=0.198663861
			12:leaf=0.0119049447
		6:[f5<0.147069454] yes=13,no=14,missing=14
			13:leaf=-0.470160753
			14:leaf=-0.776545703
booster[48]:
0:[f5<0.565070987] yes=1,no=2,missing=2
	1:[f0<292.289612] yes=3,no=4,missing=4
		3:[f3<0.379371345] yes=7,no=8,missing=8
			7:leaf=-0.29455632
			8:leaf=-0.0170668103
		4:[f5<0.555884063] yes=9,no=10,missing=10
			9:leaf=0.0295084435
			10:leaf=-0.868555307
	2:[f0<360.676849] yes=5,no=6,missing=6
		5:[f2<159.952301] yes=11,no=12,missing=12
			11:leaf=0.253709793
			12:leaf=0.0397454575
		6:[f0<655.011108] yes=13,no=14,missing=14
			13:leaf=-0.564203501
			14:leaf=0.0522169173
booster[49]:
0:[f1<92.8748627] yes=1,no=2,missing=2
	1:[f2<132.893677] yes=3,no=4,missing=4
		3:[f4<237.124771] yes=7,no=8,missing=8
			7:leaf=0.0263637714
			8:leaf=1.28121102
		4:[f2<171.397491] yes=9,no=10,missing=10
			9:leaf=-0.0981351659
			10:leaf=0.000251619029
	2:[f2<125.330208] yes=5,no=6,missing=6
		5:[f4<48.0596199] yes=11,no=12,missing=12
			11:leaf=0.051068183
			12:leaf=-0.219810307
		6:[f3<0.650573432] yes=13,no=14,missing=14
			13:leaf=0.053905867
			14:leaf=-0.152945861
