booster[0]:
0:[f6<0.283696771] yes=1,no=2,missing=2
	1:[f2<81.21875] yes=3,no=4,missing=4
		3:[f6<0.242297575] yes=7,no=8,missing=8
			7:leaf=-0.597521603
			8:leaf=-0.497189879
		4:[f6<0.164313525] yes=9,no=10,missing=10
			9:leaf=-0.523671091
			10:leaf=-0.0982463807
	2:[f3<105.513153] yes=5,no=6,missing=6
		5:[f2<61.0016365] yes=11,no=12,missing=12
			11:leaf=-0.459120572
			12:leaf=-0.0440184809
		6:[f4<0.787923753] yes=13,no=14,missing=14
			13:leaf=0.401516974
			14:leaf=-0.323673517
booster[1]:
0:[f6<0.266532898] yes=1,no=2,missing=2
	1:[f2<84.3825684] yes=3,no=4,missing=4
		3:[f6<0.210048884] yes=7,no=8,missing=8
			7:leaf=-0.462741286
			8:leaf=-0.400427639
		4:[f4<0.675108016] yes=9,no=10,missing=10
			9:leaf=-0.162382588
			10:leaf=-0.438501
	2:[f3<113.904503] yes=5,no=6,missing=6
		5:[f1<25.8408279] yes=11,no=12,missing=12
			11:leaf=-0.454287052
			12:leaf=-0.0988718346
		6:[f4<0.78191644] yes=13,no=14,missing=14
			13:leaf=0.334650457
			14:leaf=-0.228265837
booster[2]:
0:[f6<0.242297575] yes=1,no=2,missing=2
	1:[f2<81.21875] yes=3,no=4,missing=4
		3:[f2<72.8559189] yes=7,no=8,missing=8
			7:leaf=-0.402429938
			8:leaf=-0.366158426
		4:[f6<0.151991144] yes=9,no=10,missing=10
			9:leaf=-0.337605357
			10:leaf=-0.0722635537
	2:[f3<105.513153] yes=5,no=6,missing=6
		5:[f2<57.8431969] yes=11,no=12,missing=12
			11:leaf=-0.344625294
			12:leaf=-0.0328298658
		6:[f1<19.6875648] yes=13,no=14,missing=14
			13:leaf=-0.401280314
			14:leaf=0.253987253
booster[3]:
0:[f6<0.219966069] yes=1,no=2,missing=2
	1:[f2<90.6550827] yes=3,no=4,missing=4
		3:[f2<72.8559189] yes=7,no=8,missing=8
			7:leaf=-0.367747843
			8:leaf=-0.326067179
		4:[f4<0.675108016] yes=9,no=10,missing=10
			9:leaf=-0.0506760627
			10:leaf=-0.327678114
	2:[f1<21.6149273] yes=5,no=6,missing=6
		5:[f1<16.7888165] yes=11,no=12,missing=12
			11:leaf=-0.386374921
			12:leaf=-0.273416162
		6:[f3<105.513153] yes=13,no=14,missing=14
			13:leaf=-0.0858681723
			14:leaf=0.211865231
booster[4]:
0:[f6<0.219966069] yes=1,no=2,missing=2
	1:[f2<88.0623245] yes=3,no=4,missing=4
		3:[f6<0.172654271] yes=7,no=8,missing=8
			7:leaf=-0.345355451
			8:leaf=-0.287300855
		4:[f4<0.719857633] yes=9,no=10,missing=10
			9:leaf=-0.0706846565
			10:leaf=-0.299902052
	2:[f1<29.4262505] yes=5,no=6,missing=6
		5:[f3<122.915604] yes=11,no=12,missing=12
			11:leaf=-0.314316392
			12:leaf=-0.0335849077
		6:[f2<110.488396] yes=13,no=14,missing=14
			13:leaf=0.101097122
			14:leaf=-0.478561103
booster[5]:
0:[f6<0.21501343] yes=1,no=2,missing=2
	1:[f2<81.21875] yes=3,no=4,missing=4
		3:[f2<72.8559189] yes=7,no=8,missing=8
			7:leaf=-0.331400603
			8:leaf=-0.279883742
		4:[f4<0.793931425] yes=9,no=10,missing=10
			9:leaf=-0.0969066769
			10:leaf=-0.296218336
	2:[f2<67.4038849] yes=5,no=6,missing=6
		5:[f6<0.401530594] yes=11,no=12,missing=12
			11:leaf=-0.312728465
			12:leaf=0.0372475013
		6:[f4<0.731452584] yes=13,no=14,missing=14
			13:leaf=0.228521153
			14:leaf=-0.181596085
booster[6]:
0:[f6<0.191438615] yes=1,no=2,missing=2
	1:[f2<92.1473541] yes=3,no=4,missing=4
		3:[f2<80.236496] yes=7,no=8,missing=8
			7:leaf=-0.320183665
			8:leaf=-0.24786754
		4:[f4<0.605061591] yes=9,no=10,missing=10
			9:leaf=0.0648326799
			10:leaf=-0.207913697
	2:[f1<21.6149273] yes=5,no=6,missing=6
		5:[f1<16.605587] yes=11,no=12,missing=12
			11:leaf=-0.328494042
			12:leaf=-0.19230023
		6:[f3<98.5513535] yes=13,no=14,missing=14
			13:leaf=-0.0917312577
			14:leaf=0.15042226
booster[7]:
0:[f1<44.9372368] yes=1,no=2,missing=2
	1:[f6<0.310514539] yes=3,no=4,missing=4
		3:[f3<102.69001] yes=7,no=8,missing=8
			7:leaf=-0.312256575
			8:leaf=-0.221324041
		4:[f1<16.605587] yes=9,no=10,missing=10
			9:leaf=-0.299780458
			10:leaf=0.0405007936
	2:[f6<0.115122423] yes=5,no=6,missing=6
		5:[f2<98.5443344] yes=11,no=12,missing=12
			11:leaf=-0.296483427
			12:leaf=-0.135971457
		6:[f2<121.575073] yes=13,no=14,missing=14
			13:leaf=0.0758330598
			14:leaf=-0.35372898
booster[8]:
0:[f1<29.0409107] yes=1,no=2,missing=2
	1:[f6<0.252991974] yes=3,no=4,missing=4
		3:[f2<73.583168] yes=7,no=8,missing=8
			7:leaf=-0.311609745
			8:leaf=-0.265456885
		4:[f1<16.605587] yes=9,no=10,missing=10
			9:leaf=-0.293579638
			10:leaf=0.0286119096
	2:[f3<86.1527786] yes=5,no=6,missing=6
		5:[f6<0.170254394] yes=11,no=12,missing=12
			11:leaf=-0.265159339
			12:leaf=-0.078322418
		6:[f2<121.575073] yes=13,no=14,missing=14
			13:leaf=0.109036282
			14:leaf=-0.283258319
booster[9]:
0:[f1<29.0409107] yes=1,no=2,missing=2
	1:[f6<0.252991974] yes=3,no=4,missing=4
		3:[f2<73.583168] yes=7,no=8,missing=8
			7:leaf=-0.307482719
			8:leaf=-0.245641574
		4:[f3<50.0820885] yes=9,no=10,missing=10
			9:leaf=-0.239249215
			10:leaf=0.0666773543
	2:[f6<0.115122423] yes=5,no=6,missing=6
		5:[f2<93.6359787] yes=11,no=12,missing=12
			11:leaf=-0.277202368
			12:leaf=-0.0982158035
		6:[f2<75.0978012] yes=13,no=14,missing=14
			13:leaf=-0.113767244
			14:leaf=0.13962613
booster[10]:
0:[f1<25.8408279] yes=1,no=2,missing=2
	1:[f6<0.252991974] yes=3,no=4,missing=4
		3:[f3<193.060959] yes=7,no=8,missing=8
			7:leaf=-0.30358091
			8:leaf=-0.0870102569
		4:[f3<74.6437225] yes=9,no=10,missing=10
			9:leaf=-0.235830262
			10:leaf=0.0769413114
	2:[f3<92.0153351] yes=5,no=6,missing=6
		5:[f4<0.375638664] yes=11,no=12,missing=12
			11:leaf=-0.269046992
			12:leaf=-0.0732120574
		6:[f2<130.597855] yes=13,no=14,missing=14
			13:leaf=0.0868762806
			14:leaf=-0.319208741
booster[11]:
0:[f1<25.8408279] yes=1,no=2,missing=2
	1:[f6<0.252991974] yes=3,no=4,missing=4
		3:[f3<193.060959] yes=7,no=8,missing=8
			7:leaf=-0.300261945
			8:leaf=-0.0692144111
		4:[f1<15.7749996] yes=9,no=10,missing=10
			9:leaf=-0.28065747
			10:leaf=0.0491412319
	2:[f6<0.123740681] yes=5,no=6,missing=6
		5:[f2<98.5443344] yes=11,no=12,missing=12
			11:leaf=-0.245032191
			12:leaf=-0.0447032303
		6:[f4<0.330982685] yes=13,no=14,missing=14
			13:leaf=-0.170151353
			14:leaf=0.0666366965
booster[12]:
0:[f1<25.8408279] yes=1,no=2,missing=2
	1:[f6<0.252991974] yes=3,no=4,missing=4
		3:[f3<193.060959] yes=7,no=8,missing=8
			7:leaf=-0.29701671
			8:leaf=-0.0542399548
		4:[f1<15.7749996] yes=9,no=10,missing=10
			9:leaf=-0.263862044
			10:leaf=0.0339608379
	2:[f6<0.111941062] yes=5,no=6,missing=6
		5:[f2<92.1473541] yes=11,no=12,missing=12
			11:leaf=-0.249215081
			12:leaf=-0.0605227798
		6:[f2<70.255249] yes=13,no=14,missing=14
			13:leaf=-0.0828781351
			14:leaf=0.0793702602
booster[13]:
0:[f1<21.4308376] yes=1,no=2,missing=2
	1:[f6<0.310514539] yes=3,no=4,missing=4
		3:[f1<21.0678444] yes=7,no=8,missing=8
			7:leaf=-0.298881114
			8:leaf=-0.170406967
		4:[f5<180.639664] yes=9,no=10,missing=10
			9:leaf=0.274287671
			10:leaf=-0.153112516
	2:[f2<136.00708] yes=5,no=6,missing=6
		5:[f3<107.212311] yes=11,no=12,missing=12
			11:leaf=-0.0891032293
			12:leaf=0.0969259888
		6:leaf=-0.328572661
booster[14]:
0:[f1<20.8834953] yes=1,no=2,missing=2
	1:[f6<0.310514539] yes=3,no=4,missing=4
		3:leaf=-0.296047091
		4:[f3<23.6452789] yes=7,no=8,missing=8
			7:leaf=-0.289079815
			8:leaf=0.110718206
	2:[f4<0.313162416] yes=5,no=6,missing=6
		5:[f5<361.297089] yes=9,no=10,missing=10
			9:leaf=-0.263794124
			10:leaf=0.0956501514
		6:[f2<125.828094] yes=11,no=12,missing=12
			11:leaf=0.0249900669
			12:leaf=-0.254213601
booster[15]:
0:[f1<20.8834953] yes=1,no=2,missing=2
	1:[f6<0.310514539] yes=3,no=4,missing=4
		3:[f6<0.283696771] yes=7,no=8,missing=8
			7:leaf=-0.294433832
			8:leaf=-0.133688316
		4:[f5<180.639664] yes=9,no=10,missing=10
			9:leaf=0.178777307
			10:leaf=-0.153419018
	2:[f1<103.65374] yes=5,no=6,missing=6
		5:[f6<0.401530594] yes=11,no=12,missing=12
			11:leaf=-0.102341458
			12:leaf=0.088334173
		6:[f2<136.00708] yes=13,no=14,missing=14
			13:leaf=0.0964619219
			14:leaf=-0.310417563
booster[16]:
0:[f2<44.7100372] yes=1,no=2,missing=2
	1:[f6<0.50240761] yes=3,no=4,missing=4
		3:[f6<0.344145775] yes=7,no=8,missing=8
			7:leaf=-0.300513059
			8:leaf=-0.167138815
		4:[f0<235.021591] yes=9,no=10,missing=10
			9:leaf=-0.198150948
			10:leaf=0.296449691
	2:[f4<0.85629344] yes=5,no=6,missing=6
		5:[f2<72.8559189] yes=11,no=12,missing=12
			11:leaf=-0.0692685172
			12:leaf=0.0607420355
		6:[f2<117.297295] yes=13,no=14,missing=14
			13:leaf=-0.14061828
			14:leaf=-0.290522903
booster[17]:
0:[f1<17.7773323] yes=1,no=2,missing=2
	1:[f5<509.676971] yes=3,no=4,missing=4
		3:[f6<0.344145775] yes=7,no=8,missing=8
			7:leaf=-0.288320243
			8:leaf=-0.140861928
		4:[f4<0.293497294] yes=9,no=10,missing=10
			9:leaf=0.318721145
			10:leaf=-0.182466298
	2:[f4<0.366542965] yes=5,no=6,missing=6
		5:[f3<117.286377] yes=11,no=12,missing=12
			11:leaf=-0.215521872
			12:leaf=0.182365894
		6:[f2<136.00708] yes=13,no=14,missing=14
			13:leaf=0.0288121086
			14:leaf=-0.307781219
booster[18]:
0:[f6<0.143571556] yes=1,no=2,missing=2
	1:[f2<93.6359787] yes=3,no=4,missing=4
		3:[f5<5.48598862] yes=7,no=8,missing=8
			7:leaf=0.349709511
			8:leaf=-0.230717599
		4:[f4<0.799160421] yes=9,no=10,missing=10
			9:leaf=0.0532873757
			10:leaf=-0.159565032
	2:[f3<171.228104] yes=5,no=6,missing=6
		5:[f4<0.441785991] yes=11,no=12,missing=12
			11:leaf=-0.035056144
			12:leaf=0.0971494019
		6:[f4<0.974183559] yes=13,no=14,missing=14
			13:leaf=-0.363640279
			14:leaf=0.164291427
booster[19]:
0:[f1<16.5067902] yes=1,no=2,missing=2
	1:[f6<0.344145775] yes=3,no=4,missing=4
		3:[f2<75.0978012] yes=7,no=8,missing=8
			7:leaf=-0.292519927
			8:leaf=-0.100601964
		4:[f4<0.446200192] yes=9,no=10,missing=10
			9:leaf=0.125240192
			10:leaf=-0.211863592
	2:[f6<0.0600207485] yes=5,no=6,missing=6
		5:[f2<100.595306] yes=11,no=12,missing=12
			11:leaf=-0.233065873
			12:leaf=-0.0266498066
		6:[f3<115.600433] yes=13,no=14,missing=14
			13:leaf=-0.0241075661
			14:leaf=0.0781072974
booster[20]:
0:[f1<15.7749996] yes=1,no=2,missing=2
	1:[f6<0.344145775] yes=3,no=4,missing=4
		3:[f0<657.302612] yes=7,no=8,missing=8
			7:leaf=-0.290063053
			8:leaf=-0.067228131
		4:[f0<451.775696] yes=9,no=10,missing=10
			9:leaf=-0.232451081
			10:leaf=0.190868065
	2:[f2<136.00708] yes=5,no=6,missing=6
		5:[f1<194.926834] yes=11,no=12,missing=12
			11:leaf=-0.0102648884
			12:leaf=0.208481014
		6:leaf=-0.300362468
booster[21]:
0:[f2<44.7100372] yes=1,no=2,missing=2
	1:[f6<0.50240761] yes=3,no=4,missing=4
		3:[f6<0.344145775] yes=7,no=8,missing=8
			7:leaf=-0.294697255
			8:leaf=-0.108092718
		4:[f0<235.021591] yes=9,no=10,missing=10
			9:leaf=-0.144551605
			10:leaf=0.252369493
	2:[f3<206.40004] yes=5,no=6,missing=6
		5:[f6<0.0424828716] yes=11,no=12,missing=12
			11:leaf=-0.140563503
			12:leaf=0.02280185
		6:[f6<0.266532898] yes=13,no=14,missing=14
			13:leaf=-0.147812724
			14:leaf=-0.464719802
booster[22]:
0:[f1<15.7749996] yes=1,no=2,missing=2
	1:[f6<0.344145775] yes=3,no=4,missing=4
		3:[f0<657.302612] yes=7,no=8,missing=8
			7:leaf=-0.283404261
			8:leaf=-0.0470000729
		4:[f0<458.394806] yes=9,no=10,missing=10
			9:leaf=-0.220935047
			10:leaf=0.175201327
	2:[f4<0.486460954] yes=5,no=6,missing=6
		5:[f3<115.600433] yes=11,no=12,missing=12
			11:leaf=-0.120386086
			12:leaf=0.129120365
		6:[f0<338.512207] yes=13,no=14,missing=14
			13:leaf=0.080933176
			14:leaf=-0.0656187385
booster[23]:
0:[f4<0.241813987] yes=1,no=2,missing=2
	1:[f3<-231.065964] yes=3,no=4,missing=4
		3:[f1<45.9016571] yes=7,no=8,missing=8
			7:leaf=-0.16457063
			8:leaf=0.168950588
		4:[f3<112.113136] yes=9,no=10,missing=10
			9:leaf=-0.291427195
			10:leaf=0.0130354669
	2:[f2<136.00708] yes=5,no=6,missing=6
		5:[f6<0.401530594] yes=11,no=12,missing=12
			11:leaf=-0.0157858785
			12:leaf=0.0803193226
		6:leaf=-0.291836321
booster[24]:
0:[f2<72.8559189] yes=1,no=2,missing=2
	1:[f6<0.401530594] yes=3,no=4,missing=4
		3:[f0<523.88623] yes=7,no=8,missing=8
			7:leaf=-0.192489132
			8:leaf=0.543532133
		4:[f5<180.639664] yes=9,no=10,missing=10
			9:leaf=0.536723197
			10:leaf=0.0284294281
	2:[f3<156.887054] yes=5,no=6,missing=6
		5:[f4<0.85629344] yes=11,no=12,missing=12
			11:leaf=0.0568420105
			12:leaf=-0.134643748
		6:[f0<347.578125] yes=13,no=14,missing=14
			13:leaf=-0.298093736
			14:leaf=-0.0281478353
booster[25]:
0:[f4<0.366542965] yes=1,no=2,missing=2
	1:[f6<0.50240761] yes=3,no=4,missing=4
		3:[f1<194.926834] yes=7,no=8,missing=8
			7:leaf=-0.239532739
			8:leaf=0.11720746
		4:[f5<198.039658] yes=9,no=10,missing=10
			9:leaf=0.62541455
			10:leaf=0.0278321262
	2:[f2<121.575073] yes=5,no=6,missing=6
		5:[f1<121.49234] yes=11,no=12,missing=12
			11:leaf=-0.00137792097
			12:leaf=0.0924300402
		6:[f6<0.162169695] yes=13,no=14,missing=14
			13:leaf=-0.0779267475
			14:leaf=-0.322604895
booster[26]:
0:[f1<15.7749996] yes=1,no=2,missing=2
	1:[f6<0.344145775] yes=3,no=4,missing=4
		3:[f2<75.0978012] yes=7,no=8,missing=8
			7:leaf=-0.271818101
			8:leaf=-0.062177211
		4:[f0<458.394806] yes=9,no=10,missing=10
			9:leaf=-0.211390942
			10:leaf=0.114190415
	2:[f4<0.503696501] yes=5,no=6,missing=6
		5:[f6<0.401530594] yes=11,no=12,missing=12
			11:leaf=-0.100208953
			12:leaf=0.0584643595
		6:[f5<5.48598862] yes=13,no=14,missing=14
			13:leaf=0.552971661
			14:leaf=0.0238893535
booster[27]:
0:[f6<0.0324784741] yes=1,no=2,missing=2
	1:[f2<105.214363] yes=3,no=4,missing=4
		3:[f5<3.16634464] yes=7,no=8,missing=8
			7:leaf=0.0168781057
			8:leaf=-0.283898801
		4:[f5<10.7336006] yes=9,no=10,missing=10
			9:leaf=0.132849097
			10:leaf=-0.100886978
	2:[f1<181.203461] yes=5,no=6,missing=6
		5:[f4<0.330982685] yes=11,no=12,missing=12
			11:leaf=-0.130742848
			12:leaf=0.00547628151
		6:[f2<84.3825684] yes=13,no=14,missing=14
			13:leaf=-0.191734329
			14:leaf=0.160841912
booster[28]:
0:[f2<136.00708] yes=1,no=2,missing=2
	1:[f3<119.133942] yes=3,no=4,missing=4
		3:[f6<0.170254394] yes=5,no=6,missing=6
			5:leaf=-0.0746167228
			6:leaf=0.0242497828
		4:[f6<0.266532898] yes=7,no=8,missing=8
			7:leaf=0.10024485
			8:leaf=-0.057218913
	2:leaf=-0.279776871
booster[29]:
0:[f4<0.968101025] yes=1,no=2,missing=2
	1:[f3<165.855499] yes=3,no=4,missing=4
		3:[f6<0.0600207485] yes=7,no=8,missing=8
			7:leaf=-0.0820859075
			8:leaf=0.0209584646
		4:[f5<36.1482086] yes=9,no=10,missing=10
			9:leaf=0.458948463
			10:leaf=-0.178619623
	2:[f3<176.387192] yes=5,no=6,missing=6
		5:[f6<0.0479369015] yes=11,no=12,missing=12
			11:leaf=-0.0275250673
			12:leaf=-0.290917277
		6:[f6<0.144977912] yes=13,no=14,missing=14
			13:leaf=-0.206751987
			14:leaf=0.155120969
booster[30]:
0:[f2<136.00708] yes=1,no=2,missing=2
	1:[f4<0.486460954] yes=3,no=4,missing=4
		3:[f3<129.227554] yes=5,no=6,missing=6
			5:leaf=-0.0702658966
			6:leaf=0.158293515
		4:[f0<329.359833] yes=7,no=8,missing=8
			7:leaf=0.0591328219
			8:leaf=-0.040262334
	2:leaf=-0.270224959
booster[31]:
0:[f0<123.934013] yes=1,no=2,missing=2
	1:[f1<96.2882614] yes=3,no=4,missing=4
		3:leaf=-0.278099
		4:[f3<94.5364075] yes=7,no=8,missing=8
			7:leaf=0.141082764
			8:leaf=-0.187420666
	2:[f2<117.297295] yes=5,no=6,missing=6
		5:[f6<0.047463309] yes=9,no=10,missing=10
			9:leaf=-0.0993092656
			10:leaf=0.0171120446
		6:[f6<0.187889174] yes=11,no=12,missing=12
			11:leaf=-0.0356612653
			12:leaf=-0.331858218
booster[32]:
0:[f1<15.2160263] yes=1,no=2,missing=2
	1:[f6<0.344145775] yes=3,no=4,missing=4
		3:[f2<72.8559189] yes=7,no=8,missing=8
			7:leaf=-0.271286905
			8:leaf=-0.0466031209
		4:[f3<57.84412] yes=9,no=10,missing=10
			9:leaf=0.11624299
			10:leaf=-0.193529472
	2:[f0<488.563049] yes=5,no=6,missing=6
		5:[f4<0.437563926] yes=11,no=12,missing=12
			11:leaf=-0.0685894936
			12:leaf=0.0159822367
		6:[f2<55.6709785] yes=13,no=14,missing=14
			13:leaf=0.630641997
			14:leaf=-0.00515058683
booster[33]:
0:[f1<194.926834] yes=1,no=2,missing=2
	1:[f4<0.307337523] yes=3,no=4,missing=4
		3:[f5<361.297089] yes=7,no=8,missing=8
			7:leaf=-0.227961197
			8:leaf=0.0635080785
		4:[f3<-178.064743] yes=9,no=10,missing=10
			9:leaf=0.091130577
			10:leaf=-0.00990300812
	2:[f0<303.43808] yes=5,no=6,missing=6
		5:[f3<98.5513535] yes=11,no=12,missing=12
			11:leaf=-0.164480448
			12:leaf=0.140657619
		6:[f4<0.420940131] yes=13,no=14,missing=14
			13:leaf=0.309894532
			14:leaf=-0.127135053
booster[34]:
0:[f4<0.988954842] yes=1,no=2,missing=2
	1:[f4<0.242744341] yes=3,no=4,missing=4
		3:[f3<-231.065964] yes=7,no=8,missing=8
			7:leaf=0.125502646
			8:leaf=-0.2495206
		4:[f4<0.26031521] yes=9,no=10,missing=10
			9:leaf=0.24856618
			10:leaf=0.00107313879
	2:[f6<0.0424828716] yes=5,no=6,missing=6
		5:leaf=-0.0181551669
		6:[f3<183.994186] yes=11,no=12,missing=12
			11:leaf=-0.279146969
			12:leaf=-0.0727045387
booster[35]:
0:[f5<5.48598862] yes=1,no=2,missing=2
	1:[f0<303.43808] yes=3,no=4,missing=4
		3:leaf=-0.199285552
		4:[f0<319.761108] yes=7,no=8,missing=8
			7:leaf=1.0639447
			8:leaf=0.0826937109
	2:[f1<126.703903] yes=5,no=6,missing=6
		5:[f6<0.164313525] yes=9,no=10,missing=10
			9:leaf=-0.0497828983
			10:leaf=0.00479944004
		6:[f2<78.4325943] yes=11,no=12,missing=12
			11:leaf=-0.0973298922
			12:leaf=0.069334127
booster[36]:
0:[f2<136.00708] yes=1,no=2,missing=2
	1:[f0<137.317719] yes=3,no=4,missing=4
		3:[f2<63.8632088] yes=5,no=6,missing=6
			5:leaf=-0.270847291
			6:leaf=-0.0109024914
		4:[f2<22.9825249] yes=7,no=8,missing=8
			7:leaf=0.375850499
			8:leaf=0.00298247091
	2:leaf=-0.257229894
booster[37]:
0:[f3<206.40004] yes=1,no=2,missing=2
	1:[f3<119.133942] yes=3,no=4,missing=4
		3:[f5<403.733856] yes=7,no=8,missing=8
			7:leaf=-0.0049684085
			8:leaf=-0.176470339
		4:[f2<117.297295] yes=9,no=10,missing=10
			9:leaf=0.0585997328
			10:leaf=-0.109220676
	2:[f4<0.861676693] yes=5,no=6,missing=6
		5:[f5<509.676971] yes=11,no=12,missing=12
			11:leaf=-0.400699586
			12:leaf=-0.0633568838
		6:[f0<305.413605] yes=13,no=14,missing=14
			13:leaf=-0.23994197
			14:leaf=0.183368057
booster[38]:
0:[f6<0.50240761] yes=1,no=2,missing=2
	1:[f2<65.3178864] yes=3,no=4,missing=4
		3:[f1<64.3487244] yes=7,no=8,missing=8
			7:leaf=-0.0126931211
			8:leaf=-0.37041235
		4:[f6<0.401530594] yes=9,no=10,missing=10
			9:leaf=0.00292894267
			10:leaf=0.139208376
	2:[f2<77.5136642] yes=5,no=6,missing=6
		5:[f0<402.61853] yes=11,no=12,missing=12
			11:leaf=0.120978951
			12:leaf=-0.207253382
		6:[f4<0.270792276] yes=13,no=14,missing=14
			13:leaf=0.19531323
			14:leaf=-0.285902888
booster[39]:
0:[f1<17.7773323] yes=1,no=2,missing=2
	1:[f3<57.321106] yes=3,no=4,missing=4
		3:[f5<403.733856] yes=7,no=8,missing=8
			7:leaf=-0.255731434
			8:leaf=-0.0651030391
		4:[f2<29.2957077] yes=9,no=10,missing=10
			9:leaf=0.272891432
			10:leaf=-0.133941993
	2:[f1<18.2733192] yes=5,no=6,missing=6
		5:[f6<0.283696771] yes=11,no=12,missing=12
			11:leaf=-0.164799213
			12:leaf=0.500757873
		6:[f0<488.563049] yes=13,no=14,missing=14
			13:leaf=-0.00650022877
			14:leaf=0.0948061794
booster[40]:
0:[f0<725.74115] yes=1,no=2,missing=2
	1:[f0<515.795227] yes=3,no=4,missing=4
		3:[f0<409.70343] yes=7,no=8,missing=8
			7:leaf=0.00510120811
			8:leaf=-0.0854636729
		4:[f2<55.6709785] yes=9,no=10,missing=10
			9:leaf=0.477701277
			10:leaf=-0.00546620227
	2:[f1<55.8856201] yes=5,no=6,missing=6
		5:leaf=-0.325089246
		6:[f2<117.297295] yes=11,no=12,missing=12
			11:leaf=0.0531201102
			12:leaf=-0.168591574
booster[41]:
0:[f4<0.527290523] yes=1,no=2,missing=2
	1:[f6<0.401530594] yes=3,no=4,missing=4
		3:[f2<77.5136642] yes=7,no=8,missing=8
			7:leaf=-0.197400823
			8:leaf=0.020386409
		4:[f3<95.9671936] yes=9,no=10,missing=10
			9:leaf=0.156071186
			10:leaf=-0.0461072139
	2:[f5<105.314186] yes=5,no=6,missing=6
		5:[f6<0.187889174] yes=11,no=12,missing=12
			11:leaf=0.021968117
			12:leaf=0.30837059
		6:[f2<71.5142746] yes=13,no=14,missing=14
			13:leaf=0.0682742372
			14:leaf=-0.11311315
booster[42]:
0:[f6<0.0324784741] yes=1,no=2,missing=2
	1:[f2<105.214363] yes=3,no=4,missing=4
		3:[f5<3.16634464] yes=7,no=8,missing=8
			7:leaf=0.0305500831
			8:leaf=-0.253194183
		4:[f5<29.8972034] yes=9,no=10,missing=10
			9:leaf=-0.0603903234
			10:leaf=0.214933306
	2:[f5<13.1535358] yes=5,no=6,missing=6
		5:[f6<0.0559597462] yes=11,no=12,missing=12
			11:leaf=-0.0814721137
			12:leaf=0.459808379
		6:[f6<0.0352265872] yes=13,no=14,missing=14
			13:leaf=0.368991822
			14:leaf=-0.00300664129
booster[43]:
0:[f2<136.00708] yes=1,no=2,missing=2
	1:[f1<103.65374] yes=3,no=4,missing=4
		3:[f4<0.313162416] yes=5,no=6,missing=6
			5:leaf=-0.15746817
			6:leaf=-0.00574307796
		4:[f6<0.0823378339] yes=7,no=8,missing=8
			7:leaf=-0.0491391979
			8:leaf=0.0481958352
	2:leaf=-0.241760045
booster[44]:
0:[f0<201.794556] yes=1,no=2,missing=2
	1:[f2<59.0753822] yes=3,no=4,missing=4
		3:[f0<169.359131] yes=7,no=8,missing=8
			7:leaf=-0.285557359
			8:leaf=-0.0295281745
		4:[f6<0.50240761] yes=9,no=10,missing=10
			9:leaf=-0.0488569252
			10:leaf=0.17772536
	2:[f2<49.4520035] yes=5,no=6,missing=6
		5:[f2<48.0986481] yes=11,no=12,missing=12
			11:leaf=0.0283067357
			12:leaf=0.427100927
		6:[f6<0.836383104] yes=13,no=14,missing=14
			13:leaf=0.00433268119
			14:leaf=-0.285548925
booster[45]:
0:[f3<-31.1704578] yes=1,no=2,missing=2
	1:[f1<21.8264465] yes=3,no=4,missing=4
		3:[f6<0.0595970824] yes=7,no=8,missing=8
			7:leaf=-0.0724379793
			8:leaf=-0.270457834
		4:[f6<0.836383104] yes=9,no=10,missing=10
			9:leaf=0.0784531683
			10:leaf=-0.173805311
	2:[f3<41.0549622] yes=5,no=6,missing=6
		5:[f4<0.713807106] yes=11,no=12,missing=12
			11:leaf=-0.222066239
			12:leaf=0.0516463742
		6:[f3<50.5974388] yes=13,no=14,missing=14
			13:leaf=0.227217197
			14:leaf=-0.00747551583
booster[46]:
0:[f4<0.988954842] yes=1,no=2,missing=2
	1:[f4<0.930594981] yes=3,no=4,missing=4
		3:[f3<160.899445] yes=7,no=8,missing=8
			7:leaf=0.00348525704
			8:leaf=-0.111140482
		4:[f5<77.2244263] yes=9,no=10,missing=10
			9:leaf=0.279940397
			10:leaf=-0.0758543685
	2:[f3<183.994186] yes=5,no=6,missing=6
		5:[f2<117.297295] yes=11,no=12,missing=12
			11:leaf=-0.255084932
			12:leaf=0.00432392349
		6:[f3<206.40004] yes=13,no=14,missing=14
			13:leaf=0.114908636
			14:leaf=-0.172595844
booster[47]:
0:[f6<0.149081856] yes=1,no=2,missing=2
	1:[f2<100.595306] yes=3,no=4,missing=4
		3:[f0<523.88623] yes=7,no=8,missing=8
			7:leaf=-0.109952971
			8:leaf=0.179040655
		4:[f5<133.594971] yes=9,no=10,missing=10
			9:leaf=0.0197408628
			10:leaf=0.335822374
	2:[f5<105.314186] yes=5,no=6,missing=6
		5:[f3<101.301338] yes=11,no=12,missing=12
			11:leaf=-0.000181261858
			12:leaf=0.198281154
		6:[f2<105.214363] yes=13,no=14,missing=14
			13:leaf=0.00177065691
			14:leaf=-0.177672565
booster[48]:
0:[f6<0.50240761] yes=1,no=2,missing=2
	1:[f2<43.145546] yes=3,no=4,missing=4
		3:[f4<0.503696501] yes=7,no=8,missing=8
			7:leaf=-0.244591966
			8:leaf=0.0197114609
		4:[f2<49.1384315] yes=9,no=10,missing=10
			9:leaf=0.187028006
			10:leaf=-0.00836963579
	2:[f4<0.26031521] yes=5,no=6,missing=6
		5:[f3<63.7072525] yes=11,no=12,missing=12
			11:leaf=0.395702213
			12:leaf=-0.151325971
		6:[f2<77.5136642] yes=13,no=14,missing=14
			13:leaf=0.0480013788
			14:leaf=-0.114270478
booster[49]:
0:[f4<0.503696501] yes=1,no=2,missing=2
	1:[f0<333.960968] yes=3,no=4,missing=4
		3:[f6<0.401530594] yes=7,no=8,missing=8
			7:leaf=-0.131213874
			8:leaf=0.0108011626
		4:[f4<0.446200192] yes=9,no=10,missing=10
			9:leaf=0.0920192823
			10:leaf=-0.130757406
	2:[f5<117.893349] yes=5,no=6,missing=6
		5:[f6<0.187889174] yes=11,no=12,missing=12
			11:leaf=0.011308847
			12:leaf=0.140013218
		6:[f3<125.024742] yes=13,no=14,missing=14
			13:leaf=0.0135686733
			14:leaf=-0.128103822
