booster[0]:
0:[f2<79.623024] yes=1,no=2,missing=2
	1:[f3<0.465314031] yes=3,no=4,missing=4
		3:[f3<0.3459194] yes=7,no=8,missing=8
			7:leaf=-0.183824003
			8:leaf=-0.107520536
		4:[f1<84.2041779] yes=9,no=10,missing=10
			9:leaf=-0.0511155836
			10:leaf=0.0886831209
	2:[f3<0.401401073] yes=5,no=6,missing=6
		5:[f2<99.3636093] yes=11,no=12,missing=12
			11:leaf=-0.081048958
			12:leaf=0.13789539
		6:[f2<134.944107] yes=13,no=14,missing=14
			13:leaf=0.12487831
			14:leaf=-0.197269633
booster[1]:
0:[f2<79.623024] yes=1,no=2,missing=2
	1:[f3<0.408206969] yes=3,no=4,missing=4
		3:[f3<0.3459194] yes=7,no=8,missing=8
			7:leaf=-0.166906908
			8:leaf=-0.113885932
		4:[f0<387.899536] yes=9,no=10,missing=10
			9:leaf=-0.0146139553
			10:leaf=-0.192420185
	2:[f3<0.478088856] yes=5,no=6,missing=6
		5:[f2<103.999474] yes=11,no=12,missing=12
			11:leaf=-0.0256211758
			12:leaf=0.154425561
		6:[f2<134.944107] yes=13,no=14,missing=14
			13:leaf=0.126910046
			14:leaf=-0.179543465
booster[2]:
0:[f2<79.8160095] yes=1,no=2,missing=2
	1:[f3<0.465314031] yes=3,no=4,missing=4
		3:[f3<0.3459194] yes=7,no=8,missing=8
			7:leaf=-0.153899655
			8:leaf=-0.0902245864
		4:[f1<84.2041779] yes=9,no=10,missing=10
			9:leaf=-0.039645806
			10:leaf=0.0802581385
	2:[f3<0.401401073] yes=5,no=6,missing=6
		5:[f2<99.3636093] yes=11,no=12,missing=12
			11:leaf=-0.0691624954
			12:leaf=0.115794711
		6:[f2<94.6195908] yes=13,no=14,missing=14
			13:leaf=0.0643406063
			14:leaf=0.131569073
booster[3]:
0:[f2<79.623024] yes=1,no=2,missing=2
	1:[f3<0.408206969] yes=3,no=4,missing=4
		3:[f3<0.3459194] yes=7,no=8,missing=8
			7:leaf=-0.143174723
			8:leaf=-0.09568353
		4:[f0<364.750183] yes=9,no=10,missing=10
			9:leaf=-0.007664904
			10:leaf=-0.142243162
	2:[f3<0.478088856] yes=5,no=6,missing=6
		5:[f2<103.999474] yes=11,no=12,missing=12
			11:leaf=-0.023349667
			12:leaf=0.131859139
		6:[f2<134.944107] yes=13,no=14,missing=14
			13:leaf=0.107273459
			14:leaf=-0.175738752
booster[4]:
0:[f2<84.1081924] yes=1,no=2,missing=2
	1:[f3<0.396661431] yes=3,no=4,missing=4
		3:[f3<0.342581183] yes=7,no=8,missing=8
			7:leaf=-0.136184663
			8:leaf=-0.0914136022
		4:[f2<71.2278595] yes=9,no=10,missing=10
			9:leaf=-0.0472705923
			10:leaf=0.0272384323
	2:[f3<0.478088856] yes=5,no=6,missing=6
		5:[f2<91.7956161] yes=11,no=12,missing=12
			11:leaf=-0.0691709742
			12:leaf=0.0592611916
		6:[f2<134.944107] yes=13,no=14,missing=14
			13:leaf=0.107373811
			14:leaf=-0.163237646
booster[5]:
0:[f2<80.3369141] yes=1,no=2,missing=2
	1:[f3<0.465314031] yes=3,no=4,missing=4
		3:[f3<0.3459194] yes=7,no=8,missing=8
			7:leaf=-0.127474189
			8:leaf=-0.0708959401
		4:[f1<84.2041779] yes=9,no=10,missing=10
			9:leaf=-0.029284684
			10:leaf=0.0719863921
	2:[f2<94.6195908] yes=5,no=6,missing=6
		5:[f0<276.435272] yes=11,no=12,missing=12
			11:leaf=0.0832216367
			12:leaf=-0.0492354743
		6:[f2<134.944107] yes=13,no=14,missing=14
			13:leaf=0.107580557
			14:leaf=-0.158603907
booster[6]:
0:[f2<84.1081924] yes=1,no=2,missing=2
	1:[f3<0.396661431] yes=3,no=4,missing=4
		3:[f3<0.342581183] yes=7,no=8,missing=8
			7:leaf=-0.122326635
			8:leaf=-0.0787295178
		4:[f0<389.832062] yes=9,no=10,missing=10
			9:leaf=-0.00087611482
			10:leaf=-0.137902811
	2:[f3<0.478088856] yes=5,no=6,missing=6
		5:[f2<103.999474] yes=11,no=12,missing=12
			11:leaf=-0.0244468339
			12:leaf=0.112048224
		6:[f2<134.944107] yes=13,no=14,missing=14
			13:leaf=0.0937067792
			14:leaf=-0.145235866
booster[7]:
0:[f3<0.497693717] yes=1,no=2,missing=2
	1:[f2<91.7956161] yes=3,no=4,missing=4
		3:[f3<0.370802045] yes=7,no=8,missing=8
			7:leaf=-0.101388551
			8:leaf=-0.0407060497
		4:[f1<130.858124] yes=9,no=10,missing=10
			9:leaf=-0.153352782
			10:leaf=0.0692484528
	2:[f1<79.5457611] yes=5,no=6,missing=6
		5:[f1<26.6062145] yes=11,no=12,missing=12
			11:leaf=-0.0982675403
			12:leaf=0.0223278869
		6:[f2<134.944107] yes=13,no=14,missing=14
			13:leaf=0.101861611
			14:leaf=-0.138474107
booster[8]:
0:[f2<92.1404114] yes=1,no=2,missing=2
	1:[f3<0.528880298] yes=3,no=4,missing=4
		3:[f3<0.370802045] yes=7,no=8,missing=8
			7:leaf=-0.0932016745
			8:leaf=-0.0343041942
		4:[f1<78.937851] yes=9,no=10,missing=10
			9:leaf=-0.00411069021
			10:leaf=0.101835325
	2:[f2<134.944107] yes=5,no=6,missing=6
		5:[f3<0.403213143] yes=11,no=12,missing=12
			11:leaf=0.012996288
			12:leaf=0.0930325761
		6:leaf=-0.141450256
booster[9]:
0:[f2<79.3778839] yes=1,no=2,missing=2
	1:[f3<0.465314031] yes=3,no=4,missing=4
		3:[f3<0.3459194] yes=7,no=8,missing=8
			7:leaf=-0.106351815
			8:leaf=-0.0544775091
		4:[f0<217.132355] yes=9,no=10,missing=10
			9:leaf=0.0503630303
			10:leaf=-0.0364525393
	2:[f2<99.3636093] yes=5,no=6,missing=6
		5:[f0<276.435272] yes=11,no=12,missing=12
			11:leaf=0.07058651
			12:leaf=-0.0311891343
		6:[f2<134.944107] yes=13,no=14,missing=14
			13:leaf=0.0976677537
			14:leaf=-0.136238858
booster[10]:
0:[f2<94.6195908] yes=1,no=2,missing=2
	1:[f3<0.528880298] yes=3,no=4,missing=4
		3:[f0<410.62326] yes=7,no=8,missing=8
			7:leaf=-0.036210712
			8:leaf=-0.123189323
		4:[f1<84.2041779] yes=9,no=10,missing=10
			9:leaf=0.000790353341
			10:leaf=0.0955040902
	2:[f2<134.944107] yes=5,no=6,missing=6
		5:[f2<103.999474] yes=11,no=12,missing=12
			11:leaf=0.0523793288
			12:leaf=0.0992516205
		6:leaf=-0.131792858
booster[11]:
0:[f2<74.8035812] yes=1,no=2,missing=2
	1:[f3<0.3459194] yes=3,no=4,missing=4
		3:[f3<0.231801763] yes=7,no=8,missing=8
			7:leaf=0.0391646177
			8:leaf=-0.110794388
		4:[f1<29.1365471] yes=9,no=10,missing=10
			9:leaf=-0.110508181
			10:leaf=-0.0203013346
	2:[f3<0.478088856] yes=5,no=6,missing=6
		5:[f1<128.553665] yes=11,no=12,missing=12
			11:leaf=-0.0827974901
			12:leaf=0.00772492681
		6:[f0<416.404602] yes=13,no=14,missing=14
			13:leaf=0.0667556524
			14:leaf=-0.0605353191
booster[12]:
0:[f2<92.1404114] yes=1,no=2,missing=2
	1:[f3<0.408206969] yes=3,no=4,missing=4
		3:[f1<114.5625] yes=7,no=8,missing=8
			7:leaf=-0.092445828
			8:leaf=-0.0397395752
		4:[f0<394.319641] yes=9,no=10,missing=10
			9:leaf=0.0105499392
			10:leaf=-0.0899325162
	2:[f2<134.944107] yes=5,no=6,missing=6
		5:[f2<103.999474] yes=11,no=12,missing=12
			11:leaf=0.037521679
			12:leaf=0.0917911679
		6:leaf=-0.128689811
booster[13]:
0:[f2<79.3778839] yes=1,no=2,missing=2
	1:[f3<0.410459071] yes=3,no=4,missing=4
		3:[f2<68.9742966] yes=7,no=8,missing=8
			7:leaf=-0.052241005
			8:leaf=-0.12039315
		4:[f0<387.899536] yes=9,no=10,missing=10
			9:leaf=-0.00017284583
			10:leaf=-0.138527542
	2:[f2<99.3636093] yes=5,no=6,missing=6
		5:[f0<276.435272] yes=11,no=12,missing=12
			11:leaf=0.0594065189
			12:leaf=-0.0266252607
		6:[f2<134.944107] yes=13,no=14,missing=14
			13:leaf=0.0802061185
			14:leaf=-0.125228509
booster[14]:
0:[f3<0.497693717] yes=1,no=2,missing=2
	1:[f1<114.5625] yes=3,no=4,missing=4
		3:[f3<0.408206969] yes=7,no=8,missing=8
			7:leaf=-0.0855069682
			8:leaf=-0.035930112
		4:[f1<116.594841] yes=9,no=10,missing=10
			9:leaf=0.154949516
			10:leaf=-0.010626181
	2:[f1<84.2041779] yes=5,no=6,missing=6
		5:[f3<0.657639265] yes=11,no=12,missing=12
			11:leaf=-0.0229526218
			12:leaf=0.0397347771
		6:[f3<0.822347581] yes=13,no=14,missing=14
			13:leaf=0.0738375708
			14:leaf=-0.206825182
booster[15]:
0:[f2<94.6195908] yes=1,no=2,missing=2
	1:[f3<0.396661431] yes=3,no=4,missing=4
		3:[f1<252.794968] yes=7,no=8,missing=8
			7:leaf=-0.0604223013
			8:leaf=0.0785017833
		4:[f0<394.319641] yes=9,no=10,missing=10
			9:leaf=0.00948817749
			10:leaf=-0.0875076503
	2:[f2<134.944107] yes=5,no=6,missing=6
		5:[f0<168.939346] yes=11,no=12,missing=12
			11:leaf=-0.393681318
			12:leaf=0.0631652325
		6:leaf=-0.122072138
booster[16]:
0:[f3<0.497693717] yes=1,no=2,missing=2
	1:[f2<103.999474] yes=3,no=4,missing=4
		3:[f1<114.5625] yes=7,no=8,missing=8
			7:leaf=-0.0527697206
			8:leaf=-0.0111705204
		4:[f1<130.086685] yes=9,no=10,missing=10
			9:leaf=-0.289416313
			10:leaf=0.0872599706
	2:[f1<84.2041779] yes=5,no=6,missing=6
		5:[f1<17.6402607] yes=11,no=12,missing=12
			11:leaf=-0.15577893
			12:leaf=0.00972856302
		6:[f2<69.1644287] yes=13,no=14,missing=14
			13:leaf=-0.106661096
			14:leaf=0.0687093064
booster[17]:
0:[f3<0.396661431] yes=1,no=2,missing=2
	1:[f1<252.794968] yes=3,no=4,missing=4
		3:[f0<352.513031] yes=7,no=8,missing=8
			7:leaf=-0.0689304024
			8:leaf=-0.0160766076
		4:[f3<0.238897786] yes=9,no=10,missing=10
			9:leaf=-0.135804147
			10:leaf=0.0955967531
	2:[f2<71.2278595] yes=5,no=6,missing=6
		5:[f0<204.730408] yes=11,no=12,missing=12
			11:leaf=-0.0955118313
			12:leaf=0.00247469079
		6:[f0<276.435272] yes=13,no=14,missing=14
			13:leaf=0.057754647
			14:leaf=0.00112747971
booster[18]:
0:[f2<94.6195908] yes=1,no=2,missing=2
	1:[f3<0.342581183] yes=3,no=4,missing=4
		3:[f1<252.794968] yes=7,no=8,missing=8
			7:leaf=-0.0880304947
			8:leaf=0.0637491271
		4:[f0<416.404602] yes=9,no=10,missing=10
			9:leaf=0.00147485291
			10:leaf=-0.0851855502
	2:[f2<134.944107] yes=5,no=6,missing=6
		5:[f3<0.439305663] yes=11,no=12,missing=12
			11:leaf=0.00809540227
			12:leaf=0.0648637041
		6:leaf=-0.121447422
booster[19]:
0:[f3<0.528880298] yes=1,no=2,missing=2
	1:[f1<114.5625] yes=3,no=4,missing=4
		3:[f1<52.9178581] yes=7,no=8,missing=8
			7:leaf=-0.00132887752
			8:leaf=-0.0584391132
		4:[f3<0.370802045] yes=9,no=10,missing=10
			9:leaf=-0.0341289006
			10:leaf=0.0262276269
	2:[f1<27.4876785] yes=5,no=6,missing=6
		5:[f2<90.1104965] yes=11,no=12,missing=12
			11:leaf=-0.103836417
			12:leaf=0.0906043425
		6:[f1<83.6445007] yes=13,no=14,missing=14
			13:leaf=0.0174614638
			14:leaf=0.0653634891
booster[20]:
0:[f2<99.3636093] yes=1,no=2,missing=2
	1:[f3<0.528880298] yes=3,no=4,missing=4
		3:[f0<410.62326] yes=7,no=8,missing=8
			7:leaf=-0.0168305151
			8:leaf=-0.0787499771
		4:[f2<51.7409515] yes=9,no=10,missing=10
			9:leaf=-0.154915661
			10:leaf=0.0253266785
	2:[f3<0.89345789] yes=5,no=6,missing=6
		5:[f2<134.944107] yes=11,no=12,missing=12
			11:leaf=0.0652727708
			12:leaf=-0.120533586
		6:[f0<386.024597] yes=13,no=14,missing=14
			13:leaf=-0.36823985
			14:leaf=-0.0253648814
booster[21]:
0:[f2<79.3778839] yes=1,no=2,missing=2
	1:[f0<364.750183] yes=3,no=4,missing=4
		3:[f0<130.725327] yes=7,no=8,missing=8
			7:leaf=0.107918493
			8:leaf=-0.0146318153
		4:[f2<67.2028885] yes=9,no=10,missing=10
			9:leaf=-0.0672975853
			10:leaf=-0.129298612
	2:[f2<103.999474] yes=5,no=6,missing=6
		5:[f0<246.849594] yes=11,no=12,missing=12
			11:leaf=0.0521570034
			12:leaf=-0.00838488061
		6:[f3<0.698703408] yes=13,no=14,missing=14
			13:leaf=0.0764248371
			14:leaf=-0.0281874221
booster[22]:
0:[f3<0.396661431] yes=1,no=2,missing=2
	1:[f0<352.513031] yes=3,no=4,missing=4
		3:[f0<191.939072] yes=7,no=8,missing=8
			7:leaf=0.0174444821
			8:leaf=-0.0722585171
		4:[f0<360.240845] yes=9,no=10,missing=10
			9:leaf=0.156095847
			10:leaf=-0.0104632173
	2:[f2<71.2278595] yes=5,no=6,missing=6
		5:[f0<204.730408] yes=11,no=12,missing=12
			11:leaf=-0.0865436345
			12:leaf=0.00813573692
		6:[f0<276.435272] yes=13,no=14,missing=14
			13:leaf=0.0470664315
			14:leaf=-0.00413287384
booster[23]:
0:[f2<92.1404114] yes=1,no=2,missing=2
	1:[f3<0.342581183] yes=3,no=4,missing=4
		3:[f2<91.7956161] yes=7,no=8,missing=8
			7:leaf=-0.071852684
			8:leaf=0.187713131
		4:[f0<416.404602] yes=9,no=10,missing=10
			9:leaf=0.000753695262
			10:leaf=-0.0775043592
	2:[f0<449.841705] yes=5,no=6,missing=6
		5:[f3<0.303017497] yes=11,no=12,missing=12
			11:leaf=0.167455658
			12:leaf=0.0392193012
		6:[f3<0.323219687] yes=13,no=14,missing=14
			13:leaf=0.051638782
			14:leaf=-0.0993025526
booster[24]:
0:[f2<99.3636093] yes=1,no=2,missing=2
	1:[f3<0.581230581] yes=3,no=4,missing=4
		3:[f0<240.693283] yes=7,no=8,missing=8
			7:leaf=0.00571280112
			8:leaf=-0.0323417261
		4:[f1<17.6402607] yes=9,no=10,missing=10
			9:leaf=-0.141843945
			10:leaf=0.0305081196
	2:[f3<0.89345789] yes=5,no=6,missing=6
		5:[f2<134.944107] yes=11,no=12,missing=12
			11:leaf=0.0562908053
			12:leaf=-0.118595712
		6:[f0<386.024597] yes=13,no=14,missing=14
			13:leaf=-0.31958738
			14:leaf=-0.021668246
booster[25]:
0:[f2<103.999474] yes=1,no=2,missing=2
	1:[f0<416.404602] yes=3,no=4,missing=4
		3:[f3<0.370802045] yes=7,no=8,missing=8
			7:leaf=-0.0390750691
			8:leaf=0.00667537097
		4:[f3<0.255582571] yes=9,no=10,missing=10
			9:leaf=0.0749277994
			10:leaf=-0.0806541592
	2:[f3<0.698703408] yes=5,no=6,missing=6
		5:[f0<698.896423] yes=11,no=12,missing=12
			11:leaf=0.0702083036
			12:leaf=-0.252149433
		6:[f0<227.244354] yes=13,no=14,missing=14
			13:leaf=-0.247810483
			14:leaf=-0.000127673586
booster[26]:
0:[f2<79.3778839] yes=1,no=2,missing=2
	1:[f0<364.750183] yes=3,no=4,missing=4
		3:[f0<322.53302] yes=7,no=8,missing=8
			7:leaf=-0.0154479863
			8:leaf=0.0516074263
		4:[f2<67.2028885] yes=9,no=10,missing=10
			9:leaf=-0.057459332
			10:leaf=-0.124946453
	2:[f2<103.999474] yes=5,no=6,missing=6
		5:[f0<276.435272] yes=11,no=12,missing=12
			11:leaf=0.0345245749
			12:leaf=-0.0113751814
		6:[f3<0.698703408] yes=13,no=14,missing=14
			13:leaf=0.0647430345
			14:leaf=-0.0261406992
booster[27]:
0:[f3<0.528880298] yes=1,no=2,missing=2
	1:[f1<114.5625] yes=3,no=4,missing=4
		3:[f1<52.9178581] yes=7,no=8,missing=8
			7:leaf=0.0113567803
			8:leaf=-0.0460636579
		4:[f1<116.594841] yes=9,no=10,missing=10
			9:leaf=0.142165795
			10:leaf=-0.00086513086
	2:[f2<51.7409515] yes=5,no=6,missing=6
		5:leaf=-0.144749165
		6:[f1<83.6445007] yes=11,no=12,missing=12
			11:leaf=0.00820710044
			12:leaf=0.0485584103
booster[28]:
0:[f1<26.6062145] yes=1,no=2,missing=2
	1:[f2<90.1104965] yes=3,no=4,missing=4
		3:[f2<54.9817238] yes=7,no=8,missing=8
			7:leaf=-0.134725079
			8:leaf=-0.0529628694
		4:[f2<91.7956161] yes=9,no=10,missing=10
			9:leaf=0.143622592
			10:leaf=-0.2640827
	2:[f1<36.0044479] yes=5,no=6,missing=6
		5:[f3<0.349124283] yes=11,no=12,missing=12
			11:leaf=0.346345037
			12:leaf=0.044520881
		6:[f2<43.534256] yes=13,no=14,missing=14
			13:leaf=-0.119292818
			14:leaf=0.000714939903
booster[29]:
0:[f3<0.396661431] yes=1,no=2,missing=2
	1:[f0<352.513031] yes=3,no=4,missing=4
		3:[f0<191.939072] yes=7,no=8,missing=8
			7:leaf=0.0232603475
			8:leaf=-0.0638069883
		4:[f0<410.62326] yes=9,no=10,missing=10
			9:leaf=0.0624050274
			10:leaf=-0.0337615311
	2:[f1<26.6062145] yes=5,no=6,missing=6
		5:[f2<90.1104965] yes=11,no=12,missing=12
			11:leaf=-0.0897763222
			12:leaf=0.0838250816
		6:[f2<45.0798607] yes=13,no=14,missing=14
			13:leaf=0.102827743
			14:leaf=0.00895047653
booster[30]:
0:[f2<94.6195908] yes=1,no=2,missing=2
	1:[f3<0.342581183] yes=3,no=4,missing=4
		3:[f1<252.794968] yes=7,no=8,missing=8
			7:leaf=-0.0703025833
			8:leaf=0.0859510079
		4:[f0<130.725327] yes=9,no=10,missing=10
			9:leaf=0.0998085663
			10:leaf=-0.00346810068
	2:[f0<168.939346] yes=5,no=6,missing=6
		5:[f3<0.89345789] yes=11,no=12,missing=12
			11:leaf=-0.392920315
			12:leaf=-0.124485038
		6:[f2<127.025284] yes=13,no=14,missing=14
			13:leaf=0.0361875109
			14:leaf=-0.054951299
booster[31]:
0:[f2<103.999474] yes=1,no=2,missing=2
	1:[f0<416.404602] yes=3,no=4,missing=4
		3:[f1<29.1365471] yes=7,no=8,missing=8
			7:leaf=-0.0630946606
			8:leaf=0.00270417565
		4:[f0<698.896423] yes=9,no=10,missing=10
			9:leaf=-0.0723317191
			10:leaf=0.0886421427
	2:[f2<127.025284] yes=5,no=6,missing=6
		5:[f3<0.956652224] yes=11,no=12,missing=12
			11:leaf=0.0569582656
			12:leaf=-0.274851263
		6:[f3<0.803148985] yes=13,no=14,missing=14
			13:leaf=-0.0186293405
			14:leaf=-0.193396345
booster[32]:
0:[f3<0.528880298] yes=1,no=2,missing=2
	1:[f1<114.5625] yes=3,no=4,missing=4
		3:[f1<52.9178581] yes=7,no=8,missing=8
			7:leaf=0.0110270642
			8:leaf=-0.0415624045
		4:[f1<116.594841] yes=9,no=10,missing=10
			9:leaf=0.122139096
			10:leaf=-4.94005508e-05
	2:[f2<51.7409515] yes=5,no=6,missing=6
		5:leaf=-0.133661553
		6:[f2<58.5175705] yes=11,no=12,missing=12
			11:leaf=0.0917128548
			12:leaf=0.0132327499
booster[33]:
0:[f3<0.436314434] yes=1,no=2,missing=2
	1:[f0<322.53302] yes=3,no=4,missing=4
		3:[f3<0.370802045] yes=7,no=8,missing=8
			7:leaf=-0.0743074864
			8:leaf=-0.0147994328
		4:[f2<42.7109337] yes=9,no=10,missing=10
			9:leaf=0.16346544
			10:leaf=0.0054363762
	2:[f1<123.276764] yes=5,no=6,missing=6
		5:[f3<0.577327073] yes=11,no=12,missing=12
			11:leaf=-0.0233618133
			12:leaf=0.018801529
		6:[f2<69.1644287] yes=13,no=14,missing=14
			13:leaf=-0.161424413
			14:leaf=0.0553625412
booster[34]:
0:[f1<17.6402607] yes=1,no=2,missing=2
	1:leaf=-0.126697123
	2:[f3<0.436314434] yes=3,no=4,missing=4
		3:[f0<322.53302] yes=5,no=6,missing=6
			5:leaf=-0.0310554802
			6:leaf=0.0145689175
		4:[f1<123.276764] yes=7,no=8,missing=8
			7:leaf=-0.000181353549
			8:leaf=0.0470228456
booster[35]:
0:[f0<130.725327] yes=1,no=2,missing=2
	1:[f2<45.3858871] yes=3,no=4,missing=4
		3:leaf=-0.126355723
		4:[f2<47.5625839] yes=7,no=8,missing=8
			7:leaf=0.246159583
			8:leaf=0.0678798482
	2:[f2<54.9817238] yes=5,no=6,missing=6
		5:[f0<322.53302] yes=9,no=10,missing=10
			9:leaf=-0.057035096
			10:leaf=0.0294441078
		6:[f2<56.4943848] yes=11,no=12,missing=12
			11:leaf=0.0805512294
			12:leaf=0.000518731831
booster[36]:
0:[f0<416.404602] yes=1,no=2,missing=2
	1:[f1<29.1365471] yes=3,no=4,missing=4
		3:[f0<197.484634] yes=7,no=8,missing=8
			7:leaf=0.17434144
			8:leaf=-0.0738922581
		4:[f1<40.0953712] yes=9,no=10,missing=10
			9:leaf=0.0525359102
			10:leaf=0.000889492338
	2:[f1<130.858124] yes=5,no=6,missing=6
		5:[f1<44.1639786] yes=11,no=12,missing=12
			11:leaf=-7.47552212e-06
			12:leaf=-0.131686807
		6:[f3<0.343801469] yes=13,no=14,missing=14
			13:leaf=0.0510835126
			14:leaf=-0.0923672169
booster[37]:
0:[f1<17.6402607] yes=1,no=2,missing=2
	1:leaf=-0.121908963
	2:[f3<0.528880298] yes=3,no=4,missing=4
		3:[f1<114.5625] yes=5,no=6,missing=6
			5:leaf=-0.0218994319
			6:leaf=0.00541172456
		4:[f1<83.6445007] yes=7,no=8,missing=8
			7:leaf=0.00213551661
			8:leaf=0.038556274
booster[38]:
0:[f0<130.725327] yes=1,no=2,missing=2
	1:[f2<45.3858871] yes=3,no=4,missing=4
		3:leaf=-0.122363679
		4:[f2<47.5625839] yes=7,no=8,missing=8
			7:leaf=0.210468084
			8:leaf=0.0610080771
	2:[f0<139.243484] yes=5,no=6,missing=6
		5:[f2<67.543602] yes=9,no=10,missing=10
			9:leaf=-0.148893937
			10:leaf=-0.35082233
		6:[f2<54.9817238] yes=11,no=12,missing=12
			11:leaf=-0.0317591652
			12:leaf=0.00347301154
booster[39]:
0:[f0<416.404602] yes=1,no=2,missing=2
	1:[f3<0.342581183] yes=3,no=4,missing=4
		3:[f3<0.309765726] yes=7,no=8,missing=8
			7:leaf=0.00869198702
			8:leaf=-0.0994176492
		4:[f0<398.658997] yes=9,no=10,missing=10
			9:leaf=0.00421977462
			10:leaf=0.0672685057
	2:[f1<130.858124] yes=5,no=6,missing=6
		5:[f1<44.1639786] yes=11,no=12,missing=12
			11:leaf=0.00139236532
			12:leaf=-0.125455141
		6:[f2<85.983551] yes=13,no=14,missing=14
			13:leaf=-0.115403734
			14:leaf=0.0410179496
booster[40]:
0:[f1<17.6402607] yes=1,no=2,missing=2
	1:leaf=-0.119132116
	2:[f2<103.999474] yes=3,no=4,missing=4
		3:[f3<0.657639265] yes=5,no=6,missing=6
			5:leaf=-0.00673055602
			6:leaf=0.0301698186
		4:[f3<0.665230751] yes=7,no=8,missing=8
			7:leaf=0.0540399216
			8:leaf=-0.0270198788
booster[41]:
0:[f0<410.62326] yes=1,no=2,missing=2
	1:[f1<29.1365471] yes=3,no=4,missing=4
		3:[f0<197.484634] yes=7,no=8,missing=8
			7:leaf=0.158691451
			8:leaf=-0.0779393092
		4:[f1<36.0044479] yes=9,no=10,missing=10
			9:leaf=0.0602729209
			10:leaf=0.00148427801
	2:[f2<79.623024] yes=5,no=6,missing=6
		5:leaf=-0.111147664
		6:[f2<80.611824] yes=11,no=12,missing=12
			11:leaf=0.160679162
			12:leaf=-0.0218635052
booster[42]:
0:[f0<130.725327] yes=1,no=2,missing=2
	1:[f2<45.3858871] yes=3,no=4,missing=4
		3:leaf=-0.119279981
		4:[f2<47.5625839] yes=7,no=8,missing=8
			7:leaf=0.184605703
			8:leaf=0.0557783805
	2:[f0<139.243484] yes=5,no=6,missing=6
		5:[f2<67.543602] yes=9,no=10,missing=10
			9:leaf=-0.142508969
			10:leaf=-0.28598839
		6:[f2<54.9817238] yes=11,no=12,missing=12
			11:leaf=-0.0281862598
			12:leaf=0.00298543856
booster[43]:
0:[f1<17.6402607] yes=1,no=2,missing=2
	1:leaf=-0.115525082
	2:[f1<252.794968] yes=3,no=4,missing=4
		3:[f3<0.342581183] yes=5,no=6,missing=6
			5:leaf=-0.0416745953
			6:leaf=0.0030028224
		4:[f2<75.2364273] yes=7,no=8,missing=8
			7:leaf=0.27608785
			8:leaf=0.0409810506
booster[44]:
0:[f2<103.999474] yes=1,no=2,missing=2
	1:[f0<240.693283] yes=3,no=4,missing=4
		3:[f2<66.3034744] yes=7,no=8,missing=8
			7:leaf=-0.0235709231
			8:leaf=0.033081498
		4:[f3<0.657639265] yes=9,no=10,missing=10
			9:leaf=-0.0198639743
			10:leaf=0.0296639558
	2:[f2<127.025284] yes=5,no=6,missing=6
		5:[f0<223.662231] yes=11,no=12,missing=12
			11:leaf=-0.081976518
			12:leaf=0.0526306704
		6:[f3<0.803148985] yes=13,no=14,missing=14
			13:leaf=-0.0334182605
			14:leaf=-0.18953146
booster[45]:
0:[f0<130.725327] yes=1,no=2,missing=2
	1:[f2<45.3858871] yes=3,no=4,missing=4
		3:leaf=-0.115203001
		4:[f2<47.5625839] yes=7,no=8,missing=8
			7:leaf=0.167318925
			8:leaf=0.0510250889
	2:[f0<139.243484] yes=5,no=6,missing=6
		5:[f3<0.528880298] yes=9,no=10,missing=10
			9:leaf=-0.130967051
			10:leaf=-0.232890919
		6:[f1<17.6402607] yes=11,no=12,missing=12
			11:leaf=-0.113839798
			12:leaf=0.000177116643
booster[46]:
0:[f0<410.62326] yes=1,no=2,missing=2
	1:[f0<322.53302] yes=3,no=4,missing=4
		3:[f3<0.370802045] yes=7,no=8,missing=8
			7:leaf=-0.0646361187
			8:leaf=0.00377484225
		4:[f2<56.4943848] yes=9,no=10,missing=10
			9:leaf=0.104048468
			10:leaf=0.00734820217
	2:[f2<79.623024] yes=5,no=6,missing=6
		5:leaf=-0.109671615
		6:[f1<44.1639786] yes=11,no=12,missing=12
			11:leaf=0.0641548485
			12:leaf=-0.0321305618
booster[47]:
0:[f1<252.794968] yes=1,no=2,missing=2
	1:[f0<416.404602] yes=3,no=4,missing=4
		3:[f3<0.342581183] yes=7,no=8,missing=8
			7:leaf=-0.0463511273
			8:leaf=0.004450846
		4:[f0<494.698486] yes=9,no=10,missing=10
			9:leaf=-0.0863875076
			10:leaf=0.00587345939
	2:[f3<0.238897786] yes=5,no=6,missing=6
		5:leaf=-0.132917032
		6:[f2<75.2364273] yes=11,no=12,missing=12
			11:leaf=0.374830693
			12:leaf=0.0505636148
booster[48]:
0:[f1<114.5625] yes=1,no=2,missing=2
	1:[f0<204.730408] yes=3,no=4,missing=4
		3:[f0<142.763733] yes=7,no=8,missing=8
			7:leaf=0.0447815843
			8:leaf=-0.0761263222
		4:[f0<217.132355] yes=9,no=10,missing=10
			9:leaf=0.0535502136
			10:leaf=-0.00506317429
	2:[f1<116.594841] yes=5,no=6,missing=6
		5:[f3<0.397508651] yes=11,no=12,missing=12
			11:leaf=0.173201844
			12:leaf=-0.00560192531
		6:[f2<43.9893494] yes=13,no=14,missing=14
			13:leaf=0.349600792
			14:leaf=0.00339554623
booster[49]:
0:[f1<17.6402607] yes=1,no=2,missing=2
	1:leaf=-0.112730108
	2:[f2<103.999474] yes=3,no=4,missing=4
		3:[f0<240.693283] yes=5,no=6,missing=6
			5:leaf=0.0103448611
			6:leaf=-0.0103890225
		4:[f2<127.025284] yes=7,no=8,missing=8
			7:leaf=0.0413961262
			8:leaf=-0.0567834564
