booster[0]:
0:[f3<107.788414] yes=1,no=2,missing=2
	1:[f3<98.9328537] yes=3,no=4,missing=4
		3:[f2<95.4891052] yes=7,no=8,missing=8
			7:leaf=-0.579158664
			8:leaf=-0.356752723
		4:[f4<0.444203824] yes=9,no=10,missing=10
			9:leaf=-0.524428904
			10:leaf=-0.286884278
	2:[f2<124.907394] yes=5,no=6,missing=6
		5:[f9<38.055088] yes=11,no=12,missing=12
			11:leaf=-0.212394416
			12:leaf=0.160934672
		6:[f2<136.487335] yes=13,no=14,missing=14
			13:leaf=-0.392607182
			14:leaf=-0.599885523
booster[1]:
0:[f3<113.314034] yes=1,no=2,missing=2
	1:[f2<83.6897659] yes=3,no=4,missing=4
		3:[f3<97.8912888] yes=7,no=8,missing=8
			7:leaf=-0.450836897
			8:leaf=-0.355993211
		4:[f6<0.171780348] yes=9,no=10,missing=10
			9:leaf=-0.27078554
			10:leaf=0.163050294
	2:[f2<118.364059] yes=5,no=6,missing=6
		5:[f9<24.7073059] yes=11,no=12,missing=12
			11:leaf=-0.250517786
			12:leaf=0.144274786
		6:[f2<133.36293] yes=13,no=14,missing=14
			13:leaf=-0.270305723
			14:leaf=-0.459649861
booster[2]:
0:[f3<103.339516] yes=1,no=2,missing=2
	1:[f2<86.9084167] yes=3,no=4,missing=4
		3:[f8<-0.41641584] yes=7,no=8,missing=8
			7:leaf=-0.272069246
			8:leaf=-0.384056777
		4:[f4<0.465984404] yes=9,no=10,missing=10
			9:leaf=-0.391715586
			10:leaf=-0.12047936
	2:[f2<129.514435] yes=5,no=6,missing=6
		5:[f4<0.401482731] yes=11,no=12,missing=12
			11:leaf=-0.238189846
			12:leaf=0.0622451715
		6:[f4<0.26648131] yes=13,no=14,missing=14
			13:leaf=0.70307833
			14:leaf=-0.388931513
booster[3]:
0:[f3<114.209091] yes=1,no=2,missing=2
	1:[f2<70.4643707] yes=3,no=4,missing=4
		3:[f6<0.214407057] yes=7,no=8,missing=8
			7:leaf=-0.369278908
			8:leaf=-0.310132533
		4:[f3<98.4052277] yes=9,no=10,missing=10
			9:leaf=-0.297252923
			10:leaf=-0.0588721894
	2:[f6<0.15515545] yes=5,no=6,missing=6
		5:[f4<0.729040563] yes=11,no=12,missing=12
			11:leaf=-0.0937682092
			12:leaf=-0.334291011
		6:[f4<0.405956626] yes=13,no=14,missing=14
			13:leaf=-0.0940867588
			14:leaf=0.183112785
booster[4]:
0:[f3<100.7117] yes=1,no=2,missing=2
	1:[f4<0.448437124] yes=3,no=4,missing=4
		3:[f2<108.306908] yes=7,no=8,missing=8
			7:leaf=-0.333197534
			8:leaf=0.809852302
		4:[f6<0.148732767] yes=9,no=10,missing=10
			9:leaf=-0.296581864
			10:leaf=-0.122886904
	2:[f1<21.2261543] yes=5,no=6,missing=6
		5:[f4<0.363377273] yes=11,no=12,missing=12
			11:leaf=0.585059822
			12:leaf=-0.404000014
		6:[f2<116.786049] yes=13,no=14,missing=14
			13:leaf=0.0295971408
			14:leaf=-0.254831612
booster[5]:
0:[f3<118.717804] yes=1,no=2,missing=2
	1:[f4<0.444203824] yes=3,no=4,missing=4
		3:[f9<75.4764709] yes=7,no=8,missing=8
			7:leaf=-0.304132193
			8:leaf=-0.0503913425
		4:[f9<42.7443886] yes=9,no=10,missing=10
			9:leaf=-0.206474081
			10:leaf=0.0402063504
	2:[f2<129.514435] yes=5,no=6,missing=6
		5:[f1<28.162468] yes=11,no=12,missing=12
			11:leaf=-0.249669716
			12:leaf=0.104109742
		6:[f2<136.487335] yes=13,no=14,missing=14
			13:leaf=-0.159640938
			14:leaf=-0.34529379
booster[6]:
0:[f3<98.9328537] yes=1,no=2,missing=2
	1:[f2<94.9664078] yes=3,no=4,missing=4
		3:[f9<89.5626755] yes=7,no=8,missing=8
			7:leaf=-0.274345547
			8:leaf=0.834405065
		4:[f0<355.722809] yes=9,no=10,missing=10
			9:leaf=-0.164302811
			10:leaf=0.378327817
	2:[f6<0.132486194] yes=5,no=6,missing=6
		5:[f2<86.9084167] yes=11,no=12,missing=12
			11:leaf=-0.35604918
			12:leaf=-0.0766477808
		6:[f4<0.405956626] yes=13,no=14,missing=14
			13:leaf=-0.136141747
			14:leaf=0.104925387
booster[7]:
0:[f3<95.8502808] yes=1,no=2,missing=2
	1:[f4<0.476450741] yes=3,no=4,missing=4
		3:[f8<-0.41641584] yes=7,no=8,missing=8
			7:leaf=0.116697557
			8:leaf=-0.295795858
		4:[f2<59.5033493] yes=9,no=10,missing=10
			9:leaf=-0.305135399
			10:leaf=-0.0718581453
	2:[f1<18.8604755] yes=5,no=6,missing=6
		5:[f7<0.405243874] yes=11,no=12,missing=12
			11:leaf=-0.383890241
			12:leaf=-0.26374805
		6:[f2<136.487335] yes=13,no=14,missing=14
			13:leaf=0.0130422572
			14:leaf=-0.332681954
booster[8]:
0:[f3<86.8128967] yes=1,no=2,missing=2
	1:[f5<63.3481941] yes=3,no=4,missing=4
		3:[f9<89.5626755] yes=7,no=8,missing=8
			7:leaf=-0.314938545
			8:leaf=-0.0728055984
		4:[f4<0.563566506] yes=9,no=10,missing=10
			9:leaf=-0.260103434
			10:leaf=0.102963597
	2:[f9<49.7960587] yes=5,no=6,missing=6
		5:[f3<128.544205] yes=11,no=12,missing=12
			11:leaf=-0.135913998
			12:leaf=0.0275151134
		6:[f2<112.886909] yes=13,no=14,missing=14
			13:leaf=0.115016818
			14:leaf=-0.138608545
booster[9]:
0:[f4<0.398013145] yes=1,no=2,missing=2
	1:[f3<136.991104] yes=3,no=4,missing=4
		3:[f5<346.392609] yes=7,no=8,missing=8
			7:leaf=-0.269187361
			8:leaf=-0.0293210242
		4:[f6<0.357552588] yes=9,no=10,missing=10
			9:leaf=-0.103508957
			10:leaf=0.273935229
	2:[f6<0.214407057] yes=5,no=6,missing=6
		5:[f2<86.9084167] yes=11,no=12,missing=12
			11:leaf=-0.231582791
			12:leaf=0.00155562919
		6:[f2<66.1480179] yes=13,no=14,missing=14
			13:leaf=-0.0447719134
			14:leaf=0.177325934
booster[10]:
0:[f3<86.6058426] yes=1,no=2,missing=2
	1:[f5<63.3481941] yes=3,no=4,missing=4
		3:[f9<89.5626755] yes=7,no=8,missing=8
			7:leaf=-0.304632068
			8:leaf=-0.0516872667
		4:[f6<0.098946102] yes=9,no=10,missing=10
			9:leaf=1.74551201
			10:leaf=-0.169590354
	2:[f2<136.487335] yes=5,no=6,missing=6
		5:[f2<79.891243] yes=11,no=12,missing=12
			11:leaf=-0.0591129512
			12:leaf=0.0557924211
		6:leaf=-0.321571022
booster[11]:
0:[f1<18.8604755] yes=1,no=2,missing=2
	1:[f7<0.405243874] yes=3,no=4,missing=4
		3:[f4<0.998130322] yes=7,no=8,missing=8
			7:leaf=-0.330447167
			8:leaf=-0.0940568149
		4:[f1<15.3582449] yes=9,no=10,missing=10
			9:leaf=-0.312613696
			10:leaf=0.0168874748
	2:[f4<0.465984404] yes=5,no=6,missing=6
		5:[f3<116.567406] yes=11,no=12,missing=12
			11:leaf=-0.179859415
			12:leaf=6.69497458e-05
		6:[f3<158.540527] yes=13,no=14,missing=14
			13:leaf=0.067795217
			14:leaf=-0.201871037
booster[12]:
0:[f6<0.153131589] yes=1,no=2,missing=2
	1:[f2<99.5412369] yes=3,no=4,missing=4
		3:[f4<0.47388795] yes=7,no=8,missing=8
			7:leaf=-0.291760087
			8:leaf=-0.158039927
		4:[f3<139.186096] yes=9,no=10,missing=10
			9:leaf=0.0481528193
			10:leaf=-0.17925024
	2:[f4<0.421130389] yes=5,no=6,missing=6
		5:[f3<136.991104] yes=11,no=12,missing=12
			11:leaf=-0.122956954
			12:leaf=0.160468876
		6:[f2<110.312317] yes=13,no=14,missing=14
			13:leaf=0.0992722809
			14:leaf=-0.306380063
booster[13]:
0:[f6<0.0944370255] yes=1,no=2,missing=2
	1:[f2<99.5412369] yes=3,no=4,missing=4
		3:[f8<-0.472904295] yes=7,no=8,missing=8
			7:leaf=-0.059081573
			8:leaf=-0.234195039
		4:[f2<136.487335] yes=9,no=10,missing=10
			9:leaf=-0.00929079857
			10:leaf=-0.309573203
	2:[f2<78.8145981] yes=5,no=6,missing=6
		5:[f6<0.305440605] yes=11,no=12,missing=12
			11:leaf=-0.178843468
			12:leaf=0.0114832204
		6:[f2<114.611717] yes=13,no=14,missing=14
			13:leaf=0.10194806
			14:leaf=-0.146767244
booster[14]:
0:[f1<18.8604755] yes=1,no=2,missing=2
	1:[f7<0.405243874] yes=3,no=4,missing=4
		3:[f4<0.998130322] yes=7,no=8,missing=8
			7:leaf=-0.324586362
			8:leaf=-0.0241353028
		4:[f1<15.3582449] yes=9,no=10,missing=10
			9:leaf=-0.288222224
			10:leaf=0.0435104668
	2:[f4<0.481797427] yes=5,no=6,missing=6
		5:[f5<346.392609] yes=11,no=12,missing=12
			11:leaf=-0.087432839
			12:leaf=0.066740945
		6:[f6<0.0955062807] yes=13,no=14,missing=14
			13:leaf=-0.0732548982
			14:leaf=0.0701076016
booster[15]:
0:[f3<188.488815] yes=1,no=2,missing=2
	1:[f1<21.7991867] yes=3,no=4,missing=4
		3:[f6<0.195286214] yes=7,no=8,missing=8
			7:leaf=-0.293838322
			8:leaf=-0.0748106912
		4:[f4<0.392088205] yes=9,no=10,missing=10
			9:leaf=-0.0677888319
			10:leaf=0.0294866227
	2:[f9<42.7443886] yes=5,no=6,missing=6
		5:[f4<0.928055465] yes=11,no=12,missing=12
			11:leaf=-0.1697229
			12:leaf=0.223322377
		6:[f2<116.786049] yes=13,no=14,missing=14
			13:leaf=-0.720073581
			14:leaf=-0.28956598
booster[16]:
0:[f1<185.030884] yes=1,no=2,missing=2
	1:[f6<0.153131589] yes=3,no=4,missing=4
		3:[f2<84.6440964] yes=7,no=8,missing=8
			7:leaf=-0.199448183
			8:leaf=-0.0430858806
		4:[f4<0.391212255] yes=9,no=10,missing=10
			9:leaf=-0.0735539198
			10:leaf=0.0377861485
	2:[f9<123.703262] yes=5,no=6,missing=6
		5:[f4<0.427376181] yes=11,no=12,missing=12
			11:leaf=0.0774656087
			12:leaf=0.31669873
		6:[f2<129.514435] yes=13,no=14,missing=14
			13:leaf=-0.39465335
			14:leaf=-0.308190107
booster[17]:
0:[f7<0.794618428] yes=1,no=2,missing=2
	1:[f2<136.487335] yes=3,no=4,missing=4
		3:[f9<50.1395874] yes=7,no=8,missing=8
			7:leaf=-0.0263947994
			8:leaf=0.0442670062
		4:leaf=-0.308939636
	2:[f0<160.228653] yes=5,no=6,missing=6
		5:[f9<68.4632874] yes=9,no=10,missing=10
			9:leaf=-0.343439311
			10:leaf=-0.71773839
		6:[f0<162.916611] yes=11,no=12,missing=12
			11:leaf=0.826872289
			12:leaf=-0.22641097
booster[18]:
0:[f1<286.676025] yes=1,no=2,missing=2
	1:[f1<15.0726166] yes=3,no=4,missing=4
		3:[f0<708.902161] yes=7,no=8,missing=8
			7:leaf=-0.318118185
			8:leaf=0.803494155
		4:[f2<136.487335] yes=9,no=10,missing=10
			9:leaf=0.00110594206
			10:leaf=-0.306232691
	2:[f3<136.991104] yes=5,no=6,missing=6
		5:[f4<0.228511631] yes=11,no=12,missing=12
			11:leaf=-0.338556409
			12:leaf=0.672638774
		6:[f0<301.952057] yes=13,no=14,missing=14
			13:leaf=0.423623502
			14:leaf=-0.427249491
booster[19]:
0:[f3<70.5483017] yes=1,no=2,missing=2
	1:[f7<-0.641086936] yes=3,no=4,missing=4
		3:[f4<0.665806413] yes=7,no=8,missing=8
			7:leaf=3.32450557
			8:leaf=-0.288316727
		4:[f5<130.098297] yes=9,no=10,missing=10
			9:leaf=-0.304074258
			10:leaf=-0.14449209
	2:[f6<0.74126631] yes=5,no=6,missing=6
		5:[f4<0.407744914] yes=11,no=12,missing=12
			11:leaf=-0.076650545
			12:leaf=0.0126481457
		6:[f3<165.050278] yes=13,no=14,missing=14
			13:leaf=0.151737303
			14:leaf=-0.201403886
booster[20]:
0:[f6<0.26506272] yes=1,no=2,missing=2
	1:[f2<86.9084167] yes=3,no=4,missing=4
		3:[f5<132.028625] yes=7,no=8,missing=8
			7:leaf=-0.100219034
			8:leaf=-0.46608761
		4:[f0<124.331787] yes=9,no=10,missing=10
			9:leaf=-0.720914304
			10:leaf=0.0203325357
	2:[f2<110.312317] yes=5,no=6,missing=6
		5:[f2<71.3002243] yes=11,no=12,missing=12
			11:leaf=-0.011400586
			12:leaf=0.0951986089
		6:[f4<0.383974791] yes=13,no=14,missing=14
			13:leaf=0.290433168
			14:leaf=-0.431061268
booster[21]:
0:[f8<-0.210274726] yes=1,no=2,missing=2
	1:[f6<0.0506967455] yes=3,no=4,missing=4
		3:[f3<97.0382233] yes=7,no=8,missing=8
			7:leaf=0.204139754
			8:leaf=-0.207021102
		4:[f3<188.488815] yes=9,no=10,missing=10
			9:leaf=0.06253203
			10:leaf=-0.236770496
	2:[f3<118.717804] yes=5,no=6,missing=6
		5:[f7<0.480116487] yes=11,no=12,missing=12
			11:leaf=-0.0882330686
			12:leaf=0.0754358768
		6:[f2<55.9031525] yes=13,no=14,missing=14
			13:leaf=0.147570565
			14:leaf=-0.0110401614
booster[22]:
0:[f1<199.353333] yes=1,no=2,missing=2
	1:[f2<112.886909] yes=3,no=4,missing=4
		3:[f4<0.527514815] yes=7,no=8,missing=8
			7:leaf=-0.035587091
			8:leaf=0.039648816
		4:[f3<152.228668] yes=9,no=10,missing=10
			9:leaf=-0.0409686044
			10:leaf=-0.241959333
	2:[f0<341.366943] yes=5,no=6,missing=6
		5:[f0<277.690002] yes=11,no=12,missing=12
			11:leaf=0.217452973
			12:leaf=-0.13743645
		6:[f2<124.907394] yes=13,no=14,missing=14
			13:leaf=0.33896935
			14:leaf=-0.14310436
booster[23]:
0:[f1<15.0726166] yes=1,no=2,missing=2
	1:[f0<708.902161] yes=3,no=4,missing=4
		3:leaf=-0.315413237
		4:[f1<10.5093393] yes=7,no=8,missing=8
			7:leaf=2.10800457
			8:leaf=-0.334577858
	2:[f2<136.487335] yes=5,no=6,missing=6
		5:[f7<0.794618428] yes=9,no=10,missing=10
			9:leaf=0.00609249203
			10:leaf=-0.18891713
		6:leaf=-0.303611368
booster[24]:
0:[f1<15.0726166] yes=1,no=2,missing=2
	1:[f8<-0.646589994] yes=3,no=4,missing=4
		3:[f0<708.902161] yes=7,no=8,missing=8
			7:leaf=-0.300234467
			8:leaf=0.604552865
		4:leaf=-0.317239106
	2:[f6<0.0559022129] yes=5,no=6,missing=6
		5:[f7<-0.667759061] yes=9,no=10,missing=10
			9:leaf=0.224318996
			10:leaf=-0.0914966613
		6:[f2<91.5761948] yes=11,no=12,missing=12
			11:leaf=-0.00858881045
			12:leaf=0.045615837
booster[25]:
0:[f6<0.214407057] yes=1,no=2,missing=2
	1:[f2<91.5761948] yes=3,no=4,missing=4
		3:[f0<343.874847] yes=7,no=8,missing=8
			7:leaf=-0.17247659
			8:leaf=-0.00329777133
		4:[f1<170.316742] yes=9,no=10,missing=10
			9:leaf=-0.0174326319
			10:leaf=0.1275637
	2:[f3<198.152313] yes=5,no=6,missing=6
		5:[f2<79.891243] yes=11,no=12,missing=12
			11:leaf=-0.00158756482
			12:leaf=0.0850129724
		6:[f9<45.3919792] yes=13,no=14,missing=14
			13:leaf=-0.070662491
			14:leaf=-0.447035074
booster[26]:
0:[f4<0.998130322] yes=1,no=2,missing=2
	1:[f2<136.487335] yes=3,no=4,missing=4
		3:[f4<0.507911205] yes=7,no=8,missing=8
			7:leaf=-0.0223341733
			8:leaf=0.0234532412
		4:leaf=-0.302375138
	2:[f9<15.4598255] yes=5,no=6,missing=6
		5:[f1<15.0726166] yes=9,no=10,missing=10
			9:leaf=-0.270055711
			10:leaf=4.11278296
		6:[f8<0.916297913] yes=11,no=12,missing=12
			11:leaf=-0.454566449
			12:leaf=-0.0682693943
booster[27]:
0:[f6<0.344512284] yes=1,no=2,missing=2
	1:[f0<200.824722] yes=3,no=4,missing=4
		3:[f4<0.803734124] yes=7,no=8,missing=8
			7:leaf=-0.0916571617
			8:leaf=-0.414395601
		4:[f5<187.795441] yes=9,no=10,missing=10
			9:leaf=0.00437474716
			10:leaf=-0.297731251
	2:[f0<219.677505] yes=5,no=6,missing=6
		5:[f4<0.401482731] yes=11,no=12,missing=12
			11:leaf=-0.0504929349
			12:leaf=0.143444866
		6:[f1<193.560883] yes=13,no=14,missing=14
			13:leaf=-0.018136749
			14:leaf=0.180953085
booster[28]:
0:[f6<0.74126631] yes=1,no=2,missing=2
	1:[f4<0.395019114] yes=3,no=4,missing=4
		3:[f1<49.9937019] yes=7,no=8,missing=8
			7:leaf=0.281262308
			8:leaf=-0.0942269042
		4:[f3<158.540527] yes=9,no=10,missing=10
			9:leaf=0.0182723496
			10:leaf=-0.119129427
	2:[f4<0.396502078] yes=5,no=6,missing=6
		5:[f0<176.606247] yes=11,no=12,missing=12
			11:leaf=-0.180655256
			12:leaf=0.173797816
		6:[f0<188.001434] yes=13,no=14,missing=14
			13:leaf=0.143227622
			14:leaf=-0.184999153
booster[29]:
0:[f3<70.5483017] yes=1,no=2,missing=2
	1:[f7<-0.641086936] yes=3,no=4,missing=4
		3:[f2<33.5841751] yes=7,no=8,missing=8
			7:leaf=0.400981575
			8:leaf=-0.321071237
		4:[f7<0.359393477] yes=9,no=10,missing=10
			9:leaf=-0.302230537
			10:leaf=-0.038970951
	2:[f0<124.331787] yes=5,no=6,missing=6
		5:[f1<114.731125] yes=11,no=12,missing=12
			11:leaf=-0.142993331
			12:leaf=-0.96873349
		6:[f8<-0.247436494] yes=13,no=14,missing=14
			13:leaf=0.034611851
			14:leaf=-0.0099934265
booster[30]:
0:[f1<15.3582449] yes=1,no=2,missing=2
	1:[f8<-0.524974048] yes=3,no=4,missing=4
		3:[f0<708.902161] yes=7,no=8,missing=8
			7:leaf=-0.181239769
			8:leaf=0.322115928
		4:leaf=-0.31359154
	2:[f4<0.998130322] yes=5,no=6,missing=6
		5:[f2<136.487335] yes=9,no=10,missing=10
			9:leaf=0.00327715278
			10:leaf=-0.300660878
		6:[f8<0.916297913] yes=11,no=12,missing=12
			11:leaf=-0.406741768
			12:leaf=0.011826979
booster[31]:
0:[f7<0.235856682] yes=1,no=2,missing=2
	1:[f1<27.4769669] yes=3,no=4,missing=4
		3:[f6<0.235342473] yes=7,no=8,missing=8
			7:leaf=-0.29728967
			8:leaf=-0.00855527166
		4:[f5<4.17864561] yes=9,no=10,missing=10
			9:leaf=0.685005426
			10:leaf=0.0211643055
	2:[f4<0.398013145] yes=5,no=6,missing=6
		5:[f1<74.2738953] yes=11,no=12,missing=12
			11:leaf=0.133735061
			12:leaf=-0.181884959
		6:[f3<158.540527] yes=13,no=14,missing=14
			13:leaf=0.00917405263
			14:leaf=-0.180655852
booster[32]:
0:[f6<0.121486828] yes=1,no=2,missing=2
	1:[f1<168.781433] yes=3,no=4,missing=4
		3:[f1<156.660645] yes=7,no=8,missing=8
			7:leaf=-0.0363818333
			8:leaf=-0.292115539
		4:[f4<0.416956961] yes=9,no=10,missing=10
			9:leaf=-0.152949646
			10:leaf=0.208458051
	2:[f2<70.4643707] yes=5,no=6,missing=6
		5:[f6<0.386354774] yes=11,no=12,missing=12
			11:leaf=-0.118127115
			12:leaf=0.0129586076
		6:[f3<101.717155] yes=13,no=14,missing=14
			13:leaf=0.213255972
			14:leaf=0.0225186571
booster[33]:
0:[f1<286.676025] yes=1,no=2,missing=2
	1:[f2<112.886909] yes=3,no=4,missing=4
		3:[f2<104.877922] yes=7,no=8,missing=8
			7:leaf=-0.00340458192
			8:leaf=0.0836672559
		4:[f5<64.2022324] yes=9,no=10,missing=10
			9:leaf=-0.0147354482
			10:leaf=-0.180664465
	2:[f3<110.567421] yes=5,no=6,missing=6
		5:[f7<-0.303345442] yes=11,no=12,missing=12
			11:leaf=0.404388547
			12:leaf=-0.355576694
		6:[f3<136.991104] yes=13,no=14,missing=14
			13:leaf=0.455909461
			14:leaf=-0.177484095
booster[34]:
0:[f6<0.0465582758] yes=1,no=2,missing=2
	1:[f5<22.7201004] yes=3,no=4,missing=4
		3:[f7<-0.667759061] yes=7,no=8,missing=8
			7:leaf=0.281646073
			8:leaf=-0.0626184717
		4:[f0<534.357361] yes=9,no=10,missing=10
			9:leaf=-0.439947814
			10:leaf=0.100756802
	2:[f6<0.0483060144] yes=5,no=6,missing=6
		5:[f7<-0.490165114] yes=11,no=12,missing=12
			11:leaf=1.03465128
			12:leaf=0.167498723
		6:[f5<22.3318405] yes=13,no=14,missing=14
			13:leaf=0.815132082
			14:leaf=0.0024180375
booster[35]:
0:[f6<0.235342473] yes=1,no=2,missing=2
	1:[f2<91.5761948] yes=3,no=4,missing=4
		3:[f4<0.533734739] yes=7,no=8,missing=8
			7:leaf=-0.176920906
			8:leaf=-0.00759158423
		4:[f0<294.516968] yes=9,no=10,missing=10
			9:leaf=-0.0305095073
			10:leaf=0.0500889048
	2:[f1<227.423767] yes=5,no=6,missing=6
		5:[f5<107.639488] yes=11,no=12,missing=12
			11:leaf=0.423218727
			12:leaf=0.00672075385
		6:[f9<61.7669983] yes=13,no=14,missing=14
			13:leaf=-0.390474349
			14:leaf=0.313368678
booster[36]:
0:[f7<-0.761116028] yes=1,no=2,missing=2
	1:[f0<219.677505] yes=3,no=4,missing=4
		3:[f2<112.886909] yes=7,no=8,missing=8
			7:leaf=-0.675450683
			8:leaf=-0.391817391
		4:[f7<-0.872194767] yes=9,no=10,missing=10
			9:leaf=0.127759144
			10:leaf=-0.156545475
	2:[f4<0.518810034] yes=5,no=6,missing=6
		5:[f2<96.4328308] yes=11,no=12,missing=12
			11:leaf=-0.0321245976
			12:leaf=0.073938407
		6:[f2<50.0339165] yes=13,no=14,missing=14
			13:leaf=-0.195751473
			14:leaf=0.0233268552
booster[37]:
0:[f6<0.671316445] yes=1,no=2,missing=2
	1:[f4<0.392088205] yes=3,no=4,missing=4
		3:[f2<104.877922] yes=7,no=8,missing=8
			7:leaf=-0.0822909549
			8:leaf=0.30461359
		4:[f5<373.211151] yes=9,no=10,missing=10
			9:leaf=0.00538744777
			10:leaf=-0.621993303
	2:[f4<0.55672437] yes=5,no=6,missing=6
		5:[f0<440.479736] yes=11,no=12,missing=12
			11:leaf=0.087415196
			12:leaf=-0.317990601
		6:[f4<0.773708582] yes=13,no=14,missing=14
			13:leaf=-0.47818473
			14:leaf=0.0722628236
booster[38]:
0:[f6<0.14176327] yes=1,no=2,missing=2
	1:[f6<0.140575826] yes=3,no=4,missing=4
		3:[f3<257.678009] yes=7,no=8,missing=8
			7:leaf=-0.0275979657
			8:leaf=1.22059429
		4:[f3<127.160767] yes=9,no=10,missing=10
			9:leaf=-0.104322389
			10:leaf=-0.989265501
	2:[f5<60.0623207] yes=5,no=6,missing=6
		5:leaf=3.22447658
		6:[f2<73.5794678] yes=11,no=12,missing=12
			11:leaf=-0.0124190049
			12:leaf=0.035628289
booster[39]:
0:[f6<0.344512284] yes=1,no=2,missing=2
	1:[f0<202.297226] yes=3,no=4,missing=4
		3:[f9<67.693428] yes=7,no=8,missing=8
			7:leaf=-0.226611927
			8:leaf=-0.0237613488
		4:[f5<187.795441] yes=9,no=10,missing=10
			9:leaf=0.00316627161
			10:leaf=-0.222256929
	2:[f3<169.284103] yes=5,no=6,missing=6
		5:[f3<128.544205] yes=11,no=12,missing=12
			11:leaf=0.00256379601
			12:leaf=0.0704976171
		6:[f7<0.540816605] yes=13,no=14,missing=14
			13:leaf=-0.0662245154
			14:leaf=-0.48885417
booster[40]:
0:[f2<136.487335] yes=1,no=2,missing=2
	1:[f9<113.270691] yes=3,no=4,missing=4
		3:[f9<111.119751] yes=5,no=6,missing=6
			5:leaf=0.000196380628
			6:leaf=-0.406951517
		4:[f7<-0.575745046] yes=7,no=8,missing=8
			7:leaf=-0.6042943
			8:leaf=0.356359303
	2:leaf=-0.299404502
booster[41]:
0:[f9<123.703262] yes=1,no=2,missing=2
	1:[f9<113.270691] yes=3,no=4,missing=4
		3:[f2<112.886909] yes=7,no=8,missing=8
			7:leaf=0.00476842141
			8:leaf=-0.054304067
		4:[f8<-0.0453828573] yes=9,no=10,missing=10
			9:leaf=0.564903736
			10:leaf=-0.0600098148
	2:[f2<129.514435] yes=5,no=6,missing=6
		5:leaf=-0.445351452
		6:leaf=-0.303614736
booster[42]:
0:[f1<15.0726166] yes=1,no=2,missing=2
	1:[f8<-0.646589994] yes=3,no=4,missing=4
		3:[f8<-0.678307414] yes=7,no=8,missing=8
			7:leaf=-0.311026931
			8:leaf=0.388284326
		4:leaf=-0.307869613
	2:[f0<504.712738] yes=5,no=6,missing=6
		5:[f0<402.617035] yes=9,no=10,missing=10
			9:leaf=0.0040827482
			10:leaf=-0.0768728256
		6:[f3<81.7013626] yes=11,no=12,missing=12
			11:leaf=0.872309744
			12:leaf=0.0515817963
booster[43]:
0:[f8<-0.210274726] yes=1,no=2,missing=2
	1:[f0<230.763123] yes=3,no=4,missing=4
		3:[f5<440.706207] yes=7,no=8,missing=8
			7:leaf=0.0498194657
			8:leaf=0.358357608
		4:[f0<254.848099] yes=9,no=10,missing=10
			9:leaf=-0.142453879
			10:leaf=0.0264518186
	2:[f4<0.311977088] yes=5,no=6,missing=6
		5:[f1<164.703796] yes=11,no=12,missing=12
			11:leaf=-0.179514155
			12:leaf=0.0707777441
		6:[f2<40.7969666] yes=13,no=14,missing=14
			13:leaf=0.177136913
			14:leaf=-0.00827841833
booster[44]:
0:[f0<139.521255] yes=1,no=2,missing=2
	1:[f4<0.729040563] yes=3,no=4,missing=4
		3:[f2<34.5992241] yes=7,no=8,missing=8
			7:leaf=0.520251453
			8:leaf=-0.0311799403
		4:[f7<-0.734762073] yes=9,no=10,missing=10
			9:leaf=0.060753163
			10:leaf=-0.511973381
	2:[f3<70.5483017] yes=5,no=6,missing=6
		5:[f7<0.359393477] yes=11,no=12,missing=12
			11:leaf=-0.303031743
			12:leaf=0.0756511167
		6:[f3<76.7787018] yes=13,no=14,missing=14
			13:leaf=0.215549767
			14:leaf=0.00136376347
booster[45]:
0:[f4<0.527514815] yes=1,no=2,missing=2
	1:[f6<0.544619262] yes=3,no=4,missing=4
		3:[f2<96.4328308] yes=7,no=8,missing=8
			7:leaf=-0.0581308417
			8:leaf=0.0446386486
		4:[f0<247.352676] yes=9,no=10,missing=10
			9:leaf=-0.0221794359
			10:leaf=0.0854409561
	2:[f5<247.292526] yes=5,no=6,missing=6
		5:[f6<0.235342473] yes=11,no=12,missing=12
			11:leaf=0.00105687918
			12:leaf=0.0589790866
		6:[f4<0.55672437] yes=13,no=14,missing=14
			13:leaf=0.0875577629
			14:leaf=-0.173054963
booster[46]:
0:[f2<64.3828583] yes=1,no=2,missing=2
	1:[f0<665.358398] yes=3,no=4,missing=4
		3:[f6<0.239132538] yes=7,no=8,missing=8
			7:leaf=-0.192984864
			8:leaf=-0.0158705134
		4:[f7<-0.211286366] yes=9,no=10,missing=10
			9:leaf=1.5097599
			10:leaf=-0.341825962
	2:[f4<0.407744914] yes=5,no=6,missing=6
		5:[f5<319.783508] yes=11,no=12,missing=12
			11:leaf=-0.0963176712
			12:leaf=0.127634048
		6:[f6<0.349167615] yes=13,no=14,missing=14
			13:leaf=0.00327407126
			14:leaf=0.0900698081
booster[47]:
0:[f1<75.9258423] yes=1,no=2,missing=2
	1:[f1<51.6476402] yes=3,no=4,missing=4
		3:[f4<0.402908176] yes=7,no=8,missing=8
			7:leaf=0.192150921
			8:leaf=-0.00248002401
		4:[f6<0.157075256] yes=9,no=10,missing=10
			9:leaf=-0.134554133
			10:leaf=-0.0283080433
	2:[f7<-0.383253932] yes=5,no=6,missing=6
		5:[f8<0.486717343] yes=11,no=12,missing=12
			11:leaf=0.0812105685
			12:leaf=-0.564956844
		6:[f0<342.728394] yes=13,no=14,missing=14
			13:leaf=-0.0217489246
			14:leaf=0.0540504344
booster[48]:
0:[f9<11.7641888] yes=1,no=2,missing=2
	1:[f3<104.354012] yes=3,no=4,missing=4
		3:leaf=-0.310731053
		4:[f3<106.594177] yes=7,no=8,missing=8
			7:leaf=0.77193892
			8:leaf=-0.113333188
	2:[f9<13.2123356] yes=5,no=6,missing=6
		5:[f0<283.88382] yes=9,no=10,missing=10
			9:leaf=-0.248736158
			10:leaf=0.32993421
		6:[f2<136.487335] yes=11,no=12,missing=12
			11:leaf=-0.000337046076
			12:leaf=-0.297351569
booster[49]:
0:[f9<123.703262] yes=1,no=2,missing=2
	1:[f7<0.794618428] yes=3,no=4,missing=4
		3:[f7<0.750317574] yes=5,no=6,missing=6
			5:leaf=-0.000213115942
			6:leaf=0.1658898
		4:[f0<437.579865] yes=7,no=8,missing=8
			7:leaf=-0.172046423
			8:leaf=0.244140953
	2:leaf=-0.345084727
