booster[0]:
0:[f3<99.7945709] yes=1,no=2,missing=2
	1:[f4<0.493516058] yes=3,no=4,missing=4
		3:[f3<92.9982376] yes=7,no=8,missing=8
			7:leaf=-0.0548041463
			8:leaf=-0.0447597913
		4:[f2<112.03627] yes=9,no=10,missing=10
			9:leaf=-0.0461651348
			10:leaf=-0.000778416521
	2:[f3<135.286697] yes=5,no=6,missing=6
		5:[f4<0.741494179] yes=11,no=12,missing=12
			11:leaf=0.032752838
			12:leaf=-0.0230261814
		6:leaf=-0.0554562584
booster[1]:
0:[f3<99.7945709] yes=1,no=2,missing=2
	1:[f4<0.493516058] yes=3,no=4,missing=4
		3:[f3<92.9982376] yes=7,no=8,missing=8
			7:leaf=-0.0543140173
			8:leaf=-0.0440241434
		4:[f2<112.03627] yes=9,no=10,missing=10
			9:leaf=-0.0454474166
			10:leaf=-0.000740837015
	2:[f3<135.286697] yes=5,no=6,missing=6
		5:[f4<0.688616216] yes=11,no=12,missing=12
			11:leaf=0.0327780209
			12:leaf=-0.0163277537
		6:leaf=-0.055003237
booster[2]:
0:[f3<99.7945709] yes=1,no=2,missing=2
	1:[f4<0.493516058] yes=3,no=4,missing=4
		3:[f3<92.9982376] yes=7,no=8,missing=8
			7:leaf=-0.0538426898
			8:leaf=-0.0432950221
		4:[f2<112.03627] yes=9,no=10,missing=10
			9:leaf=-0.0447366089
			10:leaf=-0.000705056067
	2:[f3<135.286697] yes=5,no=6,missing=6
		5:[f1<417.382935] yes=11,no=12,missing=12
			11:leaf=0.0275844391
			12:leaf=-0.0268378537
		6:leaf=-0.0545710102
booster[3]:
0:[f3<99.7945709] yes=1,no=2,missing=2
	1:[f4<0.493516058] yes=3,no=4,missing=4
		3:[f3<92.9982376] yes=7,no=8,missing=8
			7:leaf=-0.0533882454
			8:leaf=-0.0425712727
		4:[f2<104.587318] yes=9,no=10,missing=10
			9:leaf=-0.0446276739
			10:leaf=-0.00611213828
	2:[f3<135.286697] yes=5,no=6,missing=6
		5:[f4<0.741494179] yes=11,no=12,missing=12
			11:leaf=0.0272925235
			12:leaf=-0.02247338
		6:leaf=-0.0541577339
booster[4]:
0:[f3<99.7945709] yes=1,no=2,missing=2
	1:[f4<0.493516058] yes=3,no=4,missing=4
		3:[f3<91.6672058] yes=7,no=8,missing=8
			7:leaf=-0.0530325845
			8:leaf=-0.0433976762
		4:[f2<104.587318] yes=9,no=10,missing=10
			9:leaf=-0.0439383648
			10:leaf=-0.00583905866
	2:[f3<135.286697] yes=5,no=6,missing=6
		5:[f1<417.382935] yes=11,no=12,missing=12
			11:leaf=0.0247062463
			12:leaf=-0.0266769435
		6:leaf=-0.0537617169
booster[5]:
0:[f3<99.7945709] yes=1,no=2,missing=2
	1:[f4<0.493516058] yes=3,no=4,missing=4
		3:[f3<91.6672058] yes=7,no=8,missing=8
			7:leaf=-0.0526096597
			8:leaf=-0.0427091904
		4:[f3<84.8783722] yes=9,no=10,missing=10
			9:leaf=-0.0456995182
			10:leaf=-0.0168467872
	2:[f3<135.286697] yes=5,no=6,missing=6
		5:[f4<0.688616216] yes=11,no=12,missing=12
			11:leaf=0.026576696
			12:leaf=-0.0168461427
		6:leaf=-0.0533814207
booster[6]:
0:[f3<99.7945709] yes=1,no=2,missing=2
	1:[f3<79.6458282] yes=3,no=4,missing=4
		3:[f4<0.465662837] yes=7,no=8,missing=8
			7:leaf=-0.0531107448
			8:leaf=-0.0474279001
		4:[f1<218.62262] yes=9,no=10,missing=10
			9:leaf=0.000471484294
			10:leaf=-0.0426211134
	2:[f3<135.286697] yes=5,no=6,missing=6
		5:[f1<417.382935] yes=11,no=12,missing=12
			11:leaf=0.0222489052
			12:leaf=-0.0264906734
		6:leaf=-0.0530153923
booster[7]:
0:[f3<95.434967] yes=1,no=2,missing=2
	1:[f4<0.493516058] yes=3,no=4,missing=4
		3:[f4<0.38720113] yes=7,no=8,missing=8
			7:leaf=-0.053321939
			8:leaf=-0.048636049
		4:[f2<112.03627] yes=9,no=10,missing=10
			9:leaf=-0.0424401388
			10:leaf=0.0016908223
	2:[f3<135.286697] yes=5,no=6,missing=6
		5:[f3<104.825844] yes=11,no=12,missing=12
			11:leaf=-0.0192256849
			12:leaf=0.0235081948
		6:leaf=-0.0526623204
booster[8]:
0:[f3<95.434967] yes=1,no=2,missing=2
	1:[f4<0.493516058] yes=3,no=4,missing=4
		3:[f4<0.38720113] yes=7,no=8,missing=8
			7:leaf=-0.0529869013
			8:leaf=-0.0481385589
		4:[f2<112.03627] yes=9,no=10,missing=10
			9:leaf=-0.041768536
			10:leaf=0.00160661992
	2:[f3<135.286697] yes=5,no=6,missing=6
		5:[f4<0.432874799] yes=11,no=12,missing=12
			11:leaf=-0.03195576
			12:leaf=0.0130435331
		6:leaf=-0.0523209684
booster[9]:
0:[f3<95.434967] yes=1,no=2,missing=2
	1:[f4<0.493516058] yes=3,no=4,missing=4
		3:[f4<0.391491354] yes=7,no=8,missing=8
			7:leaf=-0.0525547564
			8:leaf=-0.0474786647
		4:[f2<112.03627] yes=9,no=10,missing=10
			9:leaf=-0.0410971902
			10:leaf=0.00152670767
	2:[f3<135.286697] yes=5,no=6,missing=6
		5:[f3<104.825844] yes=11,no=12,missing=12
			11:leaf=-0.0183727797
			12:leaf=0.0215602424
		6:leaf=-0.0519901887
booster[10]:
0:[f3<93.318367] yes=1,no=2,missing=2
	1:[f4<0.493516058] yes=3,no=4,missing=4
		3:[f4<0.396640718] yes=7,no=8,missing=8
			7:leaf=-0.0522883236
			8:leaf=-0.0470057651
		4:[f3<79.6458282] yes=9,no=10,missing=10
			9:leaf=-0.0450948142
			10:leaf=-0.0212652814
	2:[f4<0.432874799] yes=5,no=6,missing=6
		5:[f3<104.825844] yes=11,no=12,missing=12
			11:leaf=-0.0424608216
			12:leaf=0.00139318814
		6:[f3<135.286697] yes=13,no=14,missing=14
			13:leaf=0.00971834082
			14:leaf=-0.0515584424
booster[11]:
0:[f3<93.318367] yes=1,no=2,missing=2
	1:[f4<0.493516058] yes=3,no=4,missing=4
		3:[f4<0.396640718] yes=7,no=8,missing=8
			7:leaf=-0.0519815497
			8:leaf=-0.0465110466
		4:[f3<79.6458282] yes=9,no=10,missing=10
			9:leaf=-0.0445192307
			10:leaf=-0.0205707792
	2:[f1<411.484772] yes=5,no=6,missing=6
		5:[f4<0.438026935] yes=11,no=12,missing=12
			11:leaf=-0.031913355
			12:leaf=0.00959905051
		6:[f2<195.491913] yes=13,no=14,missing=14
			13:leaf=-0.0428198837
			14:leaf=-0.0150657473
booster[12]:
0:[f3<93.318367] yes=1,no=2,missing=2
	1:[f4<0.493516058] yes=3,no=4,missing=4
		3:[f4<0.396640718] yes=7,no=8,missing=8
			7:leaf=-0.0516827516
			8:leaf=-0.0460164025
		4:[f2<88.1545181] yes=9,no=10,missing=10
			9:leaf=-0.0416998826
			10:leaf=-0.0121323681
	2:[f1<411.484772] yes=5,no=6,missing=6
		5:[f4<0.438026935] yes=11,no=12,missing=12
			11:leaf=-0.031142205
			12:leaf=0.00905681215
		6:[f2<195.491913] yes=13,no=14,missing=14
			13:leaf=-0.0421480052
			14:leaf=-0.0145564601
booster[13]:
0:[f3<93.318367] yes=1,no=2,missing=2
	1:[f4<0.493516058] yes=3,no=4,missing=4
		3:[f4<0.396640718] yes=7,no=8,missing=8
			7:leaf=-0.0513909832
			8:leaf=-0.0455209427
		4:[f3<79.6458282] yes=9,no=10,missing=10
			9:leaf=-0.0434452891
			10:leaf=-0.018796932
	2:[f1<379.87619] yes=5,no=6,missing=6
		5:[f4<0.438026935] yes=11,no=12,missing=12
			11:leaf=-0.0305459388
			12:leaf=0.010439693
		6:[f3<104.825844] yes=13,no=14,missing=14
			13:leaf=-0.0402396172
			14:leaf=-0.0174489189
booster[14]:
0:[f3<93.318367] yes=1,no=2,missing=2
	1:[f4<0.493516058] yes=3,no=4,missing=4
		3:[f4<0.396640718] yes=7,no=8,missing=8
			7:leaf=-0.0511053391
			8:leaf=-0.0450238548
		4:[f2<115.323463] yes=9,no=10,missing=10
			9:leaf=-0.0383826718
			10:leaf=0.00525502069
	2:[f1<411.484772] yes=5,no=6,missing=6
		5:[f3<135.286697] yes=11,no=12,missing=12
			11:leaf=0.00478293933
			12:leaf=-0.0504183248
		6:[f1<584.087524] yes=13,no=14,missing=14
			13:leaf=-0.0423793979
			14:leaf=-0.0175149478
booster[15]:
0:[f3<93.318367] yes=1,no=2,missing=2
	1:[f4<0.493516058] yes=3,no=4,missing=4
		3:[f4<0.38720113] yes=7,no=8,missing=8
			7:leaf=-0.0511086956
			8:leaf=-0.0449688062
		4:[f3<79.6458282] yes=9,no=10,missing=10
			9:leaf=-0.0423761606
			10:leaf=-0.0170387495
	2:[f4<0.432874799] yes=5,no=6,missing=6
		5:[f3<104.825844] yes=11,no=12,missing=12
			11:leaf=-0.0399859287
			12:leaf=0.005945649
		6:[f3<135.286697] yes=13,no=14,missing=14
			13:leaf=0.0089601716
			14:leaf=-0.0509366393
booster[16]:
0:[f3<93.318367] yes=1,no=2,missing=2
	1:[f4<0.493516058] yes=3,no=4,missing=4
		3:[f4<0.396640718] yes=7,no=8,missing=8
			7:leaf=-0.0505504496
			8:leaf=-0.0440167449
		4:[f2<88.1545181] yes=9,no=10,missing=10
			9:leaf=-0.0393451862
			10:leaf=-0.00843246933
	2:[f1<411.484772] yes=5,no=6,missing=6
		5:[f4<0.438026935] yes=11,no=12,missing=12
			11:leaf=-0.0288901236
			12:leaf=0.00810268335
		6:[f1<584.087524] yes=13,no=14,missing=14
			13:leaf=-0.0415234342
			14:leaf=-0.0162201039
booster[17]:
0:[f3<90.4060974] yes=1,no=2,missing=2
	1:[f4<0.470799834] yes=3,no=4,missing=4
		3:[f4<0.38720113] yes=7,no=8,missing=8
			7:leaf=-0.0507980101
			8:leaf=-0.0451192781
		4:[f2<122.667259] yes=9,no=10,missing=10
			9:leaf=-0.0382209755
			10:leaf=0.00546991872
	2:[f4<0.404462457] yes=5,no=6,missing=6
		5:[f3<104.825844] yes=11,no=12,missing=12
			11:leaf=-0.041526746
			12:leaf=0.00571548985
		6:[f3<135.286697] yes=13,no=14,missing=14
			13:leaf=0.00304256449
			14:leaf=-0.0506478213
booster[18]:
0:[f3<84.8783722] yes=1,no=2,missing=2
	1:[f4<0.396640718] yes=3,no=4,missing=4
		3:leaf=-0.0504191108
		4:[f3<79.6458282] yes=7,no=8,missing=8
			7:leaf=-0.0433219969
			8:leaf=-0.0268037003
	2:[f4<0.476150215] yes=5,no=6,missing=6
		5:[f3<104.825844] yes=9,no=10,missing=10
			9:leaf=-0.0392020904
			10:leaf=0.00817024242
		6:[f1<414.301392] yes=11,no=12,missing=12
			11:leaf=0.00413811533
			12:leaf=-0.0429734141
booster[19]:
0:[f3<84.8783722] yes=1,no=2,missing=2
	1:[f4<0.396640718] yes=3,no=4,missing=4
		3:leaf=-0.0501691811
		4:[f3<79.6458282] yes=7,no=8,missing=8
			7:leaf=-0.0428017937
			8:leaf=-0.0260864701
	2:[f4<0.476150215] yes=5,no=6,missing=6
		5:[f3<104.825844] yes=9,no=10,missing=10
			9:leaf=-0.0385744087
			10:leaf=0.00774369482
		6:[f1<414.301392] yes=11,no=12,missing=12
			11:leaf=0.00391966011
			12:leaf=-0.042387493
booster[20]:
0:[f3<84.8783722] yes=1,no=2,missing=2
	1:[f4<0.396640718] yes=3,no=4,missing=4
		3:leaf=-0.0499215871
		4:[f3<72.7730408] yes=7,no=8,missing=8
			7:leaf=-0.0440576486
			8:leaf=-0.0315423869
	2:[f4<0.476150215] yes=5,no=6,missing=6
		5:[f3<104.825844] yes=9,no=10,missing=10
			9:leaf=-0.0379426032
			10:leaf=0.0073415651
		6:[f1<414.301392] yes=11,no=12,missing=12
			11:leaf=0.00371338986
			12:leaf=-0.0418008007
booster[21]:
0:[f3<84.8783722] yes=1,no=2,missing=2
	1:[f4<0.396640718] yes=3,no=4,missing=4
		3:leaf=-0.0496756807
		4:[f3<79.6458282] yes=7,no=8,missing=8
			7:leaf=-0.0417599864
			8:leaf=-0.0244961753
	2:[f4<0.476150215] yes=5,no=6,missing=6
		5:[f3<104.825844] yes=9,no=10,missing=10
			9:leaf=-0.0373065546
			10:leaf=0.0069622295
		6:[f3<135.286697] yes=11,no=12,missing=12
			11:leaf=0.00256084441
			12:leaf=-0.0502232313
booster[22]:
0:[f3<84.8783722] yes=1,no=2,missing=2
	1:[f4<0.396640718] yes=3,no=4,missing=4
		3:leaf=-0.049430836
		4:[f3<72.7730408] yes=7,no=8,missing=8
			7:leaf=-0.0431141965
			8:leaf=-0.0300464761
	2:[f4<0.476150215] yes=5,no=6,missing=6
		5:[f3<104.825844] yes=9,no=10,missing=10
			9:leaf=-0.0366661996
			10:leaf=0.00660420954
		6:[f1<414.301392] yes=11,no=12,missing=12
			11:leaf=0.00358166592
			12:leaf=-0.0411507972
booster[23]:
0:[f3<84.8783722] yes=1,no=2,missing=2
	1:[f4<0.396640718] yes=3,no=4,missing=4
		3:[f1<130.622864] yes=7,no=8,missing=8
			7:leaf=-0.0227004252
			8:leaf=-0.0492939912
		4:[f3<72.7730408] yes=9,no=10,missing=10
			9:leaf=-0.0426242948
			10:leaf=-0.0293402467
	2:[f4<0.476150215] yes=5,no=6,missing=6
		5:[f3<98.8246918] yes=11,no=12,missing=12
			11:leaf=-0.0381414741
			12:leaf=-0.00437076949
		6:[f2<88.1545181] yes=13,no=14,missing=14
			13:leaf=-0.0174050611
			14:leaf=0.0116884662
booster[24]:
0:[f3<84.8783722] yes=1,no=2,missing=2
	1:[f4<0.396640718] yes=3,no=4,missing=4
		3:[f1<130.622864] yes=7,no=8,missing=8
			7:leaf=-0.0222269446
			8:leaf=-0.0490539223
		4:[f3<79.6458282] yes=9,no=10,missing=10
			9:leaf=-0.0401644483
			10:leaf=-0.0220550802
	2:[f4<0.476150215] yes=5,no=6,missing=6
		5:[f3<98.8246918] yes=11,no=12,missing=12
			11:leaf=-0.0375391208
			12:leaf=-0.00417393912
		6:[f3<135.286697] yes=13,no=14,missing=14
			13:leaf=0.00263036834
			14:leaf=-0.0499569289
booster[25]:
0:[f3<84.8783722] yes=1,no=2,missing=2
	1:[f4<0.470799834] yes=3,no=4,missing=4
		3:[f4<0.38720113] yes=7,no=8,missing=8
			7:leaf=-0.0491373055
			8:leaf=-0.0416489951
		4:[f1<181.612457] yes=9,no=10,missing=10
			9:leaf=-0.0111900428
			10:leaf=-0.0374529809
	2:[f4<0.476150215] yes=5,no=6,missing=6
		5:[f3<104.825844] yes=11,no=12,missing=12
			11:leaf=-0.0347949415
			12:leaf=0.00670383591
		6:[f3<135.286697] yes=13,no=14,missing=14
			13:leaf=0.00249443599
			14:leaf=-0.0496683232
booster[26]:
0:[f3<84.8783722] yes=1,no=2,missing=2
	1:[f4<0.396640718] yes=3,no=4,missing=4
		3:[f1<130.622864] yes=7,no=8,missing=8
			7:leaf=-0.0207267869
			8:leaf=-0.0485734344
		4:[f3<72.7730408] yes=9,no=10,missing=10
			9:leaf=-0.0411956385
			10:leaf=-0.0269233175
	2:[f4<0.424810469] yes=5,no=6,missing=6
		5:[f3<98.8246918] yes=11,no=12,missing=12
			11:leaf=-0.0396815017
			12:leaf=-0.00430571847
		6:[f1<417.382935] yes=13,no=14,missing=14
			13:leaf=0.00159443356
			14:leaf=-0.0401843712
booster[27]:
0:[f3<79.6458282] yes=1,no=2,missing=2
	1:[f4<0.465662837] yes=3,no=4,missing=4
		3:[f4<0.37047267] yes=7,no=8,missing=8
			7:leaf=-0.0495080836
			8:leaf=-0.0430463068
		4:[f1<184.043228] yes=9,no=10,missing=10
			9:leaf=-0.012426585
			10:leaf=-0.039809268
	2:[f4<0.401506335] yes=5,no=6,missing=6
		5:[f3<98.8246918] yes=11,no=12,missing=12
			11:leaf=-0.0429332815
			12:leaf=-0.00382674276
		6:[f1<281.222961] yes=13,no=14,missing=14
			13:leaf=0.00698229903
			14:leaf=-0.0178700667
booster[28]:
0:[f3<79.6458282] yes=1,no=2,missing=2
	1:[f4<0.465662837] yes=3,no=4,missing=4
		3:[f4<0.37047267] yes=7,no=8,missing=8
			7:leaf=-0.0493130274
			8:leaf=-0.0426013842
		4:[f1<184.043228] yes=9,no=10,missing=10
			9:leaf=-0.0119563853
			10:leaf=-0.0392606929
	2:[f4<0.401506335] yes=5,no=6,missing=6
		5:[f3<98.8246918] yes=11,no=12,missing=12
			11:leaf=-0.0424787067
			12:leaf=-0.00365840457
		6:[f1<399.700562] yes=13,no=14,missing=14
			13:leaf=-0.00176307082
			14:leaf=-0.0353948139
booster[29]:
0:[f3<90.4060974] yes=1,no=2,missing=2
	1:[f4<0.470799834] yes=3,no=4,missing=4
		3:[f4<0.38720113] yes=7,no=8,missing=8
			7:leaf=-0.0479564965
			8:leaf=-0.0395281389
		4:[f2<94.0508194] yes=9,no=10,missing=10
			9:leaf=-0.0335701779
			10:leaf=-0.00164169387
	2:[f1<417.382935] yes=5,no=6,missing=6
		5:[f4<0.40248993] yes=11,no=12,missing=12
			11:leaf=-0.030397296
			12:leaf=0.00581463985
		6:[f1<584.087524] yes=13,no=14,missing=14
			13:leaf=-0.0397835635
			14:leaf=-0.00909855869
booster[30]:
0:[f3<79.6458282] yes=1,no=2,missing=2
	1:[f4<0.465662837] yes=3,no=4,missing=4
		3:[f4<0.37047267] yes=7,no=8,missing=8
			7:leaf=-0.0489258021
			8:leaf=-0.0416986123
		4:[f1<184.043228] yes=9,no=10,missing=10
			9:leaf=-0.0109077981
			10:leaf=-0.0382376127
	2:[f4<0.401506335] yes=5,no=6,missing=6
		5:[f3<98.8246918] yes=11,no=12,missing=12
			11:leaf=-0.0415750556
			12:leaf=-0.00221838593
		6:[f1<417.382935] yes=13,no=14,missing=14
			13:leaf=-0.00200804928
			14:leaf=-0.0389195345
booster[31]:
0:[f3<79.6458282] yes=1,no=2,missing=2
	1:[f4<0.465662837] yes=3,no=4,missing=4
		3:[f4<0.37047267] yes=7,no=8,missing=8
			7:leaf=-0.0487281159
			8:leaf=-0.041230496
		4:[f1<130.622864] yes=9,no=10,missing=10
			9:leaf=0.0348235443
			10:leaf=-0.0343811773
	2:[f4<0.401506335] yes=5,no=6,missing=6
		5:[f3<98.8246918] yes=11,no=12,missing=12
			11:leaf=-0.0410989448
			12:leaf=-0.00211841566
		6:[f1<281.222961] yes=13,no=14,missing=14
			13:leaf=0.00708916411
			14:leaf=-0.0160524212
booster[32]:
0:[f3<79.6458282] yes=1,no=2,missing=2
	1:[f4<0.465662837] yes=3,no=4,missing=4
		3:[f4<0.346524] yes=7,no=8,missing=8
			7:leaf=-0.0496608466
			8:leaf=-0.0417110845
		4:[f1<184.043228] yes=9,no=10,missing=10
			9:leaf=-0.0094040297
			10:leaf=-0.0371432714
	2:[f4<0.479702115] yes=5,no=6,missing=6
		5:[f3<99.7945709] yes=11,no=12,missing=12
			11:leaf=-0.0333039016
			12:leaf=0.00359343481
		6:[f2<77.6702194] yes=13,no=14,missing=14
			13:leaf=-0.0187110044
			14:leaf=0.00859905127
booster[33]:
0:[f3<79.6458282] yes=1,no=2,missing=2
	1:[f4<0.465662837] yes=3,no=4,missing=4
		3:[f4<0.346524] yes=7,no=8,missing=8
			7:leaf=-0.0495089404
			8:leaf=-0.0412547253
		4:[f1<184.043228] yes=9,no=10,missing=10
			9:leaf=-0.00902525522
			10:leaf=-0.0365604199
	2:[f4<0.401506335] yes=5,no=6,missing=6
		5:[f3<98.8246918] yes=11,no=12,missing=12
			11:leaf=-0.0402127616
			12:leaf=-0.00198688335
		6:[f1<417.382935] yes=13,no=14,missing=14
			13:leaf=-0.0013732044
			14:leaf=-0.0378279164
booster[34]:
0:[f3<79.6458282] yes=1,no=2,missing=2
	1:[f4<0.465662837] yes=3,no=4,missing=4
		3:[f4<0.37047267] yes=7,no=8,missing=8
			7:leaf=-0.0481304787
			8:leaf=-0.0397511683
		4:[f1<184.043228] yes=9,no=10,missing=10
			9:leaf=-0.00865895208
			10:leaf=-0.0359704457
	2:[f4<0.401506335] yes=5,no=6,missing=6
		5:[f3<98.8246918] yes=11,no=12,missing=12
			11:leaf=-0.0397142433
			12:leaf=-0.00189703575
		6:[f1<417.382935] yes=13,no=14,missing=14
			13:leaf=-0.00130629435
			14:leaf=-0.0372225493
booster[35]:
0:[f3<79.6458282] yes=1,no=2,missing=2
	1:[f4<0.465662837] yes=3,no=4,missing=4
		3:[f4<0.346524] yes=7,no=8,missing=8
			7:leaf=-0.0492074005
			8:leaf=-0.040306583
		4:[f1<184.043228] yes=9,no=10,missing=10
			9:leaf=-0.00830494426
			10:leaf=-0.0353735052
	2:[f4<0.479702115] yes=5,no=6,missing=6
		5:[f3<99.7945709] yes=11,no=12,missing=12
			11:leaf=-0.0316548049
			12:leaf=0.00399148883
		6:[f2<77.6702194] yes=13,no=14,missing=14
			13:leaf=-0.0175322872
			14:leaf=0.00838606153
booster[36]:
0:[f3<79.6458282] yes=1,no=2,missing=2
	1:[f4<0.38720113] yes=3,no=4,missing=4
		3:[f1<130.622864] yes=7,no=8,missing=8
			7:leaf=-0.00901471358
			8:leaf=-0.0469354205
		4:[f1<130.622864] yes=9,no=10,missing=10
			9:leaf=0.0143769635
			10:leaf=-0.0343255214
	2:[f4<0.401506335] yes=5,no=6,missing=6
		5:[f3<98.8246918] yes=11,no=12,missing=12
			11:leaf=-0.0387928374
			12:leaf=-0.00180526078
		6:[f1<417.382935] yes=13,no=14,missing=14
			13:leaf=-0.000963168219
			14:leaf=-0.0363734961
booster[37]:
0:[f3<79.6458282] yes=1,no=2,missing=2
	1:[f4<0.38720113] yes=3,no=4,missing=4
		3:[f1<130.622864] yes=7,no=8,missing=8
			7:leaf=-0.00879692566
			8:leaf=-0.0466880649
		4:[f1<130.622864] yes=9,no=10,missing=10
			9:leaf=0.0136434557
			10:leaf=-0.0337073989
	2:[f4<0.401506335] yes=5,no=6,missing=6
		5:[f3<98.8246918] yes=11,no=12,missing=12
			11:leaf=-0.0382710658
			12:leaf=-0.00172340497
		6:[f3<135.286697] yes=13,no=14,missing=14
			13:leaf=-0.00187226315
			14:leaf=-0.0491968058
booster[38]:
0:[f3<84.8783722] yes=1,no=2,missing=2
	1:[f4<0.396640718] yes=3,no=4,missing=4
		3:[f1<130.622864] yes=7,no=8,missing=8
			7:leaf=-0.0104577504
			8:leaf=-0.0454848967
		4:[f3<72.7730408] yes=9,no=10,missing=10
			9:leaf=-0.0349570327
			10:leaf=-0.0187873896
	2:[f4<0.476150215] yes=5,no=6,missing=6
		5:[f3<104.825844] yes=11,no=12,missing=12
			11:leaf=-0.0274177436
			12:leaf=0.0099836383
		6:[f3<127.146851] yes=13,no=14,missing=14
			13:leaf=0.00643095328
			14:leaf=-0.0362321176
booster[39]:
0:[f3<79.6458282] yes=1,no=2,missing=2
	1:[f4<0.465662837] yes=3,no=4,missing=4
		3:[f4<0.346524] yes=7,no=8,missing=8
			7:leaf=-0.0486084037
			8:leaf=-0.0383622386
		4:[f1<184.043228] yes=9,no=10,missing=10
			9:leaf=-0.00420702202
			10:leaf=-0.0329899043
	2:[f3<99.7945709] yes=5,no=6,missing=6
		5:[f1<275.262756] yes=11,no=12,missing=12
			11:leaf=0.0073712701
			12:leaf=-0.0306035429
		6:[f4<0.66628319] yes=13,no=14,missing=14
			13:leaf=0.0263803583
			14:leaf=-0.0233175363
booster[40]:
0:[f3<79.6458282] yes=1,no=2,missing=2
	1:[f4<0.38720113] yes=3,no=4,missing=4
		3:[f1<130.622864] yes=7,no=8,missing=8
			7:leaf=-0.0072744838
			8:leaf=-0.045926258
		4:[f1<130.622864] yes=9,no=10,missing=10
			9:leaf=0.0153803034
			10:leaf=-0.0318415724
	2:[f4<0.401506335] yes=5,no=6,missing=6
		5:[f3<98.8246918] yes=11,no=12,missing=12
			11:leaf=-0.0369278714
			12:leaf=-0.00220938469
		6:[f1<417.382935] yes=13,no=14,missing=14
			13:leaf=-0.000137458454
			14:leaf=-0.035267435
booster[41]:
0:[f3<79.6458282] yes=1,no=2,missing=2
	1:[f4<0.38720113] yes=3,no=4,missing=4
		3:[f1<130.622864] yes=7,no=8,missing=8
			7:leaf=-0.00709710503
			8:leaf=-0.0456554666
		4:[f1<130.622864] yes=9,no=10,missing=10
			9:leaf=0.0145869404
			10:leaf=-0.0312013756
	2:[f3<101.289902] yes=5,no=6,missing=6
		5:[f1<281.222961] yes=11,no=12,missing=12
			11:leaf=0.00545346132
			12:leaf=-0.0292891916
		6:[f4<0.688616216] yes=13,no=14,missing=14
			13:leaf=0.0257739034
			14:leaf=-0.0245518032
booster[42]:
0:[f3<79.6458282] yes=1,no=2,missing=2
	1:[f4<0.465662837] yes=3,no=4,missing=4
		3:[f4<0.346524] yes=7,no=8,missing=8
			7:leaf=-0.0481356792
			8:leaf=-0.0368147753
		4:[f1<184.043228] yes=9,no=10,missing=10
			9:leaf=-0.00165483786
			10:leaf=-0.031114826
	2:[f4<0.493516058] yes=5,no=6,missing=6
		5:[f3<98.8246918] yes=11,no=12,missing=12
			11:leaf=-0.0284224097
			12:leaf=0.00434421608
		6:[f3<135.286697] yes=13,no=14,missing=14
			13:leaf=0.00344330259
			14:leaf=-0.0484159552
booster[43]:
0:[f3<79.6458282] yes=1,no=2,missing=2
	1:[f4<0.38720113] yes=3,no=4,missing=4
		3:[f1<130.622864] yes=7,no=8,missing=8
			7:leaf=-0.00588609604
			8:leaf=-0.0451028831
		4:[f1<130.622864] yes=9,no=10,missing=10
			9:leaf=0.0144375144
			10:leaf=-0.0299112946
	2:[f4<0.401506335] yes=5,no=6,missing=6
		5:[f3<98.8246918] yes=11,no=12,missing=12
			11:leaf=-0.0355865099
			12:leaf=-0.00293601584
		6:[f3<135.286697] yes=13,no=14,missing=14
			13:leaf=-0.000618659134
			14:leaf=-0.048260089
booster[44]:
0:[f3<90.4060974] yes=1,no=2,missing=2
	1:[f4<0.470799834] yes=3,no=4,missing=4
		3:[f4<0.38720113] yes=7,no=8,missing=8
			7:leaf=-0.0438706093
			8:leaf=-0.0316561908
		4:[f1<285.38446] yes=9,no=10,missing=10
			9:leaf=-0.00525607076
			10:leaf=-0.0349115841
	2:[f3<135.286697] yes=5,no=6,missing=6
		5:[f3<104.825844] yes=11,no=12,missing=12
			11:leaf=-0.00737510202
			12:leaf=0.0192911606
		6:leaf=-0.048321221
booster[45]:
0:[f3<79.6458282] yes=1,no=2,missing=2
	1:[f4<0.37047267] yes=3,no=4,missing=4
		3:[f2<34.1558609] yes=7,no=8,missing=8
			7:leaf=-0.0202762913
			8:leaf=-0.0464453734
		4:[f1<130.622864] yes=9,no=10,missing=10
			9:leaf=0.0197871719
			10:leaf=-0.0296861287
	2:[f4<0.401506335] yes=5,no=6,missing=6
		5:[f3<98.8246918] yes=11,no=12,missing=12
			11:leaf=-0.0345724337
			12:leaf=-0.00297522801
		6:[f1<417.382935] yes=13,no=14,missing=14
			13:leaf=0.000902566069
			14:leaf=-0.0338893384
booster[46]:
0:[f3<79.6458282] yes=1,no=2,missing=2
	1:[f4<0.38720113] yes=3,no=4,missing=4
		3:[f1<148.762604] yes=7,no=8,missing=8
			7:leaf=-0.0155086294
			8:leaf=-0.0445204042
		4:[f2<158.711746] yes=9,no=10,missing=10
			9:leaf=-0.0279972889
			10:leaf=0.0243108273
	2:[f4<0.493516058] yes=5,no=6,missing=6
		5:[f3<98.8246918] yes=11,no=12,missing=12
			11:leaf=-0.0262732897
			12:leaf=0.00421725167
		6:[f3<135.286697] yes=13,no=14,missing=14
			13:leaf=0.00359130953
			14:leaf=-0.0475439988
booster[47]:
0:[f3<79.6458282] yes=1,no=2,missing=2
	1:[f4<0.37047267] yes=3,no=4,missing=4
		3:[f2<34.1558609] yes=7,no=8,missing=8
			7:leaf=-0.0186833143
			8:leaf=-0.0459865183
		4:[f1<130.622864] yes=9,no=10,missing=10
			9:leaf=0.0202005878
			10:leaf=-0.0283914395
	2:[f4<0.401506335] yes=5,no=6,missing=6
		5:[f3<98.8246918] yes=11,no=12,missing=12
			11:leaf=-0.033535637
			12:leaf=-0.00303049432
		6:[f1<399.700562] yes=13,no=14,missing=14
			13:leaf=0.00164828566
			14:leaf=-0.0281369984
booster[48]:
0:[f3<90.4060974] yes=1,no=2,missing=2
	1:[f4<0.470799834] yes=3,no=4,missing=4
		3:[f4<0.38720113] yes=7,no=8,missing=8
			7:leaf=-0.0425222032
			8:leaf=-0.0295122117
		4:[f1<285.38446] yes=9,no=10,missing=10
			9:leaf=-0.00263716234
			10:leaf=-0.0334360488
	2:[f3<127.146851] yes=5,no=6,missing=6
		5:[f3<104.825844] yes=11,no=12,missing=12
			11:leaf=-0.00616595615
			12:leaf=0.0249396153
		6:[f3<135.286697] yes=13,no=14,missing=14
			13:leaf=-0.0171023514
			14:leaf=-0.0477659367
booster[49]:
0:[f3<79.6458282] yes=1,no=2,missing=2
	1:[f4<0.37047267] yes=3,no=4,missing=4
		3:[f2<34.1558609] yes=7,no=8,missing=8
			7:leaf=-0.0171226542
			8:leaf=-0.0455068089
		4:[f1<130.622864] yes=9,no=10,missing=10
			9:leaf=0.0198099334
			10:leaf=-0.0271991584
	2:[f4<0.401506335] yes=5,no=6,missing=6
		5:[f1<356.419952] yes=11,no=12,missing=12
			11:leaf=-0.0399328806
			12:leaf=-0.0131094474
		6:[f1<417.382935] yes=13,no=14,missing=14
			13:leaf=0.00133825222
			14:leaf=-0.0323379748
