booster[0]:
0:[f3<88.2185135] yes=1,no=2,missing=2
	1:[f8<1.26280284] yes=3,no=4,missing=4
		3:[f2<78.1315613] yes=7,no=8,missing=8
			7:[f3<87.3944473] yes=15,no=16,missing=16
				15:leaf=-0.0954819247
				16:[f4<0.492833108] yes=27,no=28,missing=28
					27:leaf=-0.0847268179
					28:[f6<0.332198888] yes=47,no=48,missing=48
						47:leaf=-0.0419074669
						48:leaf=0.0663403198
			8:[f8<0.798617601] yes=17,no=18,missing=18
				17:[f4<0.427018046] yes=29,no=30,missing=30
					29:leaf=-0.071295701
					30:[f7<1.54833889] yes=49,no=50,missing=50
						49:leaf=0.0669641942
						50:leaf=-0.00766831357
				18:[f7<1.54833889] yes=31,no=32,missing=32
					31:leaf=-0.0858345553
					32:[f7<1.5667187] yes=51,no=52,missing=52
						51:leaf=0.0657541752
						52:leaf=-0.0449407399
		4:[f3<77.2149048] yes=9,no=10,missing=10
			9:[f8<1.73952985] yes=19,no=20,missing=20
				19:[f7<1.3868717] yes=33,no=34,missing=34
					33:[f9<0.944815516] yes=53,no=54,missing=54
						53:leaf=-0.0933439434
						54:leaf=-0.027250221
					34:leaf=-0.0255057812
				20:[f5<60.4578247] yes=35,no=36,missing=36
					35:leaf=-0.0795362517
					36:[f2<69.1195526] yes=55,no=56,missing=56
						55:leaf=-0.0702099875
						56:leaf=0.0507760756
			10:[f4<0.495686114] yes=21,no=22,missing=22
				21:[f5<296.512024] yes=37,no=38,missing=38
					37:[f3<85.0709763] yes=57,no=58,missing=58
						57:leaf=-0.0810310096
						58:leaf=-0.0205362923
					38:leaf=0.061733257
				22:[f4<0.799788594] yes=39,no=40,missing=40
					39:[f6<0.0978345945] yes=59,no=60,missing=60
						59:leaf=0.047984872
						60:leaf=0.0868676156
					40:leaf=-0.0144440057
	2:[f1<21.0151119] yes=5,no=6,missing=6
		5:[f6<0.223673061] yes=11,no=12,missing=12
			11:leaf=-0.0941774473
			12:[f3<121.434181] yes=23,no=24,missing=24
				23:leaf=-0.075962387
				24:[f9<1.37188303] yes=41,no=42,missing=42
					41:[f9<0.97405529] yes=61,no=62,missing=62
						61:leaf=-0.0287648793
						62:leaf=0.0723041072
					42:leaf=-0.0651886016
		6:[f2<135.464615] yes=13,no=14,missing=14
			13:[f3<105.145218] yes=25,no=26,missing=26
				25:[f8<1.02405798] yes=43,no=44,missing=44
					43:[f4<0.446911037] yes=63,no=64,missing=64
						63:leaf=-0.0383176953
						64:leaf=0.0279915538
					44:[f2<58.2648239] yes=65,no=66,missing=66
						65:leaf=-0.0467586815
						66:leaf=0.0871480703
				26:[f0<656.29834] yes=45,no=46,missing=46
					45:[f4<0.399245352] yes=67,no=68,missing=68
						67:leaf=0.0610497408
						68:leaf=0.0893809572
					46:[f1<50.9794312] yes=69,no=70,missing=70
						69:leaf=-0.0906208977
						70:leaf=0.0373231955
			14:leaf=-0.0962065682
booster[1]:
0:[f3<88.2185135] yes=1,no=2,missing=2
	1:[f8<1.26280284] yes=3,no=4,missing=4
		3:[f2<78.1315613] yes=7,no=8,missing=8
			7:[f3<87.3944473] yes=15,no=16,missing=16
				15:leaf=-0.0909387097
				16:[f4<0.492833108] yes=27,no=28,missing=28
					27:leaf=-0.0811892077
					28:[f6<0.332198888] yes=47,no=48,missing=48
						47:leaf=-0.0407279432
						48:leaf=0.0639649555
			8:[f8<0.798617601] yes=17,no=18,missing=18
				17:[f4<0.427018046] yes=29,no=30,missing=30
					29:leaf=-0.0688175261
					30:[f7<1.54833889] yes=49,no=50,missing=50
						49:leaf=0.064040184
						50:leaf=-0.00739607448
				18:[f7<1.54833889] yes=31,no=32,missing=32
					31:leaf=-0.0818825588
					32:[f7<1.5667187] yes=51,no=52,missing=52
						51:leaf=0.0634618178
						52:leaf=-0.0434799343
		4:[f3<77.2149048] yes=9,no=10,missing=10
			9:[f8<1.73952985] yes=19,no=20,missing=20
				19:[f7<1.3868717] yes=33,no=34,missing=34
					33:leaf=-0.0878921971
					34:leaf=-0.0248694289
				20:[f5<60.4578247] yes=35,no=36,missing=36
					35:leaf=-0.0762146935
					36:[f2<69.1195526] yes=53,no=54,missing=54
						53:leaf=-0.0675517619
						54:leaf=0.0484638214
			10:[f4<0.495686114] yes=21,no=22,missing=22
				21:[f5<296.512024] yes=37,no=38,missing=38
					37:[f3<85.0709763] yes=55,no=56,missing=56
						55:leaf=-0.077586405
						56:leaf=-0.0199955776
					38:leaf=0.0595246144
				22:[f4<0.794207275] yes=39,no=40,missing=40
					39:[f6<0.0978345945] yes=57,no=58,missing=58
						57:leaf=0.0462152995
						58:leaf=0.0827981159
					40:leaf=-0.012829341
	2:[f1<21.0151119] yes=5,no=6,missing=6
		5:[f6<0.223673061] yes=11,no=12,missing=12
			11:leaf=-0.0897595882
			12:[f3<121.434181] yes=23,no=24,missing=24
				23:leaf=-0.0728109404
				24:[f9<1.37188303] yes=41,no=42,missing=42
					41:[f9<0.97405529] yes=59,no=60,missing=60
						59:leaf=-0.0280075204
						60:leaf=0.0689739659
					42:leaf=-0.0631070957
		6:[f2<135.464615] yes=13,no=14,missing=14
			13:[f3<105.145218] yes=25,no=26,missing=26
				25:[f8<1.02405798] yes=43,no=44,missing=44
					43:[f4<0.446911037] yes=61,no=62,missing=62
						61:leaf=-0.0364293344
						62:leaf=0.0266041141
					44:[f2<58.2648239] yes=63,no=64,missing=64
						63:leaf=-0.045533672
						64:leaf=0.0829680935
				26:[f0<656.29834] yes=45,no=46,missing=46
					45:[f4<0.399245352] yes=65,no=66,missing=66
						65:leaf=0.0580603369
						66:leaf=0.0850862563
					46:[f1<50.9794312] yes=67,no=68,missing=68
						67:leaf=-0.0866242424
						68:leaf=0.0356190242
			14:leaf=-0.091720365
booster[2]:
0:[f3<88.2185135] yes=1,no=2,missing=2
	1:[f8<1.26280284] yes=3,no=4,missing=4
		3:[f2<78.1315613] yes=7,no=8,missing=8
			7:[f3<87.3944473] yes=15,no=16,missing=16
				15:leaf=-0.0869771168
				16:[f4<0.492833108] yes=29,no=30,missing=30
					29:leaf=-0.0780273676
					30:[f4<0.498119116] yes=49,no=50,missing=50
						49:leaf=0.0642673001
						50:leaf=-0.0362262353
			8:[f8<0.798617601] yes=17,no=18,missing=18
				17:[f4<0.427018046] yes=31,no=32,missing=32
					31:leaf=-0.0665412024
					32:[f7<1.54833889] yes=51,no=52,missing=52
						51:leaf=0.0613590777
						52:leaf=-0.00713364128
				18:[f7<1.54833889] yes=33,no=34,missing=34
					33:leaf=-0.0783690959
					34:[f7<1.5667187] yes=53,no=54,missing=54
						53:leaf=0.061340034
						54:leaf=-0.042093616
		4:[f3<77.2149048] yes=9,no=10,missing=10
			9:[f8<1.73952985] yes=19,no=20,missing=20
				19:[f7<1.3868717] yes=35,no=36,missing=36
					35:[f9<0.944815516] yes=55,no=56,missing=56
						55:leaf=-0.0852693245
						56:leaf=-0.0244054515
					36:leaf=-0.024252845
				20:[f5<60.4578247] yes=37,no=38,missing=38
					37:leaf=-0.0732197762
					38:[f2<69.1195526] yes=57,no=58,missing=58
						57:leaf=-0.0651127324
						58:leaf=0.0463083498
			10:[f4<0.495686114] yes=21,no=22,missing=22
				21:[f5<296.512024] yes=39,no=40,missing=40
					39:[f3<85.0709763] yes=59,no=60,missing=60
						59:leaf=-0.0744900405
						60:leaf=-0.0194712263
					40:leaf=0.0574714839
				22:[f4<0.799788594] yes=41,no=42,missing=42
					41:[f6<0.0978345945] yes=61,no=62,missing=62
						61:leaf=0.0439391211
						62:leaf=0.0791938677
					42:leaf=-0.0136874085
	2:[f1<21.0151119] yes=5,no=6,missing=6
		5:[f6<0.223673061] yes=11,no=12,missing=12
			11:[f7<0.838432014] yes=23,no=24,missing=24
				23:leaf=-0.0248510558
				24:leaf=-0.0866370723
			12:[f3<121.434181] yes=25,no=26,missing=26
				25:leaf=-0.0699526593
				26:[f9<1.34565842] yes=43,no=44,missing=44
					43:[f9<0.97405529] yes=63,no=64,missing=64
						63:leaf=-0.0272759628
						64:leaf=0.0675728768
					44:leaf=-0.0533729978
		6:[f2<135.464615] yes=13,no=14,missing=14
			13:[f3<105.145218] yes=27,no=28,missing=28
				27:[f8<1.02405798] yes=45,no=46,missing=46
					45:[f4<0.446911037] yes=65,no=66,missing=66
						65:leaf=-0.0346574187
						66:leaf=0.0252945609
					46:[f2<58.2648239] yes=67,no=68,missing=68
						67:leaf=-0.0443660133
						68:leaf=0.0792661235
				28:[f0<656.29834] yes=47,no=48,missing=48
					47:[f4<0.402556926] yes=69,no=70,missing=70
						69:leaf=0.0558578186
						70:leaf=0.0813825503
					48:[f6<0.0238983762] yes=71,no=72,missing=72
						71:leaf=0.0789130628
						72:leaf=-0.0575196557
			14:leaf=-0.0878115818
booster[3]:
0:[f3<88.2185135] yes=1,no=2,missing=2
	1:[f8<1.26280284] yes=3,no=4,missing=4
		3:[f2<78.1315613] yes=7,no=8,missing=8
			7:[f3<87.3944473] yes=15,no=16,missing=16
				15:leaf=-0.0834910646
				16:[f4<0.492833108] yes=27,no=28,missing=28
					27:leaf=-0.0751828998
					28:[f6<0.332198888] yes=45,no=46,missing=46
						45:leaf=-0.0388169028
						46:leaf=0.0599819608
			8:[f8<0.798617601] yes=17,no=18,missing=18
				17:[f4<0.427018046] yes=29,no=30,missing=30
					29:leaf=-0.0644420758
					30:[f7<1.54833889] yes=47,no=48,missing=48
						47:leaf=0.0588871427
						48:leaf=-0.00688065356
				18:[f7<1.54833889] yes=31,no=32,missing=32
					31:leaf=-0.0752202049
					32:[f7<1.5667187] yes=49,no=50,missing=50
						49:leaf=0.059369009
						50:leaf=-0.0407755524
		4:[f3<77.2149048] yes=9,no=10,missing=10
			9:[f8<1.73952985] yes=19,no=20,missing=20
				19:leaf=-0.0798067227
				20:[f3<70.8364792] yes=33,no=34,missing=34
					33:[f0<135.145782] yes=51,no=52,missing=52
						51:leaf=0.0572308898
						52:leaf=-0.0671924725
					34:[f6<0.148060545] yes=53,no=54,missing=54
						53:leaf=-0.0430740416
						54:leaf=0.0642813444
			10:[f4<0.495686114] yes=21,no=22,missing=22
				21:[f5<296.512024] yes=35,no=36,missing=36
					35:[f3<85.0709763] yes=55,no=56,missing=56
						55:leaf=-0.0716883689
						56:leaf=-0.0189625956
					36:leaf=0.0555561967
				22:[f4<0.794207275] yes=37,no=38,missing=38
					37:[f6<0.0978345945] yes=57,no=58,missing=58
						57:leaf=0.0424169637
						58:leaf=0.0759608448
					38:leaf=-0.0121922921
	2:[f1<21.2715492] yes=5,no=6,missing=6
		5:[f6<0.223673061] yes=11,no=12,missing=12
			11:leaf=-0.0827734694
			12:[f3<121.434181] yes=23,no=24,missing=24
				23:leaf=-0.0679959878
				24:[f0<381.091187] yes=39,no=40,missing=40
					39:[f1<18.8126945] yes=59,no=60,missing=60
						59:leaf=0.0204486381
						60:leaf=0.0736073852
					40:leaf=-0.0553108044
		6:[f2<135.464615] yes=13,no=14,missing=14
			13:[f3<105.145218] yes=25,no=26,missing=26
				25:[f8<1.02405798] yes=41,no=42,missing=42
					41:[f4<0.446911037] yes=61,no=62,missing=62
						61:leaf=-0.0329796933
						62:leaf=0.0242468957
					42:[f2<58.2648239] yes=63,no=64,missing=64
						63:leaf=-0.0432515256
						64:leaf=0.0759584531
				26:[f4<0.399245352] yes=43,no=44,missing=44
					43:[f3<127.705742] yes=65,no=66,missing=66
						65:leaf=0.0223276149
						66:leaf=0.0784976855
					44:[f0<607.46582] yes=67,no=68,missing=68
						67:leaf=0.0780200288
						68:leaf=-0.0259737074
			14:leaf=-0.0843761712
booster[4]:
0:[f3<98.1716385] yes=1,no=2,missing=2
	1:[f2<72.9045181] yes=3,no=4,missing=4
		3:[f2<56.1508293] yes=7,no=8,missing=8
			7:[f3<88.7357941] yes=13,no=14,missing=14
				13:leaf=-0.0821371228
				14:[f0<271.39444] yes=25,no=26,missing=26
					25:leaf=-0.0860280022
					26:[f0<292.54303] yes=45,no=46,missing=46
						45:leaf=0.0543644838
						46:leaf=-0.0747119933
			8:[f6<0.354933977] yes=15,no=16,missing=16
				15:[f4<0.462777823] yes=27,no=28,missing=28
					27:leaf=-0.0848435685
					28:[f1<111.368484] yes=47,no=48,missing=48
						47:leaf=-0.0469458811
						48:leaf=0.0468793474
				16:[f1<108.19561] yes=29,no=30,missing=30
					29:[f9<1.12369764] yes=49,no=50,missing=50
						49:leaf=0.0610693954
						50:leaf=-0.0477509312
					30:[f3<90.0704193] yes=51,no=52,missing=52
						51:leaf=0.0198943969
						52:leaf=-0.0728361085
		4:[f3<82.2010956] yes=9,no=10,missing=10
			9:[f5<68.1935577] yes=17,no=18,missing=18
				17:[f6<0.0208377447] yes=31,no=32,missing=32
					31:[f5<9.96414471] yes=53,no=54,missing=54
						53:leaf=-0.0564022847
						54:leaf=0.0546000376
					32:[f7<1.85774243] yes=55,no=56,missing=56
						55:leaf=-0.0762350857
						56:leaf=0.0302556362
				18:[f4<0.404276252] yes=33,no=34,missing=34
					33:leaf=-0.0723402724
					34:[f1<143.235764] yes=57,no=58,missing=58
						57:leaf=-0.0150414407
						58:leaf=0.053596776
			10:[f8<1.14523554] yes=19,no=20,missing=20
				19:[f7<1.52812803] yes=35,no=36,missing=36
					35:[f6<0.141206533] yes=59,no=60,missing=60
						59:leaf=-0.0411884338
						60:leaf=0.0267152917
					36:[f8<0.624564886] yes=61,no=62,missing=62
						61:leaf=0.069307059
						62:leaf=-0.0591076426
				20:[f4<0.388653666] yes=37,no=38,missing=38
					37:leaf=-0.0431814082
					38:[f1<31.5993404] yes=63,no=64,missing=64
						63:leaf=-0.048960682
						64:leaf=0.0712879226
	2:[f2<135.464615] yes=5,no=6,missing=6
		5:[f1<21.2715492] yes=11,no=12,missing=12
			11:[f6<0.223673061] yes=21,no=22,missing=22
				21:leaf=-0.0803211555
				22:[f3<121.434181] yes=39,no=40,missing=40
					39:leaf=-0.0625302419
					40:[f0<381.091187] yes=65,no=66,missing=66
						65:leaf=0.0567533486
						66:leaf=-0.0535422862
			12:[f4<0.41370517] yes=23,no=24,missing=24
				23:[f3<127.705742] yes=41,no=42,missing=42
					41:[f8<0.603490412] yes=67,no=68,missing=68
						67:leaf=-0.00104480912
						68:leaf=0.0636555776
					42:[f6<0.150483623] yes=69,no=70,missing=70
						69:leaf=-0.041984994
						70:leaf=0.0760487542
				24:[f0<607.46582] yes=43,no=44,missing=44
					43:[f1<65.1001282] yes=71,no=72,missing=72
						71:leaf=0.0621228293
						72:leaf=0.0782040656
					44:[f6<0.0238983762] yes=73,no=74,missing=74
						73:leaf=0.065388225
						74:leaf=-0.0772939026
		6:leaf=-0.081441693
booster[5]:
0:[f3<98.1716385] yes=1,no=2,missing=2
	1:[f2<72.9045181] yes=3,no=4,missing=4
		3:[f2<56.1508293] yes=7,no=8,missing=8
			7:[f3<88.7357941] yes=13,no=14,missing=14
				13:[f4<0.658137679] yes=25,no=26,missing=26
					25:leaf=-0.080087997
					26:[f1<27.1876831] yes=47,no=48,missing=48
						47:leaf=-0.0642857775
						48:leaf=0.0179771949
				14:[f0<271.39444] yes=27,no=28,missing=28
					27:leaf=-0.0823892504
					28:[f0<292.54303] yes=49,no=50,missing=50
						49:leaf=0.0518339872
						50:leaf=-0.0718138292
			8:[f6<0.354933977] yes=15,no=16,missing=16
				15:[f4<0.462777823] yes=29,no=30,missing=30
					29:leaf=-0.0817882419
					30:[f1<111.368484] yes=51,no=52,missing=52
						51:leaf=-0.0448012501
						52:leaf=0.0448796414
				16:[f1<108.19561] yes=31,no=32,missing=32
					31:[f9<1.12369764] yes=53,no=54,missing=54
						53:leaf=0.0584233664
						54:leaf=-0.0463028885
					32:[f3<90.0704193] yes=55,no=56,missing=56
						55:leaf=0.0189915299
						56:leaf=-0.0699066669
		4:[f3<82.2010956] yes=9,no=10,missing=10
			9:[f5<68.1935577] yes=17,no=18,missing=18
				17:[f6<0.0208377447] yes=33,no=34,missing=34
					33:[f5<9.96414471] yes=57,no=58,missing=58
						57:leaf=-0.0547664575
						58:leaf=0.0528154261
					34:[f7<1.85774243] yes=59,no=60,missing=60
						59:leaf=-0.0734222904
						60:leaf=0.0293641724
				18:[f9<0.854019046] yes=35,no=36,missing=36
					35:[f6<0.149414778] yes=61,no=62,missing=62
						61:leaf=0.0355012231
						62:leaf=-0.0648625046
					36:[f6<0.283667684] yes=63,no=64,missing=64
						63:leaf=0.0139027014
						64:leaf=0.0635423958
			10:[f8<1.14523554] yes=19,no=20,missing=20
				19:[f0<337.558838] yes=37,no=38,missing=38
					37:[f3<92.3591461] yes=65,no=66,missing=66
						65:leaf=-0.0205376744
						66:leaf=0.0374360792
					38:[f3<83.136055] yes=67,no=68,missing=68
						67:leaf=0.0457908325
						68:leaf=-0.0748051032
				20:[f4<0.388653666] yes=39,no=40,missing=40
					39:leaf=-0.041746635
					40:[f1<31.5993404] yes=69,no=70,missing=70
						69:leaf=-0.0476592816
						70:leaf=0.0685777888
	2:[f2<135.464615] yes=5,no=6,missing=6
		5:[f1<21.2715492] yes=11,no=12,missing=12
			11:[f6<0.223673061] yes=21,no=22,missing=22
				21:leaf=-0.077559948
				22:[f3<121.434181] yes=41,no=42,missing=42
					41:leaf=-0.0604756176
					42:[f9<1.34565842] yes=71,no=72,missing=72
						71:leaf=0.0548220575
						72:leaf=-0.0512485281
			12:[f4<0.41370517] yes=23,no=24,missing=24
				23:[f3<127.705742] yes=43,no=44,missing=44
					43:[f1<165.699158] yes=73,no=74,missing=74
						73:leaf=-0.000847914838
						74:leaf=0.0621820949
					44:[f6<0.150483623] yes=75,no=76,missing=76
						75:leaf=-0.0406782366
						76:leaf=0.0730865747
				24:[f0<607.46582] yes=45,no=46,missing=46
					45:[f1<63.5264206] yes=77,no=78,missing=78
						77:leaf=0.0594265237
						78:leaf=0.0752733201
					46:[f6<0.0238983762] yes=79,no=80,missing=80
						79:leaf=0.0632827207
						80:leaf=-0.0743836462
		6:leaf=-0.0787267908
booster[6]:
0:[f3<88.2185135] yes=1,no=2,missing=2
	1:[f8<1.26280284] yes=3,no=4,missing=4
		3:[f2<78.1315613] yes=7,no=8,missing=8
			7:[f3<87.3944473] yes=15,no=16,missing=16
				15:leaf=-0.0755952522
				16:[f4<0.492833108] yes=31,no=32,missing=32
					31:leaf=-0.0690067858
					32:[f4<0.498119116] yes=51,no=52,missing=52
						51:leaf=0.0634039119
						52:leaf=-0.0327269994
			8:[f8<0.798617601] yes=17,no=18,missing=18
				17:[f4<0.427018046] yes=33,no=34,missing=34
					33:leaf=-0.0601870827
					34:[f7<1.54833889] yes=53,no=54,missing=54
						53:leaf=0.0571432002
						54:leaf=-0.00580736017
				18:[f7<1.54833889] yes=35,no=36,missing=36
					35:leaf=-0.0696204454
					36:[f7<1.5667187] yes=55,no=56,missing=56
						55:leaf=0.0551018529
						56:leaf=-0.0378291905
		4:[f3<77.2149048] yes=9,no=10,missing=10
			9:[f8<1.73952985] yes=19,no=20,missing=20
				19:[f7<1.37870669] yes=37,no=38,missing=38
					37:[f5<260.375092] yes=57,no=58,missing=58
						57:leaf=-0.0752618462
						58:leaf=-0.0274862777
					38:leaf=-0.0209078249
				20:[f4<0.448205262] yes=39,no=40,missing=40
					39:leaf=-0.0687051043
					40:[f5<60.4578247] yes=59,no=60,missing=60
						59:leaf=-0.0550333224
						60:leaf=0.0400932543
			10:[f4<0.495686114] yes=21,no=22,missing=22
				21:[f5<296.512024] yes=41,no=42,missing=42
					41:[f3<85.0709763] yes=61,no=62,missing=62
						61:leaf=-0.0681302026
						62:leaf=-0.0202873703
					42:leaf=0.0526081398
				22:[f4<0.799788594] yes=43,no=44,missing=44
					43:[f6<0.0978345945] yes=63,no=64,missing=64
						63:leaf=0.0376226231
						64:leaf=0.0688166544
					44:leaf=-0.0128990011
	2:[f0<701.106628] yes=5,no=6,missing=6
		5:[f3<109.657982] yes=11,no=12,missing=12
			11:[f8<0.998584151] yes=23,no=24,missing=24
				23:[f2<55.6496582] yes=45,no=46,missing=46
					45:[f4<0.510596752] yes=65,no=66,missing=66
						65:leaf=-0.0549163781
						66:leaf=0.00801724289
					46:[f3<100.305817] yes=67,no=68,missing=68
						67:leaf=-0.00392651511
						68:leaf=0.0377696641
				24:[f2<58.2648239] yes=47,no=48,missing=48
					47:leaf=-0.0399446525
					48:[f8<1.14523554] yes=69,no=70,missing=70
						69:leaf=0.0545233004
						70:leaf=0.0728117824
			12:[f2<135.464615] yes=25,no=26,missing=26
				25:[f1<19.3878269] yes=49,no=50,missing=50
					49:[f6<0.232146919] yes=71,no=72,missing=72
						71:leaf=-0.0734190866
						72:leaf=0.0143578975
					50:[f4<0.402556926] yes=73,no=74,missing=74
						73:leaf=0.0505246334
						74:leaf=0.0708329603
				26:leaf=-0.0754761994
		6:[f6<0.0238983762] yes=13,no=14,missing=14
			13:[f7<1.03115809] yes=27,no=28,missing=28
				27:leaf=-0.0523241274
				28:leaf=0.0742530823
			14:[f5<287.957428] yes=29,no=30,missing=30
				29:leaf=-0.0798940063
				30:leaf=0.0304512382
booster[7]:
0:[f3<98.1716385] yes=1,no=2,missing=2
	1:[f2<72.9045181] yes=3,no=4,missing=4
		3:[f4<0.462777823] yes=7,no=8,missing=8
			7:[f5<283.334106] yes=13,no=14,missing=14
				13:[f5<172.706573] yes=25,no=26,missing=26
					25:leaf=-0.0777727589
					26:[f5<176.792892] yes=47,no=48,missing=48
						47:leaf=0.0458072498
						48:leaf=-0.0665717199
				14:[f2<58.2648239] yes=27,no=28,missing=28
					27:[f8<0.0960125998] yes=49,no=50,missing=50
						49:leaf=0.0453125983
						50:leaf=-0.0690466538
					28:[f7<0.438822955] yes=51,no=52,missing=52
						51:leaf=0.0677119792
						52:leaf=0.0188604128
			8:[f5<147.192413] yes=15,no=16,missing=16
				15:[f1<111.368484] yes=29,no=30,missing=30
					29:[f3<86.5051727] yes=53,no=54,missing=54
						53:leaf=-0.0718556419
						54:leaf=-0.0262506455
					30:[f7<0.867956102] yes=55,no=56,missing=56
						55:leaf=-0.0553774908
						56:leaf=0.0661843717
				16:[f2<58.4769707] yes=31,no=32,missing=32
					31:[f6<0.274911463] yes=57,no=58,missing=58
						57:leaf=0.0610956065
						58:leaf=-0.0558867343
					32:[f0<280.153931] yes=59,no=60,missing=60
						59:leaf=0.0621477067
						60:leaf=-0.0421472788
		4:[f3<82.2010956] yes=9,no=10,missing=10
			9:[f5<68.1935577] yes=17,no=18,missing=18
				17:[f6<0.0208377447] yes=33,no=34,missing=34
					33:[f5<9.96414471] yes=61,no=62,missing=62
						61:leaf=-0.0514587946
						62:leaf=0.0503859185
					34:[f7<1.85774243] yes=63,no=64,missing=64
						63:leaf=-0.0690419525
						64:leaf=0.0290728062
				18:[f9<0.854019046] yes=35,no=36,missing=36
					35:[f6<0.149414778] yes=65,no=66,missing=66
						65:leaf=0.0335443355
						66:leaf=-0.0609803982
					36:[f6<0.283667684] yes=67,no=68,missing=68
						67:leaf=0.0133764539
						68:leaf=0.059818048
			10:[f8<1.19188678] yes=19,no=20,missing=20
				19:[f6<0.13774243] yes=37,no=38,missing=38
					37:[f2<90.0688782] yes=69,no=70,missing=70
						69:leaf=-0.0564720333
						70:leaf=0.0267352145
					38:[f3<89.7930145] yes=71,no=72,missing=72
						71:leaf=-0.0574091189
						72:leaf=0.0464907028
				20:[f4<0.388653666] yes=39,no=40,missing=40
					39:leaf=-0.0353907235
					40:[f0<493.724426] yes=73,no=74,missing=74
						73:leaf=0.065510653
						74:leaf=-0.0336099081
	2:[f2<135.464615] yes=5,no=6,missing=6
		5:[f1<21.2715492] yes=11,no=12,missing=12
			11:[f6<0.223673061] yes=21,no=22,missing=22
				21:leaf=-0.0738637373
				22:[f3<121.434181] yes=41,no=42,missing=42
					41:leaf=-0.0588696115
					42:[f9<1.37188303] yes=75,no=76,missing=76
						75:leaf=0.0499736778
						76:leaf=-0.058016032
			12:[f3<115.905968] yes=23,no=24,missing=24
				23:[f8<0.742801666] yes=43,no=44,missing=44
					43:[f7<1.29820383] yes=77,no=78,missing=78
						77:leaf=0.00874297507
						78:leaf=0.0578452535
					44:[f9<1.14737678] yes=79,no=80,missing=80
						79:leaf=0.0702619478
						80:leaf=0.0487946011
				24:[f0<701.106628] yes=45,no=46,missing=46
					45:[f1<33.583828] yes=81,no=82,missing=82
						81:leaf=0.0465845056
						82:leaf=0.0697499886
					46:[f6<0.0238983762] yes=83,no=84,missing=84
						83:leaf=0.072132878
						84:leaf=-0.054031264
		6:leaf=-0.0741525218
booster[8]:
0:[f3<98.1716385] yes=1,no=2,missing=2
	1:[f2<72.9045181] yes=3,no=4,missing=4
		3:[f4<0.462777823] yes=7,no=8,missing=8
			7:[f6<0.35815233] yes=15,no=16,missing=16
				15:leaf=-0.0752725825
				16:[f2<56.1508293] yes=29,no=30,missing=30
					29:[f0<271.39444] yes=51,no=52,missing=52
						51:leaf=-0.0724173188
						52:leaf=-0.0150860194
					30:[f5<283.334106] yes=53,no=54,missing=54
						53:leaf=-0.0237514023
						54:leaf=0.0511956289
			8:[f5<147.192413] yes=17,no=18,missing=18
				17:[f1<111.368484] yes=31,no=32,missing=32
					31:[f3<86.5051727] yes=55,no=56,missing=56
						55:leaf=-0.0697338358
						56:leaf=-0.025010353
					32:[f7<0.867956102] yes=57,no=58,missing=58
						57:leaf=-0.0538366921
						58:leaf=0.0637205467
				18:[f2<58.4769707] yes=33,no=34,missing=34
					33:[f6<0.274911463] yes=59,no=60,missing=60
						59:leaf=0.0592311323
						60:leaf=-0.053807348
					34:[f0<280.153931] yes=61,no=62,missing=62
						61:leaf=0.0598494783
						62:leaf=-0.0409101211
		4:[f3<82.2010956] yes=9,no=10,missing=10
			9:[f6<0.131393075] yes=19,no=20,missing=20
				19:[f6<0.0208377447] yes=35,no=36,missing=36
					35:[f5<9.96414471] yes=63,no=64,missing=64
						63:leaf=-0.050106328
						64:leaf=0.048850175
					36:[f7<1.85774243] yes=65,no=66,missing=66
						65:leaf=-0.0676160678
						66:leaf=0.0284502748
				20:[f9<0.854019046] yes=37,no=38,missing=38
					37:[f6<0.149414778] yes=67,no=68,missing=68
						67:leaf=0.0297416802
						68:leaf=-0.0589375868
					38:[f6<0.283667684] yes=69,no=70,missing=70
						69:leaf=0.0127657792
						70:leaf=0.0580718927
			10:[f8<1.14523554] yes=21,no=22,missing=22
				21:[f7<1.52812803] yes=39,no=40,missing=40
					39:[f6<0.141206533] yes=71,no=72,missing=72
						71:leaf=-0.0374467485
						72:leaf=0.0230818149
					40:[f8<0.624564886] yes=73,no=74,missing=74
						73:leaf=0.0648105964
						74:leaf=-0.055624377
				22:[f4<0.388653666] yes=41,no=42,missing=42
					41:leaf=-0.0398744568
					42:[f1<31.5993404] yes=75,no=76,missing=76
						75:leaf=-0.0453865081
						76:leaf=0.0618208721
	2:[f2<131.825958] yes=5,no=6,missing=6
		5:[f1<21.2715492] yes=11,no=12,missing=12
			11:[f6<0.223673061] yes=23,no=24,missing=24
				23:leaf=-0.0717293099
				24:[f3<121.434181] yes=43,no=44,missing=44
					43:leaf=-0.0570655577
					44:[f0<381.091187] yes=77,no=78,missing=78
						77:leaf=0.0490594395
						78:leaf=-0.0514998138
			12:[f4<0.399245352] yes=25,no=26,missing=26
				25:[f3<127.705742] yes=45,no=46,missing=46
					45:[f1<167.68486] yes=79,no=80,missing=80
						79:leaf=-0.013173948
						80:leaf=0.0552444719
					46:[f6<0.150483623] yes=81,no=82,missing=82
						81:leaf=-0.04058972
						82:leaf=0.0666665733
				26:[f1<38.5693359] yes=47,no=48,missing=48
					47:[f9<0.131174549] yes=83,no=84,missing=84
						83:leaf=-0.0401285402
						84:leaf=0.0486703701
					48:[f3<109.657982] yes=85,no=86,missing=86
						85:leaf=0.0517666638
						86:leaf=0.0690891892
		6:[f3<136.593353] yes=13,no=14,missing=14
			13:[f5<22.0677242] yes=27,no=28,missing=28
				27:[f2<135.464615] yes=49,no=50,missing=50
					49:leaf=0.0575669073
					50:leaf=-0.0428806543
				28:leaf=-0.0666853562
			14:leaf=-0.0745371357
booster[9]:
0:[f3<98.1716385] yes=1,no=2,missing=2
	1:[f2<65.4043198] yes=3,no=4,missing=4
		3:[f3<87.3944473] yes=7,no=8,missing=8
			7:leaf=-0.070703499
			8:[f9<1.22282839] yes=15,no=16,missing=16
				15:[f9<0.676916122] yes=27,no=28,missing=28
					27:leaf=-0.0715823248
					28:[f2<56.1508293] yes=49,no=50,missing=50
						49:leaf=-0.0279931575
						50:leaf=0.0381627008
				16:[f1<26.0265598] yes=29,no=30,missing=30
					29:[f8<0.321513385] yes=51,no=52,missing=52
						51:leaf=-0.0526380539
						52:leaf=0.0455498248
					30:leaf=-0.0797107741
		4:[f8<1.19188678] yes=9,no=10,missing=10
			9:[f3<92.7540283] yes=17,no=18,missing=18
				17:[f2<91.7908325] yes=31,no=32,missing=32
					31:[f6<0.0882573873] yes=53,no=54,missing=54
						53:leaf=-0.0744690523
						54:leaf=-0.0296977498
					32:[f3<87.0548325] yes=55,no=56,missing=56
						55:leaf=-0.0525147915
						56:leaf=0.0403554216
				18:[f9<1.3364619] yes=33,no=34,missing=34
					33:[f5<72.207283] yes=57,no=58,missing=58
						57:leaf=-0.00140420487
						58:leaf=0.0420807339
					34:leaf=-0.0733755305
			10:[f3<77.2149048] yes=19,no=20,missing=20
				19:[f8<1.73952985] yes=35,no=36,missing=36
					35:[f7<1.3868717] yes=59,no=60,missing=60
						59:leaf=-0.0667576715
						60:leaf=-0.00636022631
					36:[f5<60.4578247] yes=61,no=62,missing=62
						61:leaf=-0.0533865169
						62:leaf=0.0350855328
				20:[f4<0.451235861] yes=37,no=38,missing=38
					37:[f5<174.709961] yes=63,no=64,missing=64
						63:leaf=-0.0311997682
						64:leaf=0.05276829
					38:[f8<1.22189331] yes=65,no=66,missing=66
						65:leaf=-0.0459707975
						66:leaf=0.0601275079
	2:[f2<131.825958] yes=5,no=6,missing=6
		5:[f1<21.2715492] yes=11,no=12,missing=12
			11:[f6<0.223673061] yes=21,no=22,missing=22
				21:[f6<0.183776185] yes=39,no=40,missing=40
					39:leaf=-0.0715544298
					40:[f1<18.8126945] yes=67,no=68,missing=68
						67:leaf=-0.0442015938
						68:leaf=-0.00283943838
				22:[f3<121.434181] yes=41,no=42,missing=42
					41:leaf=-0.0553753972
					42:[f9<1.34565842] yes=69,no=70,missing=70
						69:leaf=0.04751895
						70:leaf=-0.0490364842
			12:[f2<69.638916] yes=23,no=24,missing=24
				23:[f3<115.905968] yes=43,no=44,missing=44
					43:[f4<0.379743069] yes=71,no=72,missing=72
						71:leaf=-0.0410589837
						72:leaf=0.0190748665
					44:[f6<0.178454086] yes=73,no=74,missing=74
						73:leaf=-0.0821917951
						74:leaf=0.0586381555
				24:[f1<33.583828] yes=45,no=46,missing=46
					45:[f9<0.0374445878] yes=75,no=76,missing=76
						75:leaf=-0.100630939
						76:leaf=0.041933421
					46:[f4<0.406499684] yes=77,no=78,missing=78
						77:leaf=0.0491343066
						78:leaf=0.065757446
		6:[f3<136.593353] yes=13,no=14,missing=14
			13:[f5<22.0677242] yes=25,no=26,missing=26
				25:[f0<327.287262] yes=47,no=48,missing=48
					47:leaf=0.0549345724
					48:leaf=-0.0449058935
				26:leaf=-0.0646259487
			14:leaf=-0.0725290924
booster[10]:
0:[f3<99.676033] yes=1,no=2,missing=2
	1:[f2<72.9045181] yes=3,no=4,missing=4
		3:[f2<55.6496582] yes=7,no=8,missing=8
			7:[f8<0.0960125998] yes=15,no=16,missing=16
				15:[f1<38.5693359] yes=29,no=30,missing=30
					29:leaf=-0.0610647388
					30:leaf=0.0553075746
				16:[f4<0.531838775] yes=31,no=32,missing=32
					31:leaf=-0.0681426823
					32:[f9<1.33377087] yes=53,no=54,missing=54
						53:leaf=-0.0647990406
						54:leaf=0.0205580965
			8:[f6<0.354933977] yes=17,no=18,missing=18
				17:[f4<0.462777823] yes=33,no=34,missing=34
					33:leaf=-0.0727307126
					34:[f3<86.5051727] yes=55,no=56,missing=56
						55:leaf=-0.0554404855
						56:leaf=-0.00321307778
				18:[f1<108.19561] yes=35,no=36,missing=36
					35:[f9<1.24175501] yes=57,no=58,missing=58
						57:leaf=0.0481384769
						58:leaf=-0.0475602038
					36:[f3<90.0704193] yes=59,no=60,missing=60
						59:leaf=0.0180535167
						60:leaf=-0.0702235401
		4:[f3<82.2010956] yes=9,no=10,missing=10
			9:[f5<68.1935577] yes=19,no=20,missing=20
				19:[f6<0.0208377447] yes=37,no=38,missing=38
					37:[f5<9.96414471] yes=61,no=62,missing=62
						61:leaf=-0.0474364758
						62:leaf=0.0461124964
					38:[f0<195.421371] yes=63,no=64,missing=64
						63:leaf=0.00115200726
						64:leaf=-0.0673065111
				20:[f4<0.404276252] yes=39,no=40,missing=40
					39:leaf=-0.063862972
					40:[f1<143.235764] yes=65,no=66,missing=66
						65:leaf=-0.0136042628
						66:leaf=0.0499060862
			10:[f8<1.19188678] yes=21,no=22,missing=22
				21:[f7<1.52812803] yes=41,no=42,missing=42
					41:[f6<0.141206533] yes=67,no=68,missing=68
						67:leaf=-0.0349280909
						68:leaf=0.021395443
					42:[f6<0.0663056448] yes=69,no=70,missing=70
						69:leaf=-0.0500010736
						70:leaf=0.0572072379
				22:[f1<177.053238] yes=43,no=44,missing=44
					43:[f1<40.1161346] yes=71,no=72,missing=72
						71:leaf=0.0110104466
						72:leaf=0.0627983138
					44:[f7<0.771714389] yes=73,no=74,missing=74
						73:leaf=0.0462754183
						74:leaf=-0.0652589798
	2:[f2<131.825958] yes=5,no=6,missing=6
		5:[f1<21.2715492] yes=11,no=12,missing=12
			11:[f6<0.223673061] yes=23,no=24,missing=24
				23:[f6<0.183776185] yes=45,no=46,missing=46
					45:leaf=-0.0696458444
					46:[f1<18.8126945] yes=75,no=76,missing=76
						75:leaf=-0.0429480821
						76:leaf=-0.00197251467
				24:[f3<121.434181] yes=47,no=48,missing=48
					47:leaf=-0.0509067848
					48:[f0<381.091187] yes=77,no=78,missing=78
						77:leaf=0.045706857
						78:leaf=-0.0495997593
			12:[f4<0.399245352] yes=25,no=26,missing=26
				25:[f3<127.705742] yes=49,no=50,missing=50
					49:[f1<167.68486] yes=79,no=80,missing=80
						79:leaf=-0.0128054498
						80:leaf=0.0522813313
					50:[f6<0.150483623] yes=81,no=82,missing=82
						81:leaf=-0.0396720357
						82:leaf=0.0628723577
				26:[f1<63.5264206] yes=51,no=52,missing=52
					51:[f9<0.486890972] yes=83,no=84,missing=84
						83:leaf=0.0120810773
						84:leaf=0.0541650541
					52:[f3<108.369408] yes=85,no=86,missing=86
						85:leaf=0.0503002517
						86:leaf=0.0672513023
		6:[f2<135.464615] yes=13,no=14,missing=14
			13:[f5<23.0543098] yes=27,no=28,missing=28
				27:leaf=0.0480141565
				28:leaf=-0.0815489367
			14:leaf=-0.0686726421
booster[11]:
0:[f3<99.676033] yes=1,no=2,missing=2
	1:[f2<72.9045181] yes=3,no=4,missing=4
		3:[f2<55.6496582] yes=7,no=8,missing=8
			7:[f3<88.7357941] yes=15,no=16,missing=16
				15:[f4<0.658137679] yes=29,no=30,missing=30
					29:leaf=-0.0684452057
					30:[f1<25.0718575] yes=55,no=56,missing=56
						55:leaf=-0.0543089211
						56:leaf=0.0177677646
				16:[f3<89.0661163] yes=31,no=32,missing=32
					31:leaf=0.0525433421
					32:[f2<32.4537086] yes=57,no=58,missing=58
						57:leaf=0.024478158
						58:leaf=-0.0601391383
			8:[f6<0.354933977] yes=17,no=18,missing=18
				17:[f4<0.462777823] yes=33,no=34,missing=34
					33:leaf=-0.0709138289
					34:[f3<86.5051727] yes=59,no=60,missing=60
						59:leaf=-0.0536326841
						60:leaf=-0.00305605656
				18:[f1<94.8057632] yes=35,no=36,missing=36
					35:[f0<282.728577] yes=61,no=62,missing=62
						61:leaf=0.0546109155
						62:leaf=-0.0132153556
					36:[f7<0.508235693] yes=63,no=64,missing=64
						63:leaf=0.0232102759
						64:leaf=-0.0693722963
		4:[f3<82.2010956] yes=9,no=10,missing=10
			9:[f6<0.283667684] yes=19,no=20,missing=20
				19:[f2<101.219582] yes=37,no=38,missing=38
					37:[f7<1.54833889] yes=65,no=66,missing=66
						65:leaf=-0.0541391559
						66:leaf=0.0101210289
					38:[f3<72.3982925] yes=67,no=68,missing=68
						67:leaf=0.0568521507
						68:leaf=-0.0241514426
				20:[f9<0.879415452] yes=39,no=40,missing=40
					39:leaf=-0.0266644806
					40:leaf=0.0569110215
			10:[f8<1.19188678] yes=21,no=22,missing=22
				21:[f7<1.52812803] yes=41,no=42,missing=42
					41:[f6<0.141206533] yes=69,no=70,missing=70
						69:leaf=-0.0332750641
						70:leaf=0.0204016548
					42:[f3<89.5769196] yes=71,no=72,missing=72
						71:leaf=-0.0069052591
						72:leaf=0.0620100088
				22:[f1<177.053238] yes=43,no=44,missing=44
					43:[f1<40.1161346] yes=73,no=74,missing=74
						73:leaf=0.0105978893
						74:leaf=0.0610286258
					44:[f7<0.771714389] yes=75,no=76,missing=76
						75:leaf=0.0448304974
						76:leaf=-0.0627901182
	2:[f2<131.825958] yes=5,no=6,missing=6
		5:[f1<21.2715492] yes=11,no=12,missing=12
			11:[f6<0.223673061] yes=23,no=24,missing=24
				23:[f6<0.183776185] yes=45,no=46,missing=46
					45:leaf=-0.0680171698
					46:[f3<144.826859] yes=77,no=78,missing=78
						77:leaf=-0.0418639891
						78:leaf=-0.00403114641
				24:[f3<121.434181] yes=47,no=48,missing=48
					47:leaf=-0.0494941138
					48:[f9<1.37188303] yes=79,no=80,missing=80
						79:leaf=0.0433633737
						80:leaf=-0.054350663
			12:[f4<0.406499684] yes=25,no=26,missing=26
				25:[f3<127.705742] yes=49,no=50,missing=50
					49:[f1<165.699158] yes=81,no=82,missing=82
						81:leaf=-0.00809395779
						82:leaf=0.0503814481
					50:[f3<138.685425] yes=83,no=84,missing=84
						83:leaf=0.0419255234
						84:leaf=0.0669986829
				26:[f1<65.1001282] yes=51,no=52,missing=52
					51:[f9<0.162255615] yes=85,no=86,missing=86
						85:leaf=1.30918052e-05
						86:leaf=0.0509547107
					52:[f3<108.662544] yes=87,no=88,missing=88
						87:leaf=0.0498834252
						88:leaf=0.0659177601
		6:[f3<136.593353] yes=13,no=14,missing=14
			13:[f5<22.0677242] yes=27,no=28,missing=28
				27:[f0<327.287262] yes=53,no=54,missing=54
					53:leaf=0.0524304993
					54:leaf=-0.0428287573
				28:leaf=-0.060488224
			14:leaf=-0.0691082403
booster[12]:
0:[f3<99.676033] yes=1,no=2,missing=2
	1:[f2<72.9045181] yes=3,no=4,missing=4
		3:[f3<87.3944473] yes=7,no=8,missing=8
			7:[f2<65.4043198] yes=15,no=16,missing=16
				15:leaf=-0.0661815628
				16:[f6<0.354933977] yes=29,no=30,missing=30
					29:[f3<50.2858772] yes=51,no=52,missing=52
						51:leaf=0.0519774929
						52:leaf=-0.0592136793
					30:leaf=0.0573105589
			8:[f9<1.24175501] yes=17,no=18,missing=18
				17:[f9<0.560015738] yes=31,no=32,missing=32
					31:leaf=-0.0713551268
					32:[f2<55.6496582] yes=53,no=54,missing=54
						53:leaf=-0.0307908263
						54:leaf=0.0273891743
				18:[f1<26.4382172] yes=33,no=34,missing=34
					33:[f1<25.4114075] yes=55,no=56,missing=56
						55:leaf=-0.0499816053
						56:leaf=0.0470486991
					34:leaf=-0.0764854625
		4:[f3<82.2010956] yes=9,no=10,missing=10
			9:[f6<0.283667684] yes=19,no=20,missing=20
				19:[f2<101.219582] yes=35,no=36,missing=36
					35:[f7<1.54833889] yes=57,no=58,missing=58
						57:leaf=-0.0523146354
						58:leaf=0.00967698079
					36:[f3<72.3982925] yes=59,no=60,missing=60
						59:leaf=0.0553218313
						60:leaf=-0.0235126279
				20:[f9<0.879415452] yes=37,no=38,missing=38
					37:leaf=-0.0260119941
					38:leaf=0.0554246083
			10:[f8<1.14523554] yes=21,no=22,missing=22
				21:[f7<1.52812803] yes=39,no=40,missing=40
					39:[f2<74.534668] yes=61,no=62,missing=62
						61:leaf=0.037259914
						62:leaf=-0.0288720336
					40:[f6<0.0663056448] yes=63,no=64,missing=64
						63:leaf=-0.0490226559
						64:leaf=0.0530033372
				22:[f1<31.5993404] yes=41,no=42,missing=42
					41:leaf=-0.0462230369
					42:[f1<177.053238] yes=65,no=66,missing=66
						65:leaf=0.057903327
						66:leaf=0.0144265462
	2:[f2<131.825958] yes=5,no=6,missing=6
		5:[f1<21.2715492] yes=11,no=12,missing=12
			11:[f6<0.223673061] yes=23,no=24,missing=24
				23:[f6<0.183776185] yes=43,no=44,missing=44
					43:leaf=-0.0665172487
					44:[f1<18.2949238] yes=67,no=68,missing=68
						67:leaf=-0.0416952632
						68:leaf=-0.0040895897
				24:[f3<121.434181] yes=45,no=46,missing=46
					45:leaf=-0.0481528528
					46:[f0<381.091187] yes=69,no=70,missing=70
						69:leaf=0.0426739641
						70:leaf=-0.0479925126
			12:[f4<0.41370517] yes=25,no=26,missing=26
				25:[f3<127.705742] yes=47,no=48,missing=48
					47:[f8<0.603490412] yes=71,no=72,missing=72
						71:leaf=-0.00563821523
						72:leaf=0.0505857058
					48:[f6<0.150483623] yes=73,no=74,missing=74
						73:leaf=-0.0389366224
						74:leaf=0.0589497648
				26:[f1<65.1001282] yes=49,no=50,missing=50
					49:[f9<0.162255615] yes=75,no=76,missing=76
						75:leaf=2.94301262e-05
						76:leaf=0.049437087
					50:[f3<108.662544] yes=77,no=78,missing=78
						77:leaf=0.0487317406
						78:leaf=0.0644919872
		6:[f2<135.464615] yes=13,no=14,missing=14
			13:[f5<23.0543098] yes=27,no=28,missing=28
				27:leaf=0.0456406958
				28:leaf=-0.0749053285
			14:leaf=-0.0657528639
booster[13]:
0:[f3<99.676033] yes=1,no=2,missing=2
	1:[f2<72.9045181] yes=3,no=4,missing=4
		3:[f3<87.3944473] yes=7,no=8,missing=8
			7:[f2<65.4043198] yes=15,no=16,missing=16
				15:leaf=-0.0647718459
				16:[f6<0.354933977] yes=29,no=30,missing=30
					29:[f3<50.2858772] yes=49,no=50,missing=50
						49:leaf=0.0503804758
						50:leaf=-0.0577076264
					30:leaf=0.0556268468
			8:[f9<1.24175501] yes=17,no=18,missing=18
				17:[f9<0.560015738] yes=31,no=32,missing=32
					31:leaf=-0.069343023
					32:[f2<55.6496582] yes=51,no=52,missing=52
						51:leaf=-0.0295251645
						52:leaf=0.0261027552
				18:[f1<26.4382172] yes=33,no=34,missing=34
					33:[f1<25.4114075] yes=53,no=54,missing=54
						53:leaf=-0.0485113971
						54:leaf=0.0453937575
					34:leaf=-0.074084118
		4:[f3<82.2010956] yes=9,no=10,missing=10
			9:[f4<0.404276252] yes=19,no=20,missing=20
				19:leaf=-0.0667548329
				20:[f5<68.1935577] yes=35,no=36,missing=36
					35:[f6<0.0208377447] yes=55,no=56,missing=56
						55:leaf=0.0146501139
						56:leaf=-0.0488759652
					36:[f1<143.235764] yes=57,no=58,missing=58
						57:leaf=-0.0119342078
						58:leaf=0.0470468216
			10:[f8<1.19188678] yes=21,no=22,missing=22
				21:[f7<1.52812803] yes=37,no=38,missing=38
					37:[f6<0.141206533] yes=59,no=60,missing=60
						59:leaf=-0.0308477823
						60:leaf=0.019265471
					38:[f3<89.5769196] yes=61,no=62,missing=62
						61:leaf=-0.00802367646
						62:leaf=0.0577671714
				22:[f1<177.053238] yes=39,no=40,missing=40
					39:[f1<40.1161346] yes=63,no=64,missing=64
						63:leaf=0.00903016608
						64:leaf=0.0578456521
					40:[f7<0.771714389] yes=65,no=66,missing=66
						65:leaf=0.0430081449
						66:leaf=-0.0610110462
	2:[f2<131.825958] yes=5,no=6,missing=6
		5:[f1<24.6580219] yes=11,no=12,missing=12
			11:[f6<0.214345247] yes=23,no=24,missing=24
				23:[f1<24.255209] yes=41,no=42,missing=42
					41:[f0<371.274536] yes=67,no=68,missing=68
						67:leaf=-0.0318946205
						68:leaf=-0.0722726956
					42:leaf=0.00889165327
				24:[f1<18.8126945] yes=43,no=44,missing=44
					43:[f3<177.657059] yes=69,no=70,missing=70
						69:leaf=-0.0662678704
						70:leaf=0.0411360636
					44:[f2<77.5287552] yes=71,no=72,missing=72
						71:leaf=0.0476893559
						72:leaf=-0.0521950312
			12:[f4<0.415438473] yes=25,no=26,missing=26
				25:[f3<127.705742] yes=45,no=46,missing=46
					45:[f8<0.603490412] yes=73,no=74,missing=74
						73:leaf=-0.00474601611
						74:leaf=0.0500062816
					46:[f3<138.685425] yes=75,no=76,missing=76
						75:leaf=0.0397491418
						76:leaf=0.0640537068
				26:[f1<65.1001282] yes=47,no=48,missing=48
					47:[f9<0.162255615] yes=77,no=78,missing=78
						77:leaf=0.00567052653
						78:leaf=0.0493028089
					48:[f3<115.138977] yes=79,no=80,missing=80
						79:leaf=0.0516572073
						80:leaf=0.064148739
		6:[f2<135.464615] yes=13,no=14,missing=14
			13:[f5<23.0543098] yes=27,no=28,missing=28
				27:leaf=0.0444080085
				28:leaf=-0.0717628077
			14:leaf=-0.0644473508
booster[14]:
0:[f3<99.676033] yes=1,no=2,missing=2
	1:[f2<72.9045181] yes=3,no=4,missing=4
		3:[f3<87.3944473] yes=7,no=8,missing=8
			7:[f2<65.4043198] yes=15,no=16,missing=16
				15:leaf=-0.0634606555
				16:[f6<0.354933977] yes=29,no=30,missing=30
					29:[f0<186.770401] yes=53,no=54,missing=54
						53:leaf=0.0216364395
						54:leaf=-0.0614244826
					30:leaf=0.054034736
			8:[f9<1.24175501] yes=17,no=18,missing=18
				17:[f9<0.560015738] yes=31,no=32,missing=32
					31:leaf=-0.0674868375
					32:[f2<55.6496582] yes=55,no=56,missing=56
						55:leaf=-0.0283147153
						56:leaf=0.0248814933
				18:[f1<26.0265598] yes=33,no=34,missing=34
					33:[f1<25.4114075] yes=57,no=58,missing=58
						57:leaf=-0.0471134149
						58:leaf=0.0455003269
					34:leaf=-0.0718208775
		4:[f3<82.2010956] yes=9,no=10,missing=10
			9:[f6<0.283667684] yes=19,no=20,missing=20
				19:[f7<1.54833889] yes=35,no=36,missing=36
					35:[f2<101.219582] yes=59,no=60,missing=60
						59:leaf=-0.0494701527
						60:leaf=0.0250322912
					36:[f0<226.407608] yes=61,no=62,missing=62
						61:leaf=0.0494680069
						62:leaf=-0.0455633253
				20:[f9<0.879415452] yes=37,no=38,missing=38
					37:leaf=-0.0249558222
					38:leaf=0.0543269627
			10:[f8<1.14523554] yes=21,no=22,missing=22
				21:[f7<1.52812803] yes=39,no=40,missing=40
					39:[f2<74.534668] yes=63,no=64,missing=64
						63:leaf=0.0351964347
						64:leaf=-0.0267285015
					40:[f6<0.0663056448] yes=65,no=66,missing=66
						65:leaf=-0.0480588637
						66:leaf=0.0492134541
				22:[f1<31.5993404] yes=41,no=42,missing=42
					41:leaf=-0.0452159941
					42:[f1<177.053238] yes=67,no=68,missing=68
						67:leaf=0.0549273379
						68:leaf=0.0130587174
	2:[f2<131.825958] yes=5,no=6,missing=6
		5:[f1<24.6580219] yes=11,no=12,missing=12
			11:[f6<0.214345247] yes=23,no=24,missing=24
				23:[f3<158.900421] yes=43,no=44,missing=44
					43:[f5<23.5392532] yes=69,no=70,missing=70
						69:leaf=-0.0301895235
						70:leaf=-0.0722648948
					44:[f8<0.243947193] yes=71,no=72,missing=72
						71:leaf=-0.0617552511
						72:leaf=0.0197793618
				24:[f1<18.8126945] yes=45,no=46,missing=46
					45:[f3<177.657059] yes=73,no=74,missing=74
						73:leaf=-0.0638654158
						74:leaf=0.0398745909
					46:[f0<538.502808] yes=75,no=76,missing=76
						75:leaf=0.0462335981
						76:leaf=-0.0482522696
			12:[f4<0.399245352] yes=25,no=26,missing=26
				25:[f3<127.705742] yes=47,no=48,missing=48
					47:[f1<167.68486] yes=77,no=78,missing=78
						77:leaf=-0.0120454365
						78:leaf=0.0464614779
					48:[f3<138.685425] yes=79,no=80,missing=80
						79:leaf=0.0387266986
						80:leaf=0.0628765747
				26:[f1<65.1001282] yes=49,no=50,missing=50
					49:[f9<0.486890972] yes=81,no=82,missing=82
						81:leaf=0.0153021384
						82:leaf=0.0490557477
					50:[f3<108.369408] yes=83,no=84,missing=84
						83:leaf=0.0439526588
						84:leaf=0.0613362864
		6:[f3<136.593353] yes=13,no=14,missing=14
			13:[f5<22.0677242] yes=27,no=28,missing=28
				27:[f0<327.287262] yes=51,no=52,missing=52
					51:leaf=0.0493314527
					52:leaf=-0.0399759412
				28:leaf=-0.0551198833
			14:leaf=-0.0649583861
booster[15]:
0:[f3<99.676033] yes=1,no=2,missing=2
	1:[f2<68.2557907] yes=3,no=4,missing=4
		3:[f3<86.5051727] yes=7,no=8,missing=8
			7:[f5<296.512024] yes=15,no=16,missing=16
				15:[f2<66.3914871] yes=27,no=28,missing=28
					27:[f4<0.658137679] yes=49,no=50,missing=50
						49:leaf=-0.0638380274
						50:leaf=-0.0419928879
					28:[f6<0.354933977] yes=51,no=52,missing=52
						51:leaf=-0.0538246296
						52:leaf=0.0362299643
				16:[f2<65.2195435] yes=29,no=30,missing=30
					29:[f0<343.841949] yes=53,no=54,missing=54
						53:leaf=-0.049018763
						54:leaf=-0.00529822847
					30:leaf=0.0568964556
			8:[f9<1.24175501] yes=17,no=18,missing=18
				17:[f9<0.676916122] yes=31,no=32,missing=32
					31:leaf=-0.0646446273
					32:[f1<94.8057632] yes=55,no=56,missing=56
						55:leaf=0.0261271447
						56:leaf=-0.0295381192
				18:[f1<26.0265598] yes=33,no=34,missing=34
					33:[f1<25.4114075] yes=57,no=58,missing=58
						57:leaf=-0.0462948345
						58:leaf=0.0441182218
					34:[f8<0.768344462] yes=59,no=60,missing=60
						59:leaf=-0.069473967
						60:leaf=0.0453836583
		4:[f8<1.22189331] yes=9,no=10,missing=10
			9:[f3<92.3591461] yes=19,no=20,missing=20
				19:[f7<1.14633727] yes=35,no=36,missing=36
					35:[f5<184.491562] yes=61,no=62,missing=62
						61:leaf=-0.0591848157
						62:leaf=0.0401081108
					36:[f4<0.404276252] yes=63,no=64,missing=64
						63:leaf=-0.0683777109
						64:leaf=0.0129629392
				20:[f9<1.35173738] yes=37,no=38,missing=38
					37:[f5<68.1935577] yes=65,no=66,missing=66
						65:leaf=-0.00703932205
						66:leaf=0.0374019779
					38:leaf=-0.0713264644
			10:[f3<82.2010956] yes=21,no=22,missing=22
				21:[f9<0.854019046] yes=39,no=40,missing=40
					39:[f8<1.87307715] yes=67,no=68,missing=68
						67:leaf=-0.044099953
						68:leaf=0.0223789625
					40:[f5<157.582825] yes=69,no=70,missing=70
						69:leaf=-0.00253892737
						70:leaf=0.0582410209
				22:[f4<0.451235861] yes=41,no=42,missing=42
					41:[f3<98.1716385] yes=71,no=72,missing=72
						71:leaf=-0.043405138
						72:leaf=0.0539283752
					42:[f9<-0.0968905687] yes=73,no=74,missing=74
						73:leaf=0.0311624538
						74:leaf=0.0585177243
	2:[f0<607.46582] yes=5,no=6,missing=6
		5:[f2<135.464615] yes=11,no=12,missing=12
			11:[f2<76.9141006] yes=23,no=24,missing=24
				23:[f3<112.531845] yes=43,no=44,missing=44
					43:[f9<1.34001601] yes=75,no=76,missing=76
						75:leaf=0.0147334561
						76:leaf=-0.0489628837
					44:[f6<0.144943714] yes=77,no=78,missing=78
						77:leaf=-0.0206282213
						78:leaf=0.0476522557
				24:[f1<29.9250793] yes=45,no=46,missing=46
					45:[f9<0.131174549] yes=79,no=80,missing=80
						79:leaf=-0.0865249038
						80:leaf=0.00872729812
					46:[f9<0.486890972] yes=81,no=82,missing=82
						81:leaf=0.0452525541
						82:leaf=0.0592641011
			12:leaf=-0.0611893423
		6:[f1<53.8825836] yes=13,no=14,missing=14
			13:leaf=-0.0704620183
			14:[f2<121.759895] yes=25,no=26,missing=26
				25:[f7<1.08866036] yes=47,no=48,missing=48
					47:[f7<1.03451836] yes=83,no=84,missing=84
						83:leaf=0.0525616817
						84:leaf=0.00982357934
					48:leaf=-0.0493447669
				26:leaf=-0.0596321188
booster[16]:
0:[f3<99.676033] yes=1,no=2,missing=2
	1:[f2<85.0163574] yes=3,no=4,missing=4
		3:[f4<0.455209136] yes=7,no=8,missing=8
			7:[f5<172.706573] yes=15,no=16,missing=16
				15:[f9<1.37534738] yes=29,no=30,missing=30
					29:[f3<96.2611313] yes=51,no=52,missing=52
						51:leaf=-0.0659733638
						52:leaf=-0.0293682311
					30:[f9<1.37768769] yes=53,no=54,missing=54
						53:leaf=0.0520237498
						54:leaf=-0.0617822371
				16:[f2<55.6496582] yes=31,no=32,missing=32
					31:[f5<174.709961] yes=55,no=56,missing=56
						55:leaf=0.0481653735
						56:leaf=-0.0522914305
					32:[f2<57.0628891] yes=57,no=58,missing=58
						57:leaf=0.0495402962
						58:leaf=-0.0142571405
			8:[f6<0.17478247] yes=17,no=18,missing=18
				17:[f6<0.0732521787] yes=33,no=34,missing=34
					33:[f4<0.902557671] yes=59,no=60,missing=60
						59:leaf=-0.0660990253
						60:leaf=-0.020942295
					34:[f6<0.104428798] yes=61,no=62,missing=62
						61:leaf=0.0125290221
						62:leaf=-0.047884278
				18:[f2<65.811554] yes=35,no=36,missing=36
					35:[f6<0.422767699] yes=63,no=64,missing=64
						63:leaf=-0.0330725275
						64:leaf=0.0238353163
					36:[f9<0.519566417] yes=65,no=66,missing=66
						65:leaf=-0.0432146899
						66:leaf=0.0404641666
		4:[f9<-0.298915565] yes=9,no=10,missing=10
			9:[f2<100.221825] yes=19,no=20,missing=20
				19:[f2<85.6508408] yes=37,no=38,missing=38
					37:leaf=0.0334646292
					38:leaf=-0.0688221604
				20:[f1<178.626389] yes=39,no=40,missing=40
					39:[f0<413.746216] yes=67,no=68,missing=68
						67:leaf=0.0556264222
						68:leaf=-0.0407694764
					40:leaf=-0.0437094383
			10:[f9<0.97405529] yes=21,no=22,missing=22
				21:[f6<0.13774243] yes=41,no=42,missing=42
					41:[f4<0.427018046] yes=69,no=70,missing=70
						69:leaf=-0.0682697222
						70:leaf=0.0421626605
					42:[f0<195.421371] yes=71,no=72,missing=72
						71:leaf=0.0259879827
						72:leaf=0.0626364276
				22:leaf=-0.0548890829
	2:[f0<607.46582] yes=5,no=6,missing=6
		5:[f2<131.825958] yes=11,no=12,missing=12
			11:[f2<76.9141006] yes=23,no=24,missing=24
				23:[f3<114.119469] yes=43,no=44,missing=44
					43:[f9<1.35779333] yes=73,no=74,missing=74
						73:leaf=0.0149025097
						74:leaf=-0.0492948554
					44:[f6<0.144943714] yes=75,no=76,missing=76
						75:leaf=-0.0355732217
						76:leaf=0.0472132824
				24:[f1<29.9250793] yes=45,no=46,missing=46
					45:[f9<0.131174549] yes=77,no=78,missing=78
						77:leaf=-0.0830784589
						78:leaf=0.00832810253
					46:[f9<0.486890972] yes=79,no=80,missing=80
						79:leaf=0.0444899909
						80:leaf=0.0581268854
			12:[f5<23.0543098] yes=25,no=26,missing=26
				25:[f2<135.464615] yes=47,no=48,missing=48
					47:leaf=0.0411540084
					48:leaf=-0.0517250001
				26:leaf=-0.0637205094
		6:[f1<53.8825836] yes=13,no=14,missing=14
			13:leaf=-0.0687961876
			14:[f2<121.759895] yes=27,no=28,missing=28
				27:[f7<1.08866036] yes=49,no=50,missing=50
					49:[f2<95.8527603] yes=81,no=82,missing=82
						81:leaf=0.0174274798
						82:leaf=0.0539470799
					50:leaf=-0.0475695021
				28:leaf=-0.0583365634
booster[17]:
0:[f3<99.676033] yes=1,no=2,missing=2
	1:[f2<72.9045181] yes=3,no=4,missing=4
		3:[f3<87.3944473] yes=7,no=8,missing=8
			7:[f2<65.4043198] yes=15,no=16,missing=16
				15:[f4<0.658137679] yes=29,no=30,missing=30
					29:leaf=-0.0610759743
					30:[f1<26.8074913] yes=51,no=52,missing=52
						51:leaf=-0.0523237884
						52:leaf=0.00303130946
				16:[f6<0.354933977] yes=31,no=32,missing=32
					31:[f3<50.2858772] yes=53,no=54,missing=54
						53:leaf=0.0483112521
						54:leaf=-0.0532694459
					32:[f3<79.6681671] yes=55,no=56,missing=56
						55:leaf=0.0550940521
						56:leaf=0.0237611197
			8:[f9<1.24175501] yes=17,no=18,missing=18
				17:[f9<0.560015738] yes=33,no=34,missing=34
					33:leaf=-0.0634568632
					34:[f1<135.208862] yes=57,no=58,missing=58
						57:leaf=0.0177068897
						58:leaf=-0.0645452291
				18:[f1<26.4382172] yes=35,no=36,missing=36
					35:[f1<25.4114075] yes=59,no=60,missing=60
						59:leaf=-0.0436078049
						60:leaf=0.041756656
					36:leaf=-0.0673795268
		4:[f3<82.2010956] yes=9,no=10,missing=10
			9:[f4<0.404276252] yes=19,no=20,missing=20
				19:leaf=-0.062059667
				20:[f5<68.1935577] yes=37,no=38,missing=38
					37:[f6<0.0208377447] yes=61,no=62,missing=62
						61:leaf=0.0178098623
						62:leaf=-0.0446865484
					38:[f1<143.235764] yes=63,no=64,missing=64
						63:leaf=-0.0109346248
						64:leaf=0.0441092774
			10:[f8<1.19188678] yes=21,no=22,missing=22
				21:[f7<1.52812803] yes=39,no=40,missing=40
					39:[f1<81.3755493] yes=65,no=66,missing=66
						65:leaf=0.0145445084
						66:leaf=-0.0304674096
					40:[f6<0.0663056448] yes=67,no=68,missing=68
						67:leaf=-0.0463521257
						68:leaf=0.0457151942
				22:[f1<177.053238] yes=41,no=42,missing=42
					41:[f1<40.1161346] yes=69,no=70,missing=70
						69:leaf=0.00436214125
						70:leaf=0.052721601
					42:[f7<0.771714389] yes=71,no=72,missing=72
						71:leaf=0.0390964411
						72:leaf=-0.0581596792
	2:[f0<607.46582] yes=5,no=6,missing=6
		5:[f2<131.825958] yes=11,no=12,missing=12
			11:[f2<76.6846848] yes=23,no=24,missing=24
				23:[f3<115.905968] yes=43,no=44,missing=44
					43:[f9<0.560015738] yes=73,no=74,missing=74
						73:leaf=-0.0976006836
						74:leaf=0.0107472837
					44:[f6<0.144943714] yes=75,no=76,missing=76
						75:leaf=-0.0273740739
						76:leaf=0.0468298644
				24:[f1<29.9250793] yes=45,no=46,missing=46
					45:[f9<0.131174549] yes=77,no=78,missing=78
						77:leaf=-0.0799404904
						78:leaf=0.00740783615
					46:[f9<0.486890972] yes=79,no=80,missing=80
						79:leaf=0.0431436971
						80:leaf=0.0568413138
			12:[f5<23.0543098] yes=25,no=26,missing=26
				25:[f2<135.464615] yes=47,no=48,missing=48
					47:leaf=0.0400965512
					48:leaf=-0.0507919788
				26:leaf=-0.0624783449
		6:[f1<50.9794312] yes=13,no=14,missing=14
			13:leaf=-0.0679393783
			14:[f2<121.759895] yes=27,no=28,missing=28
				27:[f7<1.08866036] yes=49,no=50,missing=50
					49:[f2<95.8527603] yes=81,no=82,missing=82
						81:leaf=0.0159038659
						82:leaf=0.0532471612
					50:leaf=-0.0463935398
				28:leaf=-0.0574945994
booster[18]:
0:[f3<99.676033] yes=1,no=2,missing=2
	1:[f2<72.9045181] yes=3,no=4,missing=4
		3:[f3<87.3944473] yes=7,no=8,missing=8
			7:[f2<65.4043198] yes=15,no=16,missing=16
				15:[f4<0.658137679] yes=29,no=30,missing=30
					29:leaf=-0.0600719154
					30:[f1<26.8074913] yes=53,no=54,missing=54
						53:leaf=-0.0512832403
						54:leaf=0.00292896735
				16:[f6<0.354933977] yes=31,no=32,missing=32
					31:[f0<186.770401] yes=55,no=56,missing=56
						55:leaf=0.0220652968
						56:leaf=-0.0573831387
					32:[f3<79.6681671] yes=57,no=58,missing=58
						57:leaf=0.0537737422
						58:leaf=0.0230730604
			8:[f9<1.24175501] yes=17,no=18,missing=18
				17:[f9<0.560015738] yes=33,no=34,missing=34
					33:leaf=-0.06201002
					34:[f2<55.6496582] yes=59,no=60,missing=60
						59:leaf=-0.0269627925
						60:leaf=0.0226618592
				18:[f1<26.0265598] yes=35,no=36,missing=36
					35:[f1<25.4114075] yes=61,no=62,missing=62
						61:leaf=-0.0424256995
						62:leaf=0.0418457761
					36:leaf=-0.0656429604
		4:[f7<0.819700778] yes=9,no=10,missing=10
			9:[f4<0.451235861] yes=19,no=20,missing=20
				19:[f7<0.582290709] yes=37,no=38,missing=38
					37:leaf=0.0386452228
					38:[f4<0.229818806] yes=63,no=64,missing=64
						63:leaf=0.0419786982
						64:leaf=-0.0710707158
				20:[f2<80.8472214] yes=39,no=40,missing=40
					39:[f2<75.3924789] yes=65,no=66,missing=66
						65:leaf=0.0478451364
						66:leaf=-0.0152654145
					40:[f6<0.141206533] yes=67,no=68,missing=68
						67:leaf=0.0362029485
						68:leaf=0.059573289
			10:[f2<93.2307739] yes=21,no=22,missing=22
				21:[f7<1.52812803] yes=41,no=42,missing=42
					41:[f2<78.3697357] yes=69,no=70,missing=70
						69:leaf=-0.00827101152
						70:leaf=-0.0507687405
					42:[f0<259.364502] yes=71,no=72,missing=72
						71:leaf=0.0472682714
						72:leaf=-0.0213517752
				22:[f4<0.397746801] yes=43,no=44,missing=44
					43:leaf=-0.0603654385
					44:[f1<32.7018394] yes=73,no=74,missing=74
						73:leaf=-0.0512025766
						74:leaf=0.0390183106
	2:[f0<607.46582] yes=5,no=6,missing=6
		5:[f2<131.825958] yes=11,no=12,missing=12
			11:[f2<76.9141006] yes=23,no=24,missing=24
				23:[f3<115.905968] yes=45,no=46,missing=46
					45:[f6<0.289848715] yes=75,no=76,missing=76
						75:leaf=-0.0341380499
						76:leaf=0.0169923678
					46:[f1<18.8126945] yes=77,no=78,missing=78
						77:leaf=-0.03323327
						78:leaf=0.0454198308
				24:[f1<31.5993404] yes=47,no=48,missing=48
					47:[f9<0.131174549] yes=79,no=80,missing=80
						79:leaf=-0.0841560215
						80:leaf=0.0154656908
					48:[f9<0.486890972] yes=81,no=82,missing=82
						81:leaf=0.0427091718
						82:leaf=0.0557621792
			12:[f5<23.0543098] yes=25,no=26,missing=26
				25:[f2<135.464615] yes=49,no=50,missing=50
					49:leaf=0.0390744098
					50:leaf=-0.0498972908
				26:leaf=-0.061302837
		6:[f1<50.9794312] yes=13,no=14,missing=14
			13:leaf=-0.0665053353
			14:[f2<121.759895] yes=27,no=28,missing=28
				27:[f7<1.08866036] yes=51,no=52,missing=52
					51:[f2<95.8527603] yes=83,no=84,missing=84
						83:leaf=0.0153773418
						84:leaf=0.0519102812
					52:leaf=-0.044782877
				28:leaf=-0.0563323386
booster[19]:
0:[f3<91.547081] yes=1,no=2,missing=2
	1:[f8<1.20741737] yes=3,no=4,missing=4
		3:[f2<91.7908325] yes=7,no=8,missing=8
			7:[f0<227.223282] yes=15,no=16,missing=16
				15:[f2<74.3869171] yes=31,no=32,missing=32
					31:[f9<1.15675342] yes=57,no=58,missing=58
						57:leaf=-0.0572109297
						58:leaf=-0.00796528719
					32:[f6<0.0930878371] yes=59,no=60,missing=60
						59:leaf=-0.0520219393
						60:leaf=0.0499371849
				16:[f4<0.631441891] yes=33,no=34,missing=34
					33:[f6<0.37591216] yes=61,no=62,missing=62
						61:leaf=-0.0618984103
						62:leaf=-0.0352311991
					34:[f4<0.635477126] yes=63,no=64,missing=64
						63:leaf=0.0594160035
						64:leaf=-0.0549889207
			8:[f3<87.0548325] yes=17,no=18,missing=18
				17:leaf=-0.047654286
				18:[f0<256.575287] yes=35,no=36,missing=36
					35:leaf=0.0646859929
					36:[f2<103.087608] yes=65,no=66,missing=66
						65:leaf=-0.0559058748
						66:leaf=0.0423017628
		4:[f3<77.2149048] yes=9,no=10,missing=10
			9:[f8<1.73952985] yes=19,no=20,missing=20
				19:[f7<1.42449439] yes=37,no=38,missing=38
					37:[f9<0.944815516] yes=67,no=68,missing=68
						67:leaf=-0.0572040975
						68:leaf=-0.00898269471
					38:leaf=-0.00393857714
				20:[f4<0.448205262] yes=39,no=40,missing=40
					39:leaf=-0.0514737852
					40:[f5<60.4578247] yes=69,no=70,missing=70
						69:leaf=-0.0387076996
						70:leaf=0.0331295617
			10:[f4<0.460644424] yes=21,no=22,missing=22
				21:[f5<174.709961] yes=41,no=42,missing=42
					41:leaf=-0.0593266189
					42:[f0<281.206696] yes=71,no=72,missing=72
						71:leaf=-0.0407054909
						72:leaf=0.0495236218
				22:[f7<0.959245145] yes=43,no=44,missing=44
					43:[f0<176.844681] yes=73,no=74,missing=74
						73:leaf=-0.0205033477
						74:leaf=0.0529846437
					44:[f9<-1.34631038] yes=75,no=76,missing=76
						75:leaf=0.0308111012
						76:leaf=-0.0517381318
	2:[f2<69.638916] yes=5,no=6,missing=6
		5:[f3<115.905968] yes=11,no=12,missing=12
			11:[f9<1.35779333] yes=23,no=24,missing=24
				23:[f9<0.676916122] yes=45,no=46,missing=46
					45:[f5<217.283951] yes=77,no=78,missing=78
						77:leaf=-0.0745011941
						78:leaf=0.0158714969
					46:[f7<1.19557095] yes=79,no=80,missing=80
						79:leaf=-0.00234057545
						80:leaf=0.0627889037
				24:[f4<0.46781835] yes=47,no=48,missing=48
					47:[f3<100.590546] yes=81,no=82,missing=82
						81:leaf=-0.0579132847
						82:leaf=-0.096257627
					48:[f0<213.201447] yes=83,no=84,missing=84
						83:leaf=0.0318083428
						84:leaf=-0.0796910599
			12:[f6<0.178454086] yes=25,no=26,missing=26
				25:leaf=-0.0704166517
				26:[f3<121.750824] yes=49,no=50,missing=50
					49:[f4<0.421039879] yes=85,no=86,missing=86
						85:leaf=-0.00515965326
						86:leaf=0.0453962721
					50:[f1<18.8126945] yes=87,no=88,missing=88
						87:leaf=-0.00778243644
						88:leaf=0.0491747111
		6:[f2<131.825958] yes=13,no=14,missing=14
			13:[f1<27.565485] yes=27,no=28,missing=28
				27:[f9<0.0374445878] yes=51,no=52,missing=52
					51:leaf=-0.0695956424
					52:[f1<20.2318268] yes=89,no=90,missing=90
						89:leaf=-0.0552423485
						90:leaf=0.0253730062
				28:[f3<108.662544] yes=53,no=54,missing=54
					53:[f8<1.0601418] yes=91,no=92,missing=92
						91:leaf=0.0163431223
						92:leaf=0.0549900718
					54:[f9<0.519566417] yes=93,no=94,missing=94
						93:leaf=0.0371885076
						94:leaf=0.0540599041
			14:[f3<136.593353] yes=29,no=30,missing=30
				29:[f5<22.0677242] yes=55,no=56,missing=56
					55:[f0<327.287262] yes=95,no=96,missing=96
						95:leaf=0.0450437516
						96:leaf=-0.0357991308
					56:leaf=-0.0492480807
				30:leaf=-0.0601429231
booster[20]:
0:[f3<100.005569] yes=1,no=2,missing=2
	1:[f4<0.448205262] yes=3,no=4,missing=4
		3:[f3<87.3944473] yes=7,no=8,missing=8
			7:[f1<253.116806] yes=15,no=16,missing=16
				15:[f7<1.54833889] yes=29,no=30,missing=30
					29:leaf=-0.0597841553
					30:[f8<0.93475461] yes=51,no=52,missing=52
						51:leaf=-0.0551180616
						52:leaf=0.0338228457
				16:leaf=0.0201443024
			8:[f8<1.04517877] yes=17,no=18,missing=18
				17:[f1<194.298538] yes=31,no=32,missing=32
					31:[f9<0.830744147] yes=53,no=54,missing=54
						53:leaf=-0.0673770234
						54:leaf=-0.0246529505
					32:[f7<1.42449439] yes=55,no=56,missing=56
						55:leaf=-0.0610223673
						56:leaf=0.0622301474
				18:[f4<0.421039879] yes=33,no=34,missing=34
					33:[f4<0.388653666] yes=57,no=58,missing=58
						57:leaf=-0.00091616204
						58:leaf=0.0515642948
					34:[f8<1.15768445] yes=59,no=60,missing=60
						59:leaf=-0.0557956658
						60:leaf=-0.0138196517
		4:[f8<1.22189331] yes=9,no=10,missing=10
			9:[f3<91.547081] yes=19,no=20,missing=20
				19:[f0<256.575287] yes=35,no=36,missing=36
					35:[f2<91.7908325] yes=61,no=62,missing=62
						61:leaf=-0.0245110299
						62:leaf=0.0363028347
					36:[f0<394.618073] yes=63,no=64,missing=64
						63:leaf=-0.0589674897
						64:leaf=-0.0241201799
				20:[f9<1.36380088] yes=37,no=38,missing=38
					37:[f0<413.746216] yes=65,no=66,missing=66
						65:leaf=0.0221979003
						66:leaf=-0.0542838834
					38:leaf=-0.0678161308
			10:[f3<77.2149048] yes=21,no=22,missing=22
				21:[f8<1.73952985] yes=39,no=40,missing=40
					39:[f7<1.21563494] yes=67,no=68,missing=68
						67:leaf=-0.053169366
						68:leaf=-0.00813160371
					40:[f5<60.4578247] yes=69,no=70,missing=70
						69:leaf=-0.0377976075
						70:leaf=0.0318065546
				22:[f9<-0.0968905687] yes=41,no=42,missing=42
					41:[f4<0.570896685] yes=71,no=72,missing=72
						71:leaf=-0.0663584769
						72:leaf=0.0337356813
					42:[f3<87.3944473] yes=73,no=74,missing=74
						73:leaf=0.0379957445
						74:leaf=0.0561202951
	2:[f0<607.46582] yes=5,no=6,missing=6
		5:[f2<131.825958] yes=11,no=12,missing=12
			11:[f2<83.3747025] yes=23,no=24,missing=24
				23:[f5<100.171974] yes=43,no=44,missing=44
					43:[f1<52.6660271] yes=75,no=76,missing=76
						75:leaf=-0.00487573026
						76:leaf=-0.0918627307
					44:[f4<0.41370517] yes=77,no=78,missing=78
						77:leaf=0.0133656282
						78:leaf=0.0462713763
				24:[f1<31.5993404] yes=45,no=46,missing=46
					45:[f9<0.131174549] yes=79,no=80,missing=80
						79:leaf=-0.0802184269
						80:leaf=0.0162196662
					46:[f9<0.486890972] yes=81,no=82,missing=82
						81:leaf=0.0426685326
						82:leaf=0.0554984026
			12:[f5<23.0543098] yes=25,no=26,missing=26
				25:[f2<135.464615] yes=47,no=48,missing=48
					47:leaf=0.0373197347
					48:leaf=-0.0481745563
				26:leaf=-0.0591727756
		6:[f1<50.9794312] yes=13,no=14,missing=14
			13:leaf=-0.064822197
			14:[f2<121.759895] yes=27,no=28,missing=28
				27:[f7<1.08866036] yes=49,no=50,missing=50
					49:[f2<95.8527603] yes=83,no=84,missing=84
						83:leaf=0.0133994101
						84:leaf=0.0495961681
					50:leaf=-0.0443395004
				28:leaf=-0.0548902042
booster[21]:
0:[f3<100.005569] yes=1,no=2,missing=2
	1:[f4<0.448205262] yes=3,no=4,missing=4
		3:[f3<87.3944473] yes=7,no=8,missing=8
			7:[f1<253.116806] yes=15,no=16,missing=16
				15:[f7<1.54833889] yes=29,no=30,missing=30
					29:[f5<373.275574] yes=53,no=54,missing=54
						53:leaf=-0.0592741668
						54:leaf=-0.02401256
					30:[f8<0.93475461] yes=55,no=56,missing=56
						55:leaf=-0.0541539676
						56:leaf=0.032776691
				16:leaf=0.0194471385
			8:[f8<1.04517877] yes=17,no=18,missing=18
				17:[f3<90.0704193] yes=31,no=32,missing=32
					31:[f4<0.355904073] yes=57,no=58,missing=58
						57:leaf=-0.0598267429
						58:leaf=0.0296706557
					32:[f7<1.19557095] yes=59,no=60,missing=60
						59:leaf=-0.0545575991
						60:leaf=0.00659627421
				18:[f4<0.421039879] yes=33,no=34,missing=34
					33:[f4<0.388653666] yes=61,no=62,missing=62
						61:leaf=-0.000879644358
						62:leaf=0.0502866507
					34:[f8<1.15768445] yes=63,no=64,missing=64
						63:leaf=-0.054302007
						64:leaf=-0.0134397643
		4:[f8<1.22189331] yes=9,no=10,missing=10
			9:[f3<91.547081] yes=19,no=20,missing=20
				19:[f0<256.575287] yes=35,no=36,missing=36
					35:[f2<79.3976288] yes=65,no=66,missing=66
						65:leaf=-0.0285266936
						66:leaf=0.0179057866
					36:[f0<394.618073] yes=67,no=68,missing=68
						67:leaf=-0.057544589
						68:leaf=-0.0232082251
				20:[f9<1.36380088] yes=37,no=38,missing=38
					37:[f0<413.746216] yes=69,no=70,missing=70
						69:leaf=0.0211776067
						70:leaf=-0.0525846481
					38:leaf=-0.0658869222
			10:[f3<77.2149048] yes=21,no=22,missing=22
				21:[f8<1.73952985] yes=39,no=40,missing=40
					39:[f7<1.21563494] yes=71,no=72,missing=72
						71:leaf=-0.05211116
						72:leaf=-0.00789046288
					40:[f5<60.4578247] yes=73,no=74,missing=74
						73:leaf=-0.0369159803
						74:leaf=0.0305401329
				22:[f9<-0.0968905687] yes=41,no=42,missing=42
					41:[f4<0.570896685] yes=75,no=76,missing=76
						75:leaf=-0.0637988746
						76:leaf=0.032662794
					42:[f3<87.3944473] yes=77,no=78,missing=78
						77:leaf=0.0367034711
						78:leaf=0.0550694279
	2:[f0<607.46582] yes=5,no=6,missing=6
		5:[f2<76.6846848] yes=11,no=12,missing=12
			11:[f3<114.119469] yes=23,no=24,missing=24
				23:[f9<1.35779333] yes=43,no=44,missing=44
					43:[f6<0.289848715] yes=79,no=80,missing=80
						79:leaf=-0.0415773839
						80:leaf=0.0233661216
					44:[f4<0.500203371] yes=81,no=82,missing=82
						81:leaf=-0.0865362138
						82:leaf=0.00469735265
				24:[f6<0.144943714] yes=45,no=46,missing=46
					45:[f7<1.17695761] yes=83,no=84,missing=84
						83:leaf=-0.00328951259
						84:leaf=-0.0800505653
					46:[f4<0.421039879] yes=85,no=86,missing=86
						85:leaf=0.0270648003
						86:leaf=0.0472707115
			12:[f2<131.825958] yes=25,no=26,missing=26
				25:[f1<31.5993404] yes=47,no=48,missing=48
					47:[f9<0.131174549] yes=87,no=88,missing=88
						87:leaf=-0.0777733997
						88:leaf=0.0123549616
					48:[f9<0.486890972] yes=89,no=90,missing=90
						89:leaf=0.0390052907
						90:leaf=0.0527116917
				26:[f3<136.593353] yes=49,no=50,missing=50
					49:[f5<22.0677242] yes=91,no=92,missing=92
						91:leaf=0.0352395885
						92:leaf=-0.0470245406
					50:leaf=-0.0578598045
		6:[f1<50.9794312] yes=13,no=14,missing=14
			13:leaf=-0.0635981262
			14:[f2<121.759895] yes=27,no=28,missing=28
				27:[f7<1.08866036] yes=51,no=52,missing=52
					51:[f7<1.03451836] yes=93,no=94,missing=94
						93:leaf=0.0455424674
						94:leaf=0.00499669975
					52:leaf=-0.042836912
				28:leaf=-0.0538490117
booster[22]:
0:[f3<103.903709] yes=1,no=2,missing=2
	1:[f2<84.2542877] yes=3,no=4,missing=4
		3:[f5<118.980682] yes=7,no=8,missing=8
			7:[f4<0.548907936] yes=15,no=16,missing=16
				15:[f9<1.2539202] yes=29,no=30,missing=30
					29:[f6<0.22864148] yes=55,no=56,missing=56
						55:leaf=-0.06430199
						56:leaf=-0.0202894527
					30:[f8<0.742801666] yes=57,no=58,missing=58
						57:leaf=-0.0623105653
						58:leaf=0.0147574842
				16:[f6<0.0740237087] yes=31,no=32,missing=32
					31:[f9<1.33377087] yes=59,no=60,missing=60
						59:leaf=-0.0590408817
						60:leaf=-0.0116376402
					32:[f3<99.083725] yes=61,no=62,missing=62
						61:leaf=0.011346682
						62:leaf=-0.080237709
			8:[f2<65.4043198] yes=17,no=18,missing=18
				17:[f5<321.25293] yes=33,no=34,missing=34
					33:[f4<0.448205262] yes=63,no=64,missing=64
						63:leaf=-0.0464352295
						64:leaf=-0.00866075512
					34:[f9<0.991270423] yes=65,no=66,missing=66
						65:leaf=0.0539976433
						66:leaf=-0.0235339403
				18:[f9<1.27163577] yes=35,no=36,missing=36
					35:[f4<0.446911037] yes=67,no=68,missing=68
						67:leaf=-0.000336884899
						68:leaf=0.0458674915
					36:leaf=-0.0729597062
		4:[f3<83.4269562] yes=9,no=10,missing=10
			9:[f2<101.219582] yes=19,no=20,missing=20
				19:[f2<87.1906281] yes=37,no=38,missing=38
					37:[f3<77.884491] yes=69,no=70,missing=70
						69:leaf=0.0327297859
						70:leaf=-0.0471503884
					38:[f9<0.263765067] yes=71,no=72,missing=72
						71:leaf=-0.0569887348
						72:leaf=-0.0104692858
				20:[f3<72.3982925] yes=39,no=40,missing=40
					39:leaf=0.0468147919
					40:[f3<82.8630524] yes=73,no=74,missing=74
						73:leaf=-0.0235595517
						74:leaf=0.0353190266
			10:[f8<1.05141461] yes=21,no=22,missing=22
				21:[f7<1.42449439] yes=41,no=42,missing=42
					41:[f6<0.010452874] yes=75,no=76,missing=76
						75:leaf=0.0646230802
						76:leaf=-0.0264674928
					42:[f3<87.3944473] yes=77,no=78,missing=78
						77:leaf=-0.0428762361
						78:leaf=0.0484518334
				22:[f1<31.5993404] yes=43,no=44,missing=44
					43:leaf=-0.0455575772
					44:[f1<177.053238] yes=79,no=80,missing=80
						79:leaf=0.0505014621
						80:leaf=0.0224983543
	2:[f2<131.825958] yes=5,no=6,missing=6
		5:[f1<21.2715492] yes=11,no=12,missing=12
			11:[f6<0.223673061] yes=23,no=24,missing=24
				23:[f6<0.183776185] yes=45,no=46,missing=46
					45:leaf=-0.058301013
					46:[f1<18.2949238] yes=81,no=82,missing=82
						81:leaf=-0.035756845
						82:leaf=-0.0010173159
				24:[f7<0.889108956] yes=47,no=48,missing=48
					47:[f1<19.3878269] yes=83,no=84,missing=84
						83:leaf=-0.0690825507
						84:leaf=0.0141495941
					48:[f9<0.944815516] yes=85,no=86,missing=86
						85:leaf=-0.0504367948
						86:leaf=0.0512622297
			12:[f4<0.399245352] yes=25,no=26,missing=26
				25:[f3<127.705742] yes=49,no=50,missing=50
					49:[f8<0.603490412] yes=87,no=88,missing=88
						87:leaf=-0.0163286403
						88:leaf=0.0393803604
					50:[f5<222.755569] yes=89,no=90,missing=90
						89:leaf=0.0074264952
						90:leaf=0.0500372015
				26:[f1<65.1001282] yes=51,no=52,missing=52
					51:[f6<0.178454086] yes=91,no=92,missing=92
						91:leaf=0.014881352
						92:leaf=0.0432785079
					52:[f3<180.887207] yes=93,no=94,missing=94
						93:leaf=0.0522143207
						94:leaf=-0.0355112106
		6:[f3<136.593353] yes=13,no=14,missing=14
			13:[f5<22.0677242] yes=27,no=28,missing=28
				27:[f2<135.464615] yes=53,no=54,missing=54
					53:leaf=0.0430439189
					54:leaf=-0.0302023347
				28:leaf=-0.0445086733
			14:leaf=-0.0575104356
booster[23]:
0:[f3<103.903709] yes=1,no=2,missing=2
	1:[f2<84.2542877] yes=3,no=4,missing=4
		3:[f5<118.980682] yes=7,no=8,missing=8
			7:[f4<0.548907936] yes=15,no=16,missing=16
				15:[f9<1.2539202] yes=29,no=30,missing=30
					29:[f6<0.22864148] yes=53,no=54,missing=54
						53:leaf=-0.0632508472
						54:leaf=-0.0194529574
					30:[f8<0.742801666] yes=55,no=56,missing=56
						55:leaf=-0.0607895218
						56:leaf=0.0140414154
				16:[f1<22.502882] yes=31,no=32,missing=32
					31:[f7<0.838432014] yes=57,no=58,missing=58
						57:leaf=-0.0139866276
						58:leaf=-0.0587884188
					32:[f3<99.083725] yes=59,no=60,missing=60
						59:leaf=0.0100196172
						60:leaf=-0.0877375305
			8:[f2<65.4043198] yes=17,no=18,missing=18
				17:[f5<321.25293] yes=33,no=34,missing=34
					33:[f4<0.448205262] yes=61,no=62,missing=62
						61:leaf=-0.0449415073
						62:leaf=-0.00823793095
					34:[f2<53.6773033] yes=63,no=64,missing=64
						63:leaf=-0.0212283544
						64:leaf=0.0543267988
				18:[f9<1.27163577] yes=35,no=36,missing=36
					35:[f4<0.446911037] yes=65,no=66,missing=66
						65:leaf=-0.000320916268
						66:leaf=0.0444695428
					36:leaf=-0.0705241784
		4:[f3<87.3944473] yes=9,no=10,missing=10
			9:[f4<0.411308318] yes=19,no=20,missing=20
				19:leaf=-0.0582249053
				20:[f6<0.093892999] yes=37,no=38,missing=38
					37:[f9<0.249695107] yes=67,no=68,missing=68
						67:leaf=-0.0584195442
						68:leaf=0.0294412561
					38:[f1<62.8134613] yes=69,no=70,missing=70
						69:leaf=-0.0317321196
						70:leaf=0.0329950601
			10:[f8<1.05141461] yes=21,no=22,missing=22
				21:[f7<1.42449439] yes=39,no=40,missing=40
					39:[f6<0.010452874] yes=71,no=72,missing=72
						71:leaf=0.0637031421
						72:leaf=-0.0237506907
					40:[f9<-0.298915565] yes=73,no=74,missing=74
						73:leaf=0.000376162759
						74:leaf=0.0526408926
				22:[f0<422.312927] yes=41,no=42,missing=42
					41:[f1<191.972519] yes=75,no=76,missing=76
						75:leaf=0.0512808934
						76:leaf=0.0202048589
					42:[f6<0.0266346037] yes=77,no=78,missing=78
						77:leaf=0.0415494852
						78:leaf=-0.0427904017
	2:[f2<131.825958] yes=5,no=6,missing=6
		5:[f1<33.583828] yes=11,no=12,missing=12
			11:[f9<0.29773584] yes=23,no=24,missing=24
				23:[f1<25.0718575] yes=43,no=44,missing=44
					43:[f1<24.6580219] yes=79,no=80,missing=80
						79:leaf=-0.0509488583
						80:leaf=0.0388443992
					44:leaf=-0.0957542807
				24:[f1<18.8126945] yes=45,no=46,missing=46
					45:[f8<0.103630967] yes=81,no=82,missing=82
						81:leaf=0.0182490107
						82:leaf=-0.0630400851
					46:[f0<413.746216] yes=83,no=84,missing=84
						83:leaf=0.0332461596
						84:leaf=-0.0177605115
			12:[f4<0.41370517] yes=25,no=26,missing=26
				25:[f3<138.685425] yes=47,no=48,missing=48
					47:[f8<0.629745543] yes=85,no=86,missing=86
						85:leaf=-0.00288441102
						86:leaf=0.0430476964
					48:[f1<58.0083046] yes=87,no=88,missing=88
						87:leaf=0.000160590935
						88:leaf=0.0546095334
				26:[f1<87.4824371] yes=49,no=50,missing=50
					49:[f4<0.473709404] yes=89,no=90,missing=90
						89:leaf=-0.0162431579
						90:leaf=0.0431320705
					50:[f2<124.170143] yes=91,no=92,missing=92
						91:leaf=0.0540793538
						92:leaf=0.010225961
		6:[f3<136.593353] yes=13,no=14,missing=14
			13:[f5<22.0677242] yes=27,no=28,missing=28
				27:[f2<135.464615] yes=51,no=52,missing=52
					51:leaf=0.0421699435
					52:leaf=-0.0296893865
				28:leaf=-0.0434928909
			14:leaf=-0.0566599667
booster[24]:
0:[f3<103.903709] yes=1,no=2,missing=2
	1:[f2<84.2542877] yes=3,no=4,missing=4
		3:[f5<118.980682] yes=7,no=8,missing=8
			7:[f4<0.548907936] yes=15,no=16,missing=16
				15:[f9<1.2539202] yes=29,no=30,missing=30
					29:[f6<0.22864148] yes=55,no=56,missing=56
						55:leaf=-0.062251538
						56:leaf=-0.0186511073
					30:[f8<0.742801666] yes=57,no=58,missing=58
						57:leaf=-0.0593320206
						58:leaf=0.0133619132
				16:[f6<0.0740237087] yes=31,no=32,missing=32
					31:[f9<1.33377087] yes=59,no=60,missing=60
						59:leaf=-0.0573236309
						60:leaf=-0.0108507946
					32:[f3<99.083725] yes=61,no=62,missing=62
						61:leaf=0.0108662751
						62:leaf=-0.0727747902
			8:[f2<65.4043198] yes=17,no=18,missing=18
				17:[f9<1.34565842] yes=33,no=34,missing=34
					33:[f3<87.3944473] yes=63,no=64,missing=64
						63:leaf=-0.0488744043
						64:leaf=3.09971838e-05
					34:leaf=-0.0646496788
				18:[f9<1.27163577] yes=35,no=36,missing=36
					35:[f4<0.446911037] yes=65,no=66,missing=66
						65:leaf=-0.000305706431
						66:leaf=0.0431181565
					36:leaf=-0.0682626888
		4:[f3<83.4269562] yes=9,no=10,missing=10
			9:[f2<101.219582] yes=19,no=20,missing=20
				19:[f2<87.1906281] yes=37,no=38,missing=38
					37:[f3<77.884491] yes=67,no=68,missing=68
						67:leaf=0.0309766084
						68:leaf=-0.045542337
					38:[f9<0.263765067] yes=69,no=70,missing=70
						69:leaf=-0.0550948046
						70:leaf=-0.0103510274
				20:[f3<72.3982925] yes=39,no=40,missing=40
					39:leaf=0.0451102294
					40:[f3<82.8630524] yes=71,no=72,missing=72
						71:leaf=-0.0226702727
						72:leaf=0.0341153741
			10:[f8<1.05141461] yes=21,no=22,missing=22
				21:[f7<1.42449439] yes=41,no=42,missing=42
					41:[f6<0.010452874] yes=73,no=74,missing=74
						73:leaf=0.0595175102
						74:leaf=-0.0238453317
					42:[f3<87.3944473] yes=75,no=76,missing=76
						75:leaf=-0.0412727818
						76:leaf=0.0453884564
				22:[f1<31.5993404] yes=43,no=44,missing=44
					43:leaf=-0.0439110659
					44:[f4<0.445427179] yes=77,no=78,missing=78
						77:leaf=0.0205965359
						78:leaf=0.0484636016
	2:[f2<131.825958] yes=5,no=6,missing=6
		5:[f1<33.583828] yes=11,no=12,missing=12
			11:[f9<0.29773584] yes=23,no=24,missing=24
				23:[f1<25.0718575] yes=45,no=46,missing=46
					45:[f1<24.6580219] yes=79,no=80,missing=80
						79:leaf=-0.0495083928
						80:leaf=0.0377320312
					46:leaf=-0.0913212001
				24:[f1<19.3878269] yes=47,no=48,missing=48
					47:[f3<152.988571] yes=81,no=82,missing=82
						81:leaf=-0.0581211634
						82:leaf=-0.000268549164
					48:[f0<607.46582] yes=83,no=84,missing=84
						83:leaf=0.0299813095
						84:leaf=-0.0570094995
			12:[f4<0.41370517] yes=25,no=26,missing=26
				25:[f3<138.685425] yes=49,no=50,missing=50
					49:[f8<0.629745543] yes=85,no=86,missing=86
						85:leaf=-0.0027385198
						86:leaf=0.0418032371
					50:[f1<58.0083046] yes=87,no=88,missing=88
						87:leaf=0.000156431619
						88:leaf=0.0536337756
				26:[f3<115.905968] yes=51,no=52,missing=52
					51:[f8<0.742801666] yes=89,no=90,missing=90
						89:leaf=0.0197067689
						90:leaf=0.047908213
					52:[f2<124.170143] yes=91,no=92,missing=92
						91:leaf=0.0513082929
						92:leaf=0.0109929489
		6:[f3<136.593353] yes=13,no=14,missing=14
			13:[f5<22.0677242] yes=27,no=28,missing=28
				27:[f2<135.464615] yes=53,no=54,missing=54
					53:leaf=0.0413218178
					54:leaf=-0.0291892644
				28:leaf=-0.0425081849
			14:leaf=-0.0558412485
booster[25]:
0:[f3<105.145218] yes=1,no=2,missing=2
	1:[f2<84.2542877] yes=3,no=4,missing=4
		3:[f4<0.446911037] yes=7,no=8,missing=8
			7:[f5<276.143616] yes=15,no=16,missing=16
				15:[f3<96.4804688] yes=27,no=28,missing=28
					27:[f3<88.7357941] yes=47,no=48,missing=48
						47:leaf=-0.0562135652
						48:leaf=-0.0169257652
					28:[f3<104.814735] yes=49,no=50,missing=50
						49:leaf=-0.0802531242
						50:leaf=-0.00819402933
				16:[f2<53.6773033] yes=29,no=30,missing=30
					29:[f8<0.133458152] yes=51,no=52,missing=52
						51:leaf=0.0458577052
						52:leaf=-0.0589136295
					30:[f2<61.560463] yes=53,no=54,missing=54
						53:leaf=0.0210426208
						54:leaf=0.0561042242
			8:[f5<116.125114] yes=17,no=18,missing=18
				17:[f4<0.590963542] yes=31,no=32,missing=32
					31:[f3<99.083725] yes=55,no=56,missing=56
						55:leaf=-0.0319411419
						56:leaf=-0.0953340158
					32:[f1<22.502882] yes=57,no=58,missing=58
						57:leaf=-0.0524924472
						58:leaf=0.0117009869
				18:[f9<1.19653738] yes=33,no=34,missing=34
					33:[f2<56.5830116] yes=59,no=60,missing=60
						59:leaf=-0.0292424262
						60:leaf=0.0394212902
					34:[f4<0.449754596] yes=61,no=62,missing=62
						61:leaf=0.0430413112
						62:leaf=-0.0441755317
		4:[f3<87.3944473] yes=9,no=10,missing=10
			9:[f4<0.411308318] yes=19,no=20,missing=20
				19:leaf=-0.0566420555
				20:[f6<0.093892999] yes=35,no=36,missing=36
					35:[f9<0.249695107] yes=63,no=64,missing=64
						63:leaf=-0.0564620905
						64:leaf=0.0273645222
					36:[f1<63.5264206] yes=65,no=66,missing=66
						65:leaf=-0.0300077852
						66:leaf=0.0313371271
			10:[f8<1.05141461] yes=21,no=22,missing=22
				21:[f1<55.6733589] yes=37,no=38,missing=38
					37:leaf=-0.063598834
					38:[f7<1.37870669] yes=67,no=68,missing=68
						67:leaf=0.0045080632
						68:leaf=0.0426390171
				22:[f0<422.312927] yes=39,no=40,missing=40
					39:[f1<191.972519] yes=69,no=70,missing=70
						69:leaf=0.0491313636
						70:leaf=0.0181648768
					40:[f6<0.0266346037] yes=71,no=72,missing=72
						71:leaf=0.0397366807
						72:leaf=-0.0412961692
	2:[f0<607.46582] yes=5,no=6,missing=6
		5:[f2<135.464615] yes=11,no=12,missing=12
			11:[f2<70.7961884] yes=23,no=24,missing=24
				23:[f3<121.750824] yes=41,no=42,missing=42
					41:[f0<321.634094] yes=73,no=74,missing=74
						73:leaf=0.00961692911
						74:leaf=-0.0554237626
					42:[f6<0.178454086] yes=75,no=76,missing=76
						75:leaf=-0.0262348857
						76:leaf=0.0420981906
				24:[f1<33.583828] yes=43,no=44,missing=44
					43:[f9<0.131174549] yes=77,no=78,missing=78
						77:leaf=-0.0756186023
						78:leaf=0.0226119775
					44:[f9<0.50059849] yes=79,no=80,missing=80
						79:leaf=0.0331103168
						80:leaf=0.0483892784
			12:leaf=-0.0526877008
		6:[f1<50.9794312] yes=13,no=14,missing=14
			13:leaf=-0.0609263293
			14:[f2<121.759895] yes=25,no=26,missing=26
				25:[f7<1.08866036] yes=45,no=46,missing=46
					45:[f7<1.03451836] yes=81,no=82,missing=82
						81:leaf=0.0428876616
						82:leaf=0.00314189377
					46:leaf=-0.0384081937
				26:leaf=-0.0519256182
booster[26]:
0:[f3<103.903709] yes=1,no=2,missing=2
	1:[f2<84.2542877] yes=3,no=4,missing=4
		3:[f5<118.980682] yes=7,no=8,missing=8
			7:[f4<0.548907936] yes=15,no=16,missing=16
				15:[f9<1.2539202] yes=29,no=30,missing=30
					29:[f6<0.22864148] yes=51,no=52,missing=52
						51:leaf=-0.060592819
						52:leaf=-0.0163162313
					30:[f8<0.742801666] yes=53,no=54,missing=54
						53:leaf=-0.0565921329
						54:leaf=0.0143837584
				16:[f6<0.0740237087] yes=31,no=32,missing=32
					31:[f9<1.33377087] yes=55,no=56,missing=56
						55:leaf=-0.0558627211
						56:leaf=-0.0102170678
					32:[f6<0.104428798] yes=57,no=58,missing=58
						57:leaf=0.0311630554
						58:leaf=-0.0198182631
			8:[f9<1.24175501] yes=17,no=18,missing=18
				17:[f2<55.6496582] yes=33,no=34,missing=34
					33:[f8<0.133458152] yes=59,no=60,missing=60
						59:leaf=0.0265997238
						60:leaf=-0.044907596
					34:[f4<0.446911037] yes=61,no=62,missing=62
						61:leaf=-0.0021661974
						62:leaf=0.0335908346
				18:[f1<171.234818] yes=35,no=36,missing=36
					35:[f4<0.545880795] yes=63,no=64,missing=64
						63:leaf=-0.0585380793
						64:leaf=-0.000208521597
					36:[f7<0.479408443] yes=65,no=66,missing=66
						65:leaf=0.0617633723
						66:leaf=-0.0393836237
		4:[f3<87.3944473] yes=9,no=10,missing=10
			9:[f4<0.411308318] yes=19,no=20,missing=20
				19:leaf=-0.0556593053
				20:[f6<0.093892999] yes=37,no=38,missing=38
					37:[f9<0.249695107] yes=67,no=68,missing=68
						67:leaf=-0.054908704
						68:leaf=0.0263243504
					38:[f1<62.8134613] yes=69,no=70,missing=70
						69:leaf=-0.0293300729
						70:leaf=0.0301026702
			10:[f8<1.05141461] yes=21,no=22,missing=22
				21:[f7<1.42449439] yes=39,no=40,missing=40
					39:[f8<0.747807801] yes=71,no=72,missing=72
						71:leaf=-0.0831510052
						72:leaf=0.00628271559
					40:[f9<-0.298915565] yes=73,no=74,missing=74
						73:leaf=-0.00279720803
						74:leaf=0.0485139005
				22:[f0<422.312927] yes=41,no=42,missing=42
					41:[f1<191.972519] yes=75,no=76,missing=76
						75:leaf=0.0483796783
						76:leaf=0.0175538268
					42:[f6<0.0266346037] yes=77,no=78,missing=78
						77:leaf=0.0390718542
						78:leaf=-0.0400272422
	2:[f0<607.46582] yes=5,no=6,missing=6
		5:[f2<131.825958] yes=11,no=12,missing=12
			11:[f2<83.3747025] yes=23,no=24,missing=24
				23:[f9<0.519566417] yes=43,no=44,missing=44
					43:[f1<48.0770187] yes=79,no=80,missing=80
						79:leaf=-0.0170975327
						80:leaf=-0.138179109
					44:[f4<0.399245352] yes=81,no=82,missing=82
						81:leaf=0.0104689328
						82:leaf=0.0383499525
				24:[f1<31.5993404] yes=45,no=46,missing=46
					45:[f9<0.131174549] yes=83,no=84,missing=84
						83:leaf=-0.0665458366
						84:leaf=0.0134489862
					46:[f9<0.486890972] yes=85,no=86,missing=86
						85:leaf=0.0358726196
						86:leaf=0.0504275449
			12:[f3<136.593353] yes=25,no=26,missing=26
				25:[f5<22.0677242] yes=47,no=48,missing=48
					47:leaf=0.0316442847
					48:leaf=-0.0421043523
				26:leaf=-0.0540169589
		6:[f1<50.9794312] yes=13,no=14,missing=14
			13:leaf=-0.0600034781
			14:[f2<121.759895] yes=27,no=28,missing=28
				27:[f7<1.08866036] yes=49,no=50,missing=50
					49:[f0<735.112854] yes=87,no=88,missing=88
						87:leaf=0.0146299629
						88:leaf=0.0473031588
					50:leaf=-0.03758692
				28:leaf=-0.0510017574
booster[27]:
0:[f3<105.145218] yes=1,no=2,missing=2
	1:[f2<84.2542877] yes=3,no=4,missing=4
		3:[f4<0.446911037] yes=7,no=8,missing=8
			7:[f5<276.143616] yes=15,no=16,missing=16
				15:[f3<96.4804688] yes=31,no=32,missing=32
					31:[f3<88.7357941] yes=59,no=60,missing=60
						59:leaf=-0.054970134
						60:leaf=-0.0150411949
					32:[f3<104.814735] yes=61,no=62,missing=62
						61:leaf=-0.076763168
						62:leaf=-0.00816676673
				16:[f2<53.6773033] yes=33,no=34,missing=34
					33:[f8<0.133458152] yes=63,no=64,missing=64
						63:leaf=0.0429711789
						64:leaf=-0.0566086844
					34:[f2<61.560463] yes=65,no=66,missing=66
						65:leaf=0.0198834799
						66:leaf=0.0544694737
			8:[f5<116.125114] yes=17,no=18,missing=18
				17:[f6<0.0740237087] yes=35,no=36,missing=36
					35:[f4<0.902557671] yes=67,no=68,missing=68
						67:leaf=-0.0592616014
						68:leaf=-0.0129752671
					36:[f4<0.590963542] yes=69,no=70,missing=70
						69:leaf=-0.0314792469
						70:leaf=0.0114010973
				18:[f9<1.19653738] yes=37,no=38,missing=38
					37:[f2<56.5830116] yes=71,no=72,missing=72
						71:leaf=-0.0277240369
						72:leaf=0.0368608311
					38:[f4<0.449754596] yes=73,no=74,missing=74
						73:leaf=0.0423858725
						74:leaf=-0.0416439883
		4:[f7<0.775097966] yes=9,no=10,missing=10
			9:[f6<0.141206533] yes=19,no=20,missing=20
				19:[f6<0.107964151] yes=39,no=40,missing=40
					39:[f2<99.4405136] yes=75,no=76,missing=76
						75:leaf=-0.00107955851
						76:leaf=0.053598173
					40:leaf=-0.0608887561
				20:leaf=0.0531906299
			10:[f2<93.2307739] yes=21,no=22,missing=22
				21:[f8<0.509342313] yes=41,no=42,missing=42
					41:[f1<203.558212] yes=77,no=78,missing=78
						77:leaf=0.0093714688
						78:leaf=0.0603225045
					42:[f6<0.0208377447] yes=79,no=80,missing=80
						79:leaf=0.0305700358
						80:leaf=-0.0358401053
				22:[f4<0.397746801] yes=43,no=44,missing=44
					43:leaf=-0.0612144284
					44:[f1<32.7018394] yes=81,no=82,missing=82
						81:leaf=-0.0490180552
						82:leaf=0.0370678939
	2:[f1<30.638483] yes=5,no=6,missing=6
		5:[f6<0.207409009] yes=11,no=12,missing=12
			11:[f8<0.243947193] yes=23,no=24,missing=24
				23:[f1<21.2715492] yes=45,no=46,missing=46
					45:[f1<19.7470741] yes=83,no=84,missing=84
						83:leaf=-0.0533628725
						84:leaf=-0.0169578977
					46:leaf=-0.0950832963
				24:[f9<0.0374445878] yes=47,no=48,missing=48
					47:leaf=-0.0603420921
					48:[f1<21.8106365] yes=85,no=86,missing=86
						85:leaf=-0.0557072237
						86:leaf=0.0145060373
			12:[f0<404.104034] yes=25,no=26,missing=26
				25:[f3<119.048691] yes=49,no=50,missing=50
					49:[f7<0.536679745] yes=87,no=88,missing=88
						87:leaf=0.0433989391
						88:leaf=-0.038412232
					50:[f1<18.8126945] yes=89,no=90,missing=90
						89:leaf=-0.0100448402
						90:leaf=0.044596646
				26:[f6<0.235182136] yes=51,no=52,missing=52
					51:leaf=0.0129055902
					52:leaf=-0.0707755014
		6:[f2<131.825958] yes=13,no=14,missing=14
			13:[f4<0.402556926] yes=27,no=28,missing=28
				27:[f3<135.116058] yes=53,no=54,missing=54
					53:[f5<426.718353] yes=91,no=92,missing=92
						91:leaf=-0.00594996475
						92:leaf=0.0489808135
					54:[f5<211.564072] yes=93,no=94,missing=94
						93:leaf=0.00752310827
						94:leaf=0.0502827242
				28:[f1<87.4824371] yes=55,no=56,missing=56
					55:[f4<0.473709404] yes=95,no=96,missing=96
						95:leaf=-0.0207021069
						96:leaf=0.0383608453
					56:[f3<167.323608] yes=97,no=98,missing=98
						97:leaf=0.0510792434
						98:leaf=-0.0318320617
			14:[f3<136.593353] yes=29,no=30,missing=30
				29:[f2<135.464615] yes=57,no=58,missing=58
					57:[f5<21.5196514] yes=99,no=100,missing=100
						99:leaf=0.0394789018
						100:leaf=-0.0248806477
					58:leaf=-0.039491754
				30:leaf=-0.0539313629
booster[28]:
0:[f3<108.089386] yes=1,no=2,missing=2
	1:[f2<55.6496582] yes=3,no=4,missing=4
		3:[f6<0.944601119] yes=7,no=8,missing=8
			7:[f1<171.234818] yes=15,no=16,missing=16
				15:[f4<0.509282708] yes=29,no=30,missing=30
					29:[f8<0.0960125998] yes=51,no=52,missing=52
						51:leaf=-0.00221918407
						52:leaf=-0.05636416
					30:[f4<0.548907936] yes=53,no=54,missing=54
						53:leaf=0.0163579565
						54:leaf=-0.0506433547
				16:[f4<0.266089648] yes=31,no=32,missing=32
					31:leaf=-0.0373842381
					32:leaf=0.059012264
			8:[f7<1.28372133] yes=17,no=18,missing=18
				17:leaf=-0.0224845633
				18:leaf=0.0596091822
		4:[f2<91.7908325] yes=9,no=10,missing=10
			9:[f6<0.22864148] yes=19,no=20,missing=20
				19:[f6<0.0732521787] yes=33,no=34,missing=34
					33:[f6<0.0208377447] yes=55,no=56,missing=56
						55:leaf=0.000915933808
						56:leaf=-0.0590742491
					34:[f4<0.524515212] yes=57,no=58,missing=58
						57:leaf=-0.0278697498
						58:leaf=0.00584101724
				20:[f9<1.19653738] yes=35,no=36,missing=36
					35:[f3<87.3944473] yes=59,no=60,missing=60
						59:leaf=-0.00706677465
						60:leaf=0.0337968245
					36:[f1<68.9389038] yes=61,no=62,missing=62
						61:leaf=0.02160885
						62:leaf=-0.0542282872
			10:[f9<-0.270774364] yes=21,no=22,missing=22
				21:[f2<100.221825] yes=37,no=38,missing=38
					37:[f9<-0.532001436] yes=63,no=64,missing=64
						63:leaf=-0.0622540191
						64:leaf=0.0158111006
					38:[f9<-0.721934855] yes=65,no=66,missing=66
						65:leaf=0.0381963439
						66:leaf=-0.0950550959
				22:[f3<83.887558] yes=39,no=40,missing=40
					39:leaf=-0.0305782706
					40:[f4<0.41879192] yes=67,no=68,missing=68
						67:leaf=0.0121177193
						68:leaf=0.0476749614
	2:[f2<129.180847] yes=5,no=6,missing=6
		5:[f1<27.565485] yes=11,no=12,missing=12
			11:[f6<0.207409009] yes=23,no=24,missing=24
				23:[f6<0.0840526] yes=41,no=42,missing=42
					41:[f1<21.8106365] yes=69,no=70,missing=70
						69:leaf=-0.0549429953
						70:leaf=0.015121459
					42:[f3<198.771179] yes=71,no=72,missing=72
						71:leaf=-0.0654995516
						72:leaf=0.00294405106
				24:[f0<364.311279] yes=43,no=44,missing=44
					43:[f9<1.40623343] yes=73,no=74,missing=74
						73:leaf=0.03675377
						74:leaf=-0.0410633162
					44:[f7<0.867956102] yes=75,no=76,missing=76
						75:leaf=-0.0726272017
						76:leaf=0.0169333033
			12:[f4<0.397746801] yes=25,no=26,missing=26
				25:[f3<135.116058] yes=45,no=46,missing=46
					45:[f4<0.274866879] yes=77,no=78,missing=78
						77:leaf=0.055990275
						78:leaf=-0.00909278635
					46:[f9<0.747466028] yes=79,no=80,missing=80
						79:leaf=-0.00264503038
						80:leaf=0.0490858443
				26:[f1<87.4824371] yes=47,no=48,missing=48
					47:[f9<0.519566417] yes=81,no=82,missing=82
						81:leaf=0.00891265832
						82:leaf=0.0394962318
					48:[f3<167.323608] yes=83,no=84,missing=84
						83:leaf=0.05145666
						84:leaf=-0.0243309569
		6:[f3<136.593353] yes=13,no=14,missing=14
			13:[f5<30.4566612] yes=27,no=28,missing=28
				27:[f2<135.464615] yes=49,no=50,missing=50
					49:[f5<17.7097092] yes=85,no=86,missing=86
						85:leaf=0.00412127888
						86:leaf=0.0495811962
					50:leaf=-0.0300532319
				28:leaf=-0.0514415912
			14:leaf=-0.0607999973
booster[29]:
0:[f3<108.089386] yes=1,no=2,missing=2
	1:[f2<55.6496582] yes=3,no=4,missing=4
		3:[f6<0.944601119] yes=7,no=8,missing=8
			7:[f1<171.234818] yes=15,no=16,missing=16
				15:[f4<0.509282708] yes=29,no=30,missing=30
					29:[f8<0.0960125998] yes=49,no=50,missing=50
						49:leaf=-0.00212489325
						50:leaf=-0.0553589724
					30:[f4<0.548907936] yes=51,no=52,missing=52
						51:leaf=0.0155950934
						52:leaf=-0.0494512804
				16:[f4<0.266089648] yes=31,no=32,missing=32
					31:leaf=-0.036826808
					32:leaf=0.0572462939
			8:[f7<1.28372133] yes=17,no=18,missing=18
				17:leaf=-0.0219419114
				18:leaf=0.0581096821
		4:[f2<91.7908325] yes=9,no=10,missing=10
			9:[f6<0.223673061] yes=19,no=20,missing=20
				19:[f6<0.0732521787] yes=33,no=34,missing=34
					33:[f6<0.0208377447] yes=53,no=54,missing=54
						53:leaf=0.000873779994
						54:leaf=-0.0575586371
					34:[f4<0.524515212] yes=55,no=56,missing=56
						55:leaf=-0.0271782614
						56:leaf=0.00513650803
				20:[f9<1.19653738] yes=35,no=36,missing=36
					35:[f3<87.3944473] yes=57,no=58,missing=58
						57:leaf=-0.00801276788
						58:leaf=0.0325233005
					36:[f1<68.9389038] yes=59,no=60,missing=60
						59:leaf=0.0186228156
						60:leaf=-0.0521335602
			10:[f9<-0.0968905687] yes=21,no=22,missing=22
				21:[f0<413.746216] yes=37,no=38,missing=38
					37:[f0<229.180786] yes=61,no=62,missing=62
						61:leaf=-0.0440113656
						62:leaf=0.0275806393
					38:leaf=-0.0578761995
				22:[f8<1.79407871] yes=39,no=40,missing=40
					39:[f4<0.41879192] yes=63,no=64,missing=64
						63:leaf=0.00554933911
						64:leaf=0.0492972061
					40:[f6<0.149414778] yes=65,no=66,missing=66
						65:leaf=-0.0707655177
						66:leaf=0.0437723547
	2:[f0<607.46582] yes=5,no=6,missing=6
		5:[f2<129.180847] yes=11,no=12,missing=12
			11:[f8<0.566123307] yes=23,no=24,missing=24
				23:[f3<121.750824] yes=41,no=42,missing=42
					41:[f0<304.323822] yes=67,no=68,missing=68
						67:leaf=0.0204318538
						68:leaf=-0.0306573268
					42:[f1<34.7210045] yes=69,no=70,missing=70
						69:leaf=0.0147625757
						70:leaf=0.0418297462
				24:[f2<58.9456177] yes=43,no=44,missing=44
					43:leaf=-0.0464231111
					44:[f9<0.71635735] yes=71,no=72,missing=72
						71:leaf=0.0361251868
						72:leaf=0.0492082685
			12:[f3<136.593353] yes=25,no=26,missing=26
				25:[f5<30.4566612] yes=45,no=46,missing=46
					45:[f5<17.7097092] yes=73,no=74,missing=74
						73:leaf=-0.000597454258
						74:leaf=0.0447500385
					46:leaf=-0.0516472235
				26:leaf=-0.0615345202
		6:[f1<50.9794312] yes=13,no=14,missing=14
			13:leaf=-0.0581106842
			14:[f2<121.759895] yes=27,no=28,missing=28
				27:[f7<1.03451836] yes=47,no=48,missing=48
					47:[f2<93.2307739] yes=75,no=76,missing=76
						75:leaf=-0.00350624183
						76:leaf=0.0487260297
					48:[f5<202.670715] yes=77,no=78,missing=78
						77:leaf=-0.0569165051
						78:leaf=0.0310512874
				28:leaf=-0.0497955568
booster[30]:
0:[f3<109.657982] yes=1,no=2,missing=2
	1:[f2<84.2542877] yes=3,no=4,missing=4
		3:[f5<116.125114] yes=7,no=8,missing=8
			7:[f4<0.590963542] yes=15,no=16,missing=16
				15:[f3<99.083725] yes=29,no=30,missing=30
					29:[f9<1.25879431] yes=53,no=54,missing=54
						53:leaf=-0.0507004932
						54:leaf=-0.00288534747
					30:[f7<1.37870669] yes=55,no=56,missing=56
						55:leaf=-0.096018821
						56:leaf=-0.0239511654
				16:[f1<27.1876831] yes=31,no=32,missing=32
					31:[f7<0.871050358] yes=57,no=58,missing=58
						57:leaf=0.00802397914
						58:leaf=-0.0583386086
					32:[f0<253.998047] yes=59,no=60,missing=60
						59:leaf=-0.0176567975
						60:leaf=0.0309595112
			8:[f4<0.492833108] yes=17,no=18,missing=18
				17:[f9<1.34001601] yes=33,no=34,missing=34
					33:[f3<88.2185135] yes=61,no=62,missing=62
						61:leaf=-0.0424735844
						62:leaf=0.00392724527
					34:[f2<82.3609924] yes=63,no=64,missing=64
						63:leaf=-0.0665479377
						64:leaf=0.0408881567
				18:[f5<147.192413] yes=35,no=36,missing=36
					35:[f2<71.5516052] yes=65,no=66,missing=66
						65:leaf=-0.0383735485
						66:leaf=0.0299506225
					36:[f2<61.0841789] yes=67,no=68,missing=68
						67:leaf=0.0117667234
						68:leaf=0.0473710112
		4:[f9<-0.0968905687] yes=9,no=10,missing=10
			9:[f2<100.221825] yes=19,no=20,missing=20
				19:[f0<256.575287] yes=37,no=38,missing=38
					37:[f7<1.42449439] yes=69,no=70,missing=70
						69:leaf=-0.0510164574
						70:leaf=0.0495427027
					38:[f8<0.483837754] yes=71,no=72,missing=72
						71:leaf=0.0308726933
						72:leaf=-0.0570725016
				20:[f9<-0.721934855] yes=39,no=40,missing=40
					39:[f1<60.1150246] yes=73,no=74,missing=74
						73:leaf=-0.0236549769
						74:leaf=0.0447243378
					40:[f5<13.111412] yes=75,no=76,missing=76
						75:leaf=0.0274169426
						76:leaf=-0.0688413382
			10:[f9<1.02549291] yes=21,no=22,missing=22
				21:[f5<82.4777527] yes=41,no=42,missing=42
					41:[f2<90.0688782] yes=77,no=78,missing=78
						77:leaf=-0.0194525048
						78:leaf=0.0397453345
					42:leaf=0.0552313104
				22:[f1<68.9389038] yes=43,no=44,missing=44
					43:[f3<103.522331] yes=79,no=80,missing=80
						79:leaf=-0.0231738873
						80:leaf=-0.11990165
					44:[f2<87.5649643] yes=81,no=82,missing=82
						81:leaf=-0.0670320243
						82:leaf=0.0298488531
	2:[f2<129.180847] yes=5,no=6,missing=6
		5:[f1<33.583828] yes=11,no=12,missing=12
			11:[f9<0.0374445878] yes=23,no=24,missing=24
				23:leaf=-0.0667301938
				24:[f1<19.3878269] yes=45,no=46,missing=46
					45:[f4<0.785158813] yes=83,no=84,missing=84
						83:leaf=-0.00881669018
						84:leaf=-0.0617059469
					46:[f6<0.207409009] yes=85,no=86,missing=86
						85:leaf=0.000885027868
						86:leaf=0.0326965787
			12:[f4<0.415438473] yes=25,no=26,missing=26
				25:[f3<138.685425] yes=47,no=48,missing=48
					47:[f8<0.690037251] yes=87,no=88,missing=88
						87:leaf=-0.00592720974
						88:leaf=0.0451335274
					48:[f3<146.065353] yes=89,no=90,missing=90
						89:leaf=0.0370321311
						90:leaf=0.0524918623
				26:[f1<65.630806] yes=49,no=50,missing=50
					49:[f4<0.534551442] yes=91,no=92,missing=92
						91:leaf=-0.00257607293
						92:leaf=0.036985565
					50:[f3<177.657059] yes=93,no=94,missing=94
						93:leaf=0.0492434278
						94:leaf=-0.0440862887
		6:[f3<136.593353] yes=13,no=14,missing=14
			13:[f5<30.4566612] yes=27,no=28,missing=28
				27:[f2<135.464615] yes=51,no=52,missing=52
					51:[f5<17.7097092] yes=95,no=96,missing=96
						95:leaf=0.00399980554
						96:leaf=0.0480782799
					52:leaf=-0.0294102766
				28:leaf=-0.0489766113
			14:leaf=-0.0594111681
booster[31]:
0:[f3<109.657982] yes=1,no=2,missing=2
	1:[f2<55.6496582] yes=3,no=4,missing=4
		3:[f5<321.25293] yes=7,no=8,missing=8
			7:[f4<0.509282708] yes=15,no=16,missing=16
				15:[f3<99.676033] yes=31,no=32,missing=32
					31:[f9<1.21790445] yes=59,no=60,missing=60
						59:leaf=-0.0538517945
						60:leaf=-0.0322660096
					32:leaf=-0.0791621581
				16:[f1<25.4114075] yes=33,no=34,missing=34
					33:leaf=-0.0525878482
					34:[f8<0.444388837] yes=61,no=62,missing=62
						61:leaf=0.0346706323
						62:leaf=-0.0261744354
			8:[f7<1.19557095] yes=17,no=18,missing=18
				17:[f2<53.6773033] yes=35,no=36,missing=36
					35:[f4<0.577742219] yes=63,no=64,missing=64
						63:leaf=-0.0604757741
						64:leaf=0.0388052352
					36:[f1<171.234818] yes=65,no=66,missing=66
						65:leaf=-0.00847408362
						66:leaf=0.0553665273
				18:[f7<1.30659962] yes=37,no=38,missing=38
					37:leaf=0.0663374141
					38:leaf=0.00612453325
		4:[f2<85.0163574] yes=9,no=10,missing=10
			9:[f6<0.340880126] yes=19,no=20,missing=20
				19:[f4<0.455209136] yes=39,no=40,missing=40
					39:[f2<72.6831741] yes=67,no=68,missing=68
						67:leaf=-0.061316032
						68:leaf=-0.0224424731
					40:[f6<0.0732521787] yes=69,no=70,missing=70
						69:leaf=-0.0465867929
						70:leaf=-0.00146711268
				20:[f9<1.17652273] yes=41,no=42,missing=42
					41:[f3<89.7930145] yes=71,no=72,missing=72
						71:leaf=-0.00305309379
						72:leaf=0.0424469672
					42:[f9<1.23673272] yes=73,no=74,missing=74
						73:leaf=-0.094356209
						74:leaf=-0.00316281989
			10:[f9<-0.0968905687] yes=21,no=22,missing=22
				21:[f0<413.746216] yes=43,no=44,missing=44
					43:[f2<100.221825] yes=75,no=76,missing=76
						75:leaf=-0.0111807389
						76:leaf=0.0276327636
					44:leaf=-0.0586235598
				22:[f1<40.8298111] yes=45,no=46,missing=46
					45:[f6<0.198322862] yes=77,no=78,missing=78
						77:leaf=-0.0722959563
						78:leaf=0.0376265422
					46:[f5<75.3855133] yes=79,no=80,missing=80
						79:leaf=0.0287773702
						80:leaf=0.0509992912
	2:[f2<124.170143] yes=5,no=6,missing=6
		5:[f1<33.583828] yes=11,no=12,missing=12
			11:[f9<0.0374445878] yes=23,no=24,missing=24
				23:leaf=-0.0654163137
				24:[f1<18.8126945] yes=47,no=48,missing=48
					47:[f6<0.406471401] yes=81,no=82,missing=82
						81:leaf=-0.0582544282
						82:leaf=0.0113689369
					48:[f9<1.40896678] yes=83,no=84,missing=84
						83:leaf=0.0228922945
						84:leaf=-0.060573902
			12:[f4<0.415438473] yes=25,no=26,missing=26
				25:[f3<138.685425] yes=49,no=50,missing=50
					49:[f8<0.690037251] yes=85,no=86,missing=86
						85:leaf=-0.00561971357
						86:leaf=0.0453393161
					50:[f3<146.065353] yes=87,no=88,missing=88
						87:leaf=0.036157202
						88:leaf=0.0518055223
				26:[f1<65.630806] yes=51,no=52,missing=52
					51:[f3<133.470047] yes=89,no=90,missing=90
						89:leaf=0.0169547722
						90:leaf=0.0435880423
					52:[f3<177.657059] yes=91,no=92,missing=92
						91:leaf=0.0490861647
						92:leaf=-0.0367354415
		6:[f3<140.533035] yes=13,no=14,missing=14
			13:[f5<26.8607349] yes=27,no=28,missing=28
				27:[f7<0.985391915] yes=53,no=54,missing=54
					53:[f6<0.0458799526] yes=93,no=94,missing=94
						93:leaf=-0.0766921863
						94:leaf=0.0347918756
					54:[f3<128.345749] yes=95,no=96,missing=96
						95:leaf=0.0487646572
						96:leaf=0.0168837048
				28:[f6<0.0793489814] yes=55,no=56,missing=56
					55:leaf=-0.0834177807
					56:[f5<53.4115791] yes=97,no=98,missing=98
						97:leaf=0.0255567878
