booster[0]:
0:[f6<0.266532898] yes=1,no=2,missing=2
	1:[f2<82.1513138] yes=3,no=4,missing=4
		3:[f6<0.210048884] yes=7,no=8,missing=8
			7:leaf=-0.59841758
			8:leaf=-0.545765519
		4:[f6<0.168076932] yes=9,no=10,missing=10
			9:leaf=-0.52323401
			10:leaf=-0.116708003
	2:[f3<107.715782] yes=5,no=6,missing=6
		5:[f2<63.257637] yes=11,no=12,missing=12
			11:leaf=-0.445359379
			12:leaf=-0.00227767858
		6:[f4<0.792702854] yes=13,no=14,missing=14
			13:leaf=0.400523573
			14:leaf=-0.318912864
booster[1]:
0:[f6<0.28447023] yes=1,no=2,missing=2
	1:[f2<84.2948227] yes=3,no=4,missing=4
		3:[f6<0.172482073] yes=7,no=8,missing=8
			7:leaf=-0.464049459
			8:leaf=-0.428781807
		4:[f4<0.678159893] yes=9,no=10,missing=10
			9:leaf=-0.161188692
			10:leaf=-0.439982474
	2:[f1<21.7711334] yes=5,no=6,missing=6
		5:[f1<16.8014832] yes=11,no=12,missing=12
			11:leaf=-0.501315176
			12:leaf=-0.266306549
		6:[f3<114.258942] yes=13,no=14,missing=14
			13:leaf=-0.0546430983
			14:leaf=0.330111444
booster[2]:
0:[f6<0.242297575] yes=1,no=2,missing=2
	1:[f2<81.1209259] yes=3,no=4,missing=4
		3:[f6<0.18486461] yes=7,no=8,missing=8
			7:leaf=-0.402635902
			8:leaf=-0.377054244
		4:[f6<0.151914492] yes=9,no=10,missing=10
			9:leaf=-0.341112137
			10:leaf=-0.0629402995
	2:[f3<103.184776] yes=5,no=6,missing=6
		5:[f1<36.6270447] yes=11,no=12,missing=12
			11:leaf=-0.375484705
			12:leaf=-0.0493027195
		6:[f1<16.8014832] yes=13,no=14,missing=14
			13:leaf=-0.415505975
			14:leaf=0.24120222
booster[3]:
0:[f6<0.220228046] yes=1,no=2,missing=2
	1:[f2<90.4470749] yes=3,no=4,missing=4
		3:[f6<0.172482073] yes=7,no=8,missing=8
			7:leaf=-0.367531747
			8:leaf=-0.32249558
		4:[f4<0.645868421] yes=9,no=10,missing=10
			9:leaf=-0.0396243408
			10:leaf=-0.321620554
	2:[f1<21.5798435] yes=5,no=6,missing=6
		5:[f3<121.248718] yes=11,no=12,missing=12
			11:leaf=-0.371188909
			12:leaf=-0.200813726
		6:[f3<107.715782] yes=13,no=14,missing=14
			13:leaf=-0.0772886276
			14:leaf=0.218636051
booster[4]:
0:[f6<0.220228046] yes=1,no=2,missing=2
	1:[f2<81.1209259] yes=3,no=4,missing=4
		3:[f6<0.172482073] yes=7,no=8,missing=8
			7:leaf=-0.346740663
			8:leaf=-0.316999108
		4:[f4<0.717130542] yes=9,no=10,missing=10
			9:leaf=-0.10303954
			10:leaf=-0.305161327
	2:[f1<21.014019] yes=5,no=6,missing=6
		5:[f3<80.9633865] yes=11,no=12,missing=12
			11:leaf=-0.35196203
			12:leaf=-0.208841935
		6:[f2<67.8214493] yes=13,no=14,missing=14
			13:leaf=-0.0716419145
			14:leaf=0.167519823
booster[5]:
0:[f6<0.197581425] yes=1,no=2,missing=2
	1:[f2<91.8649292] yes=3,no=4,missing=4
		3:[f2<80.179245] yes=7,no=8,missing=8
			7:leaf=-0.331082016
			8:leaf=-0.272843868
		4:[f4<0.684000432] yes=9,no=10,missing=10
			9:leaf=-0.0195658319
			10:leaf=-0.269433081
	2:[f3<97.7711868] yes=5,no=6,missing=6
		5:[f2<57.8537025] yes=11,no=12,missing=12
			11:leaf=-0.285871506
			12:leaf=-0.0184368733
		6:[f2<110.249908] yes=13,no=14,missing=14
			13:leaf=0.162330419
			14:leaf=-0.581510484
booster[6]:
0:[f6<0.197581425] yes=1,no=2,missing=2
	1:[f2<91.8649292] yes=3,no=4,missing=4
		3:[f2<80.179245] yes=7,no=8,missing=8
			7:leaf=-0.320516825
			8:leaf=-0.241820782
		4:[f4<0.608468533] yes=9,no=10,missing=10
			9:leaf=0.0363119356
			10:leaf=-0.214090899
	2:[f1<25.2450199] yes=5,no=6,missing=6
		5:[f3<119.418839] yes=11,no=12,missing=12
			11:leaf=-0.308552444
			12:leaf=-0.0918863416
		6:[f2<113.37468] yes=13,no=14,missing=14
			13:leaf=0.0700439885
			14:leaf=-0.422320336
booster[7]:
0:[f1<46.1084366] yes=1,no=2,missing=2
	1:[f6<0.345065922] yes=3,no=4,missing=4
		3:[f3<99.0454712] yes=7,no=8,missing=8
			7:leaf=-0.312808096
			8:leaf=-0.23544623
		4:[f1<16.6179924] yes=9,no=10,missing=10
			9:leaf=-0.294453949
			10:leaf=0.0375718549
	2:[f6<0.115709275] yes=5,no=6,missing=6
		5:[f2<100.090813] yes=11,no=12,missing=12
			11:leaf=-0.298725486
			12:leaf=-0.126421362
		6:[f2<121.134293] yes=13,no=14,missing=14
			13:leaf=0.0837135464
			14:leaf=-0.33926037
booster[8]:
0:[f1<44.13517] yes=1,no=2,missing=2
	1:[f6<0.242297575] yes=3,no=4,missing=4
		3:[f1<25.7899895] yes=7,no=8,missing=8
			7:leaf=-0.310715258
			8:leaf=-0.23280479
		4:[f3<50.1926994] yes=9,no=10,missing=10
			9:leaf=-0.242417991
			10:leaf=0.0213371906
	2:[f6<0.119951785] yes=5,no=6,missing=6
		5:[f2<98.2557831] yes=11,no=12,missing=12
			11:leaf=-0.284475595
			12:leaf=-0.0955179557
		6:[f2<73.5541077] yes=13,no=14,missing=14
			13:leaf=-0.107429385
			14:leaf=0.150635183
booster[9]:
0:[f1<29.0813885] yes=1,no=2,missing=2
	1:[f6<0.242297575] yes=3,no=4,missing=4
		3:[f1<25.5214825] yes=7,no=8,missing=8
			7:leaf=-0.30622834
			8:leaf=-0.230793551
		4:[f1<16.8014832] yes=9,no=10,missing=10
			9:leaf=-0.29956165
			10:leaf=0.037050359
	2:[f3<96.4036942] yes=5,no=6,missing=6
		5:[f6<0.401530594] yes=11,no=12,missing=12
			11:leaf=-0.208534762
			12:leaf=0.0800963789
		6:[f2<121.134293] yes=13,no=14,missing=14
			13:leaf=0.143224522
			14:leaf=-0.277316153
booster[10]:
0:[f1<25.2450199] yes=1,no=2,missing=2
	1:[f6<0.253233373] yes=3,no=4,missing=4
		3:[f3<127.45134] yes=7,no=8,missing=8
			7:leaf=-0.305305362
			8:leaf=-0.25939548
		4:[f3<73.9377365] yes=9,no=10,missing=10
			9:leaf=-0.264800817
			10:leaf=0.0818427578
	2:[f6<0.115709275] yes=5,no=6,missing=6
		5:[f2<100.090813] yes=11,no=12,missing=12
			11:leaf=-0.27454713
			12:leaf=-0.0611318201
		6:[f4<0.366185844] yes=13,no=14,missing=14
			13:leaf=-0.153170705
			14:leaf=0.0825769007
booster[11]:
0:[f1<25.2450199] yes=1,no=2,missing=2
	1:[f6<0.253233373] yes=3,no=4,missing=4
		3:[f3<127.45134] yes=7,no=8,missing=8
			7:leaf=-0.302660435
			8:leaf=-0.242879808
		4:[f1<16.6179924] yes=9,no=10,missing=10
			9:leaf=-0.284865379
			10:leaf=0.0738645792
	2:[f3<92.4380264] yes=5,no=6,missing=6
		5:[f6<0.266532898] yes=11,no=12,missing=12
			11:leaf=-0.195636094
			12:leaf=0.0166761111
		6:[f2<129.97757] yes=13,no=14,missing=14
			13:leaf=0.0872948617
			14:leaf=-0.309119582
booster[12]:
0:[f1<25.2450199] yes=1,no=2,missing=2
	1:[f6<0.253233373] yes=3,no=4,missing=4
		3:[f3<127.45134] yes=7,no=8,missing=8
			7:leaf=-0.300291866
			8:leaf=-0.224304244
		4:[f1<15.7122316] yes=9,no=10,missing=10
			9:leaf=-0.288658053
			10:leaf=0.0454856046
	2:[f6<0.103711873] yes=5,no=6,missing=6
		5:[f2<94.8578415] yes=11,no=12,missing=12
			11:leaf=-0.27152428
			12:leaf=-0.057737641
		6:[f2<67.8214493] yes=13,no=14,missing=14
			13:leaf=-0.0947043002
			14:leaf=0.0860858336
booster[13]:
0:[f1<21.5798435] yes=1,no=2,missing=2
	1:[f6<0.312927097] yes=3,no=4,missing=4
		3:[f3<129.76329] yes=7,no=8,missing=8
			7:leaf=-0.300465614
			8:leaf=-0.232845142
		4:[f5<168.383835] yes=9,no=10,missing=10
			9:leaf=0.335715026
			10:leaf=-0.120469391
	2:[f4<0.330954552] yes=5,no=6,missing=6
		5:[f6<0.504268408] yes=11,no=12,missing=12
			11:leaf=-0.277380437
			12:leaf=0.0999168605
		6:[f2<135.274521] yes=13,no=14,missing=14
			13:leaf=0.0239368118
			14:leaf=-0.324892193
booster[14]:
0:[f1<21.014019] yes=1,no=2,missing=2
	1:[f6<0.312927097] yes=3,no=4,missing=4
		3:[f3<129.76329] yes=7,no=8,missing=8
			7:leaf=-0.298570246
			8:leaf=-0.226612195
		4:[f5<180.549896] yes=9,no=10,missing=10
			9:leaf=0.200882271
			10:leaf=-0.147733748
	2:[f6<0.0824418813] yes=5,no=6,missing=6
		5:[f2<84.2948227] yes=11,no=12,missing=12
			11:leaf=-0.299235255
			12:leaf=-0.0804516003
		6:[f3<107.715782] yes=13,no=14,missing=14
			13:leaf=-0.0541740321
			14:leaf=0.0956719145
booster[15]:
0:[f1<21.014019] yes=1,no=2,missing=2
	1:[f6<0.312927097] yes=3,no=4,missing=4
		3:[f3<129.76329] yes=7,no=8,missing=8
			7:leaf=-0.296631098
			8:leaf=-0.2038932
		4:[f1<15.7122316] yes=9,no=10,missing=10
			9:leaf=-0.252131402
			10:leaf=0.100756057
	2:[f3<165.721069] yes=5,no=6,missing=6
		5:[f3<112.563156] yes=11,no=12,missing=12
			11:leaf=-0.0622293614
			12:leaf=0.102457315
		6:[f4<0.415313005] yes=13,no=14,missing=14
			13:leaf=0.147181258
			14:leaf=-0.324973345
booster[16]:
0:[f2<48.0411797] yes=1,no=2,missing=2
	1:[f6<0.504268408] yes=3,no=4,missing=4
		3:[f0<565.192139] yes=7,no=8,missing=8
			7:leaf=-0.291328847
			8:leaf=-0.026881801
		4:[f0<224.581009] yes=9,no=10,missing=10
			9:leaf=-0.13330029
			10:leaf=0.2549133
	2:[f4<0.843700409] yes=5,no=6,missing=6
		5:[f0<281.691864] yes=11,no=12,missing=12
			11:leaf=0.0940359607
			12:leaf=-0.0308743138
		6:[f1<53.4306335] yes=13,no=14,missing=14
			13:leaf=-0.174456626
			14:leaf=-0.29034254
booster[17]:
0:[f2<70.2169571] yes=1,no=2,missing=2
	1:[f6<0.401530594] yes=3,no=4,missing=4
		3:[f4<0.550212324] yes=7,no=8,missing=8
			7:leaf=-0.297900528
			8:leaf=-0.0627879053
		4:[f5<180.549896] yes=9,no=10,missing=10
			9:leaf=0.422304481
			10:leaf=0.0598838814
	2:[f2<135.274521] yes=5,no=6,missing=6
		5:[f1<75.6267548] yes=11,no=12,missing=12
			11:leaf=-0.0546318851
			12:leaf=0.116789043
		6:leaf=-0.311552793
booster[18]:
0:[f1<16.5178032] yes=1,no=2,missing=2
	1:[f6<0.401530594] yes=3,no=4,missing=4
		3:[f2<85.4005966] yes=7,no=8,missing=8
			7:leaf=-0.292773813
			8:leaf=-0.042264007
		4:[f1<15.0722313] yes=9,no=10,missing=10
			9:leaf=-0.15909642
			10:leaf=0.0693925768
	2:[f6<0.0765420943] yes=5,no=6,missing=6
		5:[f2<84.2948227] yes=11,no=12,missing=12
			11:leaf=-0.293029517
			12:leaf=-0.0624988712
		6:[f2<121.134293] yes=13,no=14,missing=14
			13:leaf=0.0284535233
			14:leaf=-0.219681039
booster[19]:
0:[f1<16.5178032] yes=1,no=2,missing=2
	1:[f6<0.401530594] yes=3,no=4,missing=4
		3:[f2<74.9813995] yes=7,no=8,missing=8
			7:leaf=-0.292501658
			8:leaf=-0.10776829
		4:[f1<15.1582279] yes=9,no=10,missing=10
			9:leaf=-0.143705785
			10:leaf=0.0668443367
	2:[f4<0.484628469] yes=5,no=6,missing=6
		5:[f3<115.870079] yes=11,no=12,missing=12
			11:leaf=-0.140530989
			12:leaf=0.144106731
		6:[f3<165.721069] yes=13,no=14,missing=14
			13:leaf=0.0575809181
			14:leaf=-0.246855021
booster[20]:
0:[f1<16.5178032] yes=1,no=2,missing=2
	1:[f6<0.401530594] yes=3,no=4,missing=4
		3:[f2<74.9813995] yes=7,no=8,missing=8
			7:leaf=-0.289311349
			8:leaf=-0.0920635462
		4:[f1<13.156805] yes=9,no=10,missing=10
			9:leaf=-0.156370699
			10:leaf=0.0386629812
	2:[f2<135.274521] yes=5,no=6,missing=6
		5:[f1<194.865738] yes=11,no=12,missing=12
			11:leaf=-0.010426864
			12:leaf=0.215828478
		6:[f5<309.926422] yes=13,no=14,missing=14
			13:leaf=-0.302969873
			14:leaf=-0.0743953735
booster[21]:
0:[f6<0.123672284] yes=1,no=2,missing=2
	1:[f2<102.366348] yes=3,no=4,missing=4
		3:[f3<-598.776611] yes=7,no=8,missing=8
			7:leaf=0.33265394
			8:leaf=-0.21514447
		4:[f2<135.274521] yes=9,no=10,missing=10
			9:leaf=0.0845126659
			10:leaf=-0.283395767
	2:[f5<104.054955] yes=5,no=6,missing=6
		5:[f4<0.366185844] yes=11,no=12,missing=12
			11:leaf=-0.266297013
			12:leaf=0.161081985
		6:[f0<524.371887] yes=13,no=14,missing=14
			13:leaf=-0.033391159
			14:leaf=0.285148829
booster[22]:
0:[f1<15.7122316] yes=1,no=2,missing=2
	1:[f5<402.427155] yes=3,no=4,missing=4
		3:[f0<656.626831] yes=7,no=8,missing=8
			7:leaf=-0.284822673
			8:leaf=-0.0628587455
		4:leaf=-0.051123675
	2:[f2<135.274521] yes=5,no=6,missing=6
		5:[f4<0.498139948] yes=9,no=10,missing=10
			9:leaf=-0.0508519895
			10:leaf=0.0391770266
		6:[f5<258.243835] yes=11,no=12,missing=12
			11:leaf=-0.295456409
			12:leaf=-0.0773948655
booster[23]:
0:[f6<0.164229691] yes=1,no=2,missing=2
	1:[f2<79.3445663] yes=3,no=4,missing=4
		3:[f0<684.504517] yes=7,no=8,missing=8
			7:leaf=-0.2603558
			8:leaf=0.15443337
		4:[f1<30.917038] yes=9,no=10,missing=10
			9:leaf=-0.227965608
			10:leaf=0.0124919936
	2:[f5<104.054955] yes=5,no=6,missing=6
		5:[f4<0.372463495] yes=11,no=12,missing=12
			11:leaf=-0.261796862
			12:leaf=0.231589377
		6:[f6<0.504268408] yes=13,no=14,missing=14
			13:leaf=-0.0486523546
			14:leaf=0.0840478092
booster[24]:
0:[f4<0.843700409] yes=1,no=2,missing=2
	1:[f3<176.125641] yes=3,no=4,missing=4
		3:[f4<0.419882506] yes=7,no=8,missing=8
			7:leaf=-0.0579742193
			8:leaf=0.0411167666
		4:[f1<132.827026] yes=9,no=10,missing=10
			9:leaf=-0.450089663
			10:leaf=0.0272395033
	2:[f5<74.8596497] yes=5,no=6,missing=6
		5:[f3<-215.398254] yes=11,no=12,missing=12
			11:leaf=0.317680806
			12:leaf=-0.0964498967
		6:[f3<176.125641] yes=13,no=14,missing=14
			13:leaf=-0.244991198
			14:leaf=-0.0597942583
booster[25]:
0:[f6<0.0765420943] yes=1,no=2,missing=2
	1:[f2<84.2948227] yes=3,no=4,missing=4
		3:leaf=-0.283991545
		4:[f2<85.4005966] yes=7,no=8,missing=8
			7:leaf=0.719703555
			8:leaf=-0.066211313
	2:[f2<121.134293] yes=5,no=6,missing=6
		5:[f1<161.880814] yes=9,no=10,missing=10
			9:leaf=0.00475268159
			10:leaf=0.151486486
		6:[f6<0.15053466] yes=11,no=12,missing=12
			11:leaf=-0.108768433
			12:leaf=-0.261640072
booster[26]:
0:[f4<0.24280335] yes=1,no=2,missing=2
	1:[f0<524.371887] yes=3,no=4,missing=4
		3:[f5<512.585205] yes=7,no=8,missing=8
			7:leaf=-0.312475204
			8:leaf=-0.101857208
		4:[f5<309.926422] yes=9,no=10,missing=10
			9:leaf=-0.261174619
			10:leaf=0.548806429
	2:[f2<135.274521] yes=5,no=6,missing=6
		5:[f1<194.865738] yes=11,no=12,missing=12
			11:leaf=-0.00341287698
			12:leaf=0.153474465
		6:[f6<0.401530594] yes=13,no=14,missing=14
			13:leaf=-0.282552063
			14:leaf=-0.0706715584
booster[27]:
0:[f1<15.7122316] yes=1,no=2,missing=2
	1:[f2<70.8274002] yes=3,no=4,missing=4
		3:leaf=-0.269135416
		4:leaf=-0.0312229786
	2:[f6<0.401530594] yes=5,no=6,missing=6
		5:[f4<0.498139948] yes=7,no=8,missing=8
			7:leaf=-0.110570997
			8:leaf=0.0255925115
		6:[f2<94.8578415] yes=9,no=10,missing=10
			9:leaf=0.0750583708
			10:leaf=-0.306573153
booster[28]:
0:[f1<92.8447342] yes=1,no=2,missing=2
	1:[f6<0.168076932] yes=3,no=4,missing=4
		3:[f2<59.6068115] yes=7,no=8,missing=8
			7:leaf=-0.287671268
			8:leaf=-0.0555928834
		4:[f5<115.941704] yes=9,no=10,missing=10
			9:leaf=0.134842694
			10:leaf=-0.0305455402
	2:[f4<0.366185844] yes=5,no=6,missing=6
		5:[f0<343.917175] yes=11,no=12,missing=12
			11:leaf=-0.174458712
			12:leaf=0.065010801
		6:[f2<125.108154] yes=13,no=14,missing=14
			13:leaf=0.0792422742
			14:leaf=-0.14096494
booster[29]:
0:[f3<183.795914] yes=1,no=2,missing=2
	1:[f6<0.0475849062] yes=3,no=4,missing=4
		3:[f2<90.4470749] yes=7,no=8,missing=8
			7:leaf=-0.273839504
			8:leaf=-0.0648340359
		4:[f0<524.371887] yes=9,no=10,missing=10
			9:leaf=0.00361234928
			10:leaf=0.181136236
	2:[f4<0.882151604] yes=5,no=6,missing=6
		5:[f1<132.827026] yes=11,no=12,missing=12
			11:leaf=-0.398940027
			12:leaf=0.0186804384
		6:[f1<37.3514214] yes=13,no=14,missing=14
			13:leaf=0.194471672
			14:leaf=-0.211138025
booster[30]:
0:[f3<-258.359009] yes=1,no=2,missing=2
	1:[f6<0.84088105] yes=3,no=4,missing=4
		3:[f1<25.5214825] yes=7,no=8,missing=8
			7:leaf=-0.225380406
			8:leaf=0.169002041
		4:[f3<-511.209656] yes=9,no=10,missing=10
			9:leaf=-0.35582608
			10:leaf=-0.0666606501
	2:[f6<0.504268408] yes=5,no=6,missing=6
		5:[f4<0.366185844] yes=11,no=12,missing=12
			11:leaf=-0.16917558
			12:leaf=-0.00587735092
		6:[f2<73.5541077] yes=13,no=14,missing=14
			13:leaf=0.104093678
			14:leaf=-0.210427403
booster[31]:
0:[f1<194.865738] yes=1,no=2,missing=2
	1:[f4<0.292054176] yes=3,no=4,missing=4
		3:[f5<358.792145] yes=7,no=8,missing=8
			7:leaf=-0.234425679
			8:leaf=0.0236477219
		4:[f4<0.996635914] yes=9,no=10,missing=10
			9:leaf=0.000220327027
			10:leaf=-0.274163514
	2:[f0<302.696747] yes=5,no=6,missing=6
		5:[f4<0.436111391] yes=11,no=12,missing=12
			11:leaf=-0.14442189
			12:leaf=0.116428629
		6:[f2<84.2948227] yes=13,no=14,missing=14
			13:leaf=-0.229500115
			14:leaf=0.326620191
booster[32]:
0:[f2<135.274521] yes=1,no=2,missing=2
	1:[f1<15.2335596] yes=3,no=4,missing=4
		3:[f2<70.8274002] yes=7,no=8,missing=8
			7:leaf=-0.259147286
			8:leaf=-0.00184332044
		4:[f0<196.489105] yes=9,no=10,missing=10
			9:leaf=-0.0552717112
			10:leaf=0.0128208986
	2:[f5<180.549896] yes=5,no=6,missing=6
		5:leaf=-0.272754669
		6:leaf=-0.0530788749
booster[33]:
0:[f4<0.843700409] yes=1,no=2,missing=2
	1:[f4<0.820924342] yes=3,no=4,missing=4
		3:[f3<176.125641] yes=7,no=8,missing=8
			7:leaf=0.00114180986
			8:leaf=-0.239984289
		4:[f2<94.8578415] yes=9,no=10,missing=10
			9:leaf=0.644523263
			10:leaf=-0.0866847709
	2:[f3<176.125641] yes=5,no=6,missing=6
		5:[f5<80.4168854] yes=11,no=12,missing=12
			11:leaf=-0.0352926962
			12:leaf=-0.206880733
		6:[f3<183.795914] yes=13,no=14,missing=14
			13:leaf=0.416200906
			14:leaf=-0.0120437117
booster[34]:
0:[f1<92.8447342] yes=1,no=2,missing=2
	1:[f6<0.172482073] yes=3,no=4,missing=4
		3:[f4<0.529903054] yes=7,no=8,missing=8
			7:leaf=-0.239288926
			8:leaf=-0.033206284
		4:[f6<0.174856141] yes=9,no=10,missing=10
			9:leaf=0.576821327
			10:leaf=-0.00340723502
	2:[f2<82.1513138] yes=5,no=6,missing=6
		5:[f6<0.345065922] yes=11,no=12,missing=12
			11:leaf=-0.260994613
			12:leaf=0.0778286532
		6:[f6<0.0824418813] yes=13,no=14,missing=14
			13:leaf=-0.0537811592
			14:leaf=0.090414308
booster[35]:
0:[f2<135.274521] yes=1,no=2,missing=2
	1:[f0<533.665955] yes=3,no=4,missing=4
		3:[f4<0.440054387] yes=7,no=8,missing=8
			7:leaf=-0.052249983
			8:leaf=0.0137837725
		4:[f2<55.6867332] yes=9,no=10,missing=10
			9:leaf=0.577348113
			10:leaf=-0.0152382283
	2:[f5<168.383835] yes=5,no=6,missing=6
		5:leaf=-0.263134569
		6:leaf=-0.0468584336
booster[36]:
0:[f4<0.24280335] yes=1,no=2,missing=2
	1:[f2<52.3609467] yes=3,no=4,missing=4
		3:[f4<0.209835723] yes=7,no=8,missing=8
			7:leaf=-0.0881408751
			8:leaf=-0.307677031
		4:[f2<57.8537025] yes=9,no=10,missing=10
			9:leaf=0.280578077
			10:leaf=-0.231892392
	2:[f2<38.2625389] yes=5,no=6,missing=6
		5:[f6<0.28447023] yes=11,no=12,missing=12
			11:leaf=-0.248546794
			12:leaf=0.213784829
		6:[f6<0.84088105] yes=13,no=14,missing=14
			13:leaf=0.00305894692
			14:leaf=-0.193379611
booster[37]:
0:[f3<-44.5349426] yes=1,no=2,missing=2
	1:[f3<-51.2715721] yes=3,no=4,missing=4
		3:[f4<0.29354921] yes=7,no=8,missing=8
			7:leaf=-0.262184948
			8:leaf=0.0519054793
		4:[f0<393.74884] yes=9,no=10,missing=10
			9:leaf=0.0702615678
			10:leaf=1.13228381
	2:[f3<40.4999542] yes=5,no=6,missing=6
		5:[f2<98.2557831] yes=11,no=12,missing=12
			11:leaf=-0.181051612
			12:leaf=0.0630977377
		6:[f3<50.7210999] yes=13,no=14,missing=14
			13:leaf=0.193216518
			14:leaf=-0.00873887725
booster[38]:
0:[f6<0.401530594] yes=1,no=2,missing=2
	1:[f2<44.6926994] yes=3,no=4,missing=4
		3:[f4<0.614028871] yes=7,no=8,missing=8
			7:leaf=-0.280944675
			8:leaf=-0.0146424761
		4:[f2<45.9817314] yes=9,no=10,missing=10
			9:leaf=0.505945683
			10:leaf=-0.00956657156
	2:[f4<0.577252626] yes=5,no=6,missing=6
		5:[f5<180.549896] yes=11,no=12,missing=12
			11:leaf=0.272687912
			12:leaf=0.0482289381
		6:[f0<221.482025] yes=13,no=14,missing=14
			13:leaf=0.0323043503
			14:leaf=-0.209628776
booster[39]:
0:[f1<214.092697] yes=1,no=2,missing=2
	1:[f4<0.498139948] yes=3,no=4,missing=4
		3:[f3<137.05217] yes=7,no=8,missing=8
			7:leaf=-0.0585651249
			8:leaf=0.190306544
		4:[f0<310.473755] yes=9,no=10,missing=10
			9:leaf=0.0474463366
			10:leaf=-0.0383574516
	2:[f4<0.30391112] yes=5,no=6,missing=6
		5:[f2<84.2948227] yes=11,no=12,missing=12
			11:leaf=-0.0523322299
			12:leaf=0.42905429
		6:[f2<121.134293] yes=13,no=14,missing=14
			13:leaf=0.119131446
			14:leaf=-0.230384275
booster[40]:
0:[f4<0.996635914] yes=1,no=2,missing=2
	1:[f2<116.893356] yes=3,no=4,missing=4
		3:[f2<107.461937] yes=7,no=8,missing=8
			7:leaf=-0.00325818476
			8:leaf=0.0904077888
		4:[f3<54.4124718] yes=9,no=10,missing=10
			9:leaf=0.0998072624
			10:leaf=-0.108808465
	2:[f0<359.87262] yes=5,no=6,missing=6
		5:leaf=-0.280440152
		6:leaf=-0.0089699924
booster[41]:
0:[f0<201.221375] yes=1,no=2,missing=2
	1:[f5<258.243835] yes=3,no=4,missing=4
		3:[f6<0.504268408] yes=7,no=8,missing=8
			7:leaf=-0.048553694
			8:leaf=0.252899349
		4:[f1<146.597717] yes=9,no=10,missing=10
			9:leaf=-0.235762283
			10:leaf=0.174414977
	2:[f0<227.799026] yes=5,no=6,missing=6
		5:[f4<0.436111391] yes=11,no=12,missing=12
			11:leaf=-0.115129635
			12:leaf=0.125740334
		6:[f2<22.9667931] yes=13,no=14,missing=14
			13:leaf=0.423368067
			14:leaf=-0.00622642832
booster[42]:
0:[f6<0.504268408] yes=1,no=2,missing=2
	1:[f2<64.7740707] yes=3,no=4,missing=4
		3:[f1<62.8629265] yes=7,no=8,missing=8
			7:leaf=0.00272169383
			8:leaf=-0.317343235
		4:[f3<-394.029449] yes=9,no=10,missing=10
			9:leaf=0.139236867
			10:leaf=0.000999045558
	2:[f2<78.353241] yes=5,no=6,missing=6
		5:[f5<258.243835] yes=11,no=12,missing=12
			11:leaf=0.194045141
			12:leaf=0.0505662933
		6:[f3<-17.1737461] yes=13,no=14,missing=14
			13:leaf=-0.385829359
			14:leaf=-0.0337664969
booster[43]:
0:[f6<0.18486461] yes=1,no=2,missing=2
	1:[f2<102.366348] yes=3,no=4,missing=4
		3:[f3<100.406433] yes=7,no=8,missing=8
			7:leaf=-0.136180803
			8:leaf=0.0160013549
		4:[f4<0.44488439] yes=9,no=10,missing=10
			9:leaf=0.24922125
			10:leaf=0.00711555872
	2:[f5<102.492493] yes=5,no=6,missing=6
		5:[f1<27.5625553] yes=11,no=12,missing=12
			11:leaf=0.539078474
			12:leaf=0.125441939
		6:[f2<105.001526] yes=13,no=14,missing=14
			13:leaf=0.00742742326
			14:leaf=-0.217798725
booster[44]:
0:[f1<92.8447342] yes=1,no=2,missing=2
	1:[f4<0.689301372] yes=3,no=4,missing=4
		3:[f0<533.665955] yes=7,no=8,missing=8
			7:leaf=-0.0541452877
			8:leaf=0.155308291
		4:[f2<83.257019] yes=9,no=10,missing=10
			9:leaf=0.157390282
			10:leaf=-0.0328501873
	2:[f0<343.917175] yes=5,no=6,missing=6
		5:[f4<0.403309584] yes=11,no=12,missing=12
			11:leaf=-0.0779742226
			12:leaf=0.0282854568
		6:[f0<356.812347] yes=13,no=14,missing=14
			13:leaf=0.311820328
			14:leaf=0.0535131693
booster[45]:
0:[f6<0.401530594] yes=1,no=2,missing=2
	1:[f4<0.507055342] yes=3,no=4,missing=4
		3:[f2<82.1513138] yes=7,no=8,missing=8
			7:leaf=-0.182810307
			8:leaf=0.0293343123
		4:[f2<98.2557831] yes=9,no=10,missing=10
			9:leaf=0.0430974178
			10:leaf=-0.02642758
	2:[f4<0.566757202] yes=5,no=6,missing=6
		5:[f0<398.200134] yes=11,no=12,missing=12
			11:leaf=0.084423095
			12:leaf=-0.106063247
		6:[f5<402.427155] yes=13,no=14,missing=14
			13:leaf=-0.0404207259
			14:leaf=-0.262057424
booster[46]:
0:[f1<15.4735851] yes=1,no=2,missing=2
	1:[f2<70.8274002] yes=3,no=4,missing=4
		3:leaf=-0.238579571
		4:leaf=-0.0170031451
	2:[f2<135.274521] yes=5,no=6,missing=6
		5:[f3<-30.7251663] yes=7,no=8,missing=8
			7:leaf=0.0420353487
			8:leaf=-0.00678415457
		6:[f5<120.86496] yes=9,no=10,missing=10
			9:leaf=-0.24642922
			10:leaf=-0.0449892431
booster[47]:
0:[f4<0.996635914] yes=1,no=2,missing=2
	1:[f6<0.0475849062] yes=3,no=4,missing=4
		3:[f5<4.51549435] yes=7,no=8,missing=8
			7:leaf=0.339788467
			8:leaf=-0.0764799491
		4:[f6<0.0480451323] yes=9,no=10,missing=10
			9:leaf=0.469326228
			10:leaf=0.00401022378
	2:[f0<357.832062] yes=5,no=6,missing=6
		5:leaf=-0.253511459
		6:leaf=-0.0130251236
booster[48]:
0:[f0<81.4425278] yes=1,no=2,missing=2
	1:leaf=-0.238396063
	2:[f2<38.2625389] yes=3,no=4,missing=4
		3:[f4<0.245511249] yes=5,no=6,missing=6
			5:leaf=-0.244045809
			6:leaf=0.134410083
		4:[f6<0.84088105] yes=7,no=8,missing=8
			7:leaf=0.000641988358
			8:leaf=-0.11211013
booster[49]:
0:[f1<15.2335596] yes=1,no=2,missing=2
	1:[f2<70.8274002] yes=3,no=4,missing=4
		3:leaf=-0.230962634
		4:leaf=-0.00629084324
	2:[f0<488.544891] yes=5,no=6,missing=6
		5:[f0<454.895233] yes=7,no=8,missing=8
			7:leaf=0.00126613386
			8:leaf=-0.216779232
		6:[f2<60.0441437] yes=9,no=10,missing=10
			9:leaf=0.381698966
			10:leaf=-0.0189919267
