booster[0]:
0:[f3<107.609093] yes=1,no=2,missing=2
	1:[f3<98.2326889] yes=3,no=4,missing=4
		3:[f2<87.2844849] yes=7,no=8,missing=8
			7:leaf=-0.581445754
			8:leaf=-0.456590801
		4:[f2<79.3631058] yes=9,no=10,missing=10
			9:leaf=-0.484593123
			10:leaf=-0.244980246
	2:[f2<118.658752] yes=5,no=6,missing=6
		5:[f9<40.1313438] yes=11,no=12,missing=12
			11:leaf=-0.20541203
			12:leaf=0.181820214
		6:[f2<135.011292] yes=13,no=14,missing=14
			13:leaf=-0.359998494
			14:leaf=-0.59989357
booster[1]:
0:[f3<109.839226] yes=1,no=2,missing=2
	1:[f3<98.2326889] yes=3,no=4,missing=4
		3:[f4<0.471035719] yes=7,no=8,missing=8
			7:leaf=-0.459373295
			8:leaf=-0.391039699
		4:[f4<0.4251481] yes=9,no=10,missing=10
			9:leaf=-0.428033799
			10:leaf=-0.201698348
	2:[f2<124.658051] yes=5,no=6,missing=6
		5:[f9<26.1205997] yes=11,no=12,missing=12
			11:leaf=-0.259641886
			12:leaf=0.0959306583
		6:[f2<135.011292] yes=13,no=14,missing=14
			13:leaf=-0.295384049
			14:leaf=-0.464570969
booster[2]:
0:[f3<105.055809] yes=1,no=2,missing=2
	1:[f2<86.7662201] yes=3,no=4,missing=4
		3:[f6<0.271761656] yes=7,no=8,missing=8
			7:leaf=-0.39249
			8:leaf=-0.32698077
		4:[f4<0.466066182] yes=9,no=10,missing=10
			9:leaf=-0.382437021
			10:leaf=-0.0912464708
	2:[f6<0.155869693] yes=5,no=6,missing=6
		5:[f4<0.679056346] yes=11,no=12,missing=12
			11:leaf=-0.124772869
			12:leaf=-0.327809662
		6:[f4<0.402908176] yes=13,no=14,missing=14
			13:leaf=-0.235766634
			14:leaf=0.170726687
booster[3]:
0:[f3<113.118324] yes=1,no=2,missing=2
	1:[f2<82.8459473] yes=3,no=4,missing=4
		3:[f4<0.444957078] yes=7,no=8,missing=8
			7:leaf=-0.353736967
			8:leaf=-0.260663748
		4:[f6<0.175604537] yes=9,no=10,missing=10
			9:leaf=-0.18828927
			10:leaf=0.294643432
	2:[f2<116.786049] yes=5,no=6,missing=6
		5:[f1<27.7696686] yes=11,no=12,missing=12
			11:leaf=-0.293884158
			12:leaf=0.0958751515
		6:[f2<135.011292] yes=13,no=14,missing=14
			13:leaf=-0.182536036
			14:leaf=-0.384461373
booster[4]:
0:[f3<101.21479] yes=1,no=2,missing=2
	1:[f4<0.471035719] yes=3,no=4,missing=4
		3:[f2<108.776398] yes=7,no=8,missing=8
			7:leaf=-0.330951631
			8:leaf=0.690083027
		4:[f6<0.147926256] yes=9,no=10,missing=10
			9:leaf=-0.293096989
			10:leaf=-0.0820668265
	2:[f2<128.253845] yes=5,no=6,missing=6
		5:[f4<0.399358153] yes=11,no=12,missing=12
			11:leaf=-0.186172247
			12:leaf=0.0530928858
		6:[f4<0.264883876] yes=13,no=14,missing=14
			13:leaf=0.835277855
			14:leaf=-0.334394664
booster[5]:
0:[f3<98.2326889] yes=1,no=2,missing=2
	1:[f4<0.461043715] yes=3,no=4,missing=4
		3:[f5<170.037689] yes=7,no=8,missing=8
			7:leaf=-0.330005318
			8:leaf=-0.279507488
		4:[f2<84.4894791] yes=9,no=10,missing=10
			9:leaf=-0.256338418
			10:leaf=-0.0113313403
	2:[f1<19.354166] yes=5,no=6,missing=6
		5:[f0<289.172302] yes=11,no=12,missing=12
			11:leaf=-0.247190639
			12:leaf=-0.399973422
		6:[f2<135.011292] yes=13,no=14,missing=14
			13:leaf=0.00841512065
			14:leaf=-0.342841893
booster[6]:
0:[f3<116.272141] yes=1,no=2,missing=2
	1:[f2<70.5384598] yes=3,no=4,missing=4
		3:[f6<0.283072859] yes=7,no=8,missing=8
			7:leaf=-0.312866807
			8:leaf=-0.220239982
		4:[f4<0.471035719] yes=9,no=10,missing=10
			9:leaf=-0.231680214
			10:leaf=0.0121914027
	2:[f2<118.658752] yes=5,no=6,missing=6
		5:[f9<49.7659607] yes=11,no=12,missing=12
			11:leaf=-0.01911713
			12:leaf=0.171509296
		6:[f3<138.476761] yes=13,no=14,missing=14
			13:leaf=-0.087493591
			14:leaf=-0.295591682
booster[7]:
0:[f3<92.0524445] yes=1,no=2,missing=2
	1:[f8<-0.438511789] yes=3,no=4,missing=4
		3:[f9<15.1879511] yes=7,no=8,missing=8
			7:leaf=-0.325267971
			8:leaf=0.17381081
		4:[f3<86.6974106] yes=9,no=10,missing=10
			9:leaf=-0.293676823
			10:leaf=-0.184877843
	2:[f4<0.413006306] yes=5,no=6,missing=6
		5:[f3<137.263123] yes=11,no=12,missing=12
			11:leaf=-0.208656058
			12:leaf=0.196293235
		6:[f6<0.208961219] yes=13,no=14,missing=14
			13:leaf=-0.0913309157
			14:leaf=0.140266299
booster[8]:
0:[f3<92.0524445] yes=1,no=2,missing=2
	1:[f4<0.461043715] yes=3,no=4,missing=4
		3:[f5<371.405182] yes=7,no=8,missing=8
			7:leaf=-0.29190129
			8:leaf=-0.0241498519
		4:[f5<181.514969] yes=9,no=10,missing=10
			9:leaf=-0.199044958
			10:leaf=0.308096051
	2:[f1<19.354166] yes=5,no=6,missing=6
		5:[f1<15.3243456] yes=11,no=12,missing=12
			11:leaf=-0.356785178
			12:leaf=-0.231453404
		6:[f4<0.399358153] yes=13,no=14,missing=14
			13:leaf=-0.113440648
			14:leaf=0.0336245038
booster[9]:
0:[f6<0.134962037] yes=1,no=2,missing=2
	1:[f2<86.7662201] yes=3,no=4,missing=4
		3:[f0<709.9375] yes=7,no=8,missing=8
			7:leaf=-0.300471723
			8:leaf=0.0612772182
		4:[f2<135.011292] yes=9,no=10,missing=10
			9:leaf=-0.024614254
			10:leaf=-0.318973571
	2:[f2<73.3876343] yes=5,no=6,missing=6
		5:[f3<121.478401] yes=11,no=12,missing=12
			11:leaf=-0.163140237
			12:leaf=0.0500951856
		6:[f2<110.762749] yes=13,no=14,missing=14
			13:leaf=0.137388334
			14:leaf=-0.201444969
booster[10]:
0:[f1<22.4778214] yes=1,no=2,missing=2
	1:[f6<0.267572731] yes=3,no=4,missing=4
		3:[f3<215.885986] yes=7,no=8,missing=8
			7:leaf=-0.304864049
			8:leaf=0.133236289
		4:[f7<-0.910109401] yes=9,no=10,missing=10
			9:leaf=0.669555366
			10:leaf=-0.140844613
	2:[f4<0.438440055] yes=5,no=6,missing=6
		5:[f5<350.341034] yes=11,no=12,missing=12
			11:leaf=-0.162471816
			12:leaf=0.105390728
		6:[f6<0.152155951] yes=13,no=14,missing=14
			13:leaf=-0.0618439689
			14:leaf=0.0948114619
booster[11]:
0:[f2<80.1356201] yes=1,no=2,missing=2
	1:[f6<0.307925284] yes=3,no=4,missing=4
		3:[f4<0.526500344] yes=7,no=8,missing=8
			7:leaf=-0.295751691
			8:leaf=-0.146536902
		4:[f4<0.447265357] yes=9,no=10,missing=10
			9:leaf=-0.0760305896
			10:leaf=0.0944419876
	2:[f2<135.011292] yes=5,no=6,missing=6
		5:[f6<0.131964698] yes=11,no=12,missing=12
			11:leaf=-0.0245416239
			12:leaf=0.113097146
		6:[f3<109.540199] yes=13,no=14,missing=14
			13:leaf=-0.411306471
			14:leaf=-0.31708017
booster[12]:
0:[f3<86.6974106] yes=1,no=2,missing=2
	1:[f8<-0.438511789] yes=3,no=4,missing=4
		3:[f4<0.689635992] yes=7,no=8,missing=8
			7:leaf=0.352498353
			8:leaf=-0.31554088
		4:[f6<0.147926256] yes=9,no=10,missing=10
			9:leaf=-0.284762681
			10:leaf=-0.149759635
	2:[f3<165.932709] yes=5,no=6,missing=6
		5:[f9<50.5559235] yes=11,no=12,missing=12
			11:leaf=-0.0404813215
			12:leaf=0.0719788671
		6:[f4<0.402908176] yes=13,no=14,missing=14
			13:leaf=0.125735432
			14:leaf=-0.237737641
booster[13]:
0:[f1<19.354166] yes=1,no=2,missing=2
	1:[f1<15.0316277] yes=3,no=4,missing=4
		3:[f0<709.9375] yes=7,no=8,missing=8
			7:leaf=-0.313788176
			8:leaf=0.268794686
		4:[f0<289.172302] yes=9,no=10,missing=10
			9:leaf=0.0837258995
			10:leaf=-0.257461578
	2:[f2<135.011292] yes=5,no=6,missing=6
		5:[f4<0.399358153] yes=11,no=12,missing=12
			11:leaf=-0.0756567493
			12:leaf=0.0284511428
		6:leaf=-0.312953264
booster[14]:
0:[f6<0.230170399] yes=1,no=2,missing=2
	1:[f2<87.2844849] yes=3,no=4,missing=4
		3:[f5<117.387276] yes=7,no=8,missing=8
			7:leaf=-0.169337958
			8:leaf=-0.451664031
		4:[f0<143.459167] yes=9,no=10,missing=10
			9:leaf=-0.559974074
			10:leaf=0.0138999857
	2:[f2<67.6516876] yes=5,no=6,missing=6
		5:[f3<120.958466] yes=11,no=12,missing=12
			11:leaf=-0.103028826
			12:leaf=0.0557885133
		6:[f4<0.407856911] yes=13,no=14,missing=14
			13:leaf=-0.0428341292
			14:leaf=0.137163922
booster[15]:
0:[f3<185.921616] yes=1,no=2,missing=2
	1:[f6<0.0899059102] yes=3,no=4,missing=4
		3:[f2<101.35054] yes=7,no=8,missing=8
			7:leaf=-0.201015517
			8:leaf=0.014130176
		4:[f1<225.271103] yes=9,no=10,missing=10
			9:leaf=0.00909619499
			10:leaf=0.298458904
	2:[f9<42.8070412] yes=5,no=6,missing=6
		5:[f2<67.159584] yes=11,no=12,missing=12
			11:leaf=-0.507147253
			12:leaf=-0.0268192999
		6:[f1<133.11969] yes=13,no=14,missing=14
			13:leaf=-0.598787367
			14:leaf=-0.185298175
booster[16]:
0:[f2<135.011292] yes=1,no=2,missing=2
	1:[f1<15.0316277] yes=3,no=4,missing=4
		3:[f0<709.9375] yes=5,no=6,missing=6
			5:leaf=-0.299995363
			6:leaf=0.237644717
		4:[f4<0.481056213] yes=7,no=8,missing=8
			7:leaf=-0.0362463295
			8:leaf=0.0291811004
	2:leaf=-0.309583426
booster[17]:
0:[f5<389.473785] yes=1,no=2,missing=2
	1:[f4<0.396096319] yes=3,no=4,missing=4
		3:[f1<225.271103] yes=7,no=8,missing=8
			7:leaf=-0.147873431
			8:leaf=0.221854374
		4:[f3<155.252136] yes=9,no=10,missing=10
			9:leaf=0.0243590493
			10:leaf=-0.155422911
	2:[f4<0.397802293] yes=5,no=6,missing=6
		5:[f3<73.8494034] yes=11,no=12,missing=12
			11:leaf=1.45576346
			12:leaf=0.178483471
		6:[f0<174.170334] yes=13,no=14,missing=14
			13:leaf=0.204271153
			14:leaf=-0.204686105
booster[18]:
0:[f6<0.26029402] yes=1,no=2,missing=2
	1:[f2<84.4894791] yes=3,no=4,missing=4
		3:[f5<132.853485] yes=7,no=8,missing=8
			7:leaf=-0.127115116
			8:leaf=-0.458982438
		4:[f4<1.00144017] yes=9,no=10,missing=10
			9:leaf=0.0102521516
			10:leaf=-0.521609366
	2:[f2<64.0171738] yes=5,no=6,missing=6
		5:[f3<118.17498] yes=11,no=12,missing=12
			11:leaf=-0.0924689472
			12:leaf=0.0381667577
		6:[f2<110.762749] yes=13,no=14,missing=14
			13:leaf=0.0801589116
			14:leaf=-0.281501234
booster[19]:
0:[f2<116.786049] yes=1,no=2,missing=2
	1:[f9<94.1621094] yes=3,no=4,missing=4
		3:[f6<0.124002688] yes=7,no=8,missing=8
			7:leaf=-0.0753300935
			8:leaf=0.0187735725
		4:[f0<186.581406] yes=9,no=10,missing=10
			9:leaf=-0.135615334
			10:leaf=0.331828773
	2:[f0<320.209778] yes=5,no=6,missing=6
		5:[f8<0.406296909] yes=11,no=12,missing=12
			11:leaf=-0.122246921
			12:leaf=-0.373669505
		6:[f3<140.512939] yes=13,no=14,missing=14
			13:leaf=0.14363569
			14:leaf=-0.181884125
booster[20]:
0:[f3<71.0274353] yes=1,no=2,missing=2
	1:[f0<116.179947] yes=3,no=4,missing=4
		3:[f2<33.0190353] yes=7,no=8,missing=8
			7:leaf=-0.296437263
			8:leaf=1.53522575
		4:leaf=-0.308316231
	2:[f2<135.011292] yes=5,no=6,missing=6
		5:[f2<80.1356201] yes=9,no=10,missing=10
			9:leaf=-0.0249808133
			10:leaf=0.0296010338
		6:leaf=-0.306875437
booster[21]:
0:[f4<0.802810788] yes=1,no=2,missing=2
	1:[f3<177.508789] yes=3,no=4,missing=4
		3:[f3<131.069489] yes=7,no=8,missing=8
			7:leaf=-0.00906906091
			8:leaf=0.0658777952
		4:[f1<12.5654783] yes=9,no=10,missing=10
			9:leaf=1.6169045
			10:leaf=-0.247780114
	2:[f0<204.023682] yes=5,no=6,missing=6
		5:[f4<0.881060719] yes=11,no=12,missing=12
			11:leaf=-0.219880536
			12:leaf=-0.515812695
		6:[f7<0.81349057] yes=13,no=14,missing=14
			13:leaf=0.00846186932
			14:leaf=-0.199324086
booster[22]:
0:[f1<15.0316277] yes=1,no=2,missing=2
	1:[f0<709.9375] yes=3,no=4,missing=4
		3:[f3<180.311066] yes=7,no=8,missing=8
			7:leaf=-0.317032397
			8:leaf=0.143200427
		4:[f8<-0.649961114] yes=9,no=10,missing=10
			9:leaf=1.51232719
			10:leaf=-0.334065288
	2:[f8<-0.210472226] yes=5,no=6,missing=6
		5:[f6<0.0462195575] yes=11,no=12,missing=12
			11:leaf=-0.139525637
			12:leaf=0.0521796197
		6:[f3<119.087418] yes=13,no=14,missing=14
			13:leaf=-0.0515022464
			14:leaf=0.0124120712
booster[23]:
0:[f3<71.0274353] yes=1,no=2,missing=2
	1:[f4<0.657491982] yes=3,no=4,missing=4
		3:leaf=-0.306486338
		4:[f4<0.66657728] yes=7,no=8,missing=8
			7:leaf=1.53252459
			8:leaf=-0.302952886
	2:[f7<0.217302561] yes=5,no=6,missing=6
		5:[f3<72.6688538] yes=9,no=10,missing=10
			9:leaf=0.992063522
			10:leaf=0.0204436462
		6:[f4<0.397802293] yes=11,no=12,missing=12
			11:leaf=-0.154855683
			12:leaf=-0.00114114466
booster[24]:
0:[f5<350.341034] yes=1,no=2,missing=2
	1:[f4<0.399358153] yes=3,no=4,missing=4
		3:[f3<144.310806] yes=7,no=8,missing=8
			7:leaf=-0.140809268
			8:leaf=0.231114373
		4:[f9<18.8544464] yes=9,no=10,missing=10
			9:leaf=-0.127901793
			10:leaf=0.0218965299
	2:[f4<0.406060725] yes=5,no=6,missing=6
		5:[f6<0.548254788] yes=11,no=12,missing=12
			11:leaf=-0.458684593
			12:leaf=0.133239627
		6:[f8<0.342773378] yes=13,no=14,missing=14
			13:leaf=-0.0582871661
			14:leaf=-0.440954715
booster[25]:
0:[f1<282.635254] yes=1,no=2,missing=2
	1:[f2<113.057892] yes=3,no=4,missing=4
		3:[f2<90.3991852] yes=7,no=8,missing=8
			7:leaf=-0.0144723905
			8:leaf=0.0545260943
		4:[f5<61.8870316] yes=9,no=10,missing=10
			9:leaf=-0.0259497538
			10:leaf=-0.209914982
	2:[f3<136.390701] yes=5,no=6,missing=6
		5:[f4<0.23189047] yes=11,no=12,missing=12
			11:leaf=-0.36757952
			12:leaf=0.541124582
		6:[f0<302.291504] yes=13,no=14,missing=14
			13:leaf=0.346689433
			14:leaf=-0.526286006
booster[26]:
0:[f6<0.347527176] yes=1,no=2,missing=2
	1:[f2<84.4894791] yes=3,no=4,missing=4
		3:[f4<0.520572424] yes=7,no=8,missing=8
			7:leaf=-0.188567027
			8:leaf=-0.0126169752
		4:[f6<0.188704625] yes=9,no=10,missing=10
			9:leaf=-0.0145879788
			10:leaf=0.0765988752
	2:[f1<204.30423] yes=5,no=6,missing=6
		5:[f0<213.934616] yes=11,no=12,missing=12
			11:leaf=0.0861666948
			12:leaf=-0.00697474182
		6:[f4<0.396096319] yes=13,no=14,missing=14
			13:leaf=0.274229228
			14:leaf=-0.427406669
booster[27]:
0:[f2<135.011292] yes=1,no=2,missing=2
	1:[f4<1.01877809] yes=3,no=4,missing=4
		3:[f1<15.0316277] yes=5,no=6,missing=6
			5:leaf=-0.231009677
			6:leaf=0.00386925321
		4:[f6<0.237720117] yes=7,no=8,missing=8
			7:leaf=-0.360387415
			8:leaf=-0.684064388
	2:leaf=-0.304350942
booster[28]:
0:[f6<0.0824083611] yes=1,no=2,missing=2
	1:[f5<43.9196205] yes=3,no=4,missing=4
		3:[f5<42.4699249] yes=7,no=8,missing=8
			7:leaf=-0.0444534235
			8:leaf=0.60775584
		4:[f1<10.5158501] yes=9,no=10,missing=10
			9:leaf=1.14001071
			10:leaf=-0.436552465
	2:[f3<158.574295] yes=5,no=6,missing=6
		5:[f4<0.481056213] yes=11,no=12,missing=12
			11:leaf=-0.0259533506
			12:leaf=0.050217133
		6:[f0<265.234985] yes=13,no=14,missing=14
			13:leaf=-0.264343917
			14:leaf=0.00783093832
booster[29]:
0:[f6<0.342631906] yes=1,no=2,missing=2
	1:[f0<206.382706] yes=3,no=4,missing=4
		3:[f1<86.2617188] yes=7,no=8,missing=8
			7:leaf=-0.2919451
			8:leaf=-0.0502110608
		4:[f4<0.381022692] yes=9,no=10,missing=10
			9:leaf=-0.15467602
			10:leaf=0.0124229724
	2:[f2<64.0171738] yes=5,no=6,missing=6
		5:[f1<110.52166] yes=11,no=12,missing=12
			11:leaf=0.0156023605
			12:leaf=-0.156533748
		6:[f3<106.73069] yes=13,no=14,missing=14
			13:leaf=0.354284555
			14:leaf=0.036680989
booster[30]:
0:[f9<75.0552979] yes=1,no=2,missing=2
	1:[f6<0.159516394] yes=3,no=4,missing=4
		3:[f0<274.744598] yes=7,no=8,missing=8
			7:leaf=-0.184546515
			8:leaf=-0.0270982608
		4:[f2<80.1356201] yes=9,no=10,missing=10
			9:leaf=-0.0110503118
			10:leaf=0.0618526936
	2:[f0<319.040741] yes=5,no=6,missing=6
		5:[f3<128.641602] yes=11,no=12,missing=12
			11:leaf=0.0839986876
			12:leaf=-0.123205543
		6:[f2<128.253845] yes=13,no=14,missing=14
			13:leaf=0.445961446
			14:leaf=-0.0999738649
booster[31]:
0:[f2<135.011292] yes=1,no=2,missing=2
	1:[f5<350.341034] yes=3,no=4,missing=4
		3:[f4<0.406060725] yes=5,no=6,missing=6
			5:leaf=-0.0839670748
			6:leaf=0.0103172706
		4:[f6<0.548254788] yes=7,no=8,missing=8
			7:leaf=-0.457589924
			8:leaf=0.0649896786
	2:leaf=-0.302893251
booster[32]:
0:[f1<15.0316277] yes=1,no=2,missing=2
	1:[f7<0.492132813] yes=3,no=4,missing=4
		3:leaf=-0.319466203
		4:[f3<180.311066] yes=7,no=8,missing=8
			7:leaf=-0.154860258
			8:leaf=0.510127127
	2:[f7<0.217302561] yes=5,no=6,missing=6
		5:[f9<60.205864] yes=9,no=10,missing=10
			9:leaf=-0.00453041587
			10:leaf=0.0633269027
		6:[f4<0.397802293] yes=11,no=12,missing=12
			11:leaf=-0.0998970568
			12:leaf=-0.00470365444
booster[33]:
0:[f6<0.26029402] yes=1,no=2,missing=2
	1:[f5<132.853485] yes=3,no=4,missing=4
		3:[f9<75.0552979] yes=7,no=8,missing=8
			7:leaf=-0.0288723391
			8:leaf=0.0440234765
		4:[f2<92.0773392] yes=9,no=10,missing=10
			9:leaf=-0.413609087
			10:leaf=-0.105391167
	2:[f0<448.678986] yes=5,no=6,missing=6
		5:[f2<110.762749] yes=11,no=12,missing=12
			11:leaf=0.0113230348
			12:leaf=-0.248028561
		6:[f3<99.7708435] yes=13,no=14,missing=14
			13:leaf=1.26251543
			14:leaf=0.0891442448
booster[34]:
0:[f2<135.011292] yes=1,no=2,missing=2
	1:[f1<229.267151] yes=3,no=4,missing=4
		3:[f4<0.283708334] yes=5,no=6,missing=6
			5:leaf=-0.119826138
			6:leaf=0.000468607497
		4:[f8<0.361786008] yes=7,no=8,missing=8
			7:leaf=0.14945206
			8:leaf=-0.46400255
	2:leaf=-0.301216066
booster[35]:
0:[f4<1.01877809] yes=1,no=2,missing=2
	1:[f6<0.0462195575] yes=3,no=4,missing=4
		3:[f6<0.0430406481] yes=7,no=8,missing=8
			7:leaf=-0.0261290278
			8:leaf=-0.38202408
		4:[f5<24.3761787] yes=9,no=10,missing=10
			9:leaf=0.309558034
			10:leaf=0.00296894088
	2:[f6<0.23392947] yes=5,no=6,missing=6
		5:leaf=-0.331476808
		6:leaf=-0.468663752
booster[36]:
0:[f7<0.795621991] yes=1,no=2,missing=2
	1:[f2<113.057892] yes=3,no=4,missing=4
		3:[f9<100.256927] yes=7,no=8,missing=8
			7:leaf=0.00420654938
			8:leaf=0.277298957
		4:[f7<-0.142130733] yes=9,no=10,missing=10
			9:leaf=0.0334097631
			10:leaf=-0.118767627
	2:[f8<-0.0459886044] yes=5,no=6,missing=6
		5:[f1<102.243858] yes=11,no=12,missing=12
			11:leaf=0.0146390907
			12:leaf=1.38359571
		6:[f3<94.0646744] yes=13,no=14,missing=14
			13:leaf=0.153105408
			14:leaf=-0.39068833
booster[37]:
0:[f0<342.019501] yes=1,no=2,missing=2
	1:[f6<0.0336605385] yes=3,no=4,missing=4
		3:[f5<14.3997488] yes=7,no=8,missing=8
			7:leaf=-0.0385084599
			8:leaf=-0.440903515
		4:[f5<19.075798] yes=9,no=10,missing=10
			9:leaf=0.410162598
			10:leaf=-0.0067402753
	2:[f2<98.8317032] yes=5,no=6,missing=6
		5:[f7<0.479553401] yes=11,no=12,missing=12
			11:leaf=-0.0420550033
			12:leaf=0.124269009
		6:[f3<104.501129] yes=13,no=14,missing=14
			13:leaf=0.502515793
			14:leaf=0.0873712376
booster[38]:
0:[f5<322.061371] yes=1,no=2,missing=2
	1:[f4<0.397802293] yes=3,no=4,missing=4
		3:[f0<497.782654] yes=7,no=8,missing=8
			7:leaf=-0.140128583
			8:leaf=0.144209191
		4:[f2<50.8246193] yes=9,no=10,missing=10
			9:leaf=-0.153787568
			10:leaf=0.0122501897
	2:[f4<0.397802293] yes=5,no=6,missing=6
		5:[f0<247.327621] yes=11,no=12,missing=12
			11:leaf=-0.0376073495
			12:leaf=0.172351331
		6:[f2<92.7404861] yes=13,no=14,missing=14
			13:leaf=-0.0743493959
			14:leaf=-0.560298443
booster[39]:
0:[f6<0.175604537] yes=1,no=2,missing=2
	1:[f5<92.5152283] yes=3,no=4,missing=4
		3:[f1<22.4778214] yes=7,no=8,missing=8
			7:leaf=-0.256256729
			8:leaf=-0.00567968888
		4:[f7<-0.66108942] yes=9,no=10,missing=10
			9:leaf=0.220619842
			10:leaf=-0.353838712
	2:[f5<81.9708557] yes=5,no=6,missing=6
		5:[f2<54.3058701] yes=11,no=12,missing=12
			11:leaf=1.15251541
			12:leaf=0.329336613
		6:[f2<110.762749] yes=13,no=14,missing=14
			13:leaf=0.0133957816
			14:leaf=-0.152341306
booster[40]:
0:[f1<229.267151] yes=1,no=2,missing=2
	1:[f4<0.283708334] yes=3,no=4,missing=4
		3:[f2<49.9575691] yes=7,no=8,missing=8
			7:leaf=-0.274877608
			8:leaf=-0.00348823285
		4:[f2<40.815464] yes=9,no=10,missing=10
			9:leaf=0.159694821
			10:leaf=-0.00348338555
	2:[f3<99.4577942] yes=5,no=6,missing=6
		5:leaf=-0.31949085
		6:[f8<0.361786008] yes=11,no=12,missing=12
			11:leaf=0.17928341
			12:leaf=-0.389587373
booster[41]:
0:[f2<135.011292] yes=1,no=2,missing=2
	1:[f9<50.5559235] yes=3,no=4,missing=4
		3:[f1<118.030998] yes=5,no=6,missing=6
			5:leaf=-0.00494935131
			6:leaf=-0.125718802
		4:[f0<325.770111] yes=7,no=8,missing=8
			7:leaf=0.000190899285
			8:leaf=0.104515076
	2:leaf=-0.299302995
booster[42]:
0:[f6<0.424699366] yes=1,no=2,missing=2
	1:[f5<202.035599] yes=3,no=4,missing=4
		3:[f4<0.309037924] yes=7,no=8,missing=8
			7:leaf=-0.267759293
			8:leaf=0.00193274382
		4:[f0<299.611786] yes=9,no=10,missing=10
			9:leaf=-0.331221938
			10:leaf=-0.023541132
	2:[f2<94.2381821] yes=5,no=6,missing=6
		5:[f9<29.6572781] yes=11,no=12,missing=12
			11:leaf=-0.0149071189
			12:leaf=0.0574946404
		6:[f4<0.404238075] yes=13,no=14,missing=14
			13:leaf=0.055544924
			14:leaf=-0.376571149
booster[43]:
0:[f8<-0.210472226] yes=1,no=2,missing=2
	1:[f9<29.1459808] yes=3,no=4,missing=4
		3:[f4<0.367708534] yes=7,no=8,missing=8
			7:leaf=0.192142561
			8:leaf=-0.0811360478
		4:[f3<191.512253] yes=9,no=10,missing=10
			9:leaf=0.0486675948
			10:leaf=-0.45206967
	2:[f8<0.0732315183] yes=5,no=6,missing=6
		5:[f3<105.399574] yes=11,no=12,missing=12
			11:leaf=-0.176040843
			12:leaf=-0.0196732935
		6:[f3<93.44487] yes=13,no=14,missing=14
			13:leaf=0.17835246
			14:leaf=0.000864639587
booster[44]:
0:[f6<0.152155951] yes=1,no=2,missing=2
	1:[f1<180.504303] yes=3,no=4,missing=4
		3:[f7<0.529827356] yes=7,no=8,missing=8
			7:leaf=-0.0638264269
			8:leaf=0.0632319301
		4:[f2<114.877502] yes=9,no=10,missing=10
			9:leaf=0.225906432
			10:leaf=-0.0249515604
	2:[f2<78.7776871] yes=5,no=6,missing=6
		5:[f6<0.394754529] yes=11,no=12,missing=12
			11:leaf=-0.0624474734
			12:leaf=0.0236062594
		6:[f7<0.440594196] yes=13,no=14,missing=14
			13:leaf=0.0639618561
			14:leaf=-0.071983479
booster[45]:
0:[f4<0.509100735] yes=1,no=2,missing=2
	1:[f2<98.8317032] yes=3,no=4,missing=4
		3:[f5<176.968491] yes=7,no=8,missing=8
			7:leaf=-0.11251425
			8:leaf=0.00134994986
		4:[f7<-0.481398344] yes=9,no=10,missing=10
			9:leaf=-0.576730669
			10:leaf=0.102994569
	2:[f3<94.9378281] yes=5,no=6,missing=6
		5:[f4<0.773084164] yes=11,no=12,missing=12
			11:leaf=0.109541617
			12:leaf=0.503866553
		6:[f9<18.8544464] yes=13,no=14,missing=14
			13:leaf=-0.0917277783
			14:leaf=0.0114628049
booster[46]:
0:[f7<0.795621991] yes=1,no=2,missing=2
	1:[f1<51.5718002] yes=3,no=4,missing=4
		3:[f2<126.183403] yes=7,no=8,missing=8
			7:leaf=0.0268993285
			8:leaf=0.951056063
		4:[f3<158.574295] yes=9,no=10,missing=10
			9:leaf=-0.000728934247
			10:leaf=-0.134572417
	2:[f8<-0.0459886044] yes=5,no=6,missing=6
		5:[f5<53.7699966] yes=11,no=12,missing=12
			11:leaf=0.271334767
			12:leaf=-0.210391432
		6:[f5<115.309715] yes=13,no=14,missing=14
			13:leaf=-0.369518518
			14:leaf=-0.0242064204
booster[47]:
0:[f3<71.0274353] yes=1,no=2,missing=2
	1:[f3<29.0747185] yes=3,no=4,missing=4
		3:[f2<35.0857391] yes=7,no=8,missing=8
			7:leaf=-0.218347922
			8:leaf=0.972275972
		4:[f7<-0.648653328] yes=9,no=10,missing=10
			9:leaf=0.136632875
			10:leaf=-0.310495794
	2:[f3<71.5184708] yes=5,no=6,missing=6
		5:[f4<0.671704054] yes=11,no=12,missing=12
			11:leaf=-0.33146289
			12:leaf=1.87880218
		6:[f2<118.658752] yes=13,no=14,missing=14
			13:leaf=0.00378118781
			14:leaf=-0.0589275695
booster[48]:
0:[f4<1.01877809] yes=1,no=2,missing=2
	1:[f2<48.2090683] yes=3,no=4,missing=4
		3:[f0<315.270996] yes=5,no=6,missing=6
			5:leaf=-0.0996778756
			6:leaf=0.12681593
		4:[f9<13.5781507] yes=7,no=8,missing=8
			7:leaf=0.156489626
			8:leaf=0.00108485017
	2:leaf=-0.349953324
booster[49]:
0:[f6<0.802427888] yes=1,no=2,missing=2
	1:[f5<507.801575] yes=3,no=4,missing=4
		3:[f4<0.33276695] yes=7,no=8,missing=8
			7:leaf=-0.0689082444
			8:leaf=0.00144868018
		4:[f3<137.263123] yes=9,no=10,missing=10
			9:leaf=-0.400720716
			10:leaf=-0.665936172
	2:[f0<475.601074] yes=5,no=6,missing=6
		5:[f4<0.347954571] yes=11,no=12,missing=12
			11:leaf=0.152812928
			12:leaf=-0.00511222985
		6:[f9<29.360136] yes=13,no=14,missing=14
			13:leaf=-0.455173284
			14:leaf=-0.807757378
