booster[0]:
0:[f6<0.28183952] yes=1,no=2,missing=2
	1:[f2<81.0739822] yes=3,no=4,missing=4
		3:[f6<0.241659313] yes=7,no=8,missing=8
			7:leaf=-0.597715735
			8:leaf=-0.503463924
		4:[f6<0.167303473] yes=9,no=10,missing=10
			9:leaf=-0.521246374
			10:leaf=-0.0640520155
	2:[f3<106.104958] yes=5,no=6,missing=6
		5:[f2<61.0592957] yes=11,no=12,missing=12
			11:leaf=-0.454790115
			12:leaf=-0.0283846129
		6:[f4<0.783155262] yes=13,no=14,missing=14
			13:leaf=0.40498662
			14:leaf=-0.323900312
booster[1]:
0:[f6<0.265724421] yes=1,no=2,missing=2
	1:[f2<84.1276627] yes=3,no=4,missing=4
		3:[f6<0.18408826] yes=7,no=8,missing=8
			7:leaf=-0.463676661
			8:leaf=-0.417842716
		4:[f4<0.673993587] yes=9,no=10,missing=10
			9:leaf=-0.165424377
			10:leaf=-0.433148235
	2:[f3<107.695107] yes=5,no=6,missing=6
		5:[f1<25.8718452] yes=11,no=12,missing=12
			11:leaf=-0.453743547
			12:leaf=-0.107379273
		6:[f1<20.9086971] yes=13,no=14,missing=14
			13:leaf=-0.420437753
			14:leaf=0.302584946
booster[2]:
0:[f6<0.219701737] yes=1,no=2,missing=2
	1:[f2<91.8175812] yes=3,no=4,missing=4
		3:[f6<0.18408826] yes=7,no=8,missing=8
			7:leaf=-0.401559174
			8:leaf=-0.346035898
		4:[f4<0.673993587] yes=9,no=10,missing=10
			9:leaf=-0.113272749
			10:leaf=-0.360782236
	2:[f3<103.2686] yes=5,no=6,missing=6
		5:[f2<67.3655396] yes=11,no=12,missing=12
			11:leaf=-0.337812066
			12:leaf=0.0275549293
		6:[f1<20.9086971] yes=13,no=14,missing=14
			13:leaf=-0.355107754
			14:leaf=0.245609686
booster[3]:
0:[f6<0.219701737] yes=1,no=2,missing=2
	1:[f2<81.0739822] yes=3,no=4,missing=4
		3:[f6<0.173897848] yes=7,no=8,missing=8
			7:leaf=-0.368123084
			8:leaf=-0.340633363
		4:[f6<0.149581462] yes=9,no=10,missing=10
			9:leaf=-0.292883068
			10:leaf=-0.0217352062
	2:[f1<21.8654671] yes=5,no=6,missing=6
		5:[f1<17.7843227] yes=11,no=12,missing=12
			11:leaf=-0.383158773
			12:leaf=-0.246347278
		6:[f3<110.856949] yes=13,no=14,missing=14
			13:leaf=-0.0744063705
			14:leaf=0.210164115
booster[4]:
0:[f6<0.214470461] yes=1,no=2,missing=2
	1:[f2<82.0601959] yes=3,no=4,missing=4
		3:[f6<0.173897848] yes=7,no=8,missing=8
			7:leaf=-0.346027255
			8:leaf=-0.310061365
		4:[f4<0.794402182] yes=9,no=10,missing=10
			9:leaf=-0.117361091
			10:leaf=-0.322335482
	2:[f1<21.8654671] yes=5,no=6,missing=6
		5:[f1<17.7843227] yes=11,no=12,missing=12
			11:leaf=-0.352937579
			12:leaf=-0.208538577
		6:[f2<110.702477] yes=13,no=14,missing=14
			13:leaf=0.0654052272
			14:leaf=-0.465043575
booster[5]:
0:[f6<0.190081552] yes=1,no=2,missing=2
	1:[f2<91.8175812] yes=3,no=4,missing=4
		3:[f2<80.1556549] yes=7,no=8,missing=8
			7:leaf=-0.330788016
			8:leaf=-0.278072029
		4:[f4<0.701910257] yes=9,no=10,missing=10
			9:leaf=-0.0160952639
			10:leaf=-0.26721254
	2:[f1<45.0604553] yes=5,no=6,missing=6
		5:[f3<103.2686] yes=11,no=12,missing=12
			11:leaf=-0.307372481
			12:leaf=0.0108806081
		6:[f2<69.6919479] yes=13,no=14,missing=14
			13:leaf=-0.0869190544
			14:leaf=0.200119197
booster[6]:
0:[f6<0.18408826] yes=1,no=2,missing=2
	1:[f2<90.3709641] yes=3,no=4,missing=4
		3:[f2<80.1556549] yes=7,no=8,missing=8
			7:leaf=-0.320969582
			8:leaf=-0.25521487
		4:[f2<121.768105] yes=9,no=10,missing=10
			9:leaf=-0.0589124039
			10:leaf=-0.296984404
	2:[f1<25.3157196] yes=5,no=6,missing=6
		5:[f3<74.2075272] yes=11,no=12,missing=12
			11:leaf=-0.319550216
			12:leaf=-0.153150275
		6:[f2<117.572075] yes=13,no=14,missing=14
			13:leaf=0.0576006472
			14:leaf=-0.439787567
booster[7]:
0:[f1<45.0604553] yes=1,no=2,missing=2
	1:[f6<0.307084948] yes=3,no=4,missing=4
		3:[f3<86.7723007] yes=7,no=8,missing=8
			7:leaf=-0.314926684
			8:leaf=-0.237794697
		4:[f3<50.3182564] yes=9,no=10,missing=10
			9:leaf=-0.230921268
			10:leaf=0.0868703276
	2:[f6<0.115389951] yes=5,no=6,missing=6
		5:[f2<98.4105453] yes=11,no=12,missing=12
			11:leaf=-0.297163814
			12:leaf=-0.118486695
		6:[f3<107.695107] yes=13,no=14,missing=14
			13:leaf=-0.0737307444
			14:leaf=0.173572004
booster[8]:
0:[f1<29.0986977] yes=1,no=2,missing=2
	1:[f6<0.307084948] yes=3,no=4,missing=4
		3:[f3<123.552063] yes=7,no=8,missing=8
			7:leaf=-0.310114145
			8:leaf=-0.241304278
		4:[f1<17.7843227] yes=9,no=10,missing=10
			9:leaf=-0.282811731
			10:leaf=0.124040745
	2:[f3<86.7723007] yes=5,no=6,missing=6
		5:[f6<0.307084948] yes=11,no=12,missing=12
			11:leaf=-0.23360987
			12:leaf=0.0306649394
		6:[f2<121.768105] yes=13,no=14,missing=14
			13:leaf=0.100571923
			14:leaf=-0.292098343
booster[9]:
0:[f1<29.0986977] yes=1,no=2,missing=2
	1:[f6<0.241659313] yes=3,no=4,missing=4
		3:[f3<146.195877] yes=7,no=8,missing=8
			7:leaf=-0.305007994
			8:leaf=-0.223513022
		4:[f1<17.7843227] yes=9,no=10,missing=10
			9:leaf=-0.280563205
			10:leaf=0.0452677421
	2:[f6<0.125175312] yes=5,no=6,missing=6
		5:[f2<98.4105453] yes=11,no=12,missing=12
			11:leaf=-0.266552001
			12:leaf=-0.0625935942
		6:[f2<70.289772] yes=13,no=14,missing=14
			13:leaf=-0.112918518
			14:leaf=0.120035395
booster[10]:
0:[f1<25.3157196] yes=1,no=2,missing=2
	1:[f6<0.252795458] yes=3,no=4,missing=4
		3:[f3<194.068359] yes=7,no=8,missing=8
			7:leaf=-0.303154171
			8:leaf=-0.112068944
		4:[f3<74.2075272] yes=9,no=10,missing=10
			9:leaf=-0.236333147
			10:leaf=0.103704549
	2:[f6<0.115389951] yes=5,no=6,missing=6
		5:[f2<100.465378] yes=11,no=12,missing=12
			11:leaf=-0.253549218
			12:leaf=-0.057295084
		6:[f2<121.768105] yes=13,no=14,missing=14
			13:leaf=0.0380205549
			14:leaf=-0.334144115
booster[11]:
0:[f1<25.3157196] yes=1,no=2,missing=2
	1:[f6<0.252795458] yes=3,no=4,missing=4
		3:[f3<194.068359] yes=7,no=8,missing=8
			7:leaf=-0.299653977
			8:leaf=-0.0910492167
		4:[f1<17.7843227] yes=9,no=10,missing=10
			9:leaf=-0.253378868
			10:leaf=0.0884440988
	2:[f4<0.344067335] yes=5,no=6,missing=6
		5:[f3<115.935242] yes=11,no=12,missing=12
			11:leaf=-0.263673991
			12:leaf=0.190452173
		6:[f2<130.873138] yes=13,no=14,missing=14
			13:leaf=0.0329817235
			14:leaf=-0.307124466
booster[12]:
0:[f1<25.3157196] yes=1,no=2,missing=2
	1:[f6<0.252795458] yes=3,no=4,missing=4
		3:[f2<85.2285309] yes=7,no=8,missing=8
			7:leaf=-0.298144311
			8:leaf=-0.138850167
		4:[f2<42.9016609] yes=9,no=10,missing=10
			9:leaf=-0.205642238
			10:leaf=0.0893414989
	2:[f3<96.6127853] yes=5,no=6,missing=6
		5:[f4<0.397068948] yes=11,no=12,missing=12
			11:leaf=-0.228474841
			12:leaf=-0.0456459224
		6:[f2<121.768105] yes=13,no=14,missing=14
			13:leaf=0.0969521031
			14:leaf=-0.242283687
booster[13]:
0:[f1<21.4503002] yes=1,no=2,missing=2
	1:[f6<0.307084948] yes=3,no=4,missing=4
		3:leaf=-0.297563285
		4:[f5<180.439484] yes=7,no=8,missing=8
			7:leaf=0.303247631
			8:leaf=-0.171980202
	2:[f1<93.0388031] yes=5,no=6,missing=6
		5:[f6<0.497641861] yes=9,no=10,missing=10
			9:leaf=-0.123589627
			10:leaf=0.140008301
		6:[f2<135.992096] yes=11,no=12,missing=12
			11:leaf=0.0973762199
			12:leaf=-0.314892501
booster[14]:
0:[f2<67.3655396] yes=1,no=2,missing=2
	1:[f6<0.497641861] yes=3,no=4,missing=4
		3:[f3<115.935242] yes=7,no=8,missing=8
			7:leaf=-0.272176504
			8:leaf=-0.0233989079
		4:[f5<180.439484] yes=9,no=10,missing=10
			9:leaf=0.640474558
			10:leaf=0.132473767
	2:[f4<0.799390852] yes=5,no=6,missing=6
		5:[f6<0.0821979269] yes=11,no=12,missing=12
			11:leaf=-0.0833076909
			12:leaf=0.116157554
		6:[f2<94.8325577] yes=13,no=14,missing=14
			13:leaf=-0.047054939
			14:leaf=-0.229001433
booster[15]:
0:[f1<21.4503002] yes=1,no=2,missing=2
	1:[f6<0.307084948] yes=3,no=4,missing=4
		3:[f3<130.198349] yes=7,no=8,missing=8
			7:leaf=-0.298200816
			8:leaf=-0.218976304
		4:[f1<17.7843227] yes=9,no=10,missing=10
			9:leaf=-0.194045514
			10:leaf=0.20156306
	2:[f4<0.366532356] yes=5,no=6,missing=6
		5:[f6<0.497641861] yes=11,no=12,missing=12
			11:leaf=-0.24687995
			12:leaf=0.061615441
		6:[f2<135.992096] yes=13,no=14,missing=14
			13:leaf=0.0333909318
			14:leaf=-0.303983122
booster[16]:
0:[f1<17.7843227] yes=1,no=2,missing=2
	1:[f6<0.34310317] yes=3,no=4,missing=4
		3:[f1<17.1203308] yes=7,no=8,missing=8
			7:leaf=-0.294854492
			8:leaf=-0.180237517
		4:[f4<0.445572346] yes=9,no=10,missing=10
			9:leaf=0.143433377
			10:leaf=-0.230092272
	2:[f3<114.260666] yes=5,no=6,missing=6
		5:[f4<0.486407608] yes=11,no=12,missing=12
			11:leaf=-0.158656135
			12:leaf=0.0201147106
		6:[f4<0.783155262] yes=13,no=14,missing=14
			13:leaf=0.12921612
			14:leaf=-0.144768611
booster[17]:
0:[f1<17.7843227] yes=1,no=2,missing=2
	1:[f6<0.34310317] yes=3,no=4,missing=4
		3:[f3<130.198349] yes=7,no=8,missing=8
			7:leaf=-0.295059294
			8:leaf=-0.192563549
		4:[f0<456.706238] yes=9,no=10,missing=10
			9:leaf=-0.188910618
			10:leaf=0.189895734
	2:[f6<0.102080472] yes=5,no=6,missing=6
		5:[f2<98.4105453] yes=11,no=12,missing=12
			11:leaf=-0.201521575
			12:leaf=-0.00617821189
		6:[f3<166.365189] yes=13,no=14,missing=14
			13:leaf=0.0406545065
			14:leaf=-0.307524502
booster[18]:
0:[f2<43.4732475] yes=1,no=2,missing=2
	1:[f6<0.34310317] yes=3,no=4,missing=4
		3:[f6<0.307084948] yes=7,no=8,missing=8
			7:leaf=-0.299029499
			8:leaf=-0.141909942
		4:[f0<196.401535] yes=9,no=10,missing=10
			9:leaf=-0.352373749
			10:leaf=0.12526539
	2:[f6<0.0473588333] yes=5,no=6,missing=6
		5:[f2<102.657562] yes=11,no=12,missing=12
			11:leaf=-0.253789067
			12:leaf=-0.0389420725
		6:[f4<0.855781734] yes=13,no=14,missing=14
			13:leaf=0.0322489478
			14:leaf=-0.149606138
booster[19]:
0:[f1<17.7843227] yes=1,no=2,missing=2
	1:[f6<0.176055834] yes=3,no=4,missing=4
		3:[f0<685.510071] yes=7,no=8,missing=8
			7:leaf=-0.294512331
			8:leaf=-0.0709713995
		4:[f1<15.7158709] yes=9,no=10,missing=10
			9:leaf=-0.202134788
			10:leaf=0.109127894
	2:[f4<0.349280089] yes=5,no=6,missing=6
		5:[f1<215.795975] yes=11,no=12,missing=12
			11:leaf=-0.167762846
			12:leaf=0.225197166
		6:[f2<135.992096] yes=13,no=14,missing=14
			13:leaf=0.0219597369
			14:leaf=-0.293160766
booster[20]:
0:[f1<17.1203308] yes=1,no=2,missing=2
	1:[f6<0.34310317] yes=3,no=4,missing=4
		3:[f2<75.0766754] yes=7,no=8,missing=8
			7:leaf=-0.289244354
			8:leaf=-0.10076461
		4:[f4<0.445572346] yes=9,no=10,missing=10
			9:leaf=0.154562697
			10:leaf=-0.173879415
	2:[f1<127.391632] yes=5,no=6,missing=6
		5:[f6<0.149581462] yes=11,no=12,missing=12
			11:leaf=-0.101208575
			12:leaf=0.0131216021
		6:[f2<78.3417206] yes=13,no=14,missing=14
			13:leaf=-0.177428633
			14:leaf=0.1447777
booster[21]:
0:[f2<33.800808] yes=1,no=2,missing=2
	1:[f6<0.795034945] yes=3,no=4,missing=4
		3:[f6<0.34310317] yes=7,no=8,missing=8
			7:leaf=-0.292614162
			8:leaf=-0.145391062
		4:[f0<251.028122] yes=9,no=10,missing=10
			9:leaf=-0.232409447
			10:leaf=0.500822544
	2:[f2<135.992096] yes=5,no=6,missing=6
		5:[f3<114.260666] yes=11,no=12,missing=12
			11:leaf=-0.0331735574
			12:leaf=0.065172933
		6:[f6<0.40116027] yes=13,no=14,missing=14
			13:leaf=-0.293092877
			14:leaf=-0.0922460184
booster[22]:
0:[f1<17.1203308] yes=1,no=2,missing=2
	1:[f6<0.34310317] yes=3,no=4,missing=4
		3:[f2<75.0766754] yes=7,no=8,missing=8
			7:leaf=-0.283105344
			8:leaf=-0.0891245082
		4:[f0<458.412476] yes=9,no=10,missing=10
			9:leaf=-0.129322067
			10:leaf=0.182611674
	2:[f4<0.441141605] yes=5,no=6,missing=6
		5:[f0<523.606506] yes=11,no=12,missing=12
			11:leaf=-0.104189627
			12:leaf=0.373612881
		6:[f0<310.472382] yes=13,no=14,missing=14
			13:leaf=0.0817834809
			14:leaf=-0.0556064323
booster[23]:
0:[f6<0.0473588333] yes=1,no=2,missing=2
	1:[f2<90.3709641] yes=3,no=4,missing=4
		3:leaf=-0.291063219
		4:[f5<10.643857] yes=7,no=8,missing=8
			7:leaf=0.157243192
			8:leaf=-0.0918750167
	2:[f6<0.0478379615] yes=5,no=6,missing=6
		5:[f5<29.8041935] yes=9,no=10,missing=10
			9:leaf=-0.0831656381
			10:leaf=1.38730991
		6:[f5<5.39680958] yes=11,no=12,missing=12
			11:leaf=1.01209033
			12:leaf=-0.00246882462
booster[24]:
0:[f1<104.335007] yes=1,no=2,missing=2
	1:[f4<0.294074148] yes=3,no=4,missing=4
		3:[f5<356.928009] yes=7,no=8,missing=8
			7:leaf=-0.296163648
			8:leaf=0.0441349447
		4:[f6<0.161095038] yes=9,no=10,missing=10
			9:leaf=-0.0687649101
			10:leaf=0.0153405471
	2:[f2<74.3659515] yes=5,no=6,missing=6
		5:[f6<0.40116027] yes=11,no=12,missing=12
			11:leaf=-0.343594313
			12:leaf=0.122338071
		6:[f2<130.873138] yes=13,no=14,missing=14
			13:leaf=0.103927203
			14:leaf=-0.220658749
booster[25]:
0:[f3<166.365189] yes=1,no=2,missing=2
	1:[f3<117.838661] yes=3,no=4,missing=4
		3:[f4<0.495675415] yes=7,no=8,missing=8
			7:leaf=-0.0872216523
			8:leaf=0.0198603328
		4:[f6<0.265724421] yes=9,no=10,missing=10
			9:leaf=0.107374959
			10:leaf=-0.00783114228
	2:[f6<0.18408826] yes=5,no=6,missing=6
		5:[f2<102.657562] yes=11,no=12,missing=12
			11:leaf=0.300982088
			12:leaf=-0.168188184
		6:[f4<0.861180425] yes=13,no=14,missing=14
			13:leaf=-0.427491456
			14:leaf=-0.116104901
booster[26]:
0:[f6<0.40116027] yes=1,no=2,missing=2
	1:[f2<72.9066696] yes=3,no=4,missing=4
		3:[f4<0.538016498] yes=7,no=8,missing=8
			7:leaf=-0.245377451
			8:leaf=0.0522424243
		4:[f2<135.992096] yes=9,no=10,missing=10
			9:leaf=0.0206448287
			10:leaf=-0.281837881
	2:[f2<86.4660339] yes=5,no=6,missing=6
		5:[f3<-111.612892] yes=11,no=12,missing=12
			11:leaf=0.281757206
			12:leaf=0.0661442056
		6:[f5<222.515045] yes=13,no=14,missing=14
			13:leaf=-0.0421423689
			14:leaf=-0.295545727
booster[27]:
0:[f6<0.0599389523] yes=1,no=2,missing=2
	1:[f2<84.1276627] yes=3,no=4,missing=4
		3:leaf=-0.284505308
		4:[f2<85.2285309] yes=7,no=8,missing=8
			7:leaf=0.628635228
			8:leaf=-0.0604611598
	2:[f5<13.0366306] yes=5,no=6,missing=6
		5:[f3<86.7723007] yes=9,no=10,missing=10
			9:leaf=-0.0449954048
			10:leaf=0.731218398
		6:[f1<139.196838] yes=11,no=12,missing=12
			11:leaf=-0.0132548297
			12:leaf=0.0819683075
booster[28]:
0:[f1<15.7158709] yes=1,no=2,missing=2
	1:[f6<0.34310317] yes=3,no=4,missing=4
		3:[f0<619.021545] yes=7,no=8,missing=8
			7:leaf=-0.270095736
			8:leaf=-0.0497252382
		4:[f0<417.776398] yes=9,no=10,missing=10
			9:leaf=-0.19036743
			10:leaf=0.191295803
	2:[f2<135.992096] yes=5,no=6,missing=6
		5:[f0<507.474762] yes=11,no=12,missing=12
			11:leaf=-0.00241826125
			12:leaf=0.139747262
		6:[f5<196.741684] yes=13,no=14,missing=14
			13:leaf=-0.274923831
			14:leaf=-0.0534186997
booster[29]:
0:[f6<0.149581462] yes=1,no=2,missing=2
	1:[f2<98.4105453] yes=3,no=4,missing=4
		3:[f4<0.584694207] yes=7,no=8,missing=8
			7:leaf=-0.215361655
			8:leaf=-0.0354519337
		4:[f4<0.574152887] yes=9,no=10,missing=10
			9:leaf=0.124113448
			10:leaf=-0.0117137311
	2:[f5<105.16745] yes=5,no=6,missing=6
		5:[f4<0.403961003] yes=11,no=12,missing=12
			11:leaf=-0.216788501
			12:leaf=0.16866678
		6:[f2<107.937057] yes=13,no=14,missing=14
			13:leaf=0.0043450119
			14:leaf=-0.261677116
booster[30]:
0:[f1<195.294403] yes=1,no=2,missing=2
	1:[f4<0.294074148] yes=3,no=4,missing=4
		3:[f3<47.3545647] yes=7,no=8,missing=8
			7:leaf=-0.257484108
			8:leaf=-0.00202512951
		4:[f6<0.40116027] yes=9,no=10,missing=10
			9:leaf=-0.0172797851
			10:leaf=0.0563151725
	2:[f0<322.434387] yes=5,no=6,missing=6
		5:[f4<0.424351215] yes=11,no=12,missing=12
			11:leaf=-0.0909525752
			12:leaf=0.126391858
		6:[f2<84.1276627] yes=13,no=14,missing=14
			13:leaf=-0.200763106
			14:leaf=0.298986703
booster[31]:
0:[f2<135.992096] yes=1,no=2,missing=2
	1:[f1<17.1203308] yes=3,no=4,missing=4
		3:[f6<0.34310317] yes=7,no=8,missing=8
			7:leaf=-0.232999936
			8:leaf=0.00023069694
		4:[f5<5.39680958] yes=9,no=10,missing=10
			9:leaf=0.309686303
			10:leaf=0.00167176302
	2:[f5<167.558426] yes=5,no=6,missing=6
		5:leaf=-0.266393274
		6:leaf=-0.0557598062
booster[32]:
0:[f0<125.657173] yes=1,no=2,missing=2
	1:[f6<0.225866035] yes=3,no=4,missing=4
		3:leaf=-0.295242786
		4:[f6<0.795034945] yes=7,no=8,missing=8
			7:leaf=0.110984996
			8:leaf=-0.338044703
	2:[f3<-257.9552] yes=5,no=6,missing=6
		5:[f4<0.600000322] yes=9,no=10,missing=10
			9:leaf=0.182166144
			10:leaf=-0.0391851179
		6:[f6<0.0599389523] yes=11,no=12,missing=12
			11:leaf=-0.0803192705
			12:leaf=0.00508138863
booster[33]:
0:[f0<507.474762] yes=1,no=2,missing=2
	1:[f0<409.685852] yes=3,no=4,missing=4
		3:[f0<406.3685] yes=7,no=8,missing=8
			7:leaf=0.00152615644
			8:leaf=0.364825308
		4:[f2<102.657562] yes=9,no=10,missing=10
			9:leaf=-0.199287042
			10:leaf=0.026125636
	2:[f2<55.7831383] yes=5,no=6,missing=6
		5:[f1<29.0986977] yes=11,no=12,missing=12
			11:leaf=-0.207631111
			12:leaf=1.26179659
		6:[f6<0.196806401] yes=13,no=14,missing=14
			13:leaf=0.0311507303
			14:leaf=-0.266694158
booster[34]:
0:[f2<117.572075] yes=1,no=2,missing=2
	1:[f1<170.95401] yes=3,no=4,missing=4
		3:[f4<0.528073728] yes=7,no=8,missing=8
			7:leaf=-0.0428183377
			8:leaf=0.025254434
		4:[f2<98.4105453] yes=9,no=10,missing=10
			9:leaf=-0.013751721
			10:leaf=0.190144345
	2:[f6<0.165324956] yes=5,no=6,missing=6
		5:[f3<156.901947] yes=11,no=12,missing=12
			11:leaf=-0.00464978628
			12:leaf=-0.219861493
		6:[f5<180.439484] yes=13,no=14,missing=14
			13:leaf=-0.318576694
			14:leaf=0.00262535666
booster[35]:
0:[f4<0.855781734] yes=1,no=2,missing=2
	1:[f4<0.822147727] yes=3,no=4,missing=4
		3:[f4<0.80538857] yes=7,no=8,missing=8
			7:leaf=0.00110589643
			8:leaf=-0.248613432
		4:[f0<361.241333] yes=9,no=10,missing=10
			9:leaf=0.4186562
			10:leaf=-0.210900143
	2:[f3<177.151947] yes=5,no=6,missing=6
		5:[f5<70.6401291] yes=11,no=12,missing=12
			11:leaf=-0.0291004106
			12:leaf=-0.226955757
		6:[f0<349.544342] yes=13,no=14,missing=14
			13:leaf=-0.0706640184
			14:leaf=0.392692268
booster[36]:
0:[f3<206.617981] yes=1,no=2,missing=2
	1:[f6<0.497641861] yes=3,no=4,missing=4
		3:[f4<0.472196519] yes=7,no=8,missing=8
			7:leaf=-0.0770411938
			8:leaf=0.0148185557
		4:[f2<73.6117096] yes=9,no=10,missing=10
			9:leaf=0.097448729
			10:leaf=-0.147347584
	2:[f5<113.802902] yes=5,no=6,missing=6
		5:[f6<0.136944681] yes=11,no=12,missing=12
			11:leaf=-0.216695607
			12:leaf=0.369556725
		6:[f5<356.928009] yes=13,no=14,missing=14
			13:leaf=-0.340842217
			14:leaf=-0.118666537
booster[37]:
0:[f0<125.657173] yes=1,no=2,missing=2
	1:[f6<0.241659313] yes=3,no=4,missing=4
		3:leaf=-0.280798435
		4:[f6<0.795034945] yes=7,no=8,missing=8
			7:leaf=0.0920863077
			8:leaf=-0.30652529
	2:[f2<142.546417] yes=5,no=6,missing=6
		5:[f1<195.294403] yes=9,no=10,missing=10
			9:leaf=-0.00243221736
			10:leaf=0.0961859748
		6:leaf=-0.25476101
booster[38]:
0:[f4<0.996750057] yes=1,no=2,missing=2
	1:[f6<0.0424256735] yes=3,no=4,missing=4
		3:[f2<102.657562] yes=7,no=8,missing=8
			7:leaf=-0.197837368
			8:leaf=0.00509243226
		4:[f5<14.390624] yes=9,no=10,missing=10
			9:leaf=0.239100024
			10:leaf=0.0024580257
	2:[f0<381.747589] yes=5,no=6,missing=6
		5:leaf=-0.247148708
		6:leaf=-0.0102152228
booster[39]:
0:[f1<15.2346115] yes=1,no=2,missing=2
	1:[f0<458.412476] yes=3,no=4,missing=4
		3:leaf=-0.254857749
		4:[f6<0.190081552] yes=7,no=8,missing=8
			7:leaf=-0.119508006
			8:leaf=0.191815704
	2:[f0<507.474762] yes=5,no=6,missing=6
		5:[f0<436.325104] yes=9,no=10,missing=10
			9:leaf=0.00232388382
			10:leaf=-0.1252027
		6:[f2<55.7831383] yes=11,no=12,missing=12
			11:leaf=0.488936603
			12:leaf=-0.0161244776
booster[40]:
0:[f4<0.308006257] yes=1,no=2,missing=2
	1:[f5<126.614479] yes=3,no=4,missing=4
		3:[f2<93.3216629] yes=7,no=8,missing=8
			7:leaf=-0.297904193
			8:leaf=-0.024670681
		4:[f2<84.1276627] yes=9,no=10,missing=10
			9:leaf=-0.0750477836
			10:leaf=0.319509149
	2:[f6<0.795034945] yes=5,no=6,missing=6
		5:[f6<0.497641861] yes=11,no=12,missing=12
			11:leaf=-0.00032234739
			12:leaf=0.106072821
		6:[f3<94.0162506] yes=13,no=14,missing=14
			13:leaf=-0.288452595
			14:leaf=0.0564062707
booster[41]:
0:[f3<-356.549377] yes=1,no=2,missing=2
	1:[f0<184.801773] yes=3,no=4,missing=4
		3:[f0<125.657173] yes=7,no=8,missing=8
			7:leaf=-0.0303110015
			8:leaf=-0.277976304
		4:[f0<348.442841] yes=9,no=10,missing=10
			9:leaf=0.214932531
			10:leaf=-0.0509604216
	2:[f3<117.838661] yes=5,no=6,missing=6
		5:[f6<0.171620995] yes=11,no=12,missing=12
			11:leaf=-0.0623486601
			12:leaf=0.0141139766
		6:[f5<115.783737] yes=13,no=14,missing=14
			13:leaf=0.0721384734
			14:leaf=-0.0463566855
booster[42]:
0:[f2<121.768105] yes=1,no=2,missing=2
	1:[f5<4.36226606] yes=3,no=4,missing=4
		3:[f3<87.8944321] yes=7,no=8,missing=8
			7:leaf=0.621160746
			8:leaf=-0.0658888295
		4:[f1<104.335007] yes=9,no=10,missing=10
			9:leaf=-0.0152769759
			10:leaf=0.0354962088
	2:[f5<63.1832199] yes=5,no=6,missing=6
		5:[f5<50.6303177] yes=11,no=12,missing=12
			11:leaf=-0.0885102451
			12:leaf=0.277030081
		6:[f3<91.4791794] yes=13,no=14,missing=14
			13:leaf=-0.0817606449
			14:leaf=-0.250771672
booster[43]:
0:[f0<201.082962] yes=1,no=2,missing=2
	1:[f4<0.393536001] yes=3,no=4,missing=4
		3:[f3<109.195007] yes=7,no=8,missing=8
			7:leaf=-0.146042123
			8:leaf=-0.615609467
		4:[f6<0.34310317] yes=9,no=10,missing=10
			9:leaf=-0.0741452873
			10:leaf=0.0653800294
	2:[f2<22.9825249] yes=5,no=6,missing=6
		5:leaf=0.387683064
		6:[f4<0.286506236] yes=11,no=12,missing=12
			11:leaf=-0.109683499
			12:leaf=0.0102157909
booster[44]:
0:[f3<166.365189] yes=1,no=2,missing=2
	1:[f4<0.967360079] yes=3,no=4,missing=4
		3:[f4<0.690777838] yes=7,no=8,missing=8
			7:leaf=-0.00854922179
			8:leaf=0.0589307658
		4:[f6<0.0424256735] yes=9,no=10,missing=10
			9:leaf=0.00594278192
			10:leaf=-0.227535829
	2:[f4<0.944057882] yes=5,no=6,missing=6
		5:[f5<30.0735474] yes=11,no=12,missing=12
			11:leaf=0.296527058
			12:leaf=-0.192736909
		6:[f2<89.1315231] yes=13,no=14,missing=14
			13:leaf=0.883546054
			14:leaf=0.00737666059
booster[45]:
0:[f6<0.115389951] yes=1,no=2,missing=2
	1:[f0<483.439819] yes=3,no=4,missing=4
		3:[f2<84.1276627] yes=7,no=8,missing=8
			7:leaf=-0.194056705
			8:leaf=-0.0174811631
		4:[f2<49.1916695] yes=9,no=10,missing=10
			9:leaf=0.756953895
			10:leaf=0.0654969513
	2:[f5<105.16745] yes=5,no=6,missing=6
		5:[f3<96.6127853] yes=11,no=12,missing=12
			11:leaf=-0.025517771
			12:leaf=0.127432019
		6:[f2<98.4105453] yes=13,no=14,missing=14
			13:leaf=0.00126458879
			14:leaf=-0.119075119
booster[46]:
0:[f1<127.391632] yes=1,no=2,missing=2
	1:[f4<0.294074148] yes=3,no=4,missing=4
		3:[f2<23.1504822] yes=7,no=8,missing=8
			7:leaf=0.252832681
			8:leaf=-0.190276861
		4:[f4<0.295760572] yes=9,no=10,missing=10
			9:leaf=0.534237325
			10:leaf=-0.00754504977
	2:[f3<62.0322189] yes=5,no=6,missing=6
		5:[f2<121.768105] yes=11,no=12,missing=12
			11:leaf=0.1610291
			12:leaf=-0.268051714
		6:[f2<81.0739822] yes=13,no=14,missing=14
			13:leaf=-0.166104794
			14:leaf=0.0310729202
booster[47]:
0:[f6<0.40116027] yes=1,no=2,missing=2
	1:[f4<0.533397555] yes=3,no=4,missing=4
		3:[f2<84.1276627] yes=7,no=8,missing=8
			7:leaf=-0.162290707
			8:leaf=0.0227440093
		4:[f0<328.833527] yes=9,no=10,missing=10
			9:leaf=0.0521541275
			10:leaf=-0.0359758921
	2:[f4<0.558311999] yes=5,no=6,missing=6
		5:[f5<196.741684] yes=11,no=12,missing=12
			11:leaf=0.229969159
			12:leaf=0.0537606142
		6:[f0<230.834671] yes=13,no=14,missing=14
			13:leaf=-0.0107376566
			14:leaf=-0.244477853
booster[48]:
0:[f0<507.474762] yes=1,no=2,missing=2
	1:[f1<26.192131] yes=3,no=4,missing=4
		3:[f5<75.0667496] yes=7,no=8,missing=8
			7:leaf=-0.188475147
			8:leaf=0.165705666
		4:[f2<65.7263184] yes=9,no=10,missing=10
			9:leaf=-0.0637896508
			10:leaf=0.00188319536
	2:[f2<55.7831383] yes=5,no=6,missing=6
		5:[f4<0.32912454] yes=11,no=12,missing=12
			11:leaf=-0.0791349933
			12:leaf=1.03025222
		6:[f3<146.195877] yes=13,no=14,missing=14
			13:leaf=-0.0925132185
			14:leaf=0.150146365
booster[49]:
0:[f6<0.167303473] yes=1,no=2,missing=2
	1:[f1<30.8653774] yes=3,no=4,missing=4
		3:[f3<194.068359] yes=7,no=8,missing=8
			7:leaf=-0.182913274
			8:leaf=0.123257987
		4:[f1<31.3849831] yes=9,no=10,missing=10
			9:leaf=0.526311696
			10:leaf=-0.0135926399
	2:[f5<105.16745] yes=5,no=6,missing=6
		5:[f1<27.545042] yes=11,no=12,missing=12
			11:leaf=0.528150856
			12:leaf=0.0591231212
		6:[f4<0.574152887] yes=13,no=14,missing=14
			13:leaf=0.0226276573
			14:leaf=-0.0625127032
