booster[0]:
0:[f3<107.700157] yes=1,no=2,missing=2
	1:[f2<94.6289825] yes=3,no=4,missing=4
		3:[f4<0.474970043] yes=7,no=8,missing=8
			7:[f3<99.1798706] yes=15,no=16,missing=16
				15:[f5<440.8284] yes=31,no=32,missing=32
					31:[f7<0.478729337] yes=57,no=58,missing=58
						57:leaf=-0.0621386766
						58:leaf=-0.0911777169
					32:[f2<41.4090576] yes=59,no=60,missing=60
						59:leaf=-0.0507518053
						60:leaf=0.000684177969
				16:[f8<0.840393066] yes=33,no=34,missing=34
					33:[f7<0.411243349] yes=61,no=62,missing=62
						61:leaf=-0.013562806
						62:leaf=-0.0766957179
					34:[f8<1.05303371] yes=63,no=64,missing=64
						63:leaf=-0.0144157382
						64:leaf=0.0347970389
			8:[f7<0.658594251] yes=17,no=18,missing=18
				17:[f2<72.0221786] yes=35,no=36,missing=36
					35:[f4<0.667523265] yes=65,no=66,missing=66
						65:leaf=-0.0509949587
						66:leaf=0.0116502838
					36:[f3<87.3432617] yes=67,no=68,missing=68
						67:leaf=-0.00464312825
						68:leaf=0.0559350252
				18:[f3<101.096649] yes=37,no=38,missing=38
					37:[f4<0.684972823] yes=69,no=70,missing=70
						69:leaf=-0.0667235479
						70:leaf=-0.0318776518
					38:[f8<0.739617825] yes=71,no=72,missing=72
						71:leaf=-0.0321856774
						72:leaf=0.019817723
		4:[f2<102.960106] yes=9,no=10,missing=10
			9:[f9<0.0943992808] yes=19,no=20,missing=20
				19:[f0<244.54277] yes=39,no=40,missing=40
					39:leaf=-0.0123248799
					40:leaf=-0.0733231977
				20:[f6<0.0934206247] yes=41,no=42,missing=42
					41:[f2<98.8694077] yes=73,no=74,missing=74
						73:leaf=-0.00175076385
						74:leaf=0.0365472883
					42:leaf=0.0714164823
			10:[f4<0.429898322] yes=21,no=22,missing=22
				21:leaf=0.0209224429
				22:leaf=0.077021651
	2:[f4<0.406069875] yes=5,no=6,missing=6
		5:[f3<131.647507] yes=11,no=12,missing=12
			11:[f1<202.660233] yes=23,no=24,missing=24
				23:[f5<440.8284] yes=43,no=44,missing=44
					43:[f3<116.631302] yes=75,no=76,missing=76
						75:leaf=-0.060525775
						76:leaf=-0.0292499363
					44:[f3<115.866074] yes=77,no=78,missing=78
						77:leaf=-0.0230392721
						78:leaf=0.0355504416
				24:[f8<0.58763051] yes=45,no=46,missing=46
					45:leaf=0.00933388155
					46:leaf=0.0646269843
			12:[f3<139.595734] yes=25,no=26,missing=26
				25:[f4<0.355611891] yes=47,no=48,missing=48
					47:[f5<334.072174] yes=79,no=80,missing=80
						79:leaf=0.0151474206
						80:leaf=0.0478254668
					48:[f8<0.272031784] yes=81,no=82,missing=82
						81:leaf=0.0241298247
						82:leaf=-0.00523132784
				26:[f5<209.130737] yes=49,no=50,missing=50
					49:leaf=-0.000410128705
					50:[f5<586.187134] yes=83,no=84,missing=84
						83:leaf=0.0733822733
						84:leaf=0.0235388763
		6:[f1<55.0911522] yes=13,no=14,missing=14
			13:[f2<77.3102188] yes=27,no=28,missing=28
				27:[f6<0.238814577] yes=51,no=52,missing=52
					51:[f2<75.0909424] yes=85,no=86,missing=86
						85:leaf=-0.0383333638
						86:leaf=0.00459454721
					52:[f1<19.106142] yes=87,no=88,missing=88
						87:leaf=-0.0264887419
						88:leaf=0.0252569374
				28:[f9<0.185448974] yes=53,no=54,missing=54
					53:[f2<98.0351715] yes=89,no=90,missing=90
						89:leaf=-0.0457046852
						90:leaf=0.0413838029
					54:[f3<115.510208] yes=91,no=92,missing=92
						91:leaf=0.00362696289
						92:leaf=0.0609276108
			14:[f2<139.200943] yes=29,no=30,missing=30
				29:[f1<87.7357559] yes=55,no=56,missing=56
					55:[f3<118.633324] yes=93,no=94,missing=94
						93:leaf=0.0282421708
						94:leaf=0.071684584
					56:[f3<170.333878] yes=95,no=96,missing=96
						95:leaf=0.0856982693
						96:leaf=-0.00515425019
				30:leaf=-0.0705426857
booster[1]:
0:[f3<107.700157] yes=1,no=2,missing=2
	1:[f2<94.6289825] yes=3,no=4,missing=4
		3:[f4<0.481865764] yes=7,no=8,missing=8
			7:[f3<99.1798706] yes=15,no=16,missing=16
				15:[f7<0.566076696] yes=31,no=32,missing=32
					31:[f2<71.8333969] yes=59,no=60,missing=60
						59:leaf=-0.0724502802
						60:leaf=0.0209496226
					32:[f7<1.93513072] yes=61,no=62,missing=62
						61:leaf=-0.0877468958
						62:leaf=-0.0229598451
				16:[f8<0.915558636] yes=33,no=34,missing=34
					33:[f8<0.734539509] yes=63,no=64,missing=64
						63:leaf=-0.0726892054
						64:leaf=-0.0276868977
					34:[f8<1.05303371] yes=65,no=66,missing=66
						65:leaf=-0.00815835688
						66:leaf=0.0349729098
			8:[f7<0.658594251] yes=17,no=18,missing=18
				17:[f2<72.0221786] yes=35,no=36,missing=36
					35:[f7<0.491799682] yes=67,no=68,missing=68
						67:leaf=0.00507007353
						68:leaf=-0.0519269295
					36:[f6<0.250112027] yes=69,no=70,missing=70
						69:leaf=-0.0029945951
						70:leaf=0.0540739074
				18:[f3<101.096649] yes=37,no=38,missing=38
					37:[f0<140.295425] yes=71,no=72,missing=72
						71:leaf=0.00379700027
						72:leaf=-0.0588891692
					38:[f8<0.776108146] yes=73,no=74,missing=74
						73:leaf=-0.0300544798
						74:leaf=0.0242255405
		4:[f2<101.300476] yes=9,no=10,missing=10
			9:[f9<0.0943992808] yes=19,no=20,missing=20
				19:[f0<244.54277] yes=39,no=40,missing=40
					39:leaf=-0.0123880086
					40:leaf=-0.0693777502
				20:[f6<0.0934206247] yes=41,no=42,missing=42
					41:[f3<101.532097] yes=75,no=76,missing=76
						75:leaf=-0.0121597592
						76:leaf=0.0169368219
					42:leaf=0.0675636455
			10:[f3<87.1512146] yes=21,no=22,missing=22
				21:leaf=0.00853218697
				22:[f4<0.425937414] yes=43,no=44,missing=44
					43:leaf=0.0167017393
					44:leaf=0.0737273097
	2:[f4<0.406069875] yes=5,no=6,missing=6
		5:[f3<131.647507] yes=11,no=12,missing=12
			11:[f1<197.268982] yes=23,no=24,missing=24
				23:[f5<318.683838] yes=45,no=46,missing=46
					45:[f8<0.710303128] yes=77,no=78,missing=78
						77:leaf=-0.0545904599
						78:leaf=-0.00215114839
					46:[f9<1.09637594] yes=79,no=80,missing=80
						79:leaf=0.0372026972
						80:leaf=-0.0252529662
				24:[f1<227.655502] yes=47,no=48,missing=48
					47:[f8<0.705481887] yes=81,no=82,missing=82
						81:leaf=-0.0132189533
						82:leaf=0.0371575467
					48:leaf=0.0667981729
			12:[f3<139.595734] yes=25,no=26,missing=26
				25:[f4<0.355611891] yes=49,no=50,missing=50
					49:[f5<334.072174] yes=83,no=84,missing=84
						83:leaf=0.0146459257
						84:leaf=0.046061229
					50:[f8<0.272031784] yes=85,no=86,missing=86
						85:leaf=0.0234568883
						86:leaf=-0.00503095891
				26:[f5<209.130737] yes=51,no=52,missing=52
					51:leaf=-0.000399662094
					52:[f5<586.187134] yes=87,no=88,missing=88
						87:leaf=0.0699927956
						88:leaf=0.0228581801
		6:[f1<55.0911522] yes=13,no=14,missing=14
			13:[f3<120.409882] yes=27,no=28,missing=28
				27:[f8<0.58763051] yes=53,no=54,missing=54
					53:[f6<0.219340965] yes=89,no=90,missing=90
						89:leaf=-0.0458255559
						90:leaf=-0.00968266185
					54:[f7<0.823956192] yes=91,no=92,missing=92
						91:leaf=0.043734774
						92:leaf=-0.00285632559
				28:[f2<77.3102188] yes=55,no=56,missing=56
					55:[f6<0.279105872] yes=93,no=94,missing=94
						93:leaf=-0.021793412
						94:leaf=0.0321469381
					56:[f9<0.185448974] yes=95,no=96,missing=96
						95:leaf=0.0145148458
						96:leaf=0.0592901371
			14:[f2<139.200943] yes=29,no=30,missing=30
				29:[f3<114.409203] yes=57,no=58,missing=58
					57:[f8<0.618072689] yes=97,no=98,missing=98
						97:leaf=0.000640459883
						98:leaf=0.0717155561
					58:[f3<170.333878] yes=99,no=100,missing=100
						99:leaf=0.0795103535
						100:leaf=0.0156258792
				30:leaf=-0.068052195
booster[2]:
0:[f3<105.583023] yes=1,no=2,missing=2
	1:[f2<98.0351715] yes=3,no=4,missing=4
		3:[f4<0.509557188] yes=7,no=8,missing=8
			7:[f4<0.444179237] yes=15,no=16,missing=16
				15:[f5<440.8284] yes=27,no=28,missing=28
					27:leaf=-0.0809011087
					28:[f4<0.29699108] yes=49,no=50,missing=50
						49:leaf=-0.0457544737
						50:leaf=-0.00685014576
				16:[f5<172.036621] yes=29,no=30,missing=30
					29:[f2<89.1015244] yes=51,no=52,missing=52
						51:leaf=-0.0749869347
						52:leaf=-0.0206157546
					30:[f2<65.47435] yes=53,no=54,missing=54
						53:leaf=-0.0419957452
						54:leaf=0.0321857594
			8:[f7<0.658594251] yes=17,no=18,missing=18
				17:[f2<72.0221786] yes=31,no=32,missing=32
					31:[f7<0.491799682] yes=55,no=56,missing=56
						55:leaf=0.0147702564
						56:leaf=-0.043295119
					32:[f3<87.3432617] yes=57,no=58,missing=58
						57:leaf=0.00102013908
						58:leaf=0.0551897772
				18:[f2<90.9684372] yes=33,no=34,missing=34
					33:[f0<140.295425] yes=59,no=60,missing=60
						59:leaf=0.00770697324
						60:leaf=-0.0516625121
					34:[f7<0.857615709] yes=61,no=62,missing=62
						61:leaf=0.0486161001
						62:leaf=-0.0417452157
		4:[f2<105.23893] yes=9,no=10,missing=10
			9:[f9<0.127856925] yes=19,no=20,missing=20
				19:[f4<0.499867439] yes=35,no=36,missing=36
					35:leaf=-0.054628998
					36:[f4<0.603633702] yes=63,no=64,missing=64
						63:leaf=-0.00246425928
						64:leaf=-0.0263482165
				20:leaf=0.0576098934
			10:leaf=0.0692054853
	2:[f2<77.3102188] yes=5,no=6,missing=6
		5:[f3<119.942909] yes=11,no=12,missing=12
			11:[f4<0.434054941] yes=21,no=22,missing=22
				21:[f5<322.106171] yes=37,no=38,missing=38
					37:[f7<0.503542244] yes=65,no=66,missing=66
						65:leaf=-0.002346728
						66:leaf=-0.0602707267
					38:[f9<1.23890638] yes=67,no=68,missing=68
						67:leaf=0.0124524496
						68:leaf=-0.0539539121
				22:[f1<81.8204498] yes=39,no=40,missing=40
					39:[f8<0.576094151] yes=69,no=70,missing=70
						69:leaf=-0.0181498434
						70:leaf=0.029877279
					40:[f6<0.324542642] yes=71,no=72,missing=72
						71:leaf=-0.0035856117
						72:leaf=0.0506865568
			12:[f6<0.312216491] yes=23,no=24,missing=24
				23:[f0<263.146545] yes=41,no=42,missing=42
					41:[f2<72.4290848] yes=73,no=74,missing=74
						73:leaf=-0.00377116515
						74:leaf=0.0335482694
					42:[f7<1.15274036] yes=75,no=76,missing=76
						75:leaf=-0.0109367603
						76:leaf=-0.0398921035
				24:[f4<0.398870468] yes=43,no=44,missing=44
					43:[f3<134.450623] yes=77,no=78,missing=78
						77:leaf=-0.00754773011
						78:leaf=0.0528883152
					44:[f1<50.3034401] yes=79,no=80,missing=80
						79:leaf=0.0272847842
						80:leaf=0.0705708638
		6:[f2<139.200943] yes=13,no=14,missing=14
			13:[f4<0.406069875] yes=25,no=26,missing=26
				25:[f5<256.326965] yes=45,no=46,missing=46
					45:[f2<98.8694077] yes=81,no=82,missing=82
						81:leaf=-0.021989001
						82:leaf=0.0598290972
					46:[f9<1.32579136] yes=83,no=84,missing=84
						83:leaf=0.0662603527
						84:leaf=0.0183692258
				26:[f1<75.93013] yes=47,no=48,missing=48
					47:[f9<0.491282165] yes=85,no=86,missing=86
						85:leaf=0.0220303368
						86:leaf=0.0585409775
					48:[f3<170.333878] yes=87,no=88,missing=88
						87:leaf=0.078228578
						88:leaf=-0.00717647327
			14:leaf=-0.0648656413
booster[3]:
0:[f3<110.245911] yes=1,no=2,missing=2
	1:[f2<94.6289825] yes=3,no=4,missing=4
		3:[f4<0.46083653] yes=7,no=8,missing=8
			7:[f3<99.367363] yes=15,no=16,missing=16
				15:[f7<1.93513072] yes=31,no=32,missing=32
					31:leaf=-0.0791251808
					32:leaf=-0.0195568111
				16:[f8<0.979650676] yes=33,no=34,missing=34
					33:[f4<0.441328645] yes=59,no=60,missing=60
						59:leaf=-0.0661767125
						60:leaf=-0.0203014556
					34:leaf=0.0239275619
			8:[f7<0.680445313] yes=17,no=18,missing=18
				17:[f2<77.5506058] yes=35,no=36,missing=36
					35:[f7<0.491799682] yes=61,no=62,missing=62
						61:leaf=0.0189029258
						62:leaf=-0.0417591259
					36:[f6<0.212999538] yes=63,no=64,missing=64
						63:leaf=0.00812341459
						64:leaf=0.0642215759
				18:[f3<101.096649] yes=37,no=38,missing=38
					37:[f4<0.656359136] yes=65,no=66,missing=66
						65:leaf=-0.0620157197
						66:leaf=-0.0284748673
					38:[f8<0.576094151] yes=67,no=68,missing=68
						67:leaf=-0.0381110497
						68:leaf=0.00226529664
		4:[f3<86.758461] yes=9,no=10,missing=10
			9:[f9<-0.37567693] yes=19,no=20,missing=20
				19:[f5<110.95134] yes=39,no=40,missing=40
					39:leaf=-0.0550007597
					40:leaf=-0.00573376892
				20:leaf=0.00914245378
			10:[f4<0.406069875] yes=21,no=22,missing=22
				21:[f8<1.27993596] yes=41,no=42,missing=42
					41:leaf=-0.0409248844
					42:leaf=0.0309493337
				22:[f7<1.02406812] yes=43,no=44,missing=44
					43:leaf=0.0689297542
					44:[f2<105.23893] yes=69,no=70,missing=70
						69:leaf=-0.00159765314
						70:leaf=0.0551180504
	2:[f4<0.402831972] yes=5,no=6,missing=6
		5:[f3<131.647507] yes=11,no=12,missing=12
			11:[f1<205.82431] yes=23,no=24,missing=24
				23:[f5<385.319641] yes=45,no=46,missing=46
					45:[f8<0.765614212] yes=71,no=72,missing=72
						71:leaf=-0.0424003005
						72:leaf=0.0129768616
					46:[f7<0.788456142] yes=73,no=74,missing=74
						73:leaf=-0.00856093876
						74:leaf=0.0506140888
				24:[f1<221.844055] yes=47,no=48,missing=48
					47:leaf=0.0102027804
					48:leaf=0.0611816123
			12:[f3<139.595734] yes=25,no=26,missing=26
				25:[f4<0.355611891] yes=49,no=50,missing=50
					49:[f5<334.072174] yes=75,no=76,missing=76
						75:leaf=0.013511925
						76:leaf=0.043172162
					50:[f8<0.272031784] yes=77,no=78,missing=78
						77:leaf=0.0229269862
						78:leaf=-0.00855215546
				26:[f5<212.31633] yes=51,no=52,missing=52
					51:leaf=0.0036487754
					52:[f5<586.187134] yes=79,no=80,missing=80
						79:leaf=0.0650890842
						80:leaf=0.0208119657
		6:[f1<55.0911522] yes=13,no=14,missing=14
			13:[f2<75.0909424] yes=27,no=28,missing=28
				27:[f6<0.279105872] yes=53,no=54,missing=54
					53:[f7<1.19715059] yes=81,no=82,missing=82
						81:leaf=-0.0154966703
						82:leaf=-0.0539723411
					54:[f3<121.343758] yes=83,no=84,missing=84
						83:leaf=-0.00528711407
						84:leaf=0.0292503871
				28:[f9<0.185448974] yes=55,no=56,missing=56
					55:[f2<98.0351715] yes=85,no=86,missing=86
						85:leaf=-0.046921432
						86:leaf=0.0404819213
					56:[f2<89.7122498] yes=87,no=88,missing=88
						87:leaf=0.0346310958
						88:leaf=0.0628996417
			14:[f2<139.200943] yes=29,no=30,missing=30
				29:[f1<81.8204498] yes=57,no=58,missing=58
					57:[f3<118.633324] yes=89,no=90,missing=90
						89:leaf=0.0200840756
						90:leaf=0.0605139509
					58:[f3<170.333878] yes=91,no=92,missing=92
						91:leaf=0.0756453648
						92:leaf=-0.00617773784
				30:leaf=-0.0636667758
booster[4]:
0:[f3<105.583023] yes=1,no=2,missing=2
	1:[f2<100.024879] yes=3,no=4,missing=4
		3:[f4<0.509557188] yes=7,no=8,missing=8
			7:[f4<0.404891551] yes=15,no=16,missing=16
				15:[f5<440.8284] yes=27,no=28,missing=28
					27:leaf=-0.077193886
					28:[f2<41.8619461] yes=49,no=50,missing=50
						49:leaf=-0.0424658656
						50:leaf=-0.00366653246
				16:[f7<0.491799682] yes=29,no=30,missing=30
					29:[f0<201.010422] yes=51,no=52,missing=52
						51:leaf=-0.0428829677
						52:leaf=0.0257908255
					30:[f2<92.175621] yes=53,no=54,missing=54
						53:leaf=-0.0666843876
						54:leaf=-0.0140664726
			8:[f7<0.826980054] yes=17,no=18,missing=18
				17:[f2<79.2493134] yes=31,no=32,missing=32
					31:[f7<0.491799682] yes=55,no=56,missing=56
						55:leaf=0.0258571152
						56:leaf=-0.0433025658
					32:[f6<0.130239218] yes=57,no=58,missing=58
						57:leaf=0.00674258871
						58:leaf=0.0519244857
				18:[f0<148.647797] yes=33,no=34,missing=34
					33:leaf=0.0157271884
					34:[f7<1.67315614] yes=59,no=60,missing=60
						59:leaf=-0.0540714227
						60:leaf=0.000253407343
		4:[f4<0.45480752] yes=9,no=10,missing=10
			9:leaf=-0.00855376478
			10:[f3<86.9574966] yes=19,no=20,missing=20
				19:leaf=0.00888598617
				20:[f8<0.886427701] yes=35,no=36,missing=36
					35:leaf=0.0195679534
					36:leaf=0.0640736222
	2:[f2<77.3102188] yes=5,no=6,missing=6
		5:[f3<121.783577] yes=11,no=12,missing=12
			11:[f4<0.40740633] yes=21,no=22,missing=22
				21:[f7<1.32814395] yes=37,no=38,missing=38
					37:[f5<440.8284] yes=61,no=62,missing=62
						61:leaf=-0.0529537275
						62:leaf=0.00346913305
					38:[f9<0.693367839] yes=63,no=64,missing=64
						63:leaf=-0.0226924866
						64:leaf=0.0367575251
				22:[f0<231.173904] yes=39,no=40,missing=40
					39:[f3<112.076416] yes=65,no=66,missing=66
						65:leaf=0.00579386996
						66:leaf=0.0437494516
					40:[f8<0.547522545] yes=67,no=68,missing=68
						67:leaf=-0.0222143661
						68:leaf=0.0220229793
			12:[f6<0.295480907] yes=23,no=24,missing=24
				23:[f0<263.146545] yes=41,no=42,missing=42
					41:[f8<0.291545957] yes=69,no=70,missing=70
						69:leaf=0.00186921901
						70:leaf=0.0274417643
					42:[f1<43.3293533] yes=71,no=72,missing=72
						71:leaf=-0.0303754043
						72:leaf=-0.00109219446
				24:[f4<0.404891551] yes=43,no=44,missing=44
					43:[f5<318.683838] yes=73,no=74,missing=74
						73:leaf=-0.0201204699
						74:leaf=0.0369151123
					44:[f1<50.8078384] yes=75,no=76,missing=76
						75:leaf=0.0258117914
						76:leaf=0.0661726594
		6:[f2<139.200943] yes=13,no=14,missing=14
			13:[f4<0.406069875] yes=25,no=26,missing=26
				25:[f5<256.326965] yes=45,no=46,missing=46
					45:[f2<98.8694077] yes=77,no=78,missing=78
						77:leaf=-0.0203389153
						78:leaf=0.0559969246
					46:[f0<264.844025] yes=79,no=80,missing=80
						79:leaf=0.0114409365
						80:leaf=0.0606102906
				26:[f1<70.1664886] yes=47,no=48,missing=48
					47:[f3<120.873077] yes=81,no=82,missing=82
						81:leaf=0.0162559804
						82:leaf=0.0520300828
					48:[f3<170.333878] yes=83,no=84,missing=84
						83:leaf=0.0714095235
						84:leaf=-0.00756470952
			14:leaf=-0.060880132
booster[5]:
0:[f3<110.245911] yes=1,no=2,missing=2
	1:[f2<94.6289825] yes=3,no=4,missing=4
		3:[f4<0.46083653] yes=7,no=8,missing=8
			7:[f3<99.367363] yes=15,no=16,missing=16
				15:[f7<1.93513072] yes=31,no=32,missing=32
					31:[f8<1.27993596] yes=55,no=56,missing=56
						55:leaf=-0.0755551606
						56:leaf=-0.0552730933
					32:leaf=-0.0174305867
				16:[f8<0.979650676] yes=33,no=34,missing=34
					33:[f4<0.441328645] yes=57,no=58,missing=58
						57:leaf=-0.0612286814
						58:leaf=-0.0183479264
					34:leaf=0.0242181551
			8:[f7<0.680445313] yes=17,no=18,missing=18
				17:[f2<77.5506058] yes=35,no=36,missing=36
					35:[f7<0.491799682] yes=59,no=60,missing=60
						59:leaf=0.0175546557
						60:leaf=-0.0379464328
					36:[f6<0.212999538] yes=61,no=62,missing=62
						61:leaf=0.00714938343
						62:leaf=0.0607102476
				18:[f3<101.096649] yes=37,no=38,missing=38
					37:[f4<0.656359136] yes=63,no=64,missing=64
						63:leaf=-0.0573726855
						64:leaf=-0.0257510673
					38:[f8<0.576094151] yes=65,no=66,missing=66
						65:leaf=-0.0354886502
						66:leaf=0.0021930947
		4:[f9<-0.0397998802] yes=9,no=10,missing=10
			9:[f2<105.23893] yes=19,no=20,missing=20
				19:[f0<244.54277] yes=39,no=40,missing=40
					39:leaf=-0.0102864169
					40:[f3<100.874382] yes=67,no=68,missing=68
						67:leaf=-0.0586242676
						68:leaf=-0.0107234241
				20:leaf=0.0547263399
			10:[f4<0.406069875] yes=21,no=22,missing=22
				21:leaf=0.00982691627
				22:leaf=0.0636767372
	2:[f4<0.402831972] yes=5,no=6,missing=6
		5:[f3<131.647507] yes=11,no=12,missing=12
			11:[f1<205.82431] yes=23,no=24,missing=24
				23:[f5<385.319641] yes=41,no=42,missing=42
					41:[f8<0.765614212] yes=69,no=70,missing=70
						69:leaf=-0.0391673967
						70:leaf=0.0124407131
					42:[f7<0.788456142] yes=71,no=72,missing=72
						71:leaf=-0.00862137973
						72:leaf=0.0484557673
				24:[f1<227.655502] yes=43,no=44,missing=44
					43:leaf=0.0132046193
					44:leaf=0.0594973229
			12:[f3<139.595734] yes=25,no=26,missing=26
				25:[f8<0.272031784] yes=45,no=46,missing=46
					45:[f6<0.638661802] yes=73,no=74,missing=74
						73:leaf=0.006255263
						74:leaf=0.046248924
					46:[f1<217.061584] yes=75,no=76,missing=76
						75:leaf=-0.00619215984
						76:leaf=0.0389432497
				26:[f5<212.31633] yes=47,no=48,missing=48
					47:leaf=0.00346704316
					48:[f5<586.187134] yes=77,no=78,missing=78
						77:leaf=0.0607468151
						78:leaf=0.019193856
		6:[f1<54.00811] yes=13,no=14,missing=14
			13:[f2<89.7122498] yes=27,no=28,missing=28
				27:[f9<0.506231427] yes=49,no=50,missing=50
					49:leaf=-0.0451670624
					50:[f1<19.106142] yes=79,no=80,missing=80
						79:leaf=-0.0349126346
						80:leaf=0.0219857953
				28:[f9<-0.114851728] yes=51,no=52,missing=52
					51:leaf=0.00183346996
					52:[f5<29.3611889] yes=81,no=82,missing=82
						81:leaf=0.0174217131
						82:leaf=0.0597352646
			14:[f2<139.200943] yes=29,no=30,missing=30
				29:[f1<85.3524323] yes=53,no=54,missing=54
					53:[f3<118.633324] yes=83,no=84,missing=84
						83:leaf=0.020891441
						84:leaf=0.0561199747
					54:[f3<170.333878] yes=85,no=86,missing=86
						85:leaf=0.070546113
						86:leaf=-0.00542654982
				30:leaf=-0.0599435233
booster[6]:
0:[f3<107.700157] yes=1,no=2,missing=2
	1:[f2<100.024879] yes=3,no=4,missing=4
		3:[f4<0.474970043] yes=7,no=8,missing=8
			7:[f7<0.625926554] yes=15,no=16,missing=16
				15:[f2<75.7438812] yes=27,no=28,missing=28
					27:[f4<0.451552391] yes=49,no=50,missing=50
						49:leaf=-0.0615129285
						50:leaf=-0.0182015244
					28:[f2<83.5508804] yes=51,no=52,missing=52
						51:leaf=0.00777175277
						52:leaf=0.0396265201
				16:[f3<98.1646347] yes=29,no=30,missing=30
					29:leaf=-0.0733301789
					30:[f8<0.908243418] yes=53,no=54,missing=54
						53:leaf=-0.0614685677
						54:leaf=0.0130070914
			8:[f7<0.826980054] yes=17,no=18,missing=18
				17:[f2<79.2493134] yes=31,no=32,missing=32
					31:[f5<149.765137] yes=55,no=56,missing=56
						55:leaf=-0.052058734
						56:leaf=-0.0111614829
					32:[f3<80.8966827] yes=57,no=58,missing=58
						57:leaf=-0.0155674489
						58:leaf=0.0473830514
				18:[f6<0.281157017] yes=33,no=34,missing=34
					33:[f0<140.295425] yes=59,no=60,missing=60
						59:leaf=0.0172889289
						60:leaf=-0.0497518554
					34:[f7<1.32814395] yes=61,no=62,missing=62
						61:leaf=-0.0161752813
						62:leaf=0.0370064564
		4:[f3<86.758461] yes=9,no=10,missing=10
			9:leaf=-0.00934335962
			10:[f4<0.427085608] yes=19,no=20,missing=20
				19:leaf=0.0100927772
				20:[f8<0.886427701] yes=35,no=36,missing=36
					35:leaf=0.0217766427
					36:leaf=0.0625372827
	2:[f2<79.7108612] yes=5,no=6,missing=6
		5:[f3<121.783577] yes=11,no=12,missing=12
			11:[f4<0.409784496] yes=21,no=22,missing=22
				21:[f8<0.20728223] yes=37,no=38,missing=38
					37:[f3<117.386452] yes=63,no=64,missing=64
						63:leaf=-0.0189156644
						64:leaf=0.0235521253
					38:[f8<0.530017138] yes=65,no=66,missing=66
						65:leaf=-0.0526776873
						66:leaf=-0.00374541967
				22:[f0<231.173904] yes=39,no=40,missing=40
					39:[f2<58.0978775] yes=67,no=68,missing=68
						67:leaf=-0.000414206239
						68:leaf=0.0406634882
					40:[f8<0.547522545] yes=69,no=70,missing=70
						69:leaf=-0.0217133891
						70:leaf=0.0248873234
			12:[f6<0.312216491] yes=23,no=24,missing=24
				23:[f9<0.746851206] yes=41,no=42,missing=42
					41:[f2<75.0909424] yes=71,no=72,missing=72
						71:leaf=-0.0348172374
						72:leaf=-0.00213597505
					42:[f1<34.692688] yes=73,no=74,missing=74
						73:leaf=-0.0106826127
						74:leaf=0.0288812909
				24:[f4<0.404891551] yes=43,no=44,missing=44
					43:[f3<136.74791] yes=75,no=76,missing=76
						75:leaf=-0.000305689609
						76:leaf=0.0480167121
					44:[f1<50.8078384] yes=77,no=78,missing=78
						77:leaf=0.024745645
						78:leaf=0.063127175
		6:[f2<139.200943] yes=13,no=14,missing=14
			13:[f4<0.409784496] yes=25,no=26,missing=26
				25:[f5<256.326965] yes=45,no=46,missing=46
					45:[f2<98.8694077] yes=79,no=80,missing=80
						79:leaf=-0.00921365432
						80:leaf=0.050579913
					46:[f4<0.397045851] yes=81,no=82,missing=82
						81:leaf=0.0582748614
						82:leaf=0.0111266468
				26:[f1<75.93013] yes=47,no=48,missing=48
					47:[f9<0.693367839] yes=83,no=84,missing=84
						83:leaf=0.0214204919
						84:leaf=0.0531718507
					48:[f3<170.333878] yes=85,no=86,missing=86
						85:leaf=0.0686635002
						86:leaf=-0.00600178167
			14:leaf=-0.0573885143
booster[7]:
0:[f3<110.245911] yes=1,no=2,missing=2
	1:[f2<94.6289825] yes=3,no=4,missing=4
		3:[f4<0.517741621] yes=7,no=8,missing=8
			7:[f3<99.6067047] yes=15,no=16,missing=16
				15:[f7<0.566076696] yes=29,no=30,missing=30
					29:[f2<66.2273712] yes=51,no=52,missing=52
						51:leaf=-0.0587458797
						52:leaf=0.0108110895
					30:[f7<1.93513072] yes=53,no=54,missing=54
						53:leaf=-0.0694945976
						54:leaf=-0.0153546259
				16:[f8<0.734539509] yes=31,no=32,missing=32
					31:[f4<0.427085608] yes=55,no=56,missing=56
						55:leaf=-0.0599197261
						56:leaf=-0.0323857255
					32:[f9<1.04006839] yes=57,no=58,missing=58
						57:leaf=0.0373312831
						58:leaf=-0.0130236791
			8:[f7<0.772032619] yes=17,no=18,missing=18
				17:[f2<79.2493134] yes=33,no=34,missing=34
					33:[f5<145.024658] yes=59,no=60,missing=60
						59:leaf=-0.0422598235
						60:leaf=0.00356258894
					34:[f9<1.0135442] yes=61,no=62,missing=62
						61:leaf=0.05014522
						62:leaf=0.0115555171
				18:[f0<140.295425] yes=35,no=36,missing=36
					35:leaf=0.022107197
					36:[f3<100.646332] yes=63,no=64,missing=64
						63:leaf=-0.0484718606
						64:leaf=-0.0221385192
		4:[f9<-0.0397998802] yes=9,no=10,missing=10
			9:[f2<108.202873] yes=19,no=20,missing=20
				19:[f2<102.960106] yes=37,no=38,missing=38
					37:[f0<244.54277] yes=65,no=66,missing=66
						65:leaf=-0.00943922438
						66:leaf=-0.0548930652
					38:leaf=-0.000946062268
				20:leaf=0.0557487905
			10:[f4<0.406069875] yes=21,no=22,missing=22
				21:leaf=0.00951791741
				22:leaf=0.0598928332
	2:[f2<77.3102188] yes=5,no=6,missing=6
		5:[f3<121.783577] yes=11,no=12,missing=12
			11:[f4<0.412507117] yes=23,no=24,missing=24
				23:[f1<159.415817] yes=39,no=40,missing=40
					39:[f8<0.20728223] yes=67,no=68,missing=68
						67:leaf=0.00130958669
						68:leaf=-0.0447886512
					40:[f5<318.683838] yes=69,no=70,missing=70
						69:leaf=-0.0145909861
						70:leaf=0.0401573628
				24:[f1<80.5749359] yes=41,no=42,missing=42
					41:[f8<0.310847014] yes=71,no=72,missing=72
						71:leaf=-0.0229525845
						72:leaf=0.00849999767
					42:[f6<0.324542642] yes=73,no=74,missing=74
						73:leaf=-0.00180454482
						74:leaf=0.0478264764
			12:[f6<0.295480907] yes=25,no=26,missing=26
				25:[f0<263.146545] yes=43,no=44,missing=44
					43:[f8<0.291545957] yes=75,no=76,missing=76
						75:leaf=0.00162605464
						76:leaf=0.0251492113
					44:[f1<43.3293533] yes=77,no=78,missing=78
						77:leaf=-0.0283627249
						78:leaf=-0.00194635428
				26:[f4<0.399859995] yes=45,no=46,missing=46
					45:[f3<134.450623] yes=79,no=80,missing=80
						79:leaf=-0.00168453518
						80:leaf=0.0434639826
					46:[f1<50.8078384] yes=81,no=82,missing=82
						81:leaf=0.023132598
						82:leaf=0.0584186688
		6:[f2<139.200943] yes=13,no=14,missing=14
			13:[f4<0.409784496] yes=27,no=28,missing=28
				27:[f5<256.326965] yes=47,no=48,missing=48
					47:[f2<98.8694077] yes=83,no=84,missing=84
						83:leaf=-0.0121053234
						84:leaf=0.0492334813
					48:[f9<1.32579136] yes=85,no=86,missing=86
						85:leaf=0.0557211004
						86:leaf=0.0112130865
				28:[f1<74.7639084] yes=49,no=50,missing=50
					49:[f4<0.533671379] yes=87,no=88,missing=88
						87:leaf=-0.0183056574
						88:leaf=0.0445784032
					50:[f3<170.333878] yes=89,no=90,missing=90
						89:leaf=0.0668235719
						90:leaf=-0.00699111214
			14:leaf=-0.055755496
booster[8]:
0:[f3<105.583023] yes=1,no=2,missing=2
	1:[f4<0.509557188] yes=3,no=4,missing=4
		3:[f2<102.960106] yes=7,no=8,missing=8
			7:[f3<99.1798706] yes=15,no=16,missing=16
				15:[f8<1.27993596] yes=27,no=28,missing=28
					27:[f7<1.93513072] yes=49,no=50,missing=50
						49:leaf=-0.067317456
						50:leaf=-0.0151468394
					28:[f3<84.6389923] yes=51,no=52,missing=52
						51:leaf=-0.0627926737
						52:leaf=0.0315715782
				16:[f8<0.908243418] yes=29,no=30,missing=30
					29:[f1<182.00383] yes=53,no=54,missing=54
						53:leaf=-0.0575006083
						54:leaf=0.000845685543
					30:[f4<0.408562332] yes=55,no=56,missing=56
						55:leaf=-0.00334052299
						56:leaf=0.0395063646
			8:leaf=0.0234903041
		4:[f2<94.23703] yes=9,no=10,missing=10
			9:[f7<0.658594251] yes=17,no=18,missing=18
				17:[f2<66.0243454] yes=31,no=32,missing=32
					31:[f4<0.667523265] yes=57,no=58,missing=58
						57:leaf=-0.0396317057
						58:leaf=0.000845637638
					32:[f3<87.3432617] yes=59,no=60,missing=60
						59:leaf=-0.0131920679
						60:leaf=0.0403104983
				18:[f0<140.295425] yes=33,no=34,missing=34
					33:leaf=0.0148228696
					34:[f4<0.684972823] yes=61,no=62,missing=62
						61:leaf=-0.044127848
						62:leaf=-0.0165503733
			10:[f3<85.3005753] yes=19,no=20,missing=20
				19:leaf=-0.0286262035
				20:[f8<0.930885613] yes=35,no=36,missing=36
					35:[f1<118.153313] yes=63,no=64,missing=64
						63:leaf=-0.0179268289
						64:leaf=0.0251353383
					36:[f1<49.227314] yes=65,no=66,missing=66
						65:leaf=0.0152275441
						66:leaf=0.0560141318
	2:[f2<80.2092819] yes=5,no=6,missing=6
		5:[f3<116.631302] yes=11,no=12,missing=12
			11:[f4<0.434054941] yes=21,no=22,missing=22
				21:[f7<1.37807572] yes=37,no=38,missing=38
					37:[f7<0.398385614] yes=67,no=68,missing=68
						67:leaf=0.00328217261
						68:leaf=-0.0491702259
					38:leaf=0.00617920561
				22:[f6<0.225820139] yes=39,no=40,missing=40
					39:[f8<0.490096778] yes=69,no=70,missing=70
						69:leaf=-0.0482400171
						70:leaf=-0.00698702363
					40:[f2<59.8586807] yes=71,no=72,missing=72
						71:leaf=-0.0212744866
						72:leaf=0.0276750866
			12:[f0<230.32547] yes=23,no=24,missing=24
				23:[f4<0.398870468] yes=41,no=42,missing=42
					41:[f5<413.594849] yes=73,no=74,missing=74
						73:leaf=-0.0258841496
						74:leaf=0.0263251103
					42:[f1<31.3632488] yes=75,no=76,missing=76
						75:leaf=-0.00441791629
						76:leaf=0.0573741794
				24:[f6<0.279105872] yes=43,no=44,missing=44
					43:[f2<74.2517548] yes=77,no=78,missing=78
						77:leaf=-0.0281102546
						78:leaf=0.00688157463
					44:[f3<127.290932] yes=79,no=80,missing=80
						79:leaf=0.00407235837
						80:leaf=0.032674592
		6:[f2<139.200943] yes=13,no=14,missing=14
			13:[f4<0.409784496] yes=25,no=26,missing=26
				25:[f2<98.8694077] yes=45,no=46,missing=46
					45:[f5<168.132812] yes=81,no=82,missing=82
						81:leaf=-0.0339756832
						82:leaf=0.0285528637
					46:leaf=0.0552630126
				26:[f1<70.1664886] yes=47,no=48,missing=48
					47:[f9<0.185448974] yes=83,no=84,missing=84
						83:leaf=0.00760835409
						84:leaf=0.0454067104
					48:[f3<170.333878] yes=85,no=86,missing=86
						85:leaf=0.0631540343
						86:leaf=-0.00662681414
			14:leaf=-0.0543133728
booster[9]:
0:[f3<105.583023] yes=1,no=2,missing=2
	1:[f4<0.509557188] yes=3,no=4,missing=4
		3:[f2<102.960106] yes=7,no=8,missing=8
			7:[f4<0.404891551] yes=15,no=16,missing=16
				15:[f5<440.8284] yes=27,no=28,missing=28
					27:leaf=-0.0662387908
					28:[f2<41.8619461] yes=49,no=50,missing=50
						49:leaf=-0.0341338105
						50:leaf=0.00214374694
				16:[f5<172.036621] yes=29,no=30,missing=30
					29:[f2<82.0788879] yes=51,no=52,missing=52
						51:leaf=-0.0647849366
						52:leaf=-0.0283853058
					30:[f2<65.47435] yes=53,no=54,missing=54
						53:leaf=-0.0406960808
						54:leaf=0.0382476784
			8:leaf=0.0227850731
		4:[f2<94.23703] yes=9,no=10,missing=10
			9:[f7<0.509103596] yes=17,no=18,missing=18
				17:[f2<64.738678] yes=31,no=32,missing=32
					31:leaf=-0.024409147
					32:leaf=0.0537228957
				18:[f7<0.772032619] yes=33,no=34,missing=34
					33:[f2<77.5506058] yes=55,no=56,missing=56
						55:leaf=-0.0372607373
						56:leaf=0.0316779986
					34:[f0<140.295425] yes=57,no=58,missing=58
						57:leaf=0.0197918843
						58:leaf=-0.0421396084
			10:[f3<85.3005753] yes=19,no=20,missing=20
				19:leaf=-0.0277370755
				20:[f8<0.930885613] yes=35,no=36,missing=36
					35:[f1<118.153313] yes=59,no=60,missing=60
						59:leaf=-0.0174474604
						60:leaf=0.0245192181
					36:[f3<93.2001038] yes=61,no=62,missing=62
						61:leaf=0.0260465275
						62:leaf=0.056765493
	2:[f2<80.2092819] yes=5,no=6,missing=6
		5:[f3<116.631302] yes=11,no=12,missing=12
			11:[f4<0.40740633] yes=21,no=22,missing=22
				21:[f7<1.37807572] yes=37,no=38,missing=38
					37:[f5<458.927124] yes=63,no=64,missing=64
						63:leaf=-0.0509964824
						64:leaf=0.00215944322
					38:leaf=0.00649269158
				22:[f8<0.594842255] yes=39,no=40,missing=40
					39:[f0<257.074097] yes=65,no=66,missing=66
						65:leaf=0.00329790497
						66:leaf=-0.0309441779
					40:[f9<1.31968272] yes=67,no=68,missing=68
						67:leaf=0.0395424254
						68:leaf=0.00224949652
			12:[f0<230.32547] yes=23,no=24,missing=24
				23:[f4<0.398870468] yes=41,no=42,missing=42
					41:[f5<413.594849] yes=69,no=70,missing=70
						69:leaf=-0.0248500481
						70:leaf=0.0253511909
					42:[f1<40.6253548] yes=71,no=72,missing=72
						71:leaf=0.0101766856
						72:leaf=0.0565049648
				24:[f6<0.279105872] yes=43,no=44,missing=44
					43:[f2<74.2517548] yes=73,no=74,missing=74
						73:leaf=-0.0269011147
						74:leaf=0.00658723107
					44:[f3<127.290932] yes=75,no=76,missing=76
						75:leaf=0.00387757714
						76:leaf=0.0312352367
		6:[f2<139.200943] yes=13,no=14,missing=14
			13:[f4<0.406069875] yes=25,no=26,missing=26
				25:[f2<98.8694077] yes=45,no=46,missing=46
					45:[f5<168.132812] yes=77,no=78,missing=78
						77:leaf=-0.0393107943
						78:leaf=0.0264278781
					46:leaf=0.0539643653
				26:[f1<60.560585] yes=47,no=48,missing=48
					47:[f9<0.185448974] yes=79,no=80,missing=80
						79:leaf=-0.00187796634
						80:leaf=0.0418321043
					48:[f3<170.333878] yes=81,no=82,missing=82
						81:leaf=0.0601512156
						82:leaf=-0.00134572305
			14:leaf=-0.0528872684
booster[10]:
0:[f3<110.245911] yes=1,no=2,missing=2
	1:[f2<95.526001] yes=3,no=4,missing=4
		3:[f4<0.46083653] yes=7,no=8,missing=8
			7:[f3<99.367363] yes=15,no=16,missing=16
				15:[f7<1.93513072] yes=29,no=30,missing=30
					29:[f8<1.27993596] yes=57,no=58,missing=58
						57:leaf=-0.0652701557
						58:leaf=-0.0460577533
					30:leaf=-0.0132007403
				16:[f8<0.979650676] yes=31,no=32,missing=32
					31:[f4<0.441328645] yes=59,no=60,missing=60
						59:leaf=-0.0518475138
						60:leaf=-0.01308008
					32:leaf=0.0247019175
			8:[f7<0.658594251] yes=17,no=18,missing=18
				17:[f2<66.0243454] yes=33,no=34,missing=34
					33:[f4<0.667523265] yes=61,no=62,missing=62
						61:leaf=-0.0421108454
						62:leaf=0.0074776262
					34:[f3<87.3432617] yes=63,no=64,missing=64
						63:leaf=-0.023777362
						64:leaf=0.0421077348
				18:[f3<101.096649] yes=35,no=36,missing=36
					35:[f2<90.9684372] yes=65,no=66,missing=66
						65:leaf=-0.0451019928
						66:leaf=-0.0123928636
					36:[f8<0.506461561] yes=67,no=68,missing=68
						67:leaf=-0.0344854891
						68:leaf=0.00133916154
		4:[f3<93.2001038] yes=9,no=10,missing=10
			9:[f8<1.44828796] yes=19,no=20,missing=20
				19:[f2<100.024879] yes=37,no=38,missing=38
					37:leaf=-0.0452188365
					38:leaf=-0.00828723423
				20:[f3<84.2037354] yes=39,no=40,missing=40
					39:leaf=-0.014546019
					40:leaf=0.0429352559
			10:[f8<0.997752249] yes=21,no=22,missing=22
				21:[f3<101.319458] yes=41,no=42,missing=42
					41:leaf=-0.0163866673
					42:[f0<360.495544] yes=69,no=70,missing=70
						69:leaf=0.0372733809
						70:leaf=0.000211636914
				22:[f4<0.441328645] yes=43,no=44,missing=44
					43:leaf=0.0158929788
					44:leaf=0.0584190749
	2:[f2<80.4674911] yes=5,no=6,missing=6
		5:[f3<121.783577] yes=11,no=12,missing=12
			11:[f4<0.401829749] yes=23,no=24,missing=24
				23:[f1<159.415817] yes=45,no=46,missing=46
					45:[f8<0.20728223] yes=71,no=72,missing=72
						71:leaf=0.0043091299
						72:leaf=-0.0436211824
					46:[f5<318.683838] yes=73,no=74,missing=74
						73:leaf=-0.0131966909
						74:leaf=0.0397990569
				24:[f0<237.432861] yes=47,no=48,missing=48
					47:[f2<51.2183075] yes=75,no=76,missing=76
						75:leaf=-0.0175086074
						76:leaf=0.0374094434
					48:[f8<0.547522545] yes=77,no=78,missing=78
						77:leaf=-0.0164233968
						78:leaf=0.0210498907
			12:[f6<0.322121829] yes=25,no=26,missing=26
				25:[f9<0.746851206] yes=49,no=50,missing=50
					49:[f4<0.593026757] yes=79,no=80,missing=80
						79:leaf=-0.0370771624
						80:leaf=-0.00912495144
					50:[f1<34.692688] yes=81,no=82,missing=82
						81:leaf=-0.00987053104
						82:leaf=0.0272817612
				26:[f4<0.399859995] yes=51,no=52,missing=52
					51:[f5<318.683838] yes=83,no=84,missing=84
						83:leaf=-0.0186709743
						84:leaf=0.030673841
					52:[f1<41.7171936] yes=85,no=86,missing=86
						85:leaf=0.0185453109
						86:leaf=0.0527437888
		6:[f2<139.200943] yes=13,no=14,missing=14
			13:[f4<0.406069875] yes=27,no=28,missing=28
				27:[f5<231.839218] yes=53,no=54,missing=54
					53:[f8<0.705481887] yes=87,no=88,missing=88
						87:leaf=-0.0157089531
						88:leaf=0.0423642546
					54:[f0<283.258545] yes=89,no=90,missing=90
						89:leaf=0.00264639338
						90:leaf=0.0508935228
				28:[f1<65.0586929] yes=55,no=56,missing=56
					55:[f2<91.2716751] yes=91,no=92,missing=92
						91:leaf=0.0177746471
						92:leaf=0.0469858572
					56:[f3<170.333878] yes=93,no=94,missing=94
						93:leaf=0.0604548231
						94:leaf=-0.0057409904
			14:leaf=-0.0514739528
booster[11]:
0:[f3<105.583023] yes=1,no=2,missing=2
	1:[f4<0.488848597] yes=3,no=4,missing=4
		3:[f2<102.960106] yes=7,no=8,missing=8
			7:[f7<0.566076696] yes=15,no=16,missing=16
				15:[f2<64.738678] yes=29,no=30,missing=30
					29:[f1<57.8337135] yes=55,no=56,missing=56
						55:leaf=-0.0225805435
						56:leaf=-0.056930542
					30:[f3<87.5428467] yes=57,no=58,missing=58
						57:leaf=-0.0313825719
						58:leaf=0.0291400459
				16:[f3<98.1646347] yes=31,no=32,missing=32
					31:[f0<150.895401] yes=59,no=60,missing=60
						59:leaf=-0.0265362952
						60:leaf=-0.0638693646
					32:[f8<1.04395235] yes=61,no=62,missing=62
						61:leaf=-0.0512719043
						62:leaf=0.0375324897
			8:leaf=0.0133243073
		4:[f2<94.23703] yes=9,no=10,missing=10
			9:[f7<0.509103596] yes=17,no=18,missing=18
				17:[f2<64.3693619] yes=33,no=34,missing=34
					33:[f1<57.8337135] yes=63,no=64,missing=64
						63:leaf=-0.0371334702
						64:leaf=-0.000723438454
					34:leaf=0.0487373285
				18:[f2<76.6432877] yes=35,no=36,missing=36
					35:[f4<0.656359136] yes=65,no=66,missing=66
						65:leaf=-0.0460087471
						66:leaf=-0.0163918845
					36:[f7<0.826980054] yes=67,no=68,missing=68
						67:leaf=0.0198137667
						68:leaf=-0.0389810018
			10:[f3<84.8549881] yes=19,no=20,missing=20
				19:[f2<98.0351715] yes=37,no=38,missing=38
					37:leaf=-0.0253764819
					38:leaf=-0.00121553161
				20:[f8<1.08374333] yes=39,no=40,missing=40
					39:[f3<101.096649] yes=69,no=70,missing=70
						69:leaf=-0.0177596677
						70:leaf=0.0362087078
					40:[f7<1.05117834] yes=71,no=72,missing=72
						71:leaf=0.055544097
						72:leaf=0.0150393536
	2:[f2<75.0909424] yes=5,no=6,missing=6
		5:[f3<117.386452] yes=11,no=12,missing=12
			11:[f4<0.40740633] yes=21,no=22,missing=22
				21:[f7<1.37807572] yes=41,no=42,missing=42
					41:[f5<458.927124] yes=73,no=74,missing=74
						73:leaf=-0.0468454212
						74:leaf=0.00620518113
					42:leaf=0.0132443253
				22:[f6<0.240883663] yes=43,no=44,missing=44
					43:[f3<110.245911] yes=75,no=76,missing=76
						75:leaf=-0.0517623425
						76:leaf=-0.021186633
					44:[f2<60.053627] yes=77,no=78,missing=78
						77:leaf=-0.0184540581
						78:leaf=0.0192399658
			12:[f6<0.322121829] yes=23,no=24,missing=24
				23:[f0<244.54277] yes=45,no=46,missing=46
					45:[f2<72.4290848] yes=79,no=80,missing=80
						79:leaf=0.00131660688
						80:leaf=0.0327970646
					46:[f3<139.595734] yes=81,no=82,missing=82
						81:leaf=-0.0321363471
						82:leaf=0.000803483126
				24:[f4<0.421802253] yes=47,no=48,missing=48
					47:[f5<318.683838] yes=83,no=84,missing=84
						83:leaf=-0.0143484911
						84:leaf=0.025770558
					48:[f1<50.3034401] yes=85,no=86,missing=86
						85:leaf=0.018085843
						86:leaf=0.0512320362
		6:[f4<0.402831972] yes=13,no=14,missing=14
			13:[f3<138.078079] yes=25,no=26,missing=26
				25:[f1<221.844055] yes=49,no=50,missing=50
					49:[f8<0.724587381] yes=87,no=88,missing=88
						87:leaf=-0.0384402722
						88:leaf=0.0202655327
					50:leaf=0.0532764755
				26:[f5<212.31633] yes=51,no=52,missing=52
					51:leaf=0.00171959761
					52:[f9<1.34555852] yes=89,no=90,missing=90
						89:leaf=0.0548645854
						90:leaf=0.0106604183
			14:[f2<139.200943] yes=27,no=28,missing=28
				27:[f1<74.7639084] yes=53,no=54,missing=54
					53:[f7<1.09522855] yes=91,no=92,missing=92
						91:leaf=0.0404937975
						92:leaf=0.00751844374
					54:[f3<177.926483] yes=93,no=94,missing=94
						93:leaf=0.0565543175
						94:leaf=-0.00983852986
				28:leaf=-0.051576443
booster[12]:
0:[f3<110.245911] yes=1,no=2,missing=2
	1:[f2<95.526001] yes=3,no=4,missing=4
		3:[f4<0.46083653] yes=7,no=8,missing=8
			7:[f3<99.367363] yes=15,no=16,missing=16
				15:[f5<440.8284] yes=31,no=32,missing=32
					31:[f7<0.639519751] yes=61,no=62,missing=62
						61:leaf=-0.0481972955
						62:leaf=-0.0633751228
					32:[f9<1.03572309] yes=63,no=64,missing=64
						63:leaf=0.00134092802
						64:leaf=-0.0307650249
				16:[f8<0.734539509] yes=33,no=34,missing=34
					33:[f7<1.33915055] yes=65,no=66,missing=66
						65:leaf=-0.0503459461
						66:leaf=-0.0123322038
					34:[f9<1.06698453] yes=67,no=68,missing=68
						67:leaf=0.0204223786
						68:leaf=-0.0180014558
			8:[f7<0.774647713] yes=17,no=18,missing=18
				17:[f2<79.2493134] yes=35,no=36,missing=36
					35:[f5<145.024658] yes=69,no=70,missing=70
						69:leaf=-0.0475247167
						70:leaf=-0.00578080676
					36:[f6<0.138063133] yes=71,no=72,missing=72
						71:leaf=0.00511098839
						72:leaf=0.0478690304
				18:[f6<0.387876153] yes=37,no=38,missing=38
					37:[f3<101.096649] yes=73,no=74,missing=74
						73:leaf=-0.0443366617
						74:leaf=-0.0206511244
					38:leaf=0.0293342751
		4:[f3<100.874382] yes=9,no=10,missing=10
			9:[f2<102.960106] yes=19,no=20,missing=20
				19:[f9<0.261942029] yes=39,no=40,missing=40
					39:[f0<244.54277] yes=75,no=76,missing=76
						75:leaf=-0.00306968321
						76:leaf=-0.0526956506
					40:[f8<1.47272241] yes=77,no=78,missing=78
						77:leaf=0.00591432909
						78:leaf=0.0332825258
				20:[f8<1.23066819] yes=41,no=42,missing=42
					41:leaf=0.00833904091
					42:leaf=0.0427263938
			10:[f8<0.908243418] yes=21,no=22,missing=22
				21:[f0<343.214844] yes=43,no=44,missing=44
					43:leaf=0.030454671
					44:leaf=-0.00211752532
				22:leaf=0.0573244877
	2:[f2<80.4674911] yes=5,no=6,missing=6
		5:[f3<121.783577] yes=11,no=12,missing=12
			11:[f4<0.396129936] yes=23,no=24,missing=24
				23:[f5<363.864899] yes=45,no=46,missing=46
					45:[f8<0.20728223] yes=79,no=80,missing=80
						79:leaf=-0.00267374003
						80:leaf=-0.0404476672
					46:[f9<1.24247873] yes=81,no=82,missing=82
						81:leaf=0.0261452086
						82:leaf=-0.0281906184
				24:[f0<231.173904] yes=47,no=48,missing=48
					47:[f2<52.6481743] yes=83,no=84,missing=84
						83:leaf=-0.0135171637
						84:leaf=0.0357611291
					48:[f9<0.521143854] yes=85,no=86,missing=86
						85:leaf=-0.0464548245
						86:leaf=-0.0025866807
			12:[f6<0.322121829] yes=25,no=26,missing=26
				25:[f1<19.106142] yes=49,no=50,missing=50
					49:leaf=-0.0445565656
					50:[f9<0.746851206] yes=87,no=88,missing=88
						87:leaf=-0.0195475705
						88:leaf=0.0180266835
				26:[f4<0.399859995] yes=51,no=52,missing=52
					51:[f3<135.569656] yes=89,no=90,missing=90
						89:leaf=-0.0033885648
						90:leaf=0.0393041633
					52:[f1<24.6876431] yes=91,no=92,missing=92
						91:leaf=-0.00407125056
						92:leaf=0.0453197248
		6:[f2<126.171043] yes=13,no=14,missing=14
			13:[f4<0.409784496] yes=27,no=28,missing=28
				27:[f5<263.127167] yes=53,no=54,missing=54
					53:[f2<98.8694077] yes=93,no=94,missing=94
						93:leaf=-0.00567793055
						94:leaf=0.0427169204
					54:[f4<0.393478394] yes=95,no=96,missing=96
						95:leaf=0.0515792929
						96:leaf=0.0013570576
				28:[f1<86.5272751] yes=55,no=56,missing=56
					55:[f9<0.185448974] yes=97,no=98,missing=98
						97:leaf=0.00310843321
						98:leaf=0.0432951115
					56:[f3<170.333878] yes=99,no=100,missing=100
						99:leaf=0.0600832179
						100:leaf=0.00997833069
			14:[f3<146.939056] yes=29,no=30,missing=30
				29:[f5<34.0412254] yes=57,no=58,missing=58
					57:leaf=0.0274632182
					58:leaf=0.00123058923
				30:[f0<367.797577] yes=59,no=60,missing=60
					59:leaf=-0.0573210679
					60:leaf=-0.015500553
booster[13]:
0:[f3<110.245911] yes=1,no=2,missing=2
	1:[f2<94.6289825] yes=3,no=4,missing=4
		3:[f4<0.522010922] yes=7,no=8,missing=8
			7:[f3<99.6067047] yes=15,no=16,missing=16
				15:[f7<0.566076696] yes=29,no=30,missing=30
					29:[f2<71.8333969] yes=51,no=52,missing=52
						51:leaf=-0.044782415
						52:leaf=0.0312188305
					30:[f7<1.93513072] yes=53,no=54,missing=54
						53:leaf=-0.0589139536
						54:leaf=-0.00997229945
				16:[f8<0.734539509] yes=31,no=32,missing=32
					31:[f7<1.37807572] yes=55,no=56,missing=56
						55:leaf=-0.0456355922
						56:leaf=-0.00585455308
					32:[f9<1.04006839] yes=57,no=58,missing=58
						57:leaf=0.0337986611
						58:leaf=-0.00997818075
			8:[f5<143.82016] yes=17,no=18,missing=18
				17:[f2<74.6757889] yes=33,no=34,missing=34
					33:[f4<0.656359136] yes=59,no=60,missing=60
						59:leaf=-0.0483582355
						60:leaf=-0.0191973057
					34:[f9<0.46096307] yes=61,no=62,missing=62
						61:leaf=-0.0438839607
						62:leaf=0.00536852283
				18:[f2<60.9987259] yes=35,no=36,missing=36
					35:[f2<58.299427] yes=63,no=64,missing=64
						63:leaf=-0.0429383926
						64:leaf=-0.00921695773
					36:[f7<0.509103596] yes=65,no=66,missing=66
						65:leaf=0.0516526178
						66:leaf=0.0234538447
		4:[f9<0.0943992808] yes=9,no=10,missing=10
			9:[f2<105.23893] yes=19,no=20,missing=20
				19:[f0<244.54277] yes=37,no=38,missing=38
					37:leaf=-0.00755336741
					38:[f3<101.532097] yes=67,no=68,missing=68
						67:leaf=-0.0491609536
						68:leaf=-0.0128430007
				20:leaf=0.0448621586
			10:[f4<0.406069875] yes=21,no=22,missing=22
				21:leaf=0.011356473
				22:leaf=0.0518571548
	2:[f8<0.554324508] yes=5,no=6,missing=6
		5:[f3<127.290932] yes=11,no=12,missing=12
			11:[f4<0.398870468] yes=23,no=24,missing=24
				23:[f5<370.431488] yes=39,no=40,missing=40
					39:[f2<43.1211395] yes=69,no=70,missing=70
						69:leaf=0.0120046111
						70:leaf=-0.0383500867
					40:[f7<0.788456142] yes=71,no=72,missing=72
						71:leaf=-0.0153464219
						72:leaf=0.0399649851
				24:[f1<82.8839264] yes=41,no=42,missing=42
					41:[f6<0.184530497] yes=73,no=74,missing=74
						73:leaf=-0.0343150087
						74:leaf=0.00573674869
					42:[f0<300.552002] yes=75,no=76,missing=76
						75:leaf=0.046676755
						76:leaf=-0.011443696
			12:[f1<27.8473225] yes=25,no=26,missing=26
				25:[f1<19.106142] yes=43,no=44,missing=44
					43:[f6<0.457405508] yes=77,no=78,missing=78
						77:leaf=-0.043579042
						78:leaf=0.00941372104
					44:[f9<1.31069469] yes=79,no=80,missing=80
						79:leaf=0.0155241387
						80:leaf=-0.0110614551
				26:[f2<126.171043] yes=45,no=46,missing=46
					45:[f3<138.078079] yes=81,no=82,missing=82
						81:leaf=0.0280774627
						82:leaf=0.0433490388
					46:leaf=-0.0216124691
		6:[f2<139.200943] yes=13,no=14,missing=14
			13:[f4<0.402831972] yes=27,no=28,missing=28
				27:[f1<202.660233] yes=47,no=48,missing=48
					47:[f5<352.705994] yes=83,no=84,missing=84
						83:leaf=-0.0189183597
						84:leaf=0.0295670666
					48:[f4<0.373803437] yes=85,no=86,missing=86
						85:leaf=0.0517454036
						86:leaf=0.00916286651
				28:[f3<164.580963] yes=49,no=50,missing=50
					49:[f1<65.0586929] yes=87,no=88,missing=88
						87:leaf=0.0356317349
						88:leaf=0.05714738
					50:leaf=-0.0142332865
			14:leaf=-0.0464610644
booster[14]:
0:[f3<105.583023] yes=1,no=2,missing=2
	1:[f4<0.488848597] yes=3,no=4,missing=4
		3:[f3<90.9860535] yes=7,no=8,missing=8
			7:[f6<0.571667552] yes=15,no=16,missing=16
				15:[f8<1.88816893] yes=31,no=32,missing=32
					31:[f7<1.88216352] yes=63,no=64,missing=64
						63:leaf=-0.0615254529
						64:leaf=-0.0194489174
					32:leaf=-0.019192921
				16:[f4<0.412507117] yes=33,no=34,missing=34
					33:[f0<305.970398] yes=65,no=66,missing=66
						65:leaf=-0.0509267636
						66:leaf=-0.00875065289
					34:leaf=0.0238087364
			8:[f8<0.971430182] yes=17,no=18,missing=18
				17:[f1<176.72049] yes=35,no=36,missing=36
					35:[f7<0.383387506] yes=67,no=68,missing=68
						67:leaf=-0.00467167189
						68:leaf=-0.0530915335
					36:[f3<100.874382] yes=69,no=70,missing=70
						69:leaf=-0.0359219126
						70:leaf=0.00488483068
				18:[f8<1.27993596] yes=37,no=38,missing=38
					37:[f1<116.07132] yes=71,no=72,missing=72
						71:leaf=0.0309946518
						72:leaf=-0.0264147725
					38:leaf=0.049914144
		4:[f2<91.8608398] yes=9,no=10,missing=10
			9:[f7<0.509103596] yes=19,no=20,missing=20
				19:[f2<64.3693619] yes=39,no=40,missing=40
					39:[f1<57.2987976] yes=73,no=74,missing=74
						73:leaf=-0.0349178873
						74:leaf=-0.000641454651
					40:leaf=0.0456723869
				20:[f4<0.684972823] yes=41,no=42,missing=42
					41:[f3<92.6725464] yes=75,no=76,missing=76
						75:leaf=-0.0418936871
						76:leaf=-0.0211570747
					42:[f2<83.5508804] yes=77,no=78,missing=78
						77:leaf=-0.0191252921
						78:leaf=0.0143466368
			10:[f9<-0.0781220719] yes=21,no=22,missing=22
				21:[f2<102.960106] yes=43,no=44,missing=44
					43:[f0<236.670853] yes=79,no=80,missing=80
						79:leaf=-0.00944285374
						80:leaf=-0.0500425696
					44:[f2<108.202873] yes=81,no=82,missing=82
						81:leaf=0.00720327301
						82:leaf=0.0459752344
				22:[f7<0.939660609] yes=45,no=46,missing=46
					45:leaf=0.0516393371
					46:leaf=0.0182999969
	2:[f2<84.156929] yes=5,no=6,missing=6
		5:[f3<116.631302] yes=11,no=12,missing=12
			11:[f8<0.599115729] yes=23,no=24,missing=24
				23:[f4<0.434054941] yes=47,no=48,missing=48
					47:[f7<1.10980868] yes=83,no=84,missing=84
						83:leaf=-0.0425896272
						84:leaf=-0.00887592789
					48:[f6<0.225820139] yes=85,no=86,missing=86
						85:leaf=-0.0383031704
						86:leaf=0.00351372408
				24:[f4<0.40378499] yes=49,no=50,missing=50
					49:[f4<0.346236199] yes=87,no=88,missing=88
						87:leaf=-0.00177748746
						88:leaf=-0.0301297847
					50:[f9<1.31968272] yes=89,no=90,missing=90
						89:leaf=0.036655508
						90:leaf=-0.00327664427
			12:[f6<0.267841071] yes=25,no=26,missing=26
				25:[f9<0.506231427] yes=51,no=52,missing=52
					51:[f3<131.647507] yes=91,no=92,missing=92
						91:leaf=-0.0521537177
						92:leaf=-0.0194110479
					52:[f2<72.4290848] yes=93,no=94,missing=94
						93:leaf=-0.0149528086
						94:leaf=0.0122491745
				26:[f4<0.398870468] yes=53,no=54,missing=54
					53:[f5<318.683838] yes=95,no=96,missing=96
						95:leaf=-0.0211589914
						96:leaf=0.0243400615
					54:[f1<74.7639084] yes=97,no=98,missing=98
						97:leaf=0.023306353
						98:leaf=0.0539185517
		6:[f2<126.171043] yes=13,no=14,missing=14
			13:[f0<407.446014] yes=27,no=28,missing=28
				27:[f4<0.409784496] yes=55,no=56,missing=56
					55:[f1<235.415863] yes=99,no=100,missing=100
						99:leaf=0.0104493499
						100:leaf=0.0511372462
					56:[f3<188.695084] yes=101,no=102,missing=102
						101:leaf=0.0525871888
						102:leaf=0.00789257511
				28:[f9<0.370519996] yes=57,no=58,missing=58
					57:[f2<105.23893] yes=103,no=104,missing=104
						103:leaf=-0.0398658849
						104:leaf=0.0188440047
					58:[f2<95.526001] yes=105,no=106,missing=106
						105:leaf=0.00782590453
						106:leaf=0.0459876209
			14:[f3<146.939056] yes=29,no=30,missing=30
				29:[f5<35.8058128] yes=59,no=60,missing=60
					59:leaf=0.0271204393
					60:leaf=-0.000631081581
				30:[f0<367.797577] yes=61,no=62,missing=62
					61:leaf=-0.055262316
					62:leaf=-0.0145157604
booster[15]:
0:[f3<110.245911] yes=1,no=2,missing=2
	1:[f4<0.474970043] yes=3,no=4,missing=4
		3:[f3<99.1798706] yes=7,no=8,missing=8
			7:[f8<1.27993596] yes=15,no=16,missing=16
				15:[f7<1.93513072] yes=29,no=30,missing=30
					29:leaf=-0.0578464232
					30:leaf=-0.0102604413
				16:[f3<86.3618698] yes=31,no=32,missing=32
					31:[f6<0.566577375] yes=55,no=56,missing=56
						55:leaf=-0.0563816391
						56:leaf=-0.00933286734
					32:[f5<136.943024] yes=57,no=58,missing=58
						57:leaf=0.00287048961
						58:leaf=0.0545019396
			8:[f8<1.05303371] yes=17,no=18,missing=18
				17:[f4<0.400847971] yes=33,no=34,missing=34
					33:[f7<1.37807572] yes=59,no=60,missing=60
						59:leaf=-0.0530418716
						60:leaf=-0.00489660539
					34:[f5<197.899124] yes=61,no=62,missing=62
						61:leaf=-0.0307461116
						62:leaf=0.00597221917
				18:leaf=0.0433812663
		4:[f2<94.6289825] yes=9,no=10,missing=10
			9:[f5<145.024658] yes=19,no=20,missing=20
				19:[f2<74.6757889] yes=35,no=36,missing=36
					35:[f9<-0.527326643] yes=63,no=64,missing=64
						63:leaf=0.00947118085
						64:leaf=-0.0459959097
					36:[f9<0.46096307] yes=65,no=66,missing=66
						65:leaf=-0.0475125723
						66:leaf=0.00211062981
				20:[f2<58.299427] yes=37,no=38,missing=38
					37:leaf=-0.0497510955
					38:[f3<78.996376] yes=67,no=68,missing=68
						67:leaf=-0.0230195541
						68:leaf=0.0322128981
			10:[f3<84.8549881] yes=21,no=22,missing=22
				21:[f5<69.9376984] yes=39,no=40,missing=40
					39:leaf=-0.0226696469
					40:leaf=-0.000294022349
				22:[f7<1.02406812] yes=41,no=42,missing=42
					41:leaf=0.0498453975
					42:[f2<105.23893] yes=69,no=70,missing=70
						69:leaf=-0.00232664309
						70:leaf=0.0369510278
	2:[f8<0.554324508] yes=5,no=6,missing=6
		5:[f3<127.290932] yes=11,no=12,missing=12
			11:[f4<0.412507117] yes=23,no=24,missing=24
				23:[f5<370.431488] yes=43,no=44,missing=44
					43:[f2<43.1211395] yes=71,no=72,missing=72
						71:leaf=0.00770865474
						72:leaf=-0.0329986922
					44:[f7<0.788456142] yes=73,no=74,missing=74
						73:leaf=-0.0150304958
						74:leaf=0.0396180265
				24:[f1<82.8839264] yes=45,no=46,missing=46
					45:[f6<0.184530497] yes=75,no=76,missing=76
						75:leaf=-0.0320581831
						76:leaf=0.00677553192
					46:[f0<300.552002] yes=77,no=78,missing=78
						77:leaf=0.0454327129
						78:leaf=-0.0077646086
			12:[f1<27.8473225] yes=25,no=26,missing=26
				25:[f1<19.106142] yes=47,no=48,missing=48
					47:[f6<0.457405508] yes=79,no=80,missing=80
						79:leaf=-0.0423636548
						80:leaf=0.00855387282
					48:[f9<1.31069469] yes=81,no=82,missing=82
						81:leaf=0.0145159354
						82:leaf=-0.0113939159
				26:[f2<126.171043] yes=49,no=50,missing=50
					49:[f4<0.413525552] yes=83,no=84,missing=84
						83:leaf=0.0238636956
						84:leaf=0.0396089815
					50:leaf=-0.0201771092
		6:[f2<139.200943] yes=13,no=14,missing=14
			13:[f4<0.402831972] yes=27,no=28,missing=28
				27:[f1<202.660233] yes=51,no=52,missing=52
					51:[f5<352.705994] yes=85,no=86,missing=86
						85:leaf=-0.0179638416
						86:leaf=0.0282456186
					52:[f4<0.373803437] yes=87,no=88,missing=88
						87:leaf=0.0492192358
						88:leaf=0.00853562821
				28:[f3<164.580963] yes=53,no=54,missing=54
					53:[f1<65.0586929] yes=89,no=90,missing=90
						89:leaf=0.0327992067
						90:leaf=0.054378558
					54:leaf=-0.0146000832
			14:leaf=-0.0446753278
booster[16]:
0:[f3<105.583023] yes=1,no=2,missing=2
	1:[f4<0.509557188] yes=3,no=4,missing=4
		3:[f8<1.27993596] yes=7,no=8,missing=8
			7:[f3<99.1798706] yes=15,no=16,missing=16
				15:[f7<1.88216352] yes=31,no=32,missing=32
					31:leaf=-0.0554643683
					32:leaf=-0.0154423015
				16:[f8<0.734539509] yes=33,no=34,missing=34
					33:[f1<182.00383] yes=61,no=62,missing=62
						61:leaf=-0.0491136424
						62:leaf=0.00558702508
					34:[f4<0.408562332] yes=63,no=64,missing=64
						63:leaf=-0.0189424437
						64:leaf=0.0190242734
			8:[f3<86.3618698] yes=17,no=18,missing=18
				17:[f2<95.526001] yes=35,no=36,missing=36
					35:[f6<0.571667552] yes=65,no=66,missing=66
						65:leaf=-0.0544729307
						66:leaf=-0.00945957378
					36:leaf=-0.00228432589
				18:[f6<0.176323339] yes=37,no=38,missing=38
					37:leaf=0.0129289674
					38:leaf=0.051889807
		4:[f2<100.024879] yes=9,no=10,missing=10
			9:[f7<0.826980054] yes=19,no=20,missing=20
				19:[f2<79.2493134] yes=39,no=40,missing=40
					39:[f7<0.491799682] yes=67,no=68,missing=68
						67:leaf=0.0212356951
						68:leaf=-0.0282572545
					40:[f2<87.1963882] yes=69,no=70,missing=70
						69:leaf=0.0149995908
						70:leaf=0.0477225445
				20:[f0<148.647797] yes=41,no=42,missing=42
					41:leaf=0.0217778124
					42:[f7<1.67315614] yes=71,no=72,missing=72
						71:leaf=-0.0371637307
						72:leaf=0.0111702504
			10:[f2<105.23893] yes=21,no=22,missing=22
				21:[f9<0.0634562373] yes=43,no=44,missing=44
					43:leaf=-0.00800909288
					44:leaf=0.033446651
				22:leaf=0.0483838804
	2:[f2<84.156929] yes=5,no=6,missing=6
		5:[f3<116.239632] yes=11,no=12,missing=12
			11:[f8<0.599115729] yes=23,no=24,missing=24
				23:[f4<0.400847971] yes=45,no=46,missing=46
					45:[f5<358.165192] yes=73,no=74,missing=74
						73:leaf=-0.0426631495
						74:leaf=-0.00864734221
					46:[f6<0.164582849] yes=75,no=76,missing=76
						75:leaf=-0.046196755
						76:leaf=-0.00480783591
				24:[f4<0.40378499] yes=47,no=48,missing=48
					47:[f8<0.682222068] yes=77,no=78,missing=78
						77:leaf=-0.00574080087
						78:leaf=-0.0282784831
					48:[f9<1.31968272] yes=79,no=80,missing=80
						79:leaf=0.0335984081
						80:leaf=-0.00359304668
			12:[f0<251.67247] yes=25,no=26,missing=26
				25:[f4<0.398870468] yes=49,no=50,missing=50
					49:[f3<133.426178] yes=81,no=82,missing=82
						81:leaf=-0.0186439808
						82:leaf=0.025951067
					50:[f1<41.7171936] yes=83,no=84,missing=84
						83:leaf=0.00723073399
						84:leaf=0.0469580181
				26:[f6<0.33628276] yes=51,no=52,missing=52
					51:[f9<0.711772978] yes=85,no=86,missing=86
						85:leaf=-0.0343817174
						86:leaf=0.00114212348
					52:[f3<128.623871] yes=87,no=88,missing=88
						87:leaf=0.00187488773
						88:leaf=0.0291302744
		6:[f2<126.171043] yes=13,no=14,missing=14
			13:[f2<96.605278] yes=27,no=28,missing=28
				27:[f6<0.134182394] yes=53,no=54,missing=54
					53:[f5<21.6105556] yes=89,no=90,missing=90
						89:leaf=0.00209020195
						90:leaf=-0.0323545374
					54:[f4<0.406069875] yes=91,no=92,missing=92
						91:leaf=0.0122144343
						92:leaf=0.0487851612
				28:[f3<188.695084] yes=55,no=56,missing=56
					55:[f0<468.249847] yes=93,no=94,missing=94
						93:leaf=0.0542622469
						94:leaf=0.0273096561
					56:leaf=-0.00418440718
			14:[f3<146.939056] yes=29,no=30,missing=30
				29:[f5<34.0412254] yes=57,no=58,missing=58
					57:leaf=0.0239416063
					58:leaf=0.00165019766
				30:[f0<365.883881] yes=59,no=60,missing=60
					59:leaf=-0.0533281341
					60:leaf=-0.0138165234
booster[17]:
0:[f3<105.583023] yes=1,no=2,missing=2
	1:[f4<0.488848597] yes=3,no=4,missing=4
		3:[f3<90.9860535] yes=7,no=8,missing=8
			7:[f6<0.571667552] yes=15,no=16,missing=16
				15:[f8<1.88816893] yes=31,no=32,missing=32
					31:[f7<1.83477604] yes=63,no=64,missing=64
						63:leaf=-0.0581031926
						64:leaf=-0.0215562563
					32:leaf=-0.0170122515
				16:[f4<0.412507117] yes=33,no=34,missing=34
					33:[f0<305.970398] yes=65,no=66,missing=66
						65:leaf=-0.0474177822
						66:leaf=-0.00608804217
					34:leaf=0.0244072583
			8:[f8<0.971430182] yes=17,no=18,missing=18
				17:[f7<0.544074535] yes=35,no=36,missing=36
					35:[f4<0.445580781] yes=67,no=68,missing=68
						67:leaf=-0.0322577953
						68:leaf=0.0129698887
					36:[f0<156.940674] yes=69,no=70,missing=70
						69:leaf=-0.00626388658
						70:leaf=-0.0503293164
				18:[f8<1.27993596] yes=37,no=38,missing=38
					37:[f3<94.975441] yes=71,no=72,missing=72
						71:leaf=-0.0392513089
						72:leaf=0.0164412167
					38:leaf=0.0451995395
		4:[f2<91.8608398] yes=9,no=10,missing=10
			9:[f7<0.509103596] yes=19,no=20,missing=20
				19:[f2<64.3693619] yes=39,no=40,missing=40
					39:[f1<57.2987976] yes=73,no=74,missing=74
						73:leaf=-0.0332092978
						74:leaf=-0.0007990757
					40:[f4<0.551041126] yes=75,no=76,missing=76
						75:leaf=0.0132208169
						76:leaf=0.0473721214
				20:[f4<0.706394613] yes=41,no=42,missing=42
					41:[f3<92.6725464] yes=77,no=78,missing=78
						77:leaf=-0.0383206494
						78:leaf=-0.0176118072
					42:[f6<0.16843842] yes=79,no=80,missing=80
						79:leaf=-0.0167669281
						80:leaf=0.0130291274
			10:[f9<-0.0781220719] yes=21,no=22,missing=22
				21:[f2<102.960106] yes=43,no=44,missing=44
					43:[f0<236.670853] yes=81,no=82,missing=82
						81:leaf=-0.0079276301
						82:leaf=-0.0472190492
					44:[f2<108.202873] yes=83,no=84,missing=84
						83:leaf=0.00633715419
						84:leaf=0.0425709933
				22:[f8<1.08374333] yes=45,no=46,missing=46
					45:[f1<118.153313] yes=85,no=86,missing=86
						85:leaf=8.6550157e-05
						86:leaf=0.0288605448
					46:leaf=0.049015265
	2:[f2<75.0909424] yes=5,no=6,missing=6
		5:[f3<117.386452] yes=11,no=12,missing=12
			11:[f4<0.40740633] yes=23,no=24,missing=24
				23:[f5<329.901917] yes=47,no=48,missing=48
					47:[f4<0.294958055] yes=87,no=88,missing=88
						87:leaf=-0.00392684573
						88:leaf=-0.0441412255
					48:[f9<1.24247873] yes=89,no=90,missing=90
						89:leaf=0.0186169725
						90:leaf=-0.043398764
				24:[f6<0.351877719] yes=49,no=50,missing=50
					49:[f6<0.219340965] yes=91,no=92,missing=92
						91:leaf=-0.0382847898
						92:leaf=-0.00984852295
					50:[f2<60.2438698] yes=93,no=94,missing=94
						93:leaf=-0.0110156201
						94:leaf=0.0267323852
			12:[f6<0.322121829] yes=25,no=26,missing=26
				25:[f0<244.54277] yes=51,no=52,missing=52
					51:[f2<72.4290848] yes=95,no=96,missing=96
						95:leaf=-0.000975564239
						96:leaf=0.0288481563
					52:[f3<139.595734] yes=97,no=98,missing=98
						97:leaf=-0.0302200504
						98:leaf=0.000536833832
				26:[f4<0.421802253] yes=53,no=54,missing=54
					53:[f3<134.450623] yes=99,no=100,missing=100
						99:leaf=-0.000833103375
						100:leaf=0.0319148414
					54:[f1<51.8647499] yes=101,no=102,missing=102
						101:leaf=0.0130047789
						102:leaf=0.0441742502
		6:[f4<0.406069875] yes=13,no=14,missing=14
			13:[f5<256.326965] yes=27,no=28,missing=28
				27:[f2<98.8694077] yes=55,no=56,missing=56
					55:[f1<235.415863] yes=103,no=104,missing=104
						103:leaf=-0.0258555599
						104:leaf=0.0340045281
					56:[f2<102.960106] yes=105,no=106,missing=106
						105:leaf=0.00702762557
						106:leaf=0.0434209928
				28:[f9<1.34555852] yes=57,no=58,missing=58
					57:[f0<264.844025] yes=107,no=108,missing=108
						107:leaf=0.00898754597
						108:leaf=0.045485504
					58:leaf=-0.000988067361
			14:[f2<126.171043] yes=29,no=30,missing=30
				29:[f1<75.93013] yes=59,no=60,missing=60
					59:[f9<0.535075545] yes=109,no=110,missing=110
						109:leaf=0.00200680597
						110:leaf=0.0336666889
					60:[f3<112.076416] yes=111,no=112,missing=112
						111:leaf=0.0295554586
						112:leaf=0.0515929125
				30:[f3<146.939056] yes=61,no=62,missing=62
					61:[f5<34.0412254] yes=113,no=114,missing=114
						113:leaf=0.023754565
						114:leaf=0.00200299895
					62:leaf=-0.0466802418
booster[18]:
0:[f3<110.245911] yes=1,no=2,missing=2
	1:[f4<0.474970043] yes=3,no=4,missing=4
		3:[f3<99.1798706] yes=7,no=8,missing=8
			7:[f8<1.27993596] yes=15,no=16,missing=16
				15:[f5<440.8284] yes=29,no=30,missing=30
					29:leaf=-0.0544610433
					30:leaf=-0.014808327
				16:[f3<86.3618698] yes=31,no=32,missing=32
					31:[f5<254.117493] yes=55,no=56,missing=56
						55:leaf=-0.0536769703
						56:leaf=-0.0127714518
					32:[f5<136.943024] yes=57,no=58,missing=58
						57:leaf=0.00237828703
						58:leaf=0.05003912
			8:[f8<1.05303371] yes=17,no=18,missing=18
				17:[f4<0.400847971] yes=33,no=34,missing=34
					33:[f7<1.37807572] yes=59,no=60,missing=60
						59:leaf=-0.0495389998
						60:leaf=-0.00283764442
					34:[f5<197.899124] yes=61,no=62,missing=62
						61:leaf=-0.0282435901
						62:leaf=0.00709681679
				18:leaf=0.0403349698
		4:[f2<91.8608398] yes=9,no=10,missing=10
			9:[f5<145.024658] yes=19,no=20,missing=20
				19:[f2<74.6757889] yes=35,no=36,missing=36
					35:[f9<-0.527326643] yes=63,no=64,missing=64
						63:leaf=0.0108144181
						64:leaf=-0.0424117297
					36:[f6<0.166433156] yes=65,no=66,missing=66
						65:leaf=-0.0319975093
						66:leaf=0.0172175877
				20:[f2<58.299427] yes=37,no=38,missing=38
					37:leaf=-0.0465388037
					38:[f3<78.996376] yes=67,no=68,missing=68
						67:leaf=-0.0231076386
						68:leaf=0.0303398557
			10:[f9<-0.0781220719] yes=21,no=22,missing=22
				21:[f2<102.960106] yes=39,no=40,missing=40
					39:[f5<24.629261] yes=69,no=70,missing=70
						69:leaf=-0.00442619715
						70:leaf=-0.03977203
					40:[f2<108.202873] yes=71,no=72,missing=72
						71:leaf=0.00581865991
						72:leaf=0.0416150354
				22:[f9<0.986761034] yes=41,no=42,missing=42
					41:leaf=0.0464983359
					42:leaf=0.00732032442
	2:[f8<0.599115729] yes=5,no=6,missing=6
		5:[f3<127.290932] yes=11,no=12,missing=12
			11:[f4<0.412507117] yes=23,no=24,missing=24
				23:[f5<352.705994] yes=43,no=44,missing=44
					43:[f2<43.1211395] yes=73,no=74,missing=74
						73:leaf=0.0114378184
						74:leaf=-0.0296127591
					44:[f7<0.788456142] yes=75,no=76,missing=76
						75:leaf=-0.013187252
						76:leaf=0.0338846706
				24:[f1<92.5322037] yes=45,no=46,missing=46
					45:[f6<0.184530497] yes=77,no=78,missing=78
						77:leaf=-0.030259192
						78:leaf=0.00841449481
					46:[f3<114.039757] yes=79,no=80,missing=80
						79:leaf=0.00696438877
						80:leaf=0.0473392121
			12:[f1<27.8473225] yes=25,no=26,missing=26
				25:[f1<19.106142] yes=47,no=48,missing=48
					47:[f6<0.457405508] yes=81,no=82,missing=82
						81:leaf=-0.0411567353
						82:leaf=0.00732409535
					48:[f9<1.31069469] yes=83,no=84,missing=84
						83:leaf=0.0130998269
						84:leaf=-0.0120253516
				26:[f2<126.171043] yes=49,no=50,missing=50
					49:[f4<0.413525552] yes=85,no=86,missing=86
						85:leaf=0.0207467228
						86:leaf=0.0372583084
					50:leaf=-0.0228477065
		6:[f3<164.580963] yes=13,no=14,missing=14
			13:[f4<0.402831972] yes=27,no=28,missing=28
				27:[f1<197.268982] yes=51,no=52,missing=52
					51:[f5<363.864899] yes=87,no=88,missing=88
						87:leaf=-0.0241751578
						88:leaf=0.0303236134
					52:leaf=0.04223001
				28:[f2<126.171043] yes=53,no=54,missing=54
					53:[f0<420.967773] yes=89,no=90,missing=90
						89:leaf=0.0512487665
						90:leaf=0.0136382086
					54:[f3<133.426178] yes=91,no=92,missing=92
						91:leaf=0.0214652307
						92:leaf=-0.0131316753
			14:leaf=-0.0391167216
booster[19]:
0:[f3<105.583023] yes=1,no=2,missing=2
	1:[f4<0.488848597] yes=3,no=4,missing=4
		3:[f3<90.9860535] yes=7,no=8,missing=8
			7:[f6<0.571667552] yes=15,no=16,missing=16
				15:[f8<1.88816893] yes=31,no=32,missing=32
					31:[f7<1.83477604] yes=61,no=62,missing=62
						61:leaf=-0.0559782498
						62:leaf=-0.0196104553
					32:leaf=-0.0157751199
				16:[f4<0.412507117] yes=33,no=34,missing=34
					33:[f0<303.730072] yes=63,no=64,missing=64
						63:leaf=-0.0453384854
						64:leaf=-0.00561759528
					34:leaf=0.0243344661
			8:[f8<0.971430182] yes=17,no=18,missing=18
				17:[f1<176.72049] yes=35,no=36,missing=36
					35:[f4<0.444179237] yes=65,no=66,missing=66
						65:leaf=-0.0507201962
						66:leaf=-0.0286945309
					36:[f3<99.6067047] yes=67,no=68,missing=68
						67:leaf=-0.0315253437
						68:leaf=0.00590378139
				18:[f8<1.27993596] yes=37,no=38,missing=38
					37:[f4<0.462228417] yes=69,no=70,missing=70
						69:leaf=-0.0241505262
						70:leaf=0.0294832047
					38:leaf=0.0423943736
		4:[f2<94.23703] yes=9,no=10,missing=10
			9:[f8<0.915558636] yes=19,no=20,missing=20
				19:[f0<158.593765] yes=39,no=40,missing=40
					39:[f7<0.907304466] yes=71,no=72,missing=72
						71:leaf=-0.0210167579
						72:leaf=0.0185048077
					40:[f0<383.968018] yes=73,no=74,missing=74
						73:leaf=-0.035900034
						74:leaf=-0.00236275885
				20:[f3<89.4902115] yes=41,no=42,missing=42
					41:[f3<78.996376] yes=75,no=76,missing=76
						75:leaf=-0.0344675295
						76:leaf=-0.00464243395
					42:[f5<56.8166008] yes=77,no=78,missing=78
						77:leaf=-0.0201755445
						78:leaf=0.0358051509
			10:[f3<84.8549881] yes=21,no=22,missing=22
				21:[f5<68.0140381] yes=43,no=44,missing=44
					43:leaf=-0.0219490416
					44:leaf=-0.000254615152
				22:[f8<1.08374333] yes=45,no=46,missing=46
					45:[f3<101.096649] yes=79,no=80,missing=80
						79:leaf=-0.015257773
						80:leaf=0.0294204839
					46:[f7<1.05117834] yes=81,no=82,missing=82
						81:leaf=0.0458702594
						82:leaf=0.0107990392
	2:[f2<84.156929] yes=5,no=6,missing=6
		5:[f3<116.239632] yes=11,no=12,missing=12
			11:[f8<0.599115729] yes=23,no=24,missing=24
				23:[f0<257.074097] yes=47,no=48,missing=48
					47:[f7<0.964885175] yes=83,no=84,missing=84
						83:leaf=-0.0261779018
						84:leaf=0.0234330129
					48:[f4<0.651344359] yes=85,no=86,missing=86
						85:leaf=-0.0343872197
						86:leaf=-0.00282432861
				24:[f4<0.40378499] yes=49,no=50,missing=50
					49:[f4<0.353385806] yes=87,no=88,missing=88
						87:leaf=-0.00546772964
						88:leaf=-0.0244203974
					50:[f9<1.31968272] yes=89,no=90,missing=90
						89:leaf=0.0301656779
						90:leaf=-0.00501067936
			12:[f6<0.267841071] yes=25,no=26,missing=26
				25:[f9<0.506231427] yes=51,no=52,missing=52
					51:leaf=-0.0407337137
					52:[f4<0.509557188] yes=91,no=92,missing=92
						91:leaf=-0.0285680797
						92:leaf=0.00679996377
				26:[f4<0.398870468] yes=53,no=54,missing=54
					53:[f5<318.683838] yes=93,no=94,missing=94
						93:leaf=-0.0200883001
						94:leaf=0.0209959988
					54:[f1<74.7639084] yes=95,no=96,missing=96
						95:leaf=0.0182464551
						96:leaf=0.0479300991
		6:[f2<126.171043] yes=13,no=14,missing=14
			13:[f2<96.605278] yes=27,no=28,missing=28
				27:[f6<0.134182394] yes=55,no=56,missing=56
					55:[f5<21.6105556] yes=97,no=98,missing=98
						97:leaf=0.00175242906
						98:leaf=-0.0321542434
					56:[f4<0.406069875] yes=99,no=100,missing=100
						99:leaf=0.0112915123
						100:leaf=0.0451064557
				28:[f3<188.695084] yes=57,no=58,missing=58
					57:[f9<-0.0781220719] yes=101,no=102,missing=102
						101:leaf=0.0263025146
						102:leaf=0.0510132276
					58:leaf=-0.00625371793
			14:[f6<0.124724634] yes=29,no=30,missing=30
				29:[f3<146.939056] yes=59,no=60,missing=60
					59:leaf=0.0238807034
					60:leaf=-0.0159337334
				30:leaf=-0.0512689538
booster[20]:
0:[f3<105.583023] yes=1,no=2,missing=2
	1:[f4<0.488848597] yes=3,no=4,missing=4
		3:[f3<90.9860535] yes=7,no=8,missing=8
			7:[f6<0.571667552] yes=15,no=16,missing=16
				15:[f8<1.83930814] yes=31,no=32,missing=32
					31:[f7<1.83477604] yes=59,no=60,missing=60
						59:leaf=-0.0551111102
						60:leaf=-0.0190915056
					32:[f6<0.215124294] yes=61,no=62,missing=62
						61:leaf=-0.0335568301
						62:leaf=0.00467208168
				16:[f4<0.412507117] yes=33,no=34,missing=34
					33:[f0<303.730072] yes=63,no=64,missing=64
						63:leaf=-0.0443434566
						64:leaf=-0.0054840087
					34:leaf=0.0236451216
			8:[f8<0.971430182] yes=17,no=18,missing=18
				17:[f7<0.544074535] yes=35,no=36,missing=36
					35:[f9<1.26779342] yes=65,no=66,missing=66
						65:leaf=-0.000683570397
						66:leaf=-0.0423436463
					36:[f0<156.940674] yes=67,no=68,missing=68
						67:leaf=-0.0037877874
						68:leaf=-0.0469388515
				18:[f8<1.27993596] yes=37,no=38,missing=38
					37:[f1<116.07132] yes=69,no=70,missing=70
						69:leaf=0.0301821176
						70:leaf=-0.0227538478
					38:leaf=0.0409788005
		4:[f2<100.024879] yes=9,no=10,missing=10
			9:[f8<0.915558636] yes=19,no=20,missing=20
				19:[f0<158.593765] yes=39,no=40,missing=40
					39:[f3<98.7875214] yes=71,no=72,missing=72
						71:leaf=-0.0172809865
						72:leaf=0.0206297375
					40:[f7<1.67315614] yes=73,no=74,missing=74
						73:leaf=-0.032570485
						74:leaf=0.00955388974
				20:[f3<82.8560638] yes=41,no=42,missing=42
					41:[f0<212.749298] yes=75,no=76,missing=76
						75:leaf=0.00140946067
						76:leaf=-0.0377665721
					42:[f5<58.5826035] yes=77,no=78,missing=78
						77:leaf=-0.0119687933
						78:leaf=0.0307541993
			10:[f2<105.23893] yes=21,no=22,missing=22
				21:[f9<0.0634562373] yes=43,no=44,missing=44
					43:leaf=-0.00802242476
					44:leaf=0.031242108
				22:leaf=0.044609461
	2:[f2<84.156929] yes=5,no=6,missing=6
		5:[f3<118.633324] yes=11,no=12,missing=12
			11:[f4<0.434054941] yes=23,no=24,missing=24
				23:[f7<0.398385614] yes=45,no=46,missing=46
					45:leaf=0.0156632513
					46:[f7<1.10980868] yes=79,no=80,missing=80
						79:leaf=-0.0336724222
						80:leaf=-0.00149207236
				24:[f6<0.225820139] yes=47,no=48,missing=48
					47:[f9<0.786097527] yes=81,no=82,missing=82
						81:leaf=-0.0471678227
						82:leaf=-0.0102546392
					48:[f2<69.1682739] yes=83,no=84,missing=84
						83:leaf=-0.00223398744
						84:leaf=0.0291832276
			12:[f6<0.18040064] yes=25,no=26,missing=26
				25:[f4<0.776624858] yes=49,no=50,missing=50
					49:[f0<428.539337] yes=85,no=86,missing=86
						85:leaf=-0.0399869569
						86:leaf=-0.0148850624
					50:[f5<69.9376984] yes=87,no=88,missing=88
						87:leaf=-0.0109754009
						88:leaf=0.00971097685
				26:[f4<0.398870468] yes=51,no=52,missing=52
					51:[f5<299.269196] yes=89,no=90,missing=90
						89:leaf=-0.0260902289
						90:leaf=0.0200268887
					52:[f1<50.8078384] yes=91,no=92,missing=92
						91:leaf=0.00856923033
						92:leaf=0.0410333835
		6:[f2<126.171043] yes=13,no=14,missing=14
			13:[f2<96.605278] yes=27,no=28,missing=28
				27:[f6<0.134182394] yes=53,no=54,missing=54
					53:[f0<396.093964] yes=93,no=94,missing=94
						93:leaf=-0.0141890515
						94:leaf=-0.04278275
					54:[f4<0.406069875] yes=95,no=96,missing=96
						95:leaf=0.0107797217
						96:leaf=0.0438510589
				28:[f3<188.695084] yes=55,no=56,missing=56
					55:[f0<468.249847] yes=97,no=98,missing=98
						97:leaf=0.0495843738
						98:leaf=0.0230915397
					56:leaf=-0.00604273984
			14:[f6<0.124724634] yes=29,no=30,missing=30
				29:[f3<146.939056] yes=57,no=58,missing=58
					57:leaf=0.0232100543
					58:leaf=-0.0155375693
				30:leaf=-0.049939651
booster[21]:
0:[f3<101.319458] yes=1,no=2,missing=2
	1:[f4<0.483622938] yes=3,no=4,missing=4
		3:[f8<1.27993596] yes=7,no=8,missing=8
			7:[f6<0.571667552] yes=15,no=16,missing=16
				15:[f3<95.1721268] yes=29,no=30,missing=30
					29:[f7<1.88216352] yes=57,no=58,missing=58
						57:leaf=-0.0545837693
						58:leaf=-0.012860978
					30:[f8<0.879237413] yes=59,no=60,missing=60
						59:leaf=-0.0458121262
						60:leaf=0.00639245613
				16:[f6<0.588723361] yes=31,no=32,missing=32
					31:leaf=0.0127635365
					32:[f4<0.391677409] yes=61,no=62,missing=62
						61:leaf=-0.0441941284
						62:leaf=-0.00044540182
			8:[f3<86.3618698] yes=17,no=18,missing=18
				17:[f5<254.117493] yes=33,no=34,missing=34
					33:leaf=-0.0489696823
					34:leaf=-0.0115215359
				18:[f7<0.639519751] yes=35,no=36,missing=36
					35:leaf=0.0458202511
					36:leaf=0.00459472649
		4:[f8<1.09485769] yes=9,no=10,missing=10
			9:[f0<383.968018] yes=19,no=20,missing=20
				19:[f8<0.310847014] yes=37,no=38,missing=38
					37:[f0<244.54277] yes=63,no=64,missing=64
						63:leaf=0.0117755141
						64:leaf=-0.00645140279
					38:[f3<99.6067047] yes=65,no=66,missing=66
						65:leaf=-0.0366599001
						66:leaf=-0.00391100533
				20:[f6<0.104507215] yes=39,no=40,missing=40
					39:leaf=-0.0186569225
					40:[f8<0.846720934] yes=67,no=68,missing=68
						67:leaf=-0.00390729681
						68:leaf=0.0289242994
			10:[f3<84.2037354] yes=21,no=22,missing=22
				21:[f0<176.724991] yes=41,no=42,missing=42
					41:leaf=0.00830384437
					42:[f6<0.293005854] yes=69,no=70,missing=70
						69:leaf=-0.0367506891
						70:leaf=0.00248013833
				22:[f8<1.37743175] yes=43,no=44,missing=44
					43:[f3<88.5262604] yes=71,no=72,missing=72
						71:leaf=-0.00990607124
						72:leaf=0.0232627299
					44:leaf=0.0467047654
	2:[f2<84.156929] yes=5,no=6,missing=6
		5:[f3<114.409203] yes=11,no=12,missing=12
			11:[f8<0.760325015] yes=23,no=24,missing=24
				23:[f4<0.441328645] yes=45,no=46,missing=46
					45:[f7<1.4953469] yes=73,no=74,missing=74
						73:leaf=-0.0372150056
						74:leaf=-0.00018138031
					46:[f6<0.225820139] yes=75,no=76,missing=76
						75:leaf=-0.0311424341
						76:leaf=-0.0028997194
				24:[f4<0.40378499] yes=47,no=48,missing=48
					47:leaf=-0.0157993827
					48:[f5<130.487381] yes=77,no=78,missing=78
						77:leaf=-0.00459858915
						78:leaf=0.0366338976
			12:[f0<231.173904] yes=25,no=26,missing=26
				25:[f4<0.397045851] yes=49,no=50,missing=50
					49:[f5<363.864899] yes=79,no=80,missing=80
						79:leaf=-0.0320154093
						80:leaf=0.0142810643
					50:[f1<74.7639084] yes=81,no=82,missing=82
						81:leaf=0.0201704614
						82:leaf=0.0469435193
				26:[f9<0.491282165] yes=51,no=52,missing=52
					51:[f3<131.647507] yes=83,no=84,missing=84
						83:leaf=-0.0491435118
						84:leaf=-0.0158360433
					52:[f3<130.764755] yes=85,no=86,missing=86
						85:leaf=-3.89517991e-05
						86:leaf=0.0200478826
		6:[f2<139.200943] yes=13,no=14,missing=14
			13:[f0<407.446014] yes=27,no=28,missing=28
				27:[f4<0.409784496] yes=53,no=54,missing=54
					53:[f1<235.415863] yes=87,no=88,missing=88
						87:leaf=0.00700711692
						88:leaf=0.0438146368
					54:[f3<164.580963] yes=89,no=90,missing=90
						89:leaf=0.0441159047
						90:leaf=0.0107974922
				28:[f9<0.370519996] yes=55,no=56,missing=56
					55:[f2<108.202873] yes=91,no=92,missing=92
						91:leaf=-0.0392083488
						92:leaf=0.0231594443
					56:[f2<95.526001] yes=93,no=94,missing=94
						93:leaf=0.00334987836
						94:leaf=0.0366989151
			14:leaf=-0.0421147607
booster[22]:
0:[f3<110.245911] yes=1,no=2,missing=2
	1:[f4<0.46083653] yes=3,no=4,missing=4
		3:[f3<99.367363] yes=7,no=8,missing=8
			7:[f8<1.27993596] yes=15,no=16,missing=16
				15:[f5<440.8284] yes=29,no=30,missing=30
					29:[f7<1.88216352] yes=55,no=56,missing=56
						55:leaf=-0.0517273545
						56:leaf=-0.0168230571
					30:leaf=-0.0114359623
				16:[f3<86.3618698] yes=31,no=32,missing=32
					31:leaf=-0.0465861522
					32:[f6<0.279105872] yes=57,no=58,missing=58
						57:leaf=0.00492941774
						58:leaf=0.0424205102
			8:[f8<1.05303371] yes=17,no=18,missing=18
				17:[f4<0.400847971] yes=33,no=34,missing=34
					33:[f7<1.37807572] yes=59,no=60,missing=60
						59:leaf=-0.0452786759
						60:leaf=-0.000425745704
					34:[f5<197.899124] yes=61,no=62,missing=62
						61:leaf=-0.0246423632
						62:leaf=0.0114469817
				18:leaf=0.0310119726
		4:[f2<87.1963882] yes=9,no=10,missing=10
			9:[f5<145.024658] yes=19,no=20,missing=20
				19:[f2<74.6757889] yes=35,no=36,missing=36
					35:[f4<0.656359136] yes=63,no=64,missing=64
						63:leaf=-0.0429086499
						64:leaf=-0.0100693349
					36:[f6<0.166433156] yes=65,no=66,missing=66
						65:leaf=-0.0298356097
						66:leaf=0.00622596918
				20:[f2<58.299427] yes=37,no=38,missing=38
					37:[f5<249.81575] yes=67,no=68,missing=68
						67:leaf=-0.0456596911
						68:leaf=-0.0153652849
					38:[f3<78.996376] yes=69,no=70,missing=70
						69:leaf=-0.0224424209
						70:leaf=0.0257762205
			10:[f9<0.0943992808] yes=21,no=22,missing=22
				21:[f2<102.960106] yes=39,no=40,missing=40
					39:[f0<236.670853] yes=71,no=72,missing=72
						71:leaf=-0.013636875
						72:leaf=-0.0414932296
					40:[f2<108.202873] yes=73,no=74,missing=74
						73:leaf=0.00552824652
						74:leaf=0.0397031307
				22:[f6<0.0897712931] yes=41,no=42,missing=42
					41:[f2<98.8694077] yes=75,no=76,missing=76
						75:leaf=-0.00849874225
						76:leaf=0.0397025533
					42:[f9<1.03572309] yes=77,no=78,missing=78
						77:leaf=0.0489133522
						78:leaf=0.012765429
	2:[f8<0.599115729] yes=5,no=6,missing=6
		5:[f3<127.290932] yes=11,no=12,missing=12
			11:[f4<0.412507117] yes=23,no=24,missing=24
				23:[f5<249.81575] yes=43,no=44,missing=44
					43:[f2<80.4674911] yes=79,no=80,missing=80
						79:leaf=-0.0414831825
						80:leaf=-0.0151098147
					44:[f7<1.0597434] yes=81,no=82,missing=82
						81:leaf=-0.014335257
						82:leaf=0.0268262476
				24:[f1<92.5322037] yes=45,no=46,missing=46
					45:[f9<0.46096307] yes=83,no=84,missing=84
						83:leaf=-0.0423606969
						84:leaf=0.00336001627
					46:[f3<114.039757] yes=85,no=86,missing=86
						85:leaf=0.00545395492
						86:leaf=0.0433312431
			12:[f1<29.0744133] yes=25,no=26,missing=26
				25:[f1<19.106142] yes=47,no=48,missing=48
					47:[f6<0.457405508] yes=87,no=88,missing=88
						87:leaf=-0.0404187255
						88:leaf=0.0058233845
					48:[f0<336.007385] yes=89,no=90,missing=90
						89:leaf=0.0152691146
						90:leaf=-0.00974685047
				26:[f3<188.695084] yes=49,no=50,missing=50
					49:[f3<138.078079] yes=91,no=92,missing=92
						91:leaf=0.0205539521
						92:leaf=0.0356322527
					50:[f8<0.343617201] yes=93,no=94,missing=94
						93:leaf=0.0162581783
						94:leaf=-0.039480377
		6:[f3<164.580963] yes=13,no=14,missing=14
			13:[f4<0.402831972] yes=27,no=28,missing=28
				27:[f1<202.660233] yes=51,no=52,missing=52
					51:[f9<1.24616897] yes=95,no=96,missing=96
						95:leaf=0.0185415111
						96:leaf=-0.0360910706
					52:[f4<0.354524165] yes=97,no=98,missing=98
						97:leaf=0.0449251719
						98:leaf=0.0123586636
				28:[f2<126.171043] yes=53,no=54,missing=54
					53:[f1<66.1957855] yes=99,no=100,missing=100
						99:leaf=0.0287408363
						100:leaf=0.048419401
					54:[f3<133.426178] yes=101,no=102,missing=102
						101:leaf=0.0191208515
						102:leaf=-0.0129490225
			14:leaf=-0.0376274921
booster[23]:
0:[f3<101.319458] yes=1,no=2,missing=2
	1:[f4<0.517741621] yes=3,no=4,missing=4
		3:[f8<1.27993596] yes=7,no=8,missing=8
			7:[f3<99.6067047] yes=15,no=16,missing=16
				15:[f7<1.93513072] yes=29,no=30,missing=30
					29:[f4<0.457659394] yes=57,no=58,missing=58
						57:leaf=-0.0501479916
						58:leaf=-0.035809353
					30:leaf=-0.00489114178
				16:[f8<0.426099688] yes=31,no=32,missing=32
					31:leaf=-0.0432889275
					32:[f6<0.204793513] yes=59,no=60,missing=60
						59:leaf=-0.0319705121
						60:leaf=0.00959218107
			8:[f3<86.3618698] yes=17,no=18,missing=18
				17:[f2<95.526001] yes=33,no=34,missing=34
					33:[f5<254.117493] yes=61,no=62,missing=62
						61:leaf=-0.0483600609
						62:leaf=-0.0109760221
					34:leaf=0.00122964336
				18:[f6<0.176323339] yes=35,no=36,missing=36
					35:leaf=0.00222669984
					36:leaf=0.04486081
		4:[f8<1.09485769] yes=9,no=10,missing=10
			9:[f0<383.968018] yes=19,no=20,missing=20
				19:[f3<69.1027222] yes=37,no=38,missing=38
					37:leaf=0.0100596314
					38:[f7<1.61693752] yes=63,no=64,missing=64
						63:leaf=-0.0296924263
						64:leaf=0.00503368117
				20:[f0<417.467804] yes=39,no=40,missing=40
					39:leaf=0.0182796679
					40:leaf=-0.0136467339
			10:[f3<78.996376] yes=21,no=22,missing=22
				21:[f7<1.21092069] yes=41,no=42,missing=42
					41:[f4<0.684972823] yes=65,no=66,missing=66
						65:leaf=-0.0473029725
						66:leaf=-0.0109292958
					42:leaf=0.0046946737
				22:[f3<84.2037354] yes=43,no=44,missing=44
					43:[f7<0.777427793] yes=67,no=68,missing=68
						67:leaf=0.0261377934
						68:leaf=-0.0301198643
					44:[f8<1.37743175] yes=69,no=70,missing=70
						69:leaf=0.0167469066
						70:leaf=0.0443816036
	2:[f2<84.156929] yes=5,no=6,missing=6
		5:[f3<116.239632] yes=11,no=12,missing=12
			11:[f8<0.760325015] yes=23,no=24,missing=24
				23:[f4<0.400847971] yes=45,no=46,missing=46
					45:[f7<0.383387506] yes=71,no=72,missing=72
						71:leaf=0.0188857894
						72:leaf=-0.0379508585
					46:[f6<0.225820139] yes=73,no=74,missing=74
						73:leaf=-0.0306324009
						74:leaf=-0.00229081954
				24:[f4<0.40378499] yes=47,no=48,missing=48
					47:leaf=-0.0111956811
					48:[f3<103.5979] yes=75,no=76,missing=76
						75:leaf=-0.00317239738
						76:leaf=0.0356112085
			12:[f6<0.267841071] yes=25,no=26,missing=26
				25:[f7<1.11490417] yes=49,no=50,missing=50
					49:[f1<34.692688] yes=77,no=78,missing=78
						77:leaf=-0.0149430139
						78:leaf=0.0131294625
					50:[f3<130.764755] yes=79,no=80,missing=80
						79:leaf=-0.0478473715
						80:leaf=-0.0109115122
				26:[f4<0.406069875] yes=51,no=52,missing=52
					51:[f3<136.74791] yes=81,no=82,missing=82
						81:leaf=-0.00635662675
						82:leaf=0.0309023019
					52:[f1<52.3803215] yes=83,no=84,missing=84
						83:leaf=0.00990163628
						84:leaf=0.0395317487
		6:[f2<139.200943] yes=13,no=14,missing=14
			13:[f0<407.446014] yes=27,no=28,missing=28
				27:[f4<0.409784496] yes=53,no=54,missing=54
					53:[f1<235.415863] yes=85,no=86,missing=86
						85:leaf=0.00611851225
						86:leaf=0.0419119187
					54:[f3<164.580963] yes=87,no=88,missing=88
						87:leaf=0.0419763774
						88:leaf=0.00977747235
				28:[f5<169.374313] yes=55,no=56,missing=56
					55:[f2<100.024879] yes=89,no=90,missing=90
						89:leaf=-0.0281931367
						90:leaf=0.0272510797
					56:[f4<0.397940725] yes=91,no=92,missing=92
						91:leaf=0.0403777324
						92:leaf=0.00571442954
			14:leaf=-0.0407607071
booster[24]:
0:[f3<105.583023] yes=1,no=2,missing=2
	1:[f4<0.509557188] yes=3,no=4,missing=4
		3:[f4<0.404891551] yes=7,no=8,missing=8
			7:[f6<0.799015462] yes=15,no=16,missing=16
				15:[f8<1.83930814] yes=31,no=32,missing=32
					31:[f3<91.5451355] yes=57,no=58,missing=58
						57:leaf=-0.0538755618
						58:leaf=-0.0406530909
					32:leaf=-0.0100116571
				16:[f2<36.348877] yes=33,no=34,missing=34
					33:leaf=-0.0281138103
					34:leaf=0.0101242159
			8:[f8<0.962851942] yes=17,no=18,missing=18
				17:[f5<197.899124] yes=35,no=36,missing=36
					35:[f2<75.956459] yes=59,no=60,missing=60
						59:leaf=-0.050447721
						60:leaf=-0.0242837984
					36:[f1<93.8729019] yes=61,no=62,missing=62
						61:leaf=-0.0266180616
						62:leaf=0.0309877247
				18:[f3<90.053215] yes=37,no=38,missing=38
					37:[f0<273.914612] yes=63,no=64,missing=64
						63:leaf=-0.0386987291
						64:leaf=-0.00712246308
					38:[f7<0.826980054] yes=65,no=66,missing=66
						65:leaf=0.0342734717
						66:leaf=-0.00264248881
		4:[f2<100.024879] yes=9,no=10,missing=10
			9:[f7<0.810341954] yes=19,no=20,missing=20
				19:[f2<78.9993896] yes=39,no=40,missing=40
					39:[f4<0.667523265] yes=67,no=68,missing=68
						67:leaf=-0.0233655926
						68:leaf=0.0127778472
					40:[f2<85.6324768] yes=69,no=70,missing=70
						69:leaf=0.0133349001
						70:leaf=0.0384520404
				20:[f0<140.295425] yes=41,no=42,missing=42
					41:leaf=0.0260259062
					42:[f3<82.8560638] yes=71,no=72,missing=72
						71:leaf=-0.0429068319
						72:leaf=-0.0177267008
			10:[f2<102.960106] yes=21,no=22,missing=22
				21:leaf=0.00975501072
				22:leaf=0.038850639
	2:[f2<87.1963882] yes=5,no=6,missing=6
		5:[f3<116.631302] yes=11,no=12,missing=12
			11:[f8<0.594842255] yes=23,no=24,missing=24
				23:[f0<257.074097] yes=43,no=44,missing=44
					43:[f9<0.948665321] yes=73,no=74,missing=74
						73:leaf=0.0293349754
						74:leaf=-0.0181042198
					44:[f6<0.379285336] yes=75,no=76,missing=76
						75:leaf=-0.0363151059
						76:leaf=-0.0139248287
				24:[f4<0.470156521] yes=45,no=46,missing=46
					45:[f3<109.356644] yes=77,no=78,missing=78
						77:leaf=-0.0315306783
						78:leaf=0.00650520483
					46:[f8<0.816673517] yes=79,no=80,missing=80
						79:leaf=0.0109886331
						80:leaf=0.0372657143
			12:[f6<0.265535504] yes=25,no=26,missing=26
				25:[f9<0.506231427] yes=47,no=48,missing=48
					47:leaf=-0.037633907
					48:[f0<273.914612] yes=81,no=82,missing=82
						81:leaf=0.0161498059
						82:leaf=-0.00735645089
				26:[f4<0.406069875] yes=49,no=50,missing=50
					49:[f3<136.74791] yes=83,no=84,missing=84
						83:leaf=-0.00393976038
						84:leaf=0.0304381493
					50:[f1<74.7639084] yes=85,no=86,missing=86
						85:leaf=0.0157777946
						86:leaf=0.04459152
		6:[f2<126.171043] yes=13,no=14,missing=14
			13:[f4<0.409784496] yes=27,no=28,missing=28
				27:[f2<98.8694077] yes=51,no=52,missing=52
					51:[f5<169.374313] yes=87,no=88,missing=88
						87:leaf=-0.0300062802
						88:leaf=0.0180152524
					52:[f1<170.503845] yes=89,no=90,missing=90
						89:leaf=0.00960127544
						90:leaf=0.0413094722
				28:[f9<-0.0781220719] yes=53,no=54,missing=54
					53:[f2<108.202873] yes=91,no=92,missing=92
						91:leaf=-0.0221395958
						92:leaf=0.0344130956
					54:[f3<188.695084] yes=93,no=94,missing=94
						93:leaf=0.0429124497
						94:leaf=0.000170756524
			14:[f6<0.124724634] yes=29,no=30,missing=30
				29:[f3<146.939056] yes=55,no=56,missing=56
					55:[f1<112.787956] yes=95,no=96,missing=96
						95:leaf=0.0242468696
						96:leaf=0.00639858982
					56:leaf=-0.0147072813
				30:leaf=-0.0480783246
booster[25]:
0:[f3<101.319458] yes=1,no=2,missing=2
	1:[f4<0.483622938] yes=3,no=4,missing=4
		3:[f8<1.27993596] yes=7,no=8,missing=8
			7:[f6<0.571667552] yes=15,no=16,missing=16
				15:[f3<95.1721268] yes=31,no=32,missing=32
					31:[f7<1.88216352] yes=61,no=62,missing=62
						61:leaf=-0.051265914
						62:leaf=-0.0103241196
					32:[f8<0.879237413] yes=63,no=64,missing=64
						63:leaf=-0.0420250967
						64:leaf=0.00843508448
				16:[f6<0.588723361] yes=33,no=34,missing=34
					33:leaf=0.0168553311
					34:[f4<0.390774548] yes=65,no=66,missing=66
						65:leaf=-0.0402095728
						66:leaf=0.00160860107
			8:[f3<86.3618698] yes=17,no=18,missing=18
				17:[f5<254.117493] yes=35,no=36,missing=36
					35:leaf=-0.0454170816
					36:leaf=-0.00886472315
				18:[f7<0.639519751] yes=37,no=38,missing=38
					37:leaf=0.0415717028
					38:leaf=0.00413814886
		4:[f8<1.09485769] yes=9,no=10,missing=10
			9:[f0<383.968018] yes=19,no=20,missing=20
				19:[f8<0.310847014] yes=39,no=40,missing=40
					39:leaf=0.00605105562
					40:[f3<99.6067047] yes=67,no=68,missing=68
						67:leaf=-0.0328716002
						68:leaf=-0.00212647137
				20:[f6<0.104507215] yes=41,no=42,missing=42
					41:leaf=-0.0167291742
					42:[f8<0.846720934] yes=69,no=70,missing=70
						69:leaf=-0.00249491329
						70:leaf=0.0287290867
			10:[f3<84.2037354] yes=21,no=22,missing=22
				21:[f0<176.724991] yes=43,no=44,missing=44
					43:leaf=0.00948211085
					44:[f6<0.293005854] yes=71,no=72,missing=72
						71:leaf=-0.0332880095
						72:leaf=0.00368866581
				22:[f8<1.37743175] yes=45,no=46,missing=46
					45:[f9<0.927996516] yes=73,no=74,missing=74
						73:leaf=0.00129653269
						74:leaf=0.0311870873
					46:leaf=0.0426213369
	2:[f2<84.156929] yes=5,no=6,missing=6
		5:[f3<114.409203] yes=11,no=12,missing=12
			11:[f8<0.760325015] yes=23,no=24,missing=24
				23:[f2<60.053627] yes=47,no=48,missing=48
					47:[f8<0.188835427] yes=75,no=76,missing=76
						75:leaf=-0.0137488125
						76:leaf=-0.0394383185
					48:[f6<0.166433156] yes=77,no=78,missing=78
						77:leaf=-0.0369731784
						78:leaf=-0.00656239083
				24:[f3<103.127174] yes=49,no=50,missing=50
					49:leaf=-0.00872088037
					50:[f1<136.767822] yes=79,no=80,missing=80
						79:leaf=0.0316066407
						80:leaf=0.00130977517
			12:[f0<231.173904] yes=25,no=26,missing=26
				25:[f4<0.397045851] yes=51,no=52,missing=52
					51:[f5<363.864899] yes=81,no=82,missing=82
						81:leaf=-0.0302424412
						82:leaf=0.0129197929
					52:[f1<74.7639084] yes=83,no=84,missing=84
						83:leaf=0.0172438566
						84:leaf=0.0432195924
				26:[f9<0.491282165] yes=53,no=54,missing=54
					53:[f3<131.647507] yes=85,no=86,missing=86
						85:leaf=-0.0450141542
						86:leaf=-0.0144210309
					54:[f3<130.764755] yes=87,no=88,missing=88
						87:leaf=-0.000428823056
						88:leaf=0.0168908946
		6:[f2<126.171043] yes=13,no=14,missing=14
			13:[f2<96.605278] yes=27,no=28,missing=28
				27:[f6<0.172296867] yes=55,no=56,missing=56
					55:[f9<0.4082039] yes=89,no=90,missing=90
						89:leaf=-0.0353229493
						90:leaf=0.00311916182
					56:[f4<0.409784496] yes=91,no=92,missing=92
						91:leaf=0.010841595
						92:leaf=0.0432105772
				28:[f3<177.926483] yes=57,no=58,missing=58
					57:[f0<414.000031] yes=93,no=94,missing=94
						93:leaf=0.0458103009
						94:leaf=0.0239955261
					58:[f6<0.250112027] yes=95,no=96,missing=96
						95:leaf=0.0229464378
						96:leaf=-0.0186199676
			14:[f9<0.308240294] yes=29,no=30,missing=30
				29:[f1<97.5396729] yes=59,no=60,missing=60
					59:leaf=0.0260231327
					60:leaf=-0.00218311674
				30:leaf=-0.0414067507
booster[26]:
0:[f3<100.874382] yes=1,no=2,missing=2
	1:[f4<0.517741621] yes=3,no=4,missing=4
		3:[f8<1.27993596] yes=7,no=8,missing=8
			7:[f3<99.6067047] yes=15,no=16,missing=16
				15:[f7<1.88216352] yes=31,no=32,missing=32
					31:[f0<163.287323] yes=61,no=62,missing=62
						61:leaf=-0.0246004891
						62:leaf=-0.046323292
					32:leaf=-0.00869967137
				16:[f7<0.680445313] yes=33,no=34,missing=34
					33:leaf=0.0101198684
					34:[f0<217.911545] yes=63,no=64,missing=64
						63:leaf=-0.00530725857
						64:leaf=-0.0347937047
			8:[f3<84.6389923] yes=17,no=18,missing=18
				17:[f2<94.6289825] yes=35,no=36,missing=36
					35:[f5<254.117493] yes=65,no=66,missing=66
						65:leaf=-0.0459071994
						66:leaf=-0.0110012805
					36:leaf=-0.005911035
				18:[f9<0.535075545] yes=37,no=38,missing=38
					37:leaf=-0.00179962965
					38:leaf=0.0398535058
		4:[f8<1.09485769] yes=9,no=10,missing=10
			9:[f5<42.0987244] yes=19,no=20,missing=20
				19:[f0<347.439026] yes=39,no=40,missing=40
					39:[f1<101.419144] yes=67,no=68,missing=68
						67:leaf=-0.0507539399
						68:leaf=-0.0153686078
					40:[f9<0.793159485] yes=69,no=70,missing=70
						69:leaf=-0.0230011996
						70:leaf=0.00904704072
				20:[f0<383.968018] yes=41,no=42,missing=42
					41:[f3<69.1027222] yes=71,no=72,missing=72
						71:leaf=0.0193049219
						72:leaf=-0.0206823852
					42:[f3<92.6725464] yes=73,no=74,missing=74
						73:leaf=-0.00393923512
						74:leaf=0.0235945042
			10:[f3<78.996376] yes=21,no=22,missing=22
				21:[f7<1.21092069] yes=43,no=44,missing=44
					43:[f4<0.684972823] yes=75,no=76,missing=76
						75:leaf=-0.044848159
						76:leaf=-0.00948135462
					44:leaf=0.00571011892
				22:[f7<0.918497682] yes=45,no=46,missing=46
					45:[f0<175.562805] yes=77,no=78,missing=78
						77:leaf=0.00498573389
						78:leaf=0.0323567539
					46:[f2<102.960106] yes=79,no=80,missing=80
						79:leaf=-0.0190049466
						80:leaf=0.0172359459
	2:[f2<75.7438812] yes=5,no=6,missing=6
		5:[f3<114.409203] yes=11,no=12,missing=12
			11:[f2<60.053627] yes=23,no=24,missing=24
				23:[f5<440.8284] yes=47,no=48,missing=48
					47:[f7<1.10980868] yes=81,no=82,missing=82
						81:leaf=-0.0379610024
						82:leaf=-0.0118639404
					48:leaf=-0.000287507748
				24:[f6<0.379285336] yes=49,no=50,missing=50
					49:[f4<0.478442281] yes=83,no=84,missing=84
						83:leaf=-0.0409445204
						84:leaf=-0.0059000412
					50:[f9<1.22799563] yes=85,no=86,missing=86
						85:leaf=0.0236968827
						86:leaf=-0.0275944062
			12:[f6<0.322121829] yes=25,no=26,missing=26
				25:[f2<72.4290848] yes=51,no=52,missing=52
					51:[f3<139.595734] yes=87,no=88,missing=88
						87:leaf=-0.0278073549
						88:leaf=0.00253368798
					52:[f0<262.409668] yes=89,no=90,missing=90
						89:leaf=0.0238297787
						90:leaf=-0.00932994206
				26:[f4<0.420390338] yes=53,no=54,missing=54
					53:[f5<318.683838] yes=91,no=92,missing=92
						91:leaf=-0.0198873598
						92:leaf=0.0154273137
					54:[f1<51.8647499] yes=93,no=94,missing=94
						93:leaf=0.00772615243
						94:leaf=0.0341255516
		6:[f8<0.776108146] yes=13,no=14,missing=14
			13:[f3<116.239632] yes=27,no=28,missing=28
				27:[f0<275.783356] yes=55,no=56,missing=56
					55:[f0<235.123047] yes=95,no=96,missing=96
						95:leaf=0.0196890868
						96:leaf=-0.00294436305
					56:[f7<0.942666233] yes=97,no=98,missing=98
						97:leaf=-0.00422608852
						98:leaf=-0.0376823395
				28:[f4<0.402831972] yes=57,no=58,missing=58
					57:[f3<138.078079] yes=99,no=100,missing=100
						99:leaf=-0.016005842
						100:leaf=0.0327970162
					58:[f2<126.171043] yes=101,no=102,missing=102
						101:leaf=0.0325770862
						102:leaf=-0.0258446839
			14:[f3<146.939056] yes=29,no=30,missing=30
				29:[f0<441.425995] yes=59,no=60,missing=60
					59:[f4<0.421802253] yes=103,no=104,missing=104
						103:leaf=0.0244369488
						104:leaf=0.0449042581
					60:[f4<0.361232072] yes=105,no=106,missing=106
						105:leaf=0.0171128176
						106:leaf=0.000255586492
				30:leaf=-0.0309493579
booster[27]:
0:[f3<110.245911] yes=1,no=2,missing=2
	1:[f4<0.441328645] yes=3,no=4,missing=4
		3:[f2<102.960106] yes=7,no=8,missing=8
			7:[f7<0.625926554] yes=15,no=16,missing=16
				15:[f2<71.8333969] yes=27,no=28,missing=28
					27:[f0<304.811737] yes=49,no=50,missing=50
						49:leaf=-0.0389139354
						50:leaf=0.00110371399
					28:[f2<78.0234146] yes=51,no=52,missing=52
						51:leaf=-0.00216811989
						52:leaf=0.0288772192
				16:[f5<329.901917] yes=29,no=30,missing=30
					29:[f0<163.287323] yes=53,no=54,missing=54
						53:leaf=-0.0134642636
						54:leaf=-0.0467313528
					30:[f9<0.93857789] yes=55,no=56,missing=56
						55:leaf=0.0263144914
						56:leaf=-0.0373421721
			8:leaf=0.0118333334
		4:[f2<98.8694077] yes=9,no=10,missing=10
			9:[f7<0.826980054] yes=17,no=18,missing=18
				17:[f2<79.2493134] yes=31,no=32,missing=32
					31:[f7<0.491799682] yes=57,no=58,missing=58
						57:leaf=0.0162061583
						58:leaf=-0.0203523319
					32:[f2<87.1963882] yes=59,no=60,missing=60
						59:leaf=0.0124958707
						60:leaf=0.0409820788
				18:[f6<0.387876153] yes=33,no=34,missing=34
					33:[f7<1.64453816] yes=61,no=62,missing=62
						61:leaf=-0.029145686
						62:leaf=0.00920317974
					34:leaf=0.0321383104
			10:[f3<86.758461] yes=19,no=20,missing=20
				19:leaf=-0.00560143078
				20:[f7<1.04288828] yes=35,no=36,missing=36
					35:leaf=0.0405420922
					36:[f3<101.319458] yes=63,no=64,missing=64
						63:leaf=-0.00257312483
						64:leaf=0.0287157483
	2:[f8<0.599115729] yes=5,no=6,missing=6
		5:[f3<130.764755] yes=11,no=12,missing=12
			11:[f4<0.412507117] yes=21,no=22,missing=22
				21:[f5<249.81575] yes=37,no=38,missing=38
					37:[f4<0.302952617] yes=65,no=66,missing=66
						65:leaf=0.000105549749
						66:leaf=-0.0343499258
					38:[f0<272.067963] yes=67,no=68,missing=68
						67:leaf=-0.0184821393
						68:leaf=0.0104606254
				22:[f1<92.5322037] yes=39,no=40,missing=40
					39:[f6<0.184530497] yes=69,no=70,missing=70
						69:leaf=-0.0250611044
						70:leaf=0.00837407541
					40:[f3<112.700447] yes=71,no=72,missing=72
						71:leaf=-0.00128109171
						72:leaf=0.0398638174
			12:[f1<28.4419231] yes=23,no=24,missing=24
				23:[f1<19.106142] yes=41,no=42,missing=42
					41:[f6<0.45061323] yes=73,no=74,missing=74
						73:leaf=-0.0426941253
						74:leaf=0.00121854199
					42:[f9<1.31069469] yes=75,no=76,missing=76
						75:leaf=0.0122641902
						76:leaf=-0.0130243097
				24:[f3<177.926483] yes=43,no=44,missing=44
					43:[f1<38.5664635] yes=77,no=78,missing=78
						77:leaf=0.0122426124
						78:leaf=0.0297951084
					44:[f8<0.343617201] yes=79,no=80,missing=80
						79:leaf=0.0159718897
						80:leaf=-0.0310431421
		6:[f3<164.580963] yes=13,no=14,missing=14
			13:[f3<115.15564] yes=25,no=26,missing=26
				25:[f8<0.822870731] yes=45,no=46,missing=46
					45:[f3<112.076416] yes=81,no=82,missing=82
						81:leaf=-0.0239910241
						82:leaf=0.00659368932
					46:[f4<0.437007964] yes=83,no=84,missing=84
						83:leaf=0.0094526941
						84:leaf=0.0422522388
				26:[f2<126.171043] yes=47,no=48,missing=48
					47:[f4<0.409784496] yes=85,no=86,missing=86
						85:leaf=0.0270476397
						86:leaf=0.0448213778
					48:[f3<133.426178] yes=87,no=88,missing=88
						87:leaf=0.0125812953
						88:leaf=-0.0118730171
			14:leaf=-0.0359678343
booster[28]:
0:[f3<100.874382] yes=1,no=2,missing=2
	1:[f4<0.46083653] yes=3,no=4,missing=4
		3:[f6<0.576664329] yes=7,no=8,missing=8
			7:[f8<1.29717159] yes=15,no=16,missing=16
				15:[f3<99.367363] yes=29,no=30,missing=30
					29:[f7<1.88216352] yes=57,no=58,missing=58
						57:leaf=-0.0486377478
						58:leaf=-0.0111684352
					30:[f5<173.387817] yes=59,no=60,missing=60
						59:leaf=-0.000974086986
						60:leaf=-0.0344967246
				16:[f3<86.3618698] yes=31,no=32,missing=32
					31:[f6<0.37653327] yes=61,no=62,missing=62
						61:leaf=-0.0461359285
						62:leaf=-0.0128425211
					32:[f6<0.276579797] yes=63,no=64,missing=64
						63:leaf=0.00677721202
						64:leaf=0.0367901027
			8:[f4<0.364525825] yes=17,no=18,missing=18
				17:[f1<134.367905] yes=33,no=34,missing=34
					33:[f0<305.970398] yes=65,no=66,missing=66
						65:leaf=-0.0437093079
						66:leaf=-0.0108570792
					34:leaf=-0.000449667306
				18:[f9<1.03572309] yes=35,no=36,missing=36
					35:leaf=-0.00625186274
					36:leaf=0.0293361843
		4:[f8<1.08374333] yes=9,no=10,missing=10
			9:[f0<383.968018] yes=19,no=20,missing=20
				19:[f0<160.246185] yes=37,no=38,missing=38
