booster[0]:
0:[f2<127.06739] yes=1,no=2,missing=2
	1:[f3<0.451193273] yes=3,no=4,missing=4
		3:[f5<0.584302366] yes=7,no=8,missing=8
			7:leaf=-0.580341101
			8:leaf=-0.0559458174
		4:[f1<97.6734467] yes=9,no=10,missing=10
			9:leaf=-0.441450357
			10:leaf=0.2049454
	2:[f1<26.3208103] yes=5,no=6,missing=6
		5:[f5<0.176856399] yes=11,no=12,missing=12
			11:leaf=-0.577385187
			12:leaf=-0.266365707
		6:[f3<0.401007652] yes=13,no=14,missing=14
			13:leaf=-0.070016332
			14:leaf=0.357329786
booster[1]:
0:[f2<130.850784] yes=1,no=2,missing=2
	1:[f3<0.436017931] yes=3,no=4,missing=4
		3:[f5<0.852521658] yes=7,no=8,missing=8
			7:leaf=-0.453907132
			8:leaf=0.434806406
		4:[f1<92.9949188] yes=9,no=10,missing=10
			9:leaf=-0.334585369
			10:leaf=0.15245083
	2:[f1<28.3634701] yes=5,no=6,missing=6
		5:[f5<0.28905791] yes=11,no=12,missing=12
			11:leaf=-0.439409733
			12:leaf=-0.0566163734
		6:[f3<0.405648947] yes=13,no=14,missing=14
			13:leaf=-0.0272750966
			14:leaf=0.274421275
booster[2]:
0:[f2<139.789688] yes=1,no=2,missing=2
	1:[f3<0.465460896] yes=3,no=4,missing=4
		3:[f1<170.070877] yes=7,no=8,missing=8
			7:leaf=-0.413326502
			8:leaf=-0.147440493
		4:[f1<48.8856468] yes=9,no=10,missing=10
			9:leaf=-0.365240037
			10:leaf=0.146175802
	2:[f1<67.0924683] yes=5,no=6,missing=6
		5:[f2<171.376022] yes=11,no=12,missing=12
			11:leaf=-0.297441214
			12:leaf=0.0692662969
		6:[f3<0.386658043] yes=13,no=14,missing=14
			13:leaf=0.012199929
			14:leaf=0.285550982
booster[3]:
0:[f2<113.305969] yes=1,no=2,missing=2
	1:[f4<11.5813932] yes=3,no=4,missing=4
		3:[f2<92.1729584] yes=7,no=8,missing=8
			7:leaf=-0.320374042
			8:leaf=0.500433505
		4:[f5<0.573629677] yes=9,no=10,missing=10
			9:leaf=-0.354418278
			10:leaf=0.520915985
	2:[f1<104.288101] yes=5,no=6,missing=6
		5:[f2<164.842712] yes=11,no=12,missing=12
			11:leaf=-0.203149602
			12:leaf=0.0914115086
		6:[f3<0.386658043] yes=13,no=14,missing=14
			13:leaf=0.00788202789
			14:leaf=0.255293608
booster[4]:
0:[f1<28.917448] yes=1,no=2,missing=2
	1:[f5<0.28905791] yes=3,no=4,missing=4
		3:[f3<0.929072082] yes=7,no=8,missing=8
			7:leaf=-0.360252738
			8:leaf=-0.121496163
		4:[f1<17.599926] yes=9,no=10,missing=10
			9:leaf=-0.515057623
			10:leaf=0.0723194182
	2:[f3<0.488197654] yes=5,no=6,missing=6
		5:[f2<180.027756] yes=11,no=12,missing=12
			11:leaf=-0.169928133
			12:leaf=0.185661748
		6:[f3<0.882859826] yes=13,no=14,missing=14
			13:leaf=0.177912146
			14:leaf=-0.224341139
booster[5]:
0:[f2<107.042122] yes=1,no=2,missing=2
	1:[f4<11.5813932] yes=3,no=4,missing=4
		3:[f2<92.1729584] yes=7,no=8,missing=8
			7:leaf=-0.257683575
			8:leaf=0.351076901
		4:[f5<0.225300521] yes=9,no=10,missing=10
			9:leaf=-0.346242577
			10:leaf=-0.0588860251
	2:[f1<134.790939] yes=5,no=6,missing=6
		5:[f3<0.499258518] yes=11,no=12,missing=12
			11:leaf=-0.168795601
			12:leaf=0.0864648297
		6:[f3<0.63910234] yes=13,no=14,missing=14
			13:leaf=0.215010136
			14:leaf=-0.730535924
booster[6]:
0:[f1<21.3023224] yes=1,no=2,missing=2
	1:[f5<0.176856399] yes=3,no=4,missing=4
		3:[f2<164.842712] yes=7,no=8,missing=8
			7:leaf=-0.335618496
			8:leaf=-0.399153024
		4:[f3<0.717594504] yes=9,no=10,missing=10
			9:leaf=-0.407635421
			10:leaf=0.0939355046
	2:[f2<154.305496] yes=5,no=6,missing=6
		5:[f4<152.973801] yes=11,no=12,missing=12
			11:leaf=0.00268150959
			12:leaf=-0.333170712
		6:[f5<0.149824873] yes=13,no=14,missing=14
			13:leaf=-0.242856175
			14:leaf=0.13431783
booster[7]:
0:[f2<103.457855] yes=1,no=2,missing=2
	1:[f5<0.320146263] yes=3,no=4,missing=4
		3:[f4<11.5813932] yes=7,no=8,missing=8
			7:leaf=-0.100204676
			8:leaf=-0.329642773
		4:[f5<0.324132711] yes=9,no=10,missing=10
			9:leaf=1.56772089
			10:leaf=0.0971812457
	2:[f1<136.105499] yes=5,no=6,missing=6
		5:[f3<0.520267785] yes=11,no=12,missing=12
			11:leaf=-0.114486136
			12:leaf=0.0651739165
		6:[f3<0.688846171] yes=13,no=14,missing=14
			13:leaf=0.15794687
			14:leaf=-0.430225909
booster[8]:
0:[f1<21.3023224] yes=1,no=2,missing=2
	1:[f5<0.176856399] yes=3,no=4,missing=4
		3:[f2<107.042122] yes=7,no=8,missing=8
			7:leaf=-0.315804541
			8:leaf=-0.352224082
		4:[f5<0.19075352] yes=9,no=10,missing=10
			9:leaf=0.316222697
			10:leaf=-0.268323809
	2:[f3<0.405648947] yes=5,no=6,missing=6
		5:[f2<189.476852] yes=11,no=12,missing=12
			11:leaf=-0.205692038
			12:leaf=0.168113247
		6:[f1<83.2564926] yes=13,no=14,missing=14
			13:leaf=-0.021008309
			14:leaf=0.140365988
booster[9]:
0:[f2<140.911972] yes=1,no=2,missing=2
	1:[f4<45.4018173] yes=3,no=4,missing=4
		3:[f2<109.343521] yes=7,no=8,missing=8
			7:leaf=-0.191975415
			8:leaf=0.228861317
		4:[f5<0.695685923] yes=9,no=10,missing=10
			9:leaf=-0.240187719
			10:leaf=0.733484626
	2:[f5<0.111477822] yes=5,no=6,missing=6
		5:[f2<174.135757] yes=11,no=12,missing=12
			11:leaf=-0.0892859101
			12:leaf=-0.422156304
		6:[f4<200.122864] yes=13,no=14,missing=14
			13:leaf=0.143784419
			14:leaf=-0.00153222471
booster[10]:
0:[f1<15.192359] yes=1,no=2,missing=2
	1:[f2<171.376022] yes=3,no=4,missing=4
		3:[f2<107.042122] yes=7,no=8,missing=8
			7:leaf=-0.309443861
			8:leaf=-0.33242932
		4:[f5<0.176856399] yes=9,no=10,missing=10
			9:leaf=-0.34825927
			10:leaf=-0.436128378
	2:[f1<170.070877] yes=5,no=6,missing=6
		5:[f3<0.33819294] yes=11,no=12,missing=12
			11:leaf=-0.236686036
			12:leaf=0.0143898632
		6:[f3<0.628162086] yes=13,no=14,missing=14
			13:leaf=0.187735915
			14:leaf=-0.7042678
booster[11]:
0:[f5<0.166524649] yes=1,no=2,missing=2
	1:[f4<75.3901978] yes=3,no=4,missing=4
		3:[f2<97.2371216] yes=7,no=8,missing=8
			7:leaf=-0.309282988
			8:leaf=0.0134036699
		4:[f2<155.608978] yes=9,no=10,missing=10
			9:leaf=-0.413360715
			10:leaf=-0.166970581
	2:[f2<164.842712] yes=5,no=6,missing=6
		5:[f4<163.204163] yes=11,no=12,missing=12
			11:leaf=0.0577853732
			12:leaf=-0.212964907
		6:[f1<46.7066727] yes=13,no=14,missing=14
			13:leaf=-0.0485546514
			14:leaf=0.119716808
booster[12]:
0:[f1<118.650139] yes=1,no=2,missing=2
	1:[f3<0.520267785] yes=3,no=4,missing=4
		3:[f5<0.456028998] yes=7,no=8,missing=8
			7:leaf=-0.213141799
			8:leaf=0.0122071169
		4:[f1<50.4791908] yes=9,no=10,missing=10
			9:leaf=-0.0893827528
			10:leaf=0.0935542136
	2:[f2<118.950066] yes=5,no=6,missing=6
		5:[f5<0.270804256] yes=11,no=12,missing=12
			11:leaf=-0.246474639
			12:leaf=0.0707989633
		6:[f3<0.808961332] yes=13,no=14,missing=14
			13:leaf=0.111238934
			14:leaf=-0.56332916
booster[13]:
0:[f1<15.192359] yes=1,no=2,missing=2
	1:[f5<0.176856399] yes=3,no=4,missing=4
		3:leaf=-0.315395504
		4:[f3<0.717594504] yes=7,no=8,missing=8
			7:leaf=-0.330456734
			8:leaf=-0.390324444
	2:[f1<218.034058] yes=5,no=6,missing=6
		5:[f3<0.391071767] yes=9,no=10,missing=10
			9:leaf=-0.100722566
			10:leaf=0.0288048871
		6:[f3<0.540544271] yes=11,no=12,missing=12
			11:leaf=0.264576137
			12:leaf=-0.814505577
booster[14]:
0:[f5<0.15154849] yes=1,no=2,missing=2
	1:[f4<69.3211288] yes=3,no=4,missing=4
		3:[f2<105.835175] yes=7,no=8,missing=8
			7:leaf=-0.247029945
			8:leaf=0.0266084578
		4:[f1<88.4786301] yes=9,no=10,missing=10
			9:leaf=-0.398513615
			10:leaf=-0.154229507
	2:[f2<145.068192] yes=5,no=6,missing=6
		5:[f4<113.180176] yes=11,no=12,missing=12
			11:leaf=0.0729256198
			12:leaf=-0.238649145
		6:[f4<202.724747] yes=13,no=14,missing=14
			13:leaf=0.125396401
			14:leaf=-0.000681158388
booster[15]:
0:[f5<0.308118075] yes=1,no=2,missing=2
	1:[f0<228.30484] yes=3,no=4,missing=4
		3:[f4<147.003159] yes=7,no=8,missing=8
			7:leaf=-0.140897274
			8:leaf=-0.618317008
		4:[f4<147.003159] yes=9,no=10,missing=10
			9:leaf=0.0265839249
			10:leaf=-0.137487084
	2:[f4<258.351593] yes=5,no=6,missing=6
		5:[f5<0.584302366] yes=11,no=12,missing=12
			11:leaf=0.0873710513
			12:leaf=0.600192904
		6:[f2<180.027756] yes=13,no=14,missing=14
			13:leaf=-0.253994912
			14:leaf=0.0506009087
booster[16]:
0:[f1<161.122086] yes=1,no=2,missing=2
	1:[f3<0.326408118] yes=3,no=4,missing=4
		3:[f5<0.852521658] yes=7,no=8,missing=8
			7:leaf=-0.309359133
			8:leaf=0.149196222
		4:[f4<20.0152683] yes=9,no=10,missing=10
			9:leaf=0.223335221
			10:leaf=-0.0176525414
	2:[f3<0.628162086] yes=5,no=6,missing=6
		5:[f2<133.067993] yes=11,no=12,missing=12
			11:leaf=-0.0415076464
			12:leaf=0.181826293
		6:[f3<0.688846171] yes=13,no=14,missing=14
			13:leaf=-0.782836497
			14:leaf=-0.491095811
booster[17]:
0:[f1<15.192359] yes=1,no=2,missing=2
	1:[f5<0.176856399] yes=3,no=4,missing=4
		3:leaf=-0.311460406
		4:leaf=-0.349574447
	2:[f0<543.240417] yes=5,no=6,missing=6
		5:[f5<0.216773942] yes=7,no=8,missing=8
			7:leaf=-0.0588862188
			8:leaf=0.030940244
		6:[f3<0.695590854] yes=9,no=10,missing=10
			9:leaf=0.294346482
			10:leaf=-0.396447688
booster[18]:
0:[f1<108.176682] yes=1,no=2,missing=2
	1:[f3<0.292832971] yes=3,no=4,missing=4
		3:[f2<180.027756] yes=7,no=8,missing=8
			7:leaf=-0.3285065
			8:leaf=-0.556860983
		4:[f4<21.2124691] yes=9,no=10,missing=10
			9:leaf=0.19183743
			10:leaf=-0.0383574516
	2:[f2<273.495605] yes=5,no=6,missing=6
		5:[f2<112.765121] yes=11,no=12,missing=12
			11:leaf=-0.205428317
			12:leaf=0.0766990334
		6:[f3<0.393587321] yes=13,no=14,missing=14
			13:leaf=0.0236074589
			14:leaf=-0.946897149
booster[19]:
0:[f0<194.429016] yes=1,no=2,missing=2
	1:[f2<159.084045] yes=3,no=4,missing=4
		3:[f4<16.9516697] yes=7,no=8,missing=8
			7:leaf=0.344591409
			8:leaf=-0.276238799
		4:[f3<0.444576979] yes=9,no=10,missing=10
			9:leaf=-0.156803906
			10:leaf=0.11933624
	2:[f1<83.2564926] yes=5,no=6,missing=6
		5:[f0<376.529816] yes=11,no=12,missing=12
			11:leaf=0.00618629204
			12:leaf=-0.134038851
		6:[f3<0.702877164] yes=13,no=14,missing=14
			13:leaf=0.0767505318
			14:leaf=-0.554434955
booster[20]:
0:[f5<0.564458966] yes=1,no=2,missing=2
	1:[f3<0.434015214] yes=3,no=4,missing=4
		3:[f0<305.768829] yes=7,no=8,missing=8
			7:leaf=-0.272285849
			8:leaf=0.0724831671
		4:[f1<67.8789139] yes=9,no=10,missing=10
			9:leaf=-0.0520680621
			10:leaf=0.073335886
	2:[f0<374.035614] yes=5,no=6,missing=6
		5:[f2<145.657196] yes=11,no=12,missing=12
			11:leaf=0.497504085
			12:leaf=0.0744363591
		6:[f0<655.011108] yes=13,no=14,missing=14
			13:leaf=-0.674095452
			14:leaf=0.0662185103
booster[21]:
0:[f1<15.192359] yes=1,no=2,missing=2
	1:leaf=-0.315790921
	2:[f0<293.048309] yes=3,no=4,missing=4
		3:[f2<190.858902] yes=5,no=6,missing=6
			5:leaf=-0.0632401705
			6:leaf=0.0651825294
		4:[f5<0.172654271] yes=7,no=8,missing=8
			7:leaf=-0.02079954
			8:leaf=0.0907723308
booster[22]:
0:[f1<118.650139] yes=1,no=2,missing=2
	1:[f0<194.429016] yes=3,no=4,missing=4
		3:[f2<183.272903] yes=7,no=8,missing=8
			7:leaf=-0.237073019
			8:leaf=-0.00703882193
		4:[f3<0.292832971] yes=9,no=10,missing=10
			9:leaf=-0.373109341
			10:leaf=0.00280349003
	2:[f3<0.389496475] yes=5,no=6,missing=6
		5:[f2<192.214767] yes=11,no=12,missing=12
			11:leaf=-0.12542586
			12:leaf=0.165399387
		6:[f2<284.446594] yes=13,no=14,missing=14
			13:leaf=0.107560299
			14:leaf=-0.583636522
booster[23]:
0:[f5<0.13161093] yes=1,no=2,missing=2
	1:[f4<44.3556976] yes=3,no=4,missing=4
		3:[f2<174.135757] yes=7,no=8,missing=8
			7:leaf=0.0494766422
			8:leaf=-0.605500937
		4:[f2<154.305496] yes=9,no=10,missing=10
			9:leaf=-0.260649294
			10:leaf=-0.0255545881
	2:[f4<84.1250381] yes=5,no=6,missing=6
		5:[f2<196.877609] yes=11,no=12,missing=12
			11:leaf=0.191706285
			12:leaf=-0.750433743
		6:[f2<138.155106] yes=13,no=14,missing=14
			13:leaf=-0.201404512
			14:leaf=0.017827088
booster[24]:
0:[f0<626.33667] yes=1,no=2,missing=2
	1:[f5<0.267389596] yes=3,no=4,missing=4
		3:[f4<123.884354] yes=7,no=8,missing=8
			7:leaf=0.00649327738
			8:leaf=-0.212557882
		4:[f4<152.973801] yes=9,no=10,missing=10
			9:leaf=0.152583152
			10:leaf=-0.00121972896
	2:[f2<256.439789] yes=5,no=6,missing=6
		5:[f5<0.0734990984] yes=11,no=12,missing=12
			11:leaf=-0.445833713
			12:leaf=0.358151883
		6:[f1<26.3208103] yes=13,no=14,missing=14
			13:leaf=-0.351425439
			14:leaf=-0.833470464
booster[25]:
0:[f1<188.076965] yes=1,no=2,missing=2
	1:[f3<0.529919326] yes=3,no=4,missing=4
		3:[f5<0.38313055] yes=7,no=8,missing=8
			7:leaf=-0.115229785
			8:leaf=0.0321593434
		4:[f1<69.5855942] yes=9,no=10,missing=10
			9:leaf=-0.0303293895
			10:leaf=0.093940869
	2:[f2<115.622543] yes=5,no=6,missing=6
		5:[f3<0.436017931] yes=11,no=12,missing=12
			11:leaf=-0.333595216
			12:leaf=-0.580631375
		6:[f3<0.559616864] yes=13,no=14,missing=14
			13:leaf=0.158082649
			14:leaf=-0.583917737
booster[26]:
0:[f0<313.145081] yes=1,no=2,missing=2
	1:[f3<0.444576979] yes=3,no=4,missing=4
		3:[f2<211.255432] yes=7,no=8,missing=8
			7:leaf=-0.152797669
			8:leaf=0.127443805
		4:[f1<67.8789139] yes=9,no=10,missing=10
			9:leaf=-0.0757655129
			10:leaf=0.0590812489
	2:[f1<21.3023224] yes=5,no=6,missing=6
		5:[f0<323.346313] yes=11,no=12,missing=12
			11:leaf=0.192176208
			12:leaf=-0.267545074
		6:[f4<454.183563] yes=13,no=14,missing=14
			13:leaf=0.0660666823
			14:leaf=-0.210278869
booster[27]:
0:[f1<136.105499] yes=1,no=2,missing=2
	1:[f0<167.185196] yes=3,no=4,missing=4
		3:[f3<0.510539234] yes=7,no=8,missing=8
			7:leaf=-0.275825828
			8:leaf=-0.0417468548
		4:[f3<0.292832971] yes=9,no=10,missing=10
			9:leaf=-0.29976964
			10:leaf=-0.000443684286
	2:[f5<0.315990359] yes=5,no=6,missing=6
		5:[f4<161.093048] yes=11,no=12,missing=12
			11:leaf=0.071400553
			12:leaf=-0.180868208
		6:[f2<145.657196] yes=13,no=14,missing=14
			13:leaf=-0.145078942
			14:leaf=0.177220494
booster[28]:
0:[f5<0.0553721525] yes=1,no=2,missing=2
	1:[f2<145.068192] yes=3,no=4,missing=4
		3:[f4<32.2314301] yes=7,no=8,missing=8
			7:leaf=0.04307428
			8:leaf=-0.358541876
		4:[f4<39.2308235] yes=9,no=10,missing=10
			9:leaf=-0.693599403
			10:leaf=-0.197292909
	2:[f4<22.8938179] yes=5,no=6,missing=6
		5:[f3<0.493604481] yes=11,no=12,missing=12
			11:leaf=-0.372780204
			12:leaf=0.326232135
		6:[f2<139.789688] yes=13,no=14,missing=14
			13:leaf=-0.0726898685
			14:leaf=0.0204851907
booster[29]:
0:[f0<204.302277] yes=1,no=2,missing=2
	1:[f5<0.292967856] yes=3,no=4,missing=4
		3:[f3<0.608258128] yes=7,no=8,missing=8
			7:leaf=-0.33606872
			8:leaf=0.0163787957
		4:[f4<113.180176] yes=9,no=10,missing=10
			9:leaf=0.314054102
			10:leaf=-0.0304029584
	2:[f2<461.072937] yes=5,no=6,missing=6
		5:[f2<86.0843506] yes=11,no=12,missing=12
			11:leaf=-0.328694791
			12:leaf=0.0190243013
		6:[f1<31.9336567] yes=13,no=14,missing=14
			13:leaf=-0.439685255
			14:leaf=-0.822989941
booster[30]:
0:[f1<108.176682] yes=1,no=2,missing=2
	1:[f3<0.682177246] yes=3,no=4,missing=4
		3:[f5<0.461562574] yes=7,no=8,missing=8
			7:leaf=-0.0923967808
			8:leaf=0.0265975408
		4:[f5<0.160553306] yes=9,no=10,missing=10
			9:leaf=-0.0339144766
			10:leaf=0.124280743
	2:[f2<256.439789] yes=5,no=6,missing=6
		5:[f5<0.0667415857] yes=11,no=12,missing=12
			11:leaf=-0.128260851
			12:leaf=0.0596598312
		6:[f3<0.402406007] yes=13,no=14,missing=14
			13:leaf=0.0069155707
			14:leaf=-0.651497602
booster[31]:
0:[f4<292.624207] yes=1,no=2,missing=2
	1:[f5<0.564458966] yes=3,no=4,missing=4
		3:[f0<626.33667] yes=7,no=8,missing=8
			7:leaf=0.000718928
			8:leaf=0.249578059
		4:[f2<159.76329] yes=9,no=10,missing=10
			9:leaf=0.508948445
			10:leaf=0.0504273809
	2:[f5<0.632267714] yes=5,no=6,missing=6
		5:[f0<247.243286] yes=11,no=12,missing=12
			11:leaf=-0.431021631
			12:leaf=-0.0351384021
		6:[f0<358.779022] yes=13,no=14,missing=14
			13:leaf=0.0593385063
			14:leaf=-0.566325486
booster[32]:
0:[f1<15.192359] yes=1,no=2,missing=2
	1:leaf=-0.312463701
	2:[f1<15.3549557] yes=3,no=4,missing=4
		3:[f0<249.671371] yes=5,no=6,missing=6
			5:leaf=0.755005658
			6:leaf=-0.330450743
		4:[f3<0.995803535] yes=7,no=8,missing=8
			7:leaf=0.00268472498
			8:leaf=-0.579570293
booster[33]:
0:[f0<293.048309] yes=1,no=2,missing=2
	1:[f3<0.369927675] yes=3,no=4,missing=4
		3:[f5<0.770245194] yes=7,no=8,missing=8
			7:leaf=-0.264953077
			8:leaf=0.127133787
		4:[f1<85.865387] yes=9,no=10,missing=10
			9:leaf=-0.0694720522
			10:leaf=0.0427920222
	2:[f2<181.146957] yes=5,no=6,missing=6
		5:[f1<21.3023224] yes=11,no=12,missing=12
			11:leaf=-0.319326639
			12:leaf=0.0738105178
		6:[f4<59.985569] yes=13,no=14,missing=14
			13:leaf=-0.579551458
			14:leaf=-0.0055437563
booster[34]:
0:[f0<191.355942] yes=1,no=2,missing=2
	1:[f2<151.744064] yes=3,no=4,missing=4
		3:[f4<16.9516697] yes=7,no=8,missing=8
			7:leaf=0.241905794
			8:leaf=-0.229104504
		4:[f0<189.867401] yes=9,no=10,missing=10
			9:leaf=0.013318046
			10:leaf=-0.732432842
	2:[f2<86.0843506] yes=5,no=6,missing=6
		5:[f5<0.564458966] yes=11,no=12,missing=12
			11:leaf=-0.315833688
			12:leaf=-0.505102217
		6:[f2<461.072937] yes=13,no=14,missing=14
			13:leaf=0.0131820384
			14:leaf=-0.542037606
booster[35]:
0:[f1<161.122086] yes=1,no=2,missing=2
	1:[f3<0.326408118] yes=3,no=4,missing=4
		3:[f5<0.852521658] yes=7,no=8,missing=8
			7:leaf=-0.270023376
			8:leaf=0.0772821605
		4:[f5<0.461562574] yes=9,no=10,missing=10
			9:leaf=-0.0183212683
			10:leaf=0.0527221449
	2:[f3<0.589541137] yes=5,no=6,missing=6
		5:[f2<95.1515198] yes=11,no=12,missing=12
			11:leaf=0.729091644
			12:leaf=0.066925399
		6:[f5<0.0316960365] yes=13,no=14,missing=14
			13:leaf=0.177430853
			14:leaf=-0.553084433
booster[36]:
0:[f0<543.240417] yes=1,no=2,missing=2
	1:[f0<415.381744] yes=3,no=4,missing=4
		3:[f0<313.145081] yes=7,no=8,missing=8
			7:leaf=-0.0140433498
			8:leaf=0.050418701
		4:[f0<443.27771] yes=9,no=10,missing=10
			9:leaf=-0.352095485
			10:leaf=-0.0513732843
	2:[f2<105.280663] yes=5,no=6,missing=6
		5:[f4<111.711006] yes=11,no=12,missing=12
			11:leaf=0.226039603
			12:leaf=6.9403162
		6:[f5<0.0734990984] yes=13,no=14,missing=14
			13:leaf=-0.45465076
			14:leaf=0.112643495
booster[37]:
0:[f3<0.238770619] yes=1,no=2,missing=2
	1:[f2<297.499756] yes=3,no=4,missing=4
		3:[f2<147.474335] yes=7,no=8,missing=8
			7:leaf=-0.404974818
			8:leaf=-0.635147333
		4:leaf=0.287967294
	2:[f1<92.9949188] yes=5,no=6,missing=6
		5:[f3<0.682177246] yes=9,no=10,missing=10
			9:leaf=-0.0588198788
			10:leaf=0.0575920902
		6:[f3<0.83637017] yes=11,no=12,missing=12
			11:leaf=0.030891832
			12:leaf=-0.449037433
booster[38]:
0:[f5<0.216773942] yes=1,no=2,missing=2
	1:[f3<0.507668436] yes=3,no=4,missing=4
		3:[f0<626.33667] yes=7,no=8,missing=8
			7:leaf=-0.180848688
			8:leaf=0.261353254
		4:[f4<274.595581] yes=9,no=10,missing=10
			9:leaf=0.00197312864
			10:leaf=0.327455699
	2:[f4<187.58754] yes=5,no=6,missing=6
		5:[f0<466.864594] yes=11,no=12,missing=12
			11:leaf=0.0779806674
			12:leaf=-0.678351939
		6:[f5<0.369794995] yes=13,no=14,missing=14
			13:leaf=-0.140950069
			14:leaf=0.006922842
booster[39]:
0:[f2<263.687744] yes=1,no=2,missing=2
	1:[f5<0.573629677] yes=3,no=4,missing=4
		3:[f4<281.662048] yes=7,no=8,missing=8
			7:leaf=0.00471968856
			8:leaf=-0.111572437
		4:[f2<152.394348] yes=9,no=10,missing=10
			9:leaf=0.369506985
			10:leaf=0.0430759303
	2:[f1<56.3477745] yes=5,no=6,missing=6
		5:[f1<26.3208103] yes=11,no=12,missing=12
			11:leaf=-0.488203406
			12:leaf=0.0788748041
		6:[f3<0.733230472] yes=13,no=14,missing=14
			13:leaf=-0.12384136
			14:leaf=-0.850941241
booster[40]:
0:[f1<127.37838] yes=1,no=2,missing=2
	1:[f3<0.575972855] yes=3,no=4,missing=4
		3:[f5<0.193174556] yes=7,no=8,missing=8
			7:leaf=-0.193524837
			8:leaf=-0.0189070329
		4:[f4<372.644836] yes=9,no=10,missing=10
			9:leaf=0.0301161036
			10:leaf=-0.447643936
	2:[f3<0.314324975] yes=5,no=6,missing=6
		5:[f1<227.32074] yes=11,no=12,missing=12
			11:leaf=-0.180375069
			12:leaf=0.142537564
		6:[f2<113.305969] yes=13,no=14,missing=14
			13:leaf=-0.274636894
			14:leaf=0.0728141442
booster[41]:
0:[f0<222.312454] yes=1,no=2,missing=2
	1:[f3<0.465460896] yes=3,no=4,missing=4
		3:[f5<0.564458966] yes=7,no=8,missing=8
			7:leaf=-0.305616707
			8:leaf=0.0250438396
		4:[f5<0.292967856] yes=9,no=10,missing=10
			9:leaf=-0.0791633725
			10:leaf=0.0928966254
	2:[f1<84.1020126] yes=5,no=6,missing=6
		5:[f3<0.682177246] yes=11,no=12,missing=12
			11:leaf=-0.044671353
			12:leaf=0.0422850028
		6:[f3<0.682177246] yes=13,no=14,missing=14
			13:leaf=0.0674533024
			14:leaf=-0.397609562
booster[42]:
0:[f0<122.868385] yes=1,no=2,missing=2
	1:[f2<177.975891] yes=3,no=4,missing=4
		3:[f1<71.1804886] yes=7,no=8,missing=8
			7:leaf=-0.338417351
			8:leaf=-0.6387043
		4:[f1<85.865387] yes=9,no=10,missing=10
			9:leaf=-0.756224036
			10:leaf=0.0718536749
	2:[f3<0.292832971] yes=5,no=6,missing=6
		5:[f1<165.314117] yes=11,no=12,missing=12
			11:leaf=-0.275661975
			12:leaf=0.00364936516
		6:[f5<0.461562574] yes=13,no=14,missing=14
			13:leaf=-0.00841198023
			14:leaf=0.0488454662
booster[43]:
0:[f1<64.7263031] yes=1,no=2,missing=2
	1:[f3<0.383936465] yes=3,no=4,missing=4
		3:[f0<356.14267] yes=7,no=8,missing=8
			7:leaf=0.230268836
			8:leaf=-0.417593867
		4:[f3<0.682177246] yes=9,no=10,missing=10
			9:leaf=-0.120035008
			10:leaf=0.0300042368
	2:[f2<316.724731] yes=5,no=6,missing=6
		5:[f3<0.460601658] yes=11,no=12,missing=12
			11:leaf=-0.027246099
			12:leaf=0.0647309795
		6:[f3<0.451193273] yes=13,no=14,missing=14
			13:leaf=0.00690088421
			14:leaf=-0.839364827
booster[44]:
0:[f0<167.185196] yes=1,no=2,missing=2
	1:[f3<0.567755401] yes=3,no=4,missing=4
		3:[f5<0.467627913] yes=7,no=8,missing=8
			7:leaf=-0.478380144
			8:leaf=-0.0205939375
		4:[f1<118.650139] yes=9,no=10,missing=10
			9:leaf=-0.0742129758
			10:leaf=0.180039644
	2:[f1<104.288101] yes=5,no=6,missing=6
		5:[f4<11.5813932] yes=11,no=12,missing=12
			11:leaf=0.202086225
			12:leaf=-0.0161881857
		6:[f3<0.63335079] yes=13,no=14,missing=14
			13:leaf=0.0499295369
			14:leaf=-0.277466714
booster[45]:
0:[f0<313.145081] yes=1,no=2,missing=2
	1:[f0<307.556793] yes=3,no=4,missing=4
		3:[f3<0.369927675] yes=7,no=8,missing=8
			7:leaf=-0.111670427
			8:leaf=0.00500886468
		4:[f3<0.656771302] yes=9,no=10,missing=10
			9:leaf=-0.560432911
			10:leaf=0.0385479927
	2:[f3<0.613114834] yes=5,no=6,missing=6
		5:[f3<0.593886793] yes=11,no=12,missing=12
			11:leaf=0.0463033244
			12:leaf=0.322372317
		6:[f1<64.7263031] yes=13,no=14,missing=14
			13:leaf=0.00521158194
			14:leaf=-0.293686301
booster[46]:
0:[f5<0.308118075] yes=1,no=2,missing=2
	1:[f4<134.058609] yes=3,no=4,missing=4
		3:[f2<226.114761] yes=7,no=8,missing=8
			7:leaf=0.010448724
			8:leaf=-0.305791259
		4:[f0<281.004272] yes=9,no=10,missing=10
			9:leaf=-0.305864781
			10:leaf=-0.0128934756
	2:[f4<187.58754] yes=5,no=6,missing=6
		5:[f3<0.267534524] yes=11,no=12,missing=12
			11:leaf=0.66238606
			12:leaf=0.0932414979
		6:[f5<0.360991031] yes=13,no=14,missing=14
			13:leaf=-0.191260293
			14:leaf=0.0121755674
booster[47]:
0:[f1<15.192359] yes=1,no=2,missing=2
	1:leaf=-0.31001845
	2:[f1<15.3549557] yes=3,no=4,missing=4
		3:[f0<249.671371] yes=5,no=6,missing=6
			5:leaf=0.501132071
			6:leaf=-0.320790291
		4:[f3<0.995803535] yes=7,no=8,missing=8
			7:leaf=0.00165800552
			8:leaf=-0.461842656
booster[48]:
0:[f5<0.216773942] yes=1,no=2,missing=2
	1:[f3<0.529919326] yes=3,no=4,missing=4
		3:[f1<119.734489] yes=7,no=8,missing=8
			7:leaf=-0.270174623
			8:leaf=-0.0369160771
		4:[f1<35.0281868] yes=9,no=10,missing=10
			9:leaf=-0.101056851
			10:leaf=0.0340925157
	2:[f4<63.1820641] yes=5,no=6,missing=6
		5:[f5<0.228114948] yes=11,no=12,missing=12
			11:leaf=1.19830835
			12:leaf=0.150891408
		6:[f0<301.640228] yes=13,no=14,missing=14
			13:leaf=-0.0107245883
			14:leaf=0.0634913296
booster[49]:
0:[f0<626.33667] yes=1,no=2,missing=2
	1:[f1<92.9949188] yes=3,no=4,missing=4
		3:[f3<0.919919491] yes=7,no=8,missing=8
			7:leaf=-0.0311209168
			8:leaf=0.107904404
		4:[f3<0.368526846] yes=9,no=10,missing=10
			9:leaf=-0.0650488362
			10:leaf=0.0460853241
	2:[f5<0.267389596] yes=5,no=6,missing=6
		5:[f5<0.170631364] yes=11,no=12,missing=12
			11:leaf=0.00836085901
			12:leaf=0.365135729
		6:[f5<0.596178114] yes=13,no=14,missing=14
			13:leaf=-0.62190479
			14:leaf=-0.0465053134
