booster[0]:
0:[f6<0.283781499] yes=1,no=2,missing=2
	1:[f2<82.0214615] yes=3,no=4,missing=4
		3:[f6<0.24220109] yes=7,no=8,missing=8
			7:leaf=-0.59765321
			8:leaf=-0.512446761
		4:[f6<0.164029703] yes=9,no=10,missing=10
			9:leaf=-0.525582969
			10:leaf=-0.080854781
	2:[f3<105.777908] yes=5,no=6,missing=6
		5:[f1<25.8419819] yes=11,no=12,missing=12
			11:leaf=-0.55088371
			12:leaf=-0.149669588
		6:[f4<0.783920586] yes=13,no=14,missing=14
			13:leaf=0.405917913
			14:leaf=-0.376496434
booster[1]:
0:[f6<0.266873777] yes=1,no=2,missing=2
	1:[f2<80.9948425] yes=3,no=4,missing=4
		3:[f6<0.174327448] yes=7,no=8,missing=8
			7:leaf=-0.464100212
			8:leaf=-0.437137067
		4:[f4<0.674394667] yes=9,no=10,missing=10
			9:leaf=-0.195297644
			10:leaf=-0.43629235
	2:[f3<109.022438] yes=5,no=6,missing=6
		5:[f2<57.9255028] yes=11,no=12,missing=12
			11:leaf=-0.368129134
			12:leaf=-0.0240186024
		6:[f1<21.012598] yes=13,no=14,missing=14
			13:leaf=-0.392383277
			14:leaf=0.306496829
booster[2]:
0:[f6<0.24220109] yes=1,no=2,missing=2
	1:[f2<86.5451584] yes=3,no=4,missing=4
		3:[f6<0.172312751] yes=7,no=8,missing=8
			7:leaf=-0.40267545
			8:leaf=-0.366431206
		4:[f4<0.674394667] yes=9,no=10,missing=10
			9:leaf=-0.125774175
			10:leaf=-0.362266541
	2:[f3<102.98513] yes=5,no=6,missing=6
		5:[f1<39.431366] yes=11,no=12,missing=12
			11:leaf=-0.371633351
			12:leaf=-0.0497158058
		6:[f4<0.783920586] yes=13,no=14,missing=14
			13:leaf=0.254747987
			14:leaf=-0.314333171
booster[3]:
0:[f6<0.220348626] yes=1,no=2,missing=2
	1:[f2<89.0613861] yes=3,no=4,missing=4
		3:[f6<0.172312751] yes=7,no=8,missing=8
			7:leaf=-0.367766887
			8:leaf=-0.316345781
		4:[f4<0.685331821] yes=9,no=10,missing=10
			9:leaf=-0.10286466
			10:leaf=-0.320063442
	2:[f1<21.5886383] yes=5,no=6,missing=6
		5:[f1<16.8811989] yes=11,no=12,missing=12
			11:leaf=-0.38494128
			12:leaf=-0.279097497
		6:[f3<114.095795] yes=13,no=14,missing=14
			13:leaf=-0.0673934817
			14:leaf=0.232332006
booster[4]:
0:[f6<0.201457068] yes=1,no=2,missing=2
	1:[f2<92.0139236] yes=3,no=4,missing=4
		3:[f2<73.4449463] yes=7,no=8,missing=8
			7:leaf=-0.346341848
			8:leaf=-0.30341658
		4:[f4<0.789558947] yes=9,no=10,missing=10
			9:leaf=-0.0994705558
			10:leaf=-0.317708164
	2:[f1<29.4455986] yes=5,no=6,missing=6
		5:[f1<16.8811989] yes=11,no=12,missing=12
			11:leaf=-0.354945272
			12:leaf=-0.20076555
		6:[f2<68.3456268] yes=13,no=14,missing=14
			13:leaf=-0.0885926262
			14:leaf=0.198054478
booster[5]:
0:[f6<0.190867022] yes=1,no=2,missing=2
	1:[f2<92.0139236] yes=3,no=4,missing=4
		3:[f2<83.0915222] yes=7,no=8,missing=8
			7:leaf=-0.330428928
			8:leaf=-0.261438102
		4:[f2<122.081306] yes=9,no=10,missing=10
			9:leaf=-0.095491387
			10:leaf=-0.317354381
	2:[f1<25.27598] yes=5,no=6,missing=6
		5:[f3<73.9716873] yes=11,no=12,missing=12
			11:leaf=-0.331746429
			12:leaf=-0.155932695
		6:[f3<98.8624878] yes=13,no=14,missing=14
			13:leaf=-0.0888161659
			14:leaf=0.158388183
booster[6]:
0:[f6<0.168168768] yes=1,no=2,missing=2
	1:[f2<98.5802765] yes=3,no=4,missing=4
		3:[f2<84.1955795] yes=7,no=8,missing=8
			7:leaf=-0.32133764
			8:leaf=-0.250483304
		4:[f4<0.580136716] yes=9,no=10,missing=10
			9:leaf=0.154451132
			10:leaf=-0.20985958
	2:[f1<21.5886383] yes=5,no=6,missing=6
		5:[f6<0.311794966] yes=11,no=12,missing=12
			11:leaf=-0.321738452
			12:leaf=-0.181836993
		6:[f2<114.152496] yes=13,no=14,missing=14
			13:leaf=0.0512987264
			14:leaf=-0.433416456
booster[7]:
0:[f1<45.8419914] yes=1,no=2,missing=2
	1:[f6<0.347459763] yes=3,no=4,missing=4
		3:[f3<80.8497314] yes=7,no=8,missing=8
			7:leaf=-0.314236611
			8:leaf=-0.250763714
		4:[f3<50.2472649] yes=9,no=10,missing=10
			9:leaf=-0.208332062
			10:leaf=0.104343913
	2:[f6<0.115117438] yes=5,no=6,missing=6
		5:[f2<100.480942] yes=11,no=12,missing=12
			11:leaf=-0.294796526
			12:leaf=-0.143445134
		6:[f2<68.9227219] yes=13,no=14,missing=14
			13:leaf=-0.131489918
			14:leaf=0.151285231
booster[8]:
0:[f1<45.8419914] yes=1,no=2,missing=2
	1:[f6<0.24220109] yes=3,no=4,missing=4
		3:[f2<73.4449463] yes=7,no=8,missing=8
			7:leaf=-0.307294935
			8:leaf=-0.209725112
		4:[f3<73.9716873] yes=9,no=10,missing=10
			9:leaf=-0.21604313
			10:leaf=0.043623019
	2:[f6<0.128636092] yes=5,no=6,missing=6
		5:[f2<95.1562119] yes=11,no=12,missing=12
			11:leaf=-0.282533258
			12:leaf=-0.111178957
		6:[f2<122.081306] yes=13,no=14,missing=14
			13:leaf=0.076943025
			14:leaf=-0.380427659
booster[9]:
0:[f1<29.4455986] yes=1,no=2,missing=2
	1:[f6<0.24220109] yes=3,no=4,missing=4
		3:[f3<206.182816] yes=7,no=8,missing=8
			7:leaf=-0.303370684
			8:leaf=-0.10508617
		4:[f1<16.8811989] yes=9,no=10,missing=10
			9:leaf=-0.301511288
			10:leaf=0.0592369996
	2:[f3<98.8624878] yes=5,no=6,missing=6
		5:[f4<0.366542965] yes=11,no=12,missing=12
			11:leaf=-0.277841896
			12:leaf=-0.080191642
		6:[f2<122.081306] yes=13,no=14,missing=14
			13:leaf=0.141720712
			14:leaf=-0.298547864
booster[10]:
0:[f1<29.4455986] yes=1,no=2,missing=2
	1:[f6<0.24220109] yes=3,no=4,missing=4
		3:[f2<89.0613861] yes=7,no=8,missing=8
			7:leaf=-0.300510198
			8:leaf=-0.189199775
		4:[f1<16.8811989] yes=9,no=10,missing=10
			9:leaf=-0.286607802
			10:leaf=0.0405186936
	2:[f6<0.115117438] yes=5,no=6,missing=6
		5:[f2<100.480942] yes=11,no=12,missing=12
			11:leaf=-0.248662204
			12:leaf=-0.0727826729
		6:[f2<74.9404297] yes=13,no=14,missing=14
			13:leaf=-0.084763974
			14:leaf=0.110527098
booster[11]:
0:[f1<25.27598] yes=1,no=2,missing=2
	1:[f6<0.253175318] yes=3,no=4,missing=4
		3:[f3<206.182816] yes=7,no=8,missing=8
			7:leaf=-0.299657255
			8:leaf=-0.00621750252
		4:[f3<73.9716873] yes=9,no=10,missing=10
			9:leaf=-0.245464548
			10:leaf=0.116304033
	2:[f6<0.153531209] yes=5,no=6,missing=6
		5:[f2<84.1955795] yes=11,no=12,missing=12
			11:leaf=-0.269732207
			12:leaf=-0.0640541092
		6:[f2<117.965225] yes=13,no=14,missing=14
			13:leaf=0.0531692319
			14:leaf=-0.349504232
booster[12]:
0:[f1<21.012598] yes=1,no=2,missing=2
	1:[f6<0.311794966] yes=3,no=4,missing=4
		3:leaf=-0.299737692
		4:[f5<155.418915] yes=7,no=8,missing=8
			7:leaf=0.467352152
			8:leaf=-0.156082928
	2:[f3<91.2466965] yes=5,no=6,missing=6
		5:[f6<0.410301447] yes=9,no=10,missing=10
			9:leaf=-0.175333768
			10:leaf=0.147262216
		6:[f2<130.908936] yes=11,no=12,missing=12
			11:leaf=0.0818326324
			12:leaf=-0.307347506
booster[13]:
0:[f1<21.012598] yes=1,no=2,missing=2
	1:[f6<0.311794966] yes=3,no=4,missing=4
		3:[f3<130.106827] yes=7,no=8,missing=8
			7:leaf=-0.300218135
			8:leaf=-0.238577828
		4:[f1<16.5710468] yes=9,no=10,missing=10
			9:leaf=-0.248800427
			10:leaf=0.152877241
	2:[f4<0.344108492] yes=5,no=6,missing=6
		5:[f3<115.658829] yes=11,no=12,missing=12
			11:leaf=-0.243356407
			12:leaf=0.187221214
		6:[f2<130.908936] yes=13,no=14,missing=14
			13:leaf=0.0282859523
			14:leaf=-0.294659913
booster[14]:
0:[f1<21.012598] yes=1,no=2,missing=2
	1:[f6<0.311794966] yes=3,no=4,missing=4
		3:[f3<130.106827] yes=7,no=8,missing=8
			7:leaf=-0.298387527
			8:leaf=-0.220000282
		4:[f5<165.571609] yes=9,no=10,missing=10
			9:leaf=0.246783733
			10:leaf=-0.139961675
	2:[f1<77.470871] yes=5,no=6,missing=6
		5:[f6<0.508006454] yes=11,no=12,missing=12
			11:leaf=-0.1307749
			12:leaf=0.145887628
		6:[f2<136.052124] yes=13,no=14,missing=14
			13:leaf=0.069778055
			14:leaf=-0.305597663
booster[15]:
0:[f2<64.7740707] yes=1,no=2,missing=2
	1:[f6<0.508006454] yes=3,no=4,missing=4
		3:[f3<121.315842] yes=7,no=8,missing=8
			7:leaf=-0.266693711
			8:leaf=0.00443295902
		4:[f0<214.498108] yes=9,no=10,missing=10
			9:leaf=0.0112405401
			10:leaf=0.217446372
	2:[f4<0.800783455] yes=5,no=6,missing=6
		5:[f6<0.0822779611] yes=11,no=12,missing=12
			11:leaf=-0.0733789355
			12:leaf=0.101440601
		6:[f5<155.418915] yes=13,no=14,missing=14
			13:leaf=-0.140160963
			14:leaf=-0.349716932
booster[16]:
0:[f1<21.012598] yes=1,no=2,missing=2
	1:[f6<0.283781499] yes=3,no=4,missing=4
		3:[f6<0.184428513] yes=7,no=8,missing=8
			7:leaf=-0.295657486
			8:leaf=-0.190148398
		4:[f3<35.1748848] yes=9,no=10,missing=10
			9:leaf=-0.271250218
			10:leaf=0.0941210985
	2:[f4<0.366542965] yes=5,no=6,missing=6
		5:[f6<0.508006454] yes=11,no=12,missing=12
			11:leaf=-0.239284292
			12:leaf=0.0482539497
		6:[f2<122.081306] yes=13,no=14,missing=14
			13:leaf=0.0403701216
			14:leaf=-0.198550835
booster[17]:
0:[f1<16.5710468] yes=1,no=2,missing=2
	1:leaf=-0.291615099
	2:[f3<114.095795] yes=3,no=4,missing=4
		3:[f4<0.472466618] yes=5,no=6,missing=6
			5:leaf=-0.150428355
			6:leaf=0.0196072459
		4:[f3<166.089569] yes=7,no=8,missing=8
			7:leaf=0.110713527
			8:leaf=-0.201317653
booster[18]:
0:[f1<16.5710468] yes=1,no=2,missing=2
	1:[f6<0.347459763] yes=3,no=4,missing=4
		3:leaf=-0.293357015
		4:[f4<0.386608392] yes=7,no=8,missing=8
			7:leaf=0.126083657
			8:leaf=-0.242996916
	2:[f6<0.148974359] yes=5,no=6,missing=6
		5:[f2<98.5802765] yes=9,no=10,missing=10
			9:leaf=-0.178670332
			10:leaf=0.0213351771
		6:[f5<105.301704] yes=11,no=12,missing=12
			11:leaf=0.179114848
			12:leaf=-0.0109172277
booster[19]:
0:[f1<16.5710468] yes=1,no=2,missing=2
	1:[f6<0.347459763] yes=3,no=4,missing=4
		3:leaf=-0.290512711
		4:[f4<0.366542965] yes=7,no=8,missing=8
			7:leaf=0.108405657
			8:leaf=-0.225667894
	2:[f1<103.470329] yes=5,no=6,missing=6
		5:[f6<0.161871374] yes=9,no=10,missing=10
			9:leaf=-0.121112324
			10:leaf=0.00748964539
		6:[f2<78.3079453] yes=11,no=12,missing=12
			11:leaf=-0.099356994
			12:leaf=0.113010235
booster[20]:
0:[f1<16.5710468] yes=1,no=2,missing=2
	1:[f6<0.347459763] yes=3,no=4,missing=4
		3:leaf=-0.286931157
		4:[f4<0.366542965] yes=7,no=8,missing=8
			7:leaf=0.0856644958
			8:leaf=-0.207715854
	2:[f2<136.052124] yes=5,no=6,missing=6
		5:[f3<117.663086] yes=9,no=10,missing=10
			9:leaf=-0.0328720212
			10:leaf=0.0767497048
		6:[f6<0.508006454] yes=11,no=12,missing=12
			11:leaf=-0.299615592
			12:leaf=-0.0912672728
booster[21]:
0:[f2<43.1524239] yes=1,no=2,missing=2
	1:[f6<0.410301447] yes=3,no=4,missing=4
		3:[f4<0.615547121] yes=7,no=8,missing=8
			7:leaf=-0.294477552
			8:leaf=-0.122294754
		4:[f0<196.198166] yes=9,no=10,missing=10
			9:leaf=-0.278399855
			10:leaf=0.172674775
	2:[f6<0.0475153849] yes=5,no=6,missing=6
		5:[f2<107.797089] yes=11,no=12,missing=12
			11:leaf=-0.222426906
			12:leaf=-0.0277136881
		6:[f6<0.047966294] yes=13,no=14,missing=14
			13:leaf=1.02653086
			14:leaf=0.0149707748
booster[22]:
0:[f1<193.989746] yes=1,no=2,missing=2
	1:[f4<0.372849166] yes=3,no=4,missing=4
		3:[f6<0.410301447] yes=7,no=8,missing=8
			7:leaf=-0.261565059
			8:leaf=0.0168096032
		4:[f4<0.85713923] yes=9,no=10,missing=10
			9:leaf=0.0198288392
			10:leaf=-0.136848882
	2:[f2<126.171242] yes=5,no=6,missing=6
		5:[f0<303.101074] yes=11,no=12,missing=12
			11:leaf=0.0918147862
			12:leaf=0.383519918
		6:[f0<400.51181] yes=13,no=14,missing=14
			13:leaf=-0.24919194
			14:leaf=0.0522769168
booster[23]:
0:[f2<136.052124] yes=1,no=2,missing=2
	1:[f1<16.5710468] yes=3,no=4,missing=4
		3:[f6<0.347459763] yes=7,no=8,missing=8
			7:leaf=-0.276182234
			8:leaf=-0.0935102254
		4:[f4<0.495942444] yes=9,no=10,missing=10
			9:leaf=-0.0440232642
			10:leaf=0.0377285406
	2:[f6<0.508006454] yes=5,no=6,missing=6
		5:leaf=-0.29166469
		6:leaf=-0.0761262104
booster[24]:
0:[f1<126.101067] yes=1,no=2,missing=2
	1:[f6<0.410301447] yes=3,no=4,missing=4
		3:[f4<0.528623521] yes=7,no=8,missing=8
			7:leaf=-0.206701234
			8:leaf=0.00511960872
		4:[f3<166.089569] yes=9,no=10,missing=10
			9:leaf=0.0845832825
			10:leaf=-0.4574067
	2:[f2<78.3079453] yes=5,no=6,missing=6
		5:[f6<0.410301447] yes=11,no=12,missing=12
			11:leaf=-0.297294945
			12:leaf=0.115675971
		6:[f2<122.081306] yes=13,no=14,missing=14
			13:leaf=0.135609984
			14:leaf=-0.133609399
booster[25]:
0:[f6<0.0475153849] yes=1,no=2,missing=2
	1:[f2<90.5305862] yes=3,no=4,missing=4
		3:leaf=-0.287404776
		4:[f1<60.8924599] yes=7,no=8,missing=8
			7:leaf=-0.185462266
			8:leaf=-0.0204126053
	2:[f5<5.41451788] yes=5,no=6,missing=6
		5:leaf=1.00727499
		6:[f3<194.580948] yes=9,no=10,missing=10
			9:leaf=0.00769965444
			10:leaf=-0.248966083
booster[26]:
0:[f2<136.052124] yes=1,no=2,missing=2
	1:[f1<16.5710468] yes=3,no=4,missing=4
		3:[f5<105.301704] yes=7,no=8,missing=8
			7:leaf=-0.275690407
			8:leaf=-0.106224887
		4:[f1<214.199188] yes=9,no=10,missing=10
			9:leaf=-0.00119456637
			10:leaf=0.178953037
	2:[f5<221.567001] yes=5,no=6,missing=6
		5:leaf=-0.28169629
		6:leaf=-0.0759730116
booster[27]:
0:[f4<0.963190854] yes=1,no=2,missing=2
	1:[f4<0.441915303] yes=3,no=4,missing=4
		3:[f0<523.2677] yes=7,no=8,missing=8
			7:leaf=-0.0732453838
			8:leaf=0.3417027
		4:[f0<270.124969] yes=9,no=10,missing=10
			9:leaf=0.0905638486
			10:leaf=-0.0339680314
	2:[f4<0.999144435] yes=5,no=6,missing=6
		5:[f1<32.979805] yes=11,no=12,missing=12
			11:leaf=-0.229058966
			12:leaf=-0.0441808403
		6:leaf=-0.278400421
booster[28]:
0:[f6<0.0822779611] yes=1,no=2,missing=2
	1:[f3<-445.416046] yes=3,no=4,missing=4
		3:[f4<0.647928834] yes=7,no=8,missing=8
			7:leaf=0.943491578
			8:leaf=-0.0858424902
		4:[f0<507.96344] yes=9,no=10,missing=10
			9:leaf=-0.106715851
			10:leaf=0.184178263
	2:[f2<122.081306] yes=5,no=6,missing=6
		5:[f5<117.676247] yes=11,no=12,missing=12
			11:leaf=0.0589949153
			12:leaf=-0.0167624652
		6:[f3<97.6442642] yes=13,no=14,missing=14
			13:leaf=-0.00617862167
			14:leaf=-0.270460427
booster[29]:
0:[f5<5.41451788] yes=1,no=2,missing=2
	1:[f1<70.396286] yes=3,no=4,missing=4
		3:[f4<0.642321646] yes=7,no=8,missing=8
			7:leaf=1.15977395
			8:leaf=0.0256515611
		4:[f0<309.066071] yes=9,no=10,missing=10
			9:leaf=-0.0433763936
			10:leaf=-0.178238466
	2:[f3<117.663086] yes=5,no=6,missing=6
		5:[f6<0.172312751] yes=11,no=12,missing=12
			11:leaf=-0.0858282149
			12:leaf=0.0191929266
		6:[f3<153.321533] yes=13,no=14,missing=14
			13:leaf=0.0731491148
			14:leaf=-0.0797770098
booster[30]:
0:[f4<0.24187474] yes=1,no=2,missing=2
	1:[f0<507.96344] yes=3,no=4,missing=4
		3:[f3<-230.355194] yes=7,no=8,missing=8
			7:leaf=0.115930565
			8:leaf=-0.309677303
		4:[f5<303.852753] yes=9,no=10,missing=10
			9:leaf=-0.198280126
			10:leaf=0.438296109
	2:[f1<193.989746] yes=5,no=6,missing=6
		5:[f0<409.83609] yes=11,no=12,missing=12
			11:leaf=0.00718099484
			12:leaf=-0.0824993998
		6:[f0<321.414154] yes=13,no=14,missing=14
			13:leaf=0.0419192798
			14:leaf=0.271652967
booster[31]:
0:[f2<136.052124] yes=1,no=2,missing=2
	1:[f1<16.5710468] yes=3,no=4,missing=4
		3:[f6<0.184428513] yes=7,no=8,missing=8
			7:leaf=-0.264635861
			8:leaf=-0.0783838779
		4:[f4<0.54382199] yes=9,no=10,missing=10
			9:leaf=-0.0215734821
			10:leaf=0.0311373975
	2:[f5<221.567001] yes=5,no=6,missing=6
		5:leaf=-0.268486679
		6:leaf=-0.0627063736
booster[32]:
0:[f6<0.410301447] yes=1,no=2,missing=2
	1:[f2<78.3079453] yes=3,no=4,missing=4
		3:[f4<0.533757508] yes=7,no=8,missing=8
			7:leaf=-0.206466496
			8:leaf=0.0393597782
		4:[f0<274.396118] yes=9,no=10,missing=10
			9:leaf=0.0757957995
			10:leaf=-0.0117393425
	2:[f5<155.418915] yes=5,no=6,missing=6
		5:[f3<74.9200821] yes=11,no=12,missing=12
			11:leaf=0.4834719
			12:leaf=0.0956349298
		6:[f2<89.0613861] yes=13,no=14,missing=14
			13:leaf=0.0517935418
			14:leaf=-0.265311748
booster[33]:
0:[f4<0.963190854] yes=1,no=2,missing=2
	1:[f3<-258.835022] yes=3,no=4,missing=4
		3:[f6<0.865350306] yes=7,no=8,missing=8
			7:leaf=0.145226628
			8:leaf=-0.328932405
		4:[f3<121.315842] yes=9,no=10,missing=10
			9:leaf=-0.0209321138
			10:leaf=0.0333873779
	2:[f5<68.8905716] yes=5,no=6,missing=6
		5:[f6<0.105149359] yes=11,no=12,missing=12
			11:leaf=-0.160319567
			12:leaf=0.15982312
		6:[f2<80.9948425] yes=13,no=14,missing=14
			13:leaf=-0.033834856
			14:leaf=-0.282480866
booster[34]:
0:[f6<0.0451270714] yes=1,no=2,missing=2
	1:[f2<107.797089] yes=3,no=4,missing=4
		3:[f3<-125.295303] yes=7,no=8,missing=8
			7:leaf=0.0786093473
			8:leaf=-0.21056509
		4:[f6<0.0350941718] yes=9,no=10,missing=10
			9:leaf=0.0974167064
			10:leaf=-0.110180102
	2:[f2<117.965225] yes=5,no=6,missing=6
		5:[f6<0.047966294] yes=11,no=12,missing=12
			11:leaf=0.328205615
			12:leaf=0.00878667552
		6:[f6<0.1874623] yes=13,no=14,missing=14
			13:leaf=-0.0491665043
			14:leaf=-0.299388438
booster[35]:
0:[f1<103.470329] yes=1,no=2,missing=2
	1:[f5<5.41451788] yes=3,no=4,missing=4
		3:[f3<65.468338] yes=7,no=8,missing=8
			7:leaf=-0.17720893
			8:leaf=0.534181178
		4:[f6<0.508006454] yes=9,no=10,missing=10
			9:leaf=-0.0376989245
			10:leaf=0.0432450734
	2:[f3<160.927078] yes=5,no=6,missing=6
		5:[f2<98.5802765] yes=11,no=12,missing=12
			11:leaf=0.00066672446
			12:leaf=0.0799002647
		6:[f4<0.416801512] yes=13,no=14,missing=14
			13:leaf=0.142656475
			14:leaf=-0.458086699
booster[36]:
0:[f0<94.7186508] yes=1,no=2,missing=2
	1:[f3<63.2515182] yes=3,no=4,missing=4
		3:leaf=-0.275681138
		4:leaf=-0.0263560805
	2:[f2<136.052124] yes=5,no=6,missing=6
		5:[f6<0.0300911274] yes=7,no=8,missing=8
			7:leaf=-0.114327937
			8:leaf=0.00680373283
		6:[f5<129.264008] yes=9,no=10,missing=10
			9:leaf=-0.253059477
			10:leaf=-0.0459346808
booster[37]:
0:[f1<15.1995449] yes=1,no=2,missing=2
	1:[f2<26.1126385] yes=3,no=4,missing=4
		3:[f4<0.309834331] yes=7,no=8,missing=8
			7:leaf=-0.169521183
			8:leaf=0.128733128
		4:leaf=-0.253841162
	2:[f1<22.8627777] yes=5,no=6,missing=6
		5:[f3<73.9716873] yes=9,no=10,missing=10
			9:leaf=-0.150113493
			10:leaf=0.264632493
		6:[f1<25.27598] yes=11,no=12,missing=12
			11:leaf=-0.235193744
			12:leaf=-3.38379505e-05
booster[38]:
0:[f4<0.999144435] yes=1,no=2,missing=2
	1:[f0<572.69873] yes=3,no=4,missing=4
		3:[f0<507.96344] yes=5,no=6,missing=6
			5:leaf=-0.00346140563
			6:leaf=0.264140338
		4:[f2<105.235268] yes=7,no=8,missing=8
			7:leaf=-0.0666851997
			8:leaf=-0.236147299
	2:leaf=-0.242413029
booster[39]:
0:[f3<-33.0117455] yes=1,no=2,missing=2
	1:[f6<0.865350306] yes=3,no=4,missing=4
		3:[f6<0.410301447] yes=7,no=8,missing=8
			7:leaf=0.0222204253
			8:leaf=0.228973344
		4:[f2<51.6663551] yes=9,no=10,missing=10
			9:leaf=0.15332517
			10:leaf=-0.410072118
	2:[f3<41.7668762] yes=5,no=6,missing=6
		5:[f2<96.8473969] yes=11,no=12,missing=12
			11:leaf=-0.228252217
			12:leaf=0.111110546
		6:[f2<27.411541] yes=13,no=14,missing=14
			13:leaf=0.265526414
			14:leaf=-0.00538943941
booster[40]:
0:[f4<0.24187474] yes=1,no=2,missing=2
	1:[f0<507.96344] yes=3,no=4,missing=4
		3:[f3<-230.355194] yes=7,no=8,missing=8
			7:leaf=0.103735313
			8:leaf=-0.291128337
		4:[f5<398.984192] yes=9,no=10,missing=10
			9:leaf=-0.124333516
			10:leaf=0.324101865
	2:[f1<214.199188] yes=5,no=6,missing=6
		5:[f5<117.676247] yes=11,no=12,missing=12
			11:leaf=0.0176750086
			12:leaf=-0.0275007077
		6:[f6<0.153531209] yes=13,no=14,missing=14
			13:leaf=-0.0401717983
			14:leaf=0.275497705
booster[41]:
0:[f6<0.161871374] yes=1,no=2,missing=2
	1:[f3<176.360519] yes=3,no=4,missing=4
		3:[f1<28.2417564] yes=7,no=8,missing=8
			7:leaf=-0.23531872
			8:leaf=-0.0153132919
		4:[f0<518.710083] yes=9,no=10,missing=10
			9:leaf=0.603630424
			10:leaf=-0.178456202
	2:[f5<105.301704] yes=5,no=6,missing=6
		5:[f1<29.8949928] yes=11,no=12,missing=12
			11:leaf=0.516931295
			12:leaf=0.0875804052
		6:[f2<107.797089] yes=13,no=14,missing=14
			13:leaf=-0.00229573622
			14:leaf=-0.237145156
booster[42]:
0:[f6<0.347459763] yes=1,no=2,missing=2
	1:[f2<44.3833847] yes=3,no=4,missing=4
		3:[f4<0.658385813] yes=7,no=8,missing=8
			7:leaf=-0.281193942
			8:leaf=0.0013630843
		4:[f2<49.1502457] yes=9,no=10,missing=10
			9:leaf=0.400871664
			10:leaf=-0.0120112645
	2:[f4<0.625952959] yes=5,no=6,missing=6
		5:[f5<129.264008] yes=11,no=12,missing=12
			11:leaf=0.312208533
			12:leaf=0.0404948443
		6:[f2<58.3311043] yes=13,no=14,missing=14
			13:leaf=0.135342732
			14:leaf=-0.167788684
booster[43]:
0:[f2<136.052124] yes=1,no=2,missing=2
	1:[f4<0.366542965] yes=3,no=4,missing=4
		3:[f3<130.106827] yes=7,no=8,missing=8
			7:leaf=-0.0845179558
			8:leaf=0.203609377
		4:[f1<99.6042862] yes=9,no=10,missing=10
			9:leaf=-0.0113416584
			10:leaf=0.0401970036
	2:[f5<110.03936] yes=5,no=6,missing=6
		5:leaf=-0.239888296
		6:leaf=-0.0441706255
booster[44]:
0:[f0<201.214325] yes=1,no=2,missing=2
	1:[f2<60.5898399] yes=3,no=4,missing=4
		3:[f3<127.667183] yes=7,no=8,missing=8
			7:leaf=-0.174317449
			8:leaf=0.0939297378
		4:[f2<80.0215378] yes=9,no=10,missing=10
			9:leaf=0.114322387
			10:leaf=-0.0967484936
	2:[f2<49.4408798] yes=5,no=6,missing=6
		5:[f0<523.2677] yes=11,no=12,missing=12
			11:leaf=0.0401518196
			12:leaf=1.10020685
		6:[f6<0.865350306] yes=13,no=14,missing=14
			13:leaf=0.00441369228
			14:leaf=-0.239229485
booster[45]:
0:[f6<0.508006454] yes=1,no=2,missing=2
	1:[f2<73.4449463] yes=3,no=4,missing=4
		3:[f1<34.7272072] yes=7,no=8,missing=8
			7:leaf=0.0666842833
			8:leaf=-0.147653535
		4:[f0<430.282349] yes=9,no=10,missing=10
			9:leaf=0.0269139707
			10:leaf=-0.0933010876
	2:[f2<73.4449463] yes=5,no=6,missing=6
		5:[f5<257.698029] yes=11,no=12,missing=12
			11:leaf=0.221012294
			12:leaf=0.051676169
		6:[f1<160.250183] yes=13,no=14,missing=14
			13:leaf=-0.191420302
			14:leaf=0.121017538
booster[46]:
0:[f1<15.1995449] yes=1,no=2,missing=2
	1:[f2<26.1126385] yes=3,no=4,missing=4
		3:[f4<0.317870438] yes=7,no=8,missing=8
			7:leaf=-0.162688315
			8:leaf=0.124215327
		4:leaf=-0.248551831
	2:[f3<-30.6375751] yes=5,no=6,missing=6
		5:[f1<21.8089256] yes=9,no=10,missing=10
			9:leaf=-0.234879538
			10:leaf=0.0504477397
		6:[f3<19.8400879] yes=11,no=12,missing=12
			11:leaf=-0.166094512
			12:leaf=-0.00431264285
booster[47]:
0:[f6<0.347459763] yes=1,no=2,missing=2
	1:[f4<0.509175301] yes=3,no=4,missing=4
		3:[f2<82.0214615] yes=7,no=8,missing=8
			7:leaf=-0.201578334
			8:leaf=0.0128235938
		4:[f5<155.418915] yes=9,no=10,missing=10
			9:leaf=0.026004767
			10:leaf=-0.16475746
	2:[f3<97.6442642] yes=5,no=6,missing=6
		5:[f6<0.865350306] yes=11,no=12,missing=12
			11:leaf=0.142327353
			12:leaf=-0.0902888253
		6:[f2<37.559864] yes=13,no=14,missing=14
			13:leaf=0.183483735
			14:leaf=-0.0578086153
booster[48]:
0:[f6<0.172312751] yes=1,no=2,missing=2
	1:[f2<84.1955795] yes=3,no=4,missing=4
		3:[f5<4.38853025] yes=7,no=8,missing=8
			7:leaf=0.53320539
			8:leaf=-0.144128561
		4:[f3<206.182816] yes=9,no=10,missing=10
			9:leaf=-0.00805041753
			10:leaf=0.477051347
	2:[f2<110.901207] yes=5,no=6,missing=6
		5:[f5<105.301704] yes=11,no=12,missing=12
			11:leaf=0.118231855
			12:leaf=0.00291149248
		6:[f6<0.865350306] yes=13,no=14,missing=14
			13:leaf=-0.239932418
			14:leaf=0.305221736
booster[49]:
0:[f4<0.999144435] yes=1,no=2,missing=2
	1:[f0<488.682129] yes=3,no=4,missing=4
		3:[f0<409.83609] yes=5,no=6,missing=6
			5:leaf=0.00387485954
			6:leaf=-0.0994894579
		4:[f2<54.0704803] yes=7,no=8,missing=8
			7:leaf=0.428091943
			8:leaf=-0.0427798443
	2:leaf=-0.219216824
