booster[0]:
0:[f2<78.4823608] yes=1,no=2,missing=2
	1:[f3<162.110504] yes=3,no=4,missing=4
		3:[f3<139.028839] yes=7,no=8,missing=8
			7:leaf=-0.524040818
			8:leaf=-0.296551704
		4:[f6<0.29877001] yes=9,no=10,missing=10
			9:leaf=-0.292489678
			10:leaf=0.154555649
	2:[f3<118.90078] yes=5,no=6,missing=6
		5:[f2<96.1555405] yes=11,no=12,missing=12
			11:leaf=-0.435712367
			12:leaf=0.310549021
		6:[f6<0.165880471] yes=13,no=14,missing=14
			13:leaf=0.222740784
			14:leaf=0.460933536
booster[1]:
0:[f2<67.7328339] yes=1,no=2,missing=2
	1:[f3<171.471146] yes=3,no=4,missing=4
		3:[f4<0.414928526] yes=7,no=8,missing=8
			7:leaf=-0.426469743
			8:leaf=-0.291965663
		4:[f1<16.8061962] yes=9,no=10,missing=10
			9:leaf=-0.501296461
			10:leaf=0.0468171313
	2:[f3<126.683403] yes=5,no=6,missing=6
		5:[f2<99.0460434] yes=11,no=12,missing=12
			11:leaf=-0.325001985
			12:leaf=0.404635489
		6:[f4<0.40559417] yes=13,no=14,missing=14
			13:leaf=-0.029586399
			14:leaf=0.301471114
booster[2]:
0:[f2<84.1823273] yes=1,no=2,missing=2
	1:[f6<0.271493793] yes=3,no=4,missing=4
		3:[f6<0.173195347] yes=7,no=8,missing=8
			7:leaf=-0.405246496
			8:leaf=-0.225893304
		4:[f2<64.0407562] yes=9,no=10,missing=10
			9:leaf=-0.124262512
			10:leaf=0.250469685
	2:[f2<135.421921] yes=5,no=6,missing=6
		5:[f4<0.40559417] yes=11,no=12,missing=12
			11:leaf=-0.0313839242
			12:leaf=0.278069168
		6:[f6<1.07750833] yes=13,no=14,missing=14
			13:leaf=-0.815321565
			14:leaf=0.2169168
booster[3]:
0:[f4<0.437711269] yes=1,no=2,missing=2
	1:[f3<183.180298] yes=3,no=4,missing=4
		3:[f2<99.0460434] yes=7,no=8,missing=8
			7:leaf=-0.286571413
			8:leaf=0.301894188
		4:[f1<71.1407394] yes=9,no=10,missing=10
			9:leaf=-0.148016751
			10:leaf=0.154719189
	2:[f1<27.2657719] yes=5,no=6,missing=6
		5:[f6<0.167716682] yes=11,no=12,missing=12
			11:leaf=-0.380999357
			12:leaf=-0.132355288
		6:[f3<131.430344] yes=13,no=14,missing=14
			13:leaf=-0.0497183353
			14:leaf=0.206827536
booster[4]:
0:[f3<139.908035] yes=1,no=2,missing=2
	1:[f2<96.1555405] yes=3,no=4,missing=4
		3:[f4<0.526474059] yes=7,no=8,missing=8
			7:leaf=-0.292467803
			8:leaf=-0.105673097
		4:[f2<102.265633] yes=9,no=10,missing=10
			9:leaf=0.128101662
			10:leaf=0.342664003
	2:[f2<57.1692848] yes=5,no=6,missing=6
		5:[f3<193.560928] yes=11,no=12,missing=12
			11:leaf=-0.187959835
			12:leaf=0.0128863351
		6:[f0<375.463898] yes=13,no=14,missing=14
			13:leaf=0.168410406
			14:leaf=-0.0723343417
booster[5]:
0:[f2<91.8812637] yes=1,no=2,missing=2
	1:[f6<0.187040046] yes=3,no=4,missing=4
		3:[f6<0.117452025] yes=7,no=8,missing=8
			7:leaf=-0.343602121
			8:leaf=-0.232630298
		4:[f2<73.2183456] yes=9,no=10,missing=10
			9:leaf=-0.0473221317
			10:leaf=0.201363921
	2:[f2<135.421921] yes=5,no=6,missing=6
		5:[f6<0.129015371] yes=11,no=12,missing=12
			11:leaf=0.107095964
			12:leaf=0.258090109
		6:[f3<155.22789] yes=13,no=14,missing=14
			13:leaf=0.180377692
			14:leaf=-0.612131417
booster[6]:
0:[f4<0.40559417] yes=1,no=2,missing=2
	1:[f3<197.775055] yes=3,no=4,missing=4
		3:[f1<223.893158] yes=7,no=8,missing=8
			7:leaf=-0.218323797
			8:leaf=0.100534834
		4:[f1<101.410934] yes=9,no=10,missing=10
			9:leaf=-0.00942499097
			10:leaf=0.182610929
	2:[f1<21.2067318] yes=5,no=6,missing=6
		5:[f2<71.5364609] yes=11,no=12,missing=12
			11:leaf=-0.2405494
			12:leaf=-0.519919932
		6:[f1<85.704483] yes=13,no=14,missing=14
			13:leaf=0.0208353028
			14:leaf=0.158312291
booster[7]:
0:[f3<145.08873] yes=1,no=2,missing=2
	1:[f2<99.0460434] yes=3,no=4,missing=4
		3:[f4<0.526474059] yes=7,no=8,missing=8
			7:leaf=-0.218748644
			8:leaf=-0.0253793448
		4:[f0<427.54248] yes=9,no=10,missing=10
			9:leaf=0.254406393
			10:leaf=0.0113354791
	2:[f6<0.149673447] yes=5,no=6,missing=6
		5:[f2<100.48365] yes=11,no=12,missing=12
			11:leaf=-0.363420486
			12:leaf=0.111957438
		6:[f2<75.4560013] yes=13,no=14,missing=14
			13:leaf=0.0191794559
			14:leaf=0.163533971
booster[8]:
0:[f6<0.383966804] yes=1,no=2,missing=2
	1:[f2<87.0002365] yes=3,no=4,missing=4
		3:[f4<0.512792945] yes=7,no=8,missing=8
			7:leaf=-0.234680191
			8:leaf=-0.0380956717
		4:[f2<135.421921] yes=9,no=10,missing=10
			9:leaf=0.0979146063
			10:leaf=-0.499396175
	2:[f2<61.286293] yes=5,no=6,missing=6
		5:[f4<0.443455458] yes=11,no=12,missing=12
			11:leaf=-0.056513492
			12:leaf=0.126559481
		6:[f2<104.764366] yes=13,no=14,missing=14
			13:leaf=0.213657394
			14:leaf=-0.520254672
booster[9]:
0:[f6<0.143156573] yes=1,no=2,missing=2
	1:[f2<100.48365] yes=3,no=4,missing=4
		3:[f4<0.51030308] yes=7,no=8,missing=8
			7:leaf=-0.321012437
			8:leaf=-0.156358927
		4:[f4<0.803404808] yes=9,no=10,missing=10
			9:leaf=0.190974325
			10:leaf=-0.132232755
	2:[f2<81.9693756] yes=5,no=6,missing=6
		5:[f6<0.456313193] yes=11,no=12,missing=12
			11:leaf=-0.0782827884
			12:leaf=0.089855656
		6:[f2<117.300629] yes=13,no=14,missing=14
			13:leaf=0.174958766
			14:leaf=-0.356400758
booster[10]:
0:[f4<0.395346403] yes=1,no=2,missing=2
	1:[f6<0.564635098] yes=3,no=4,missing=4
		3:[f2<97.8871384] yes=7,no=8,missing=8
			7:leaf=-0.164843515
			8:leaf=0.132460102
		4:[f2<48.8739662] yes=9,no=10,missing=10
			9:leaf=-0.10410405
			10:leaf=0.21401231
	2:[f1<15.0694618] yes=5,no=6,missing=6
		5:[f6<0.271493793] yes=11,no=12,missing=12
			11:leaf=-0.314805955
			12:leaf=-0.434924394
		6:[f6<0.240811884] yes=13,no=14,missing=14
			13:leaf=-0.0201122519
			14:leaf=0.0968166441
booster[11]:
0:[f6<0.0818210021] yes=1,no=2,missing=2
	1:[f2<102.265633] yes=3,no=4,missing=4
		3:[f3<128.827591] yes=7,no=8,missing=8
			7:leaf=-0.173231348
			8:leaf=-0.364120394
		4:[f2<135.421921] yes=9,no=10,missing=10
			9:leaf=0.116247512
			10:leaf=-0.335727453
	2:[f2<70.6036301] yes=5,no=6,missing=6
		5:[f6<0.470239818] yes=11,no=12,missing=12
			11:leaf=-0.101160914
			12:leaf=0.0437146612
		6:[f6<0.304347873] yes=13,no=14,missing=14
			13:leaf=0.0179898981
			14:leaf=0.162723884
booster[12]:
0:[f3<266.917664] yes=1,no=2,missing=2
	1:[f4<0.44528091] yes=3,no=4,missing=4
		3:[f6<0.391260803] yes=7,no=8,missing=8
			7:leaf=-0.120977201
			8:leaf=0.00836415216
		4:[f1<93.833107] yes=9,no=10,missing=10
			9:leaf=0.012370998
			10:leaf=0.136470884
	2:[f6<0.625931799] yes=5,no=6,missing=6
		5:[f0<219.86058] yes=11,no=12,missing=12
			11:leaf=-0.697345912
			12:leaf=-0.318925798
		6:[f2<39.5552292] yes=13,no=14,missing=14
			13:leaf=-0.535407245
			14:leaf=-0.0231360272
booster[13]:
0:[f1<15.0694618] yes=1,no=2,missing=2
	1:[f4<0.365207016] yes=3,no=4,missing=4
		3:[f4<0.33936435] yes=7,no=8,missing=8
			7:leaf=-0.319622487
			8:leaf=0.477111131
		4:[f6<0.228427187] yes=9,no=10,missing=10
			9:leaf=-0.285886586
			10:leaf=-0.375778824
	2:[f2<125.118637] yes=5,no=6,missing=6
		5:[f2<99.0460434] yes=11,no=12,missing=12
			11:leaf=-0.0067245001
			12:leaf=0.129872248
		6:[f3<187.468567] yes=13,no=14,missing=14
			13:leaf=-0.0640449822
			14:leaf=-0.439134628
booster[14]:
0:[f6<0.123186961] yes=1,no=2,missing=2
	1:[f2<102.265633] yes=3,no=4,missing=4
		3:[f5<60.4411011] yes=7,no=8,missing=8
			7:leaf=-0.0930237919
			8:leaf=-0.285481274
		4:[f2<125.118637] yes=9,no=10,missing=10
			9:leaf=0.124639295
			10:leaf=-0.173176706
	2:[f5<91.2613373] yes=5,no=6,missing=6
		5:[f6<0.307247728] yes=11,no=12,missing=12
			11:leaf=0.101689883
			12:leaf=0.484187782
		6:[f6<0.193045616] yes=13,no=14,missing=14
			13:leaf=-0.175693303
			14:leaf=0.0152796078
booster[15]:
0:[f6<0.0448441543] yes=1,no=2,missing=2
	1:[f2<107.88176] yes=3,no=4,missing=4
		3:[f5<33.0591125] yes=7,no=8,missing=8
			7:leaf=-0.195014015
			8:leaf=-0.401107281
		4:[f0<513.408203] yes=9,no=10,missing=10
			9:leaf=0.059783984
			10:leaf=-0.932273805
	2:[f4<0.512792945] yes=5,no=6,missing=6
		5:[f2<97.8871384] yes=11,no=12,missing=12
			11:leaf=-0.0390364341
			12:leaf=0.140687808
		6:[f3<214.645645] yes=13,no=14,missing=14
			13:leaf=0.083077386
			14:leaf=-0.0971100628
booster[16]:
0:[f6<0.223942786] yes=1,no=2,missing=2
	1:[f2<95.4920654] yes=3,no=4,missing=4
		3:[f4<0.54131633] yes=7,no=8,missing=8
			7:leaf=-0.180278122
			8:leaf=-0.0393617302
		4:[f4<0.793973386] yes=9,no=10,missing=10
			9:leaf=0.0963051468
			10:leaf=-0.155397788
	2:[f2<77.3444061] yes=5,no=6,missing=6
		5:[f6<0.456313193] yes=11,no=12,missing=12
			11:leaf=-0.0588395037
			12:leaf=0.0450959466
		6:[f3<239.601212] yes=13,no=14,missing=14
			13:leaf=0.17854245
			14:leaf=-0.121476941
booster[17]:
0:[f1<15.0694618] yes=1,no=2,missing=2
	1:[f0<365.014557] yes=3,no=4,missing=4
		3:[f6<0.383966804] yes=7,no=8,missing=8
			7:leaf=-0.316835344
			8:leaf=-0.362528265
		4:[f0<372.44751] yes=9,no=10,missing=10
			9:leaf=0.542987645
			10:leaf=-0.271203965
	2:[f4<0.365207016] yes=5,no=6,missing=6
		5:[f1<192.318726] yes=11,no=12,missing=12
			11:leaf=-0.0868550837
			12:leaf=0.0881429464
		6:[f6<0.340872198] yes=13,no=14,missing=14
			13:leaf=-0.0130861448
			14:leaf=0.0673711672
booster[18]:
0:[f6<0.0962824523] yes=1,no=2,missing=2
	1:[f5<45.4030685] yes=3,no=4,missing=4
		3:[f6<0.0519444905] yes=7,no=8,missing=8
			7:leaf=-0.105183862
			8:leaf=0.0719731078
		4:[f4<0.215882882] yes=9,no=10,missing=10
			9:leaf=2.11302733
			10:leaf=-0.204534367
	2:[f5<261.82724] yes=5,no=6,missing=6
		5:[f6<0.636510968] yes=11,no=12,missing=12
			11:leaf=0.0267731901
			12:leaf=0.728487909
		6:[f6<0.625931799] yes=13,no=14,missing=14
			13:leaf=-0.102280617
			14:leaf=0.0421334021
booster[19]:
0:[f2<48.3169518] yes=1,no=2,missing=2
	1:[f4<0.292709947] yes=3,no=4,missing=4
		3:[f6<1.07750833] yes=7,no=8,missing=8
			7:leaf=-0.269673824
			8:leaf=0.171006262
		4:[f0<314.172119] yes=9,no=10,missing=10
			9:leaf=-0.0860805362
			10:leaf=0.147233933
	2:[f6<0.470239818] yes=5,no=6,missing=6
		5:[f4<0.495626807] yes=11,no=12,missing=12
			11:leaf=-0.0564866252
			12:leaf=0.0248474199
		6:[f3<260.214874] yes=13,no=14,missing=14
			13:leaf=0.109024927
			14:leaf=-0.0855368078
booster[20]:
0:[f1<15.0694618] yes=1,no=2,missing=2
	1:[f6<0.226187542] yes=3,no=4,missing=4
		3:leaf=-0.313455373
		4:[f3<100.142365] yes=7,no=8,missing=8
			7:leaf=1.47566593
			8:leaf=-0.209944263
	2:[f2<125.118637] yes=5,no=6,missing=6
		5:[f2<89.6462097] yes=9,no=10,missing=10
			9:leaf=-0.00974431913
			10:leaf=0.0575799085
		6:[f3<164.501556] yes=11,no=12,missing=12
			11:leaf=0.0609695725
			12:leaf=-0.282556176
booster[21]:
0:[f4<0.803404808] yes=1,no=2,missing=2
	1:[f4<0.538221896] yes=3,no=4,missing=4
		3:[f6<0.350370497] yes=7,no=8,missing=8
			7:leaf=-0.0616409108
			8:leaf=0.0213429257
		4:[f0<402.004181] yes=9,no=10,missing=10
			9:leaf=0.0595113821
			10:leaf=-0.098357521
	2:[f0<490.592743] yes=5,no=6,missing=6
		5:[f5<22.2534695] yes=11,no=12,missing=12
			11:leaf=0.12183781
			12:leaf=-0.110750593
		6:[f4<0.984742939] yes=13,no=14,missing=14
			13:leaf=-0.507063687
			14:leaf=0.0765940696
booster[22]:
0:[f6<0.783555627] yes=1,no=2,missing=2
	1:[f2<62.5380249] yes=3,no=4,missing=4
		3:[f1<54.492157] yes=7,no=8,missing=8
			7:leaf=0.00690897321
			8:leaf=-0.122287385
		4:[f6<0.340872198] yes=9,no=10,missing=10
			9:leaf=-0.0113024311
			10:leaf=0.088427797
	2:[f3<145.572159] yes=5,no=6,missing=6
		5:[f0<215.516449] yes=11,no=12,missing=12
			11:leaf=-0.323166847
			12:leaf=1.10629499
		6:[f2<36.332634] yes=13,no=14,missing=14
			13:leaf=-0.179104179
			14:leaf=0.125506729
booster[23]:
0:[f3<239.601212] yes=1,no=2,missing=2
	1:[f2<87.0002365] yes=3,no=4,missing=4
		3:[f6<0.295981497] yes=7,no=8,missing=8
			7:leaf=-0.0648431405
			8:leaf=0.0222487729
		4:[f6<0.144795522] yes=9,no=10,missing=10
			9:leaf=-0.00801815372
			10:leaf=0.127344072
	2:[f6<0.783555627] yes=5,no=6,missing=6
		5:[f2<117.300629] yes=11,no=12,missing=12
			11:leaf=-0.110006168
			12:leaf=-0.416514367
		6:[f5<401.949585] yes=13,no=14,missing=14
			13:leaf=0.328967333
			14:leaf=-0.00943395123
booster[24]:
0:[f3<326.201447] yes=1,no=2,missing=2
	1:[f2<43.159996] yes=3,no=4,missing=4
		3:[f1<78.6733017] yes=7,no=8,missing=8
			7:leaf=-0.037056379
			8:leaf=-0.315894753
		4:[f6<0.579514444] yes=9,no=10,missing=10
			9:leaf=-0.000636760844
			10:leaf=0.088851124
	2:[f1<87.8860168] yes=5,no=6,missing=6
		5:[f6<0.524604619] yes=11,no=12,missing=12
			11:leaf=-0.317469746
			12:leaf=-0.0354450978
		6:[f1<133.400436] yes=13,no=14,missing=14
			13:leaf=-0.869310617
			14:leaf=-0.142562419
booster[25]:
0:[f5<288.337097] yes=1,no=2,missing=2
	1:[f6<0.579514444] yes=3,no=4,missing=4
		3:[f3<208.115341] yes=7,no=8,missing=8
			7:leaf=0.0164291058
			8:leaf=-0.0901414454
		4:[f4<0.401445597] yes=9,no=10,missing=10
			9:leaf=0.520053029
			10:leaf=0.111974783
	2:[f3<175.221176] yes=5,no=6,missing=6
		5:[f0<275.146729] yes=11,no=12,missing=12
			11:leaf=-0.338269442
			12:leaf=0.048367098
		6:[f1<157.161377] yes=13,no=14,missing=14
			13:leaf=-0.0346516818
			14:leaf=0.12551707
booster[26]:
0:[f1<15.0694618] yes=1,no=2,missing=2
	1:[f5<127.575829] yes=3,no=4,missing=4
		3:leaf=-0.311308265
		4:[f5<128.964569] yes=7,no=8,missing=8
			7:leaf=0.853747547
			8:leaf=-0.162803531
	2:[f6<0.0315352827] yes=5,no=6,missing=6
		5:[f2<107.88176] yes=9,no=10,missing=10
			9:leaf=-0.252517551
			10:leaf=0.0280161928
		6:[f5<5.25721884] yes=11,no=12,missing=12
			11:leaf=0.749686837
			12:leaf=0.00366297085
booster[27]:
0:[f2<150.199661] yes=1,no=2,missing=2
	1:[f2<80.338707] yes=3,no=4,missing=4
		3:[f4<0.535334229] yes=5,no=6,missing=6
			5:leaf=-0.0355666541
			6:leaf=0.0300369374
		4:[f6<0.221545801] yes=7,no=8,missing=8
			7:leaf=-0.00686586183
			8:leaf=0.100609019
	2:leaf=-0.350755274
booster[28]:
0:[f6<0.783555627] yes=1,no=2,missing=2
	1:[f3<235.504684] yes=3,no=4,missing=4
		3:[f4<0.327036142] yes=7,no=8,missing=8
			7:leaf=-0.0695759803
			8:leaf=0.0107565392
		4:[f2<46.3082085] yes=9,no=10,missing=10
			9:leaf=-0.516018331
			10:leaf=-0.06816753
	2:[f3<153.161865] yes=5,no=6,missing=6
		5:[f3<152.621399] yes=11,no=12,missing=12
			11:leaf=0.304082513
			12:leaf=1.9280926
		6:[f2<36.332634] yes=13,no=14,missing=14
			13:leaf=-0.152493015
			14:leaf=0.0991169438
booster[29]:
0:[f4<1.02134871] yes=1,no=2,missing=2
	1:[f0<99.114769] yes=3,no=4,missing=4
		3:[f2<33.2001877] yes=7,no=8,missing=8
			7:leaf=-0.338000447
			8:leaf=0.623674154
		4:[f2<90.9984665] yes=9,no=10,missing=10
			9:leaf=-0.00987141393
			10:leaf=0.0303264111
	2:[f2<85.7654572] yes=5,no=6,missing=6
		5:[f6<0.240811884] yes=11,no=12,missing=12
			11:leaf=-0.330856532
			12:leaf=-0.563954771
		6:[f2<125.118637] yes=13,no=14,missing=14
			13:leaf=-1.06916344
			14:leaf=-0.42986539
booster[30]:
0:[f6<0.173195347] yes=1,no=2,missing=2
	1:[f2<104.764366] yes=3,no=4,missing=4
		3:[f0<382.94165] yes=7,no=8,missing=8
			7:leaf=-0.112334743
			8:leaf=0.0312715359
		4:[f4<0.634493768] yes=9,no=10,missing=10
			9:leaf=0.169490606
			10:leaf=-0.00441003637
	2:[f5<105.592682] yes=5,no=6,missing=6
		5:[f1<32.1964684] yes=11,no=12,missing=12
			11:leaf=0.336632609
			12:leaf=0.112818286
		6:[f3<107.430107] yes=13,no=14,missing=14
			13:leaf=0.393927306
			14:leaf=-0.0100281369
booster[31]:
0:[f6<0.293364286] yes=1,no=2,missing=2
	1:[f2<96.1555405] yes=3,no=4,missing=4
		3:[f1<35.034584] yes=7,no=8,missing=8
			7:leaf=0.0637158528
			8:leaf=-0.0704816431
		4:[f4<0.699940145] yes=9,no=10,missing=10
			9:leaf=0.0807681754
			10:leaf=-0.0555118769
	2:[f5<131.64212] yes=5,no=6,missing=6
		5:[f2<104.764366] yes=11,no=12,missing=12
			11:leaf=0.2268112
			12:leaf=-1.73063111
		6:[f2<68.6056061] yes=13,no=14,missing=14
			13:leaf=-0.0213914644
			14:leaf=0.0660078824
booster[32]:
0:[f1<15.0694618] yes=1,no=2,missing=2
	1:[f3<214.645645] yes=3,no=4,missing=4
		3:[f0<458.028015] yes=7,no=8,missing=8
			7:leaf=-0.318727493
			8:leaf=-0.0936844349
		4:[f6<0.228427187] yes=9,no=10,missing=10
			9:leaf=0.678943455
			10:leaf=-0.136693552
	2:[f6<0.636510968] yes=5,no=6,missing=6
		5:[f3<190.979309] yes=11,no=12,missing=12
			11:leaf=0.008378895
			12:leaf=-0.0456971079
		6:[f5<401.949585] yes=13,no=14,missing=14
			13:leaf=0.12670961
			14:leaf=-0.0103652375
booster[33]:
0:[f6<0.0448441543] yes=1,no=2,missing=2
	1:[f2<90.5532379] yes=3,no=4,missing=4
		3:[f2<84.1823273] yes=7,no=8,missing=8
			7:leaf=-0.312009484
			8:leaf=-0.347781271
		4:[f1<24.6707401] yes=9,no=10,missing=10
			9:leaf=0.798703015
			10:leaf=-0.0495465063
	2:[f5<45.4030685] yes=5,no=6,missing=6
		5:[f4<0.460892141] yes=11,no=12,missing=12
			11:leaf=-0.134302542
			12:leaf=0.116016604
		6:[f6<0.0975233763] yes=13,no=14,missing=14
			13:leaf=-0.119563542
			14:leaf=0.00212432211
booster[34]:
0:[f2<135.421921] yes=1,no=2,missing=2
	1:[f3<458.805145] yes=3,no=4,missing=4
		3:[f6<0.783555627] yes=7,no=8,missing=8
			7:leaf=-0.00162314193
			8:leaf=0.0727633238
		4:[f1<46.0035858] yes=9,no=10,missing=10
			9:leaf=-0.72110486
			10:leaf=-0.0495704971
	2:[f6<1.07750833] yes=5,no=6,missing=6
		5:[f3<155.22789] yes=11,no=12,missing=12
			11:leaf=0.110749513
			12:leaf=-0.358423769
		6:[f5<387.612915] yes=13,no=14,missing=14
			13:leaf=0.555865765
			14:leaf=-0.349772185
booster[35]:
0:[f1<11.7760162] yes=1,no=2,missing=2
	1:leaf=-0.314392
	2:[f5<10.8416739] yes=3,no=4,missing=4
		3:[f4<0.532265782] yes=5,no=6,missing=6
			5:leaf=-0.357523382
			6:leaf=0.256693423
		4:[f6<0.0285678767] yes=7,no=8,missing=8
			7:leaf=-0.21480599
			8:leaf=0.000982187339
booster[36]:
0:[f2<22.2453594] yes=1,no=2,missing=2
	1:[f6<0.465459645] yes=3,no=4,missing=4
		3:leaf=-0.308164597
		4:leaf=-0.378281981
	2:[f3<326.201447] yes=5,no=6,missing=6
		5:[f6<0.40618515] yes=7,no=8,missing=8
			7:leaf=-0.00937991776
			8:leaf=0.0247846767
		6:[f1<87.8860168] yes=9,no=10,missing=10
			9:leaf=-0.0590778627
			10:leaf=-0.340355247
booster[37]:
0:[f2<80.338707] yes=1,no=2,missing=2
	1:[f6<0.391260803] yes=3,no=4,missing=4
		3:[f1<71.1407394] yes=7,no=8,missing=8
			7:leaf=0.0143909836
			8:leaf=-0.128556147
		4:[f2<67.3075104] yes=9,no=10,missing=10
			9:leaf=-0.012991813
			10:leaf=0.121894829
	2:[f3<200.884781] yes=5,no=6,missing=6
		5:[f6<0.240811884] yes=11,no=12,missing=12
			11:leaf=0.00895298272
			12:leaf=0.169458106
		6:[f0<258.831421] yes=13,no=14,missing=14
			13:leaf=-0.221085832
			14:leaf=-0.00824639574
booster[38]:
0:[f4<0.327036142] yes=1,no=2,missing=2
	1:[f1<171.128174] yes=3,no=4,missing=4
		3:[f6<0.783555627] yes=7,no=8,missing=8
			7:leaf=-0.133918315
			8:leaf=0.0521851778
		4:[f3<70.7893372] yes=9,no=10,missing=10
			9:leaf=3.04307342
			10:leaf=0.0454910137
	2:[f4<0.328411251] yes=5,no=6,missing=6
		5:[f1<34.4780464] yes=11,no=12,missing=12
			11:leaf=1.76168907
			12:leaf=0.189762518
		6:[f0<663.246399] yes=13,no=14,missing=14
			13:leaf=0.00532967085
			14:leaf=-0.196718544
booster[39]:
0:[f4<1.02134871] yes=1,no=2,missing=2
	1:[f2<135.421921] yes=3,no=4,missing=4
		3:[f5<117.3657] yes=7,no=8,missing=8
			7:leaf=0.0198631175
			8:leaf=-0.00872961245
		4:[f6<1.07750833] yes=9,no=10,missing=10
			9:leaf=-0.279754817
			10:leaf=0.372157395
	2:[f2<76.247406] yes=5,no=6,missing=6
		5:leaf=-0.317294508
		6:[f2<135.421921] yes=11,no=12,missing=12
			11:leaf=-0.587574124
			12:leaf=-0.208326668
booster[40]:
0:[f6<0.0794608593] yes=1,no=2,missing=2
	1:[f2<24.2797337] yes=3,no=4,missing=4
		3:[f5<104.449646] yes=7,no=8,missing=8
			7:leaf=-0.290213168
			8:leaf=13.051362
		4:[f1<28.8618984] yes=9,no=10,missing=10
			9:leaf=-0.260396421
			10:leaf=-0.0272453912
	2:[f5<47.5223198] yes=5,no=6,missing=6
		5:[f0<392.190186] yes=11,no=12,missing=12
			11:leaf=0.160535738
			12:leaf=-0.209682688
		6:[f0<99.114769] yes=13,no=14,missing=14
			13:leaf=0.287921906
			14:leaf=-0.00166503584
booster[41]:
0:[f2<22.2453594] yes=1,no=2,missing=2
	1:[f6<0.0794608593] yes=3,no=4,missing=4
		3:[f5<65.2259674] yes=7,no=8,missing=8
			7:leaf=-0.27462554
			8:leaf=-20.8558006
		4:leaf=-0.335644603
	2:[f1<11.7760162] yes=5,no=6,missing=6
		5:[f2<24.2797337] yes=9,no=10,missing=10
			9:leaf=-0.609017909
			10:leaf=-0.307691902
		6:[f1<12.5277004] yes=11,no=12,missing=12
			11:leaf=0.302798927
			12:leaf=-0.000295105681
booster[42]:
0:[f2<33.6555405] yes=1,no=2,missing=2
	1:[f5<285.294708] yes=3,no=4,missing=4
		3:[f0<458.028015] yes=7,no=8,missing=8
			7:leaf=-0.327191293
			8:leaf=0.0483435616
		4:[f0<335.373657] yes=9,no=10,missing=10
			9:leaf=-0.112479255
			10:leaf=0.339618772
	2:[f2<34.5371284] yes=5,no=6,missing=6
		5:[f0<99.114769] yes=11,no=12,missing=12
			11:leaf=2.70043182
			12:leaf=0.139753729
		6:[f3<77.9848328] yes=13,no=14,missing=14
			13:leaf=0.196206585
			14:leaf=-0.000437466224
booster[43]:
0:[f1<16.4928646] yes=1,no=2,missing=2
	1:[f0<290.097839] yes=3,no=4,missing=4
		3:[f6<0.203621194] yes=7,no=8,missing=8
			7:leaf=0.666514277
			8:leaf=-0.183758661
		4:[f1<12.5277004] yes=9,no=10,missing=10
			9:leaf=0.0324998312
			10:leaf=-0.358173698
	2:[f0<369.480591] yes=5,no=6,missing=6
		5:[f6<0.217050582] yes=11,no=12,missing=12
			11:leaf=-0.045728229
			12:leaf=0.00916257408
		6:[f2<71.5364609] yes=13,no=14,missing=14
			13:leaf=0.136434197
			14:leaf=-0.0155631797
booster[44]:
0:[f2<79.3781204] yes=1,no=2,missing=2
	1:[f6<0.0611851588] yes=3,no=4,missing=4
		3:[f2<24.2797337] yes=7,no=8,missing=8
			7:leaf=-0.882638872
			8:leaf=-0.318448454
		4:[f6<0.0633819699] yes=9,no=10,missing=10
			9:leaf=1.30022526
			10:leaf=-0.0122272177
	2:[f6<0.524604619] yes=5,no=6,missing=6
		5:[f6<0.221545801] yes=11,no=12,missing=12
			11:leaf=0.000716463022
			12:leaf=0.0815740153
		6:[f0<316.856445] yes=13,no=14,missing=14
			13:leaf=-0.408374935
			14:leaf=0.0121796345
booster[45]:
0:[f4<0.538221896] yes=1,no=2,missing=2
	1:[f3<159.13916] yes=3,no=4,missing=4
		3:[f0<838.401733] yes=7,no=8,missing=8
			7:leaf=-0.0454181135
			8:leaf=0.706379652
		4:[f1<92.2864227] yes=9,no=10,missing=10
			9:leaf=-0.0299682375
			10:leaf=0.0521333516
	2:[f3<190.979309] yes=5,no=6,missing=6
		5:[f6<0.164022297] yes=11,no=12,missing=12
			11:leaf=-0.000335449789
			12:leaf=0.0806651711
		6:[f0<193.156326] yes=13,no=14,missing=14
			13:leaf=0.0866005495
			14:leaf=-0.0517198145
booster[46]:
0:[f5<94.4520264] yes=1,no=2,missing=2
	1:[f4<0.432276338] yes=3,no=4,missing=4
		3:[f5<36.6610985] yes=7,no=8,missing=8
			7:leaf=-0.322674334
			8:leaf=-0.067504473
		4:[f4<0.441507071] yes=9,no=10,missing=10
			9:leaf=0.389589697
			10:leaf=0.0323415622
	2:[f6<0.248338148] yes=5,no=6,missing=6
		5:[f3<76.5729218] yes=11,no=12,missing=12
			11:leaf=1.87111771
			12:leaf=-0.0616071597
		6:[f2<111.90107] yes=13,no=14,missing=14
			13:leaf=0.00719430437
			14:leaf=-0.309090734
booster[47]:
0:[f2<90.9984665] yes=1,no=2,missing=2
	1:[f6<0.347196847] yes=3,no=4,missing=4
		3:[f0<382.94165] yes=7,no=8,missing=8
			7:leaf=-0.0581918731
			8:leaf=0.0728716701
		4:[f2<67.0879364] yes=9,no=10,missing=10
			9:leaf=-0.0144694829
			10:leaf=0.0844994932
	2:[f6<0.430269688] yes=5,no=6,missing=6
		5:[f5<229.906647] yes=11,no=12,missing=12
			11:leaf=0.0213767998
			12:leaf=0.137920484
		6:[f0<315.489624] yes=13,no=14,missing=14
			13:leaf=-0.501351714
			14:leaf=0.0590194948
booster[48]:
0:[f2<26.6227684] yes=1,no=2,missing=2
	1:[f0<290.097839] yes=3,no=4,missing=4
		3:[f6<0.0702076182] yes=7,no=8,missing=8
			7:leaf=-1.1308887
			8:leaf=-0.3608751
		4:[f0<291.273499] yes=9,no=10,missing=10
			9:leaf=0.620013118
			10:leaf=-0.110116959
	2:[f6<0.518557787] yes=5,no=6,missing=6
		5:[f5<358.793915] yes=11,no=12,missing=12
			11:leaf=-0.00171382783
			12:leaf=-0.163830608
		6:[f5<128.964569] yes=13,no=14,missing=14
			13:leaf=-0.644004941
			14:leaf=0.0293327067
booster[49]:
0:[f4<0.24257125] yes=1,no=2,missing=2
	1:[f0<743.94812] yes=3,no=4,missing=4
		3:[f0<342.822205] yes=7,no=8,missing=8
			7:leaf=-0.328926682
			8:leaf=-0.0301650483
		4:[f2<52.6969948] yes=9,no=10,missing=10
			9:leaf=2.41103911
			10:leaf=0.253997386
	2:[f1<113.793625] yes=5,no=6,missing=6
		5:[f4<0.264485866] yes=11,no=12,missing=12
			11:leaf=0.193224326
			12:leaf=-0.00907151587
		6:[f3<66.1690598] yes=13,no=14,missing=14
			13:leaf=2.44583344
			14:leaf=0.023076361
