booster[0]:
0:[f3<98.3566513] yes=1,no=2,missing=2
	1:[f2<72.9497375] yes=3,no=4,missing=4
		3:[f3<87.4805984] yes=7,no=8,missing=8
			7:[f7<0.429590136] yes=15,no=16,missing=16
				15:[f8<1.58811259] yes=29,no=30,missing=30
					29:leaf=-0.0775357783
					30:[f3<79.4223175] yes=53,no=54,missing=54
						53:leaf=-0.0488621294
						54:leaf=0.0811862424
				16:[f7<0.775097966] yes=31,no=32,missing=32
					31:[f7<0.771714389] yes=55,no=56,missing=56
						55:leaf=-0.078112632
						56:leaf=0.0332229771
					32:leaf=-0.0967528298
			8:[f4<0.460985899] yes=17,no=18,missing=18
				17:[f6<0.359763592] yes=33,no=34,missing=34
					33:leaf=-0.0954581872
					34:[f9<1.22173738] yes=57,no=58,missing=58
						57:leaf=-0.0130233085
						58:leaf=-0.0932367072
				18:[f5<122.327301] yes=35,no=36,missing=36
					35:[f4<0.617855549] yes=59,no=60,missing=60
						59:leaf=-0.0709960014
						60:leaf=0.00548654515
					36:[f9<1.19491231] yes=61,no=62,missing=62
						61:leaf=0.0672201291
						62:leaf=-0.0380976088
		4:[f8<1.19993603] yes=9,no=10,missing=10
			9:[f7<1.46339893] yes=19,no=20,missing=20
				19:[f6<0.233079866] yes=37,no=38,missing=38
					37:[f2<105.061569] yes=63,no=64,missing=64
						63:leaf=-0.0726273283
						64:leaf=0.0605091527
					38:[f6<0.245212391] yes=65,no=66,missing=66
						65:leaf=0.074913688
						66:leaf=-0.0456928276
				20:[f0<259.531616] yes=39,no=40,missing=40
					39:[f6<0.066215612] yes=67,no=68,missing=68
						67:leaf=-0.0499951802
						68:leaf=0.0744104385
					40:[f9<0.343641907] yes=69,no=70,missing=70
						69:leaf=-0.0776141062
						70:leaf=0.0631953999
			10:[f3<82.2010956] yes=21,no=22,missing=22
				21:[f9<0.698515058] yes=41,no=42,missing=42
					41:[f8<1.22729659] yes=71,no=72,missing=72
						71:leaf=0.0365079343
						72:leaf=-0.0819350332
					42:[f4<0.582621872] yes=73,no=74,missing=74
						73:leaf=-0.0525642522
						74:leaf=0.0690579861
				22:[f0<543.98584] yes=43,no=44,missing=44
					43:[f1<177.914825] yes=75,no=76,missing=76
						75:leaf=0.085389182
						76:leaf=0.00465312414
					44:leaf=-0.0479123928
	2:[f2<130.670502] yes=5,no=6,missing=6
		5:[f1<21.3395157] yes=11,no=12,missing=12
			11:[f6<0.210626543] yes=23,no=24,missing=24
				23:leaf=-0.0951364338
				24:[f3<120.47287] yes=45,no=46,missing=46
					45:leaf=-0.0675378218
					46:[f3<181.762482] yes=77,no=78,missing=78
						77:leaf=0.0776963979
						78:leaf=-0.0571975112
			12:[f4<0.41746363] yes=25,no=26,missing=26
				25:[f3<106.774094] yes=47,no=48,missing=48
					47:[f7<1.40841758] yes=79,no=80,missing=80
						79:leaf=-0.0426306687
						80:leaf=0.0695054159
					48:[f1<147.550308] yes=81,no=82,missing=82
						81:leaf=0.0412430428
						82:leaf=0.0849600509
				26:[f1<39.1424942] yes=49,no=50,missing=50
					49:[f9<-0.168745145] yes=83,no=84,missing=84
						83:leaf=-0.0810742378
						84:leaf=0.0697664842
					50:[f3<109.664818] yes=85,no=86,missing=86
						85:leaf=0.0741432458
						86:leaf=0.0934122354
		6:[f2<136.487335] yes=13,no=14,missing=14
			13:[f5<33.3973351] yes=27,no=28,missing=28
				27:[f9<-0.0450525284] yes=51,no=52,missing=52
					51:leaf=-0.0569302626
					52:[f6<0.0651479885] yes=87,no=88,missing=88
						87:leaf=0.0337898768
						88:leaf=0.071064502
				28:leaf=-0.0611236356
			14:leaf=-0.0966767892
booster[1]:
0:[f3<98.3566513] yes=1,no=2,missing=2
	1:[f2<72.9497375] yes=3,no=4,missing=4
		3:[f3<87.4805984] yes=7,no=8,missing=8
			7:[f7<0.429590136] yes=15,no=16,missing=16
				15:[f8<1.58811259] yes=29,no=30,missing=30
					29:leaf=-0.0743541941
					30:[f3<79.4223175] yes=53,no=54,missing=54
						53:leaf=-0.0475507043
						54:leaf=0.0779092386
				16:[f7<0.775097966] yes=31,no=32,missing=32
					31:[f7<0.771714389] yes=55,no=56,missing=56
						55:leaf=-0.0743789077
						56:leaf=0.0319536887
					32:leaf=-0.0921614468
			8:[f4<0.460985899] yes=17,no=18,missing=18
				17:[f6<0.359763592] yes=33,no=34,missing=34
					33:leaf=-0.0910431892
					34:[f9<1.22173738] yes=57,no=58,missing=58
						57:leaf=-0.0123923849
						58:leaf=-0.0890370831
				18:[f5<122.327301] yes=35,no=36,missing=36
					35:[f4<0.617855549] yes=59,no=60,missing=60
						59:leaf=-0.0677500665
						60:leaf=0.00523536559
					36:[f9<1.19491231] yes=61,no=62,missing=62
						61:leaf=0.0640405044
						62:leaf=-0.036396537
		4:[f8<1.19993603] yes=9,no=10,missing=10
			9:[f7<1.46339893] yes=19,no=20,missing=20
				19:[f6<0.233079866] yes=37,no=38,missing=38
					37:[f2<105.061569] yes=63,no=64,missing=64
						63:leaf=-0.069136247
						64:leaf=0.058339674
					38:[f6<0.245212391] yes=65,no=66,missing=66
						65:leaf=0.0717243105
						66:leaf=-0.0442000441
				20:[f0<259.531616] yes=39,no=40,missing=40
					39:[f6<0.066215612] yes=67,no=68,missing=68
						67:leaf=-0.0485893935
						68:leaf=0.0709125921
					40:[f9<0.343641907] yes=69,no=70,missing=70
						69:leaf=-0.0744746849
						70:leaf=0.060959626
			10:[f3<82.2010956] yes=21,no=22,missing=22
				21:[f9<0.698515058] yes=41,no=42,missing=42
					41:[f8<1.22729659] yes=71,no=72,missing=72
						71:leaf=0.035109628
						72:leaf=-0.0781333447
					42:[f4<0.582621872] yes=73,no=74,missing=74
						73:leaf=-0.0510488413
						74:leaf=0.0659203157
				22:[f0<543.98584] yes=43,no=44,missing=44
					43:[f1<177.914825] yes=75,no=76,missing=76
						75:leaf=0.0813077167
						76:leaf=0.0044562323
					44:leaf=-0.0464434288
	2:[f2<130.670502] yes=5,no=6,missing=6
		5:[f1<21.3395157] yes=11,no=12,missing=12
			11:[f6<0.210626543] yes=23,no=24,missing=24
				23:leaf=-0.0906986967
				24:[f3<120.47287] yes=45,no=46,missing=46
					45:leaf=-0.0648399889
					46:[f3<181.762482] yes=77,no=78,missing=78
						77:leaf=0.0740350857
						78:leaf=-0.0553584583
			12:[f4<0.41746363] yes=25,no=26,missing=26
				25:[f3<106.774094] yes=47,no=48,missing=48
					47:[f7<1.40841758] yes=79,no=80,missing=80
						79:leaf=-0.0405633561
						80:leaf=0.0663801283
					48:[f1<147.550308] yes=81,no=82,missing=82
						81:leaf=0.0392078906
						82:leaf=0.080879353
				26:[f1<39.1424942] yes=49,no=50,missing=50
					49:[f9<0.0394725837] yes=83,no=84,missing=84
						83:leaf=-0.0497267619
						84:leaf=0.0678757951
					50:[f3<109.664818] yes=85,no=86,missing=86
						85:leaf=0.0705439076
						86:leaf=0.0889408737
		6:[f2<136.487335] yes=13,no=14,missing=14
			13:[f5<33.3973351] yes=27,no=28,missing=28
				27:[f3<136.181686] yes=51,no=52,missing=52
					51:leaf=-0.0530732647
					52:[f3<136.946793] yes=87,no=88,missing=88
						87:leaf=0.0699600354
						88:leaf=0.0329449885
				28:leaf=-0.0586692356
			14:leaf=-0.0921713039
booster[2]:
0:[f3<98.3566513] yes=1,no=2,missing=2
	1:[f2<72.9497375] yes=3,no=4,missing=4
		3:[f3<87.4805984] yes=7,no=8,missing=8
			7:[f7<0.429590136] yes=15,no=16,missing=16
				15:[f8<1.58811259] yes=29,no=30,missing=30
					29:leaf=-0.0714745522
					30:[f3<79.4223175] yes=53,no=54,missing=54
						53:leaf=-0.0463039316
						54:leaf=0.0749591812
				16:[f7<0.775097966] yes=31,no=32,missing=32
					31:[f7<0.771714389] yes=55,no=56,missing=56
						55:leaf=-0.0710215494
						56:leaf=0.0307453331
					32:leaf=-0.0881678462
			8:[f8<1.13971221] yes=17,no=18,missing=18
				17:[f4<0.428227574] yes=33,no=34,missing=34
					33:[f3<90.0051804] yes=57,no=58,missing=58
						57:leaf=-0.0282542557
						58:leaf=-0.0756206885
					34:[f9<1.22986531] yes=59,no=60,missing=60
						59:leaf=0.00629271148
						60:leaf=-0.05787481
				18:leaf=0.0793733522
		4:[f8<1.19993603] yes=9,no=10,missing=10
			9:[f7<1.46339893] yes=19,no=20,missing=20
				19:[f6<0.233079866] yes=35,no=36,missing=36
					35:[f0<176.844681] yes=61,no=62,missing=62
						61:leaf=0.0205582455
						62:leaf=-0.0689725578
					36:[f6<0.245212391] yes=63,no=64,missing=64
						63:leaf=0.0688296631
						64:leaf=-0.0427845381
				20:[f0<259.531616] yes=37,no=38,missing=38
					37:[f6<0.066215612] yes=65,no=66,missing=66
						65:leaf=-0.0472560339
						66:leaf=0.0677475706
					38:[f9<0.343641907] yes=67,no=68,missing=68
						67:leaf=-0.0716321915
						68:leaf=0.0588843189
			10:[f3<78.4268799] yes=21,no=22,missing=22
				21:[f4<0.716972411] yes=39,no=40,missing=40
					39:[f7<1.30605567] yes=69,no=70,missing=70
						69:leaf=-0.0810779706
						70:leaf=-0.0183366109
					40:[f6<0.153842643] yes=71,no=72,missing=72
						71:leaf=-0.0546143167
						72:leaf=0.067483373
				22:[f1<177.914825] yes=41,no=42,missing=42
					41:[f0<543.98584] yes=73,no=74,missing=74
						73:leaf=0.0733411014
						74:leaf=-0.0479039364
					42:[f2<114.592049] yes=75,no=76,missing=76
						75:leaf=-0.0608796142
						76:leaf=0.0643358156
	2:[f2<130.670502] yes=5,no=6,missing=6
		5:[f1<21.3395157] yes=11,no=12,missing=12
			11:[f6<0.210626543] yes=23,no=24,missing=24
				23:[f6<0.184264973] yes=43,no=44,missing=44
					43:leaf=-0.0885372907
					44:[f3<128.34198] yes=77,no=78,missing=78
						77:leaf=-0.0448640622
						78:leaf=-0.010669346
				24:[f3<120.47287] yes=45,no=46,missing=46
					45:leaf=-0.0623599961
					46:[f3<154.289124] yes=79,no=80,missing=80
						79:leaf=0.0773758367
						80:leaf=-0.00945317652
			12:[f4<0.41746363] yes=25,no=26,missing=26
				25:[f3<106.774094] yes=47,no=48,missing=48
					47:[f1<93.8638535] yes=81,no=82,missing=82
						81:leaf=-0.0830014423
						82:leaf=0.0106481332
					48:[f1<147.550308] yes=83,no=84,missing=84
						83:leaf=0.0373023935
						84:leaf=0.0772516131
				26:[f0<703.427673] yes=49,no=50,missing=50
					49:[f3<105.408844] yes=85,no=86,missing=86
						85:leaf=0.0576553531
						86:leaf=0.0822088793
					50:[f9<1.40513539] yes=87,no=88,missing=88
						87:leaf=-0.0862355754
						88:leaf=0.0544107072
		6:[f2<136.487335] yes=13,no=14,missing=14
			13:[f5<33.3973351] yes=27,no=28,missing=28
				27:[f9<-0.0450525284] yes=51,no=52,missing=52
					51:leaf=-0.0543446057
					52:[f6<0.0651479885] yes=89,no=90,missing=90
						89:leaf=0.0305840522
						90:leaf=0.0675398409
				28:leaf=-0.0563950129
			14:leaf=-0.0882494375
booster[3]:
0:[f3<98.3566513] yes=1,no=2,missing=2
	1:[f2<72.9497375] yes=3,no=4,missing=4
		3:[f3<87.4805984] yes=7,no=8,missing=8
			7:[f7<0.429590136] yes=15,no=16,missing=16
				15:[f2<60.596714] yes=29,no=30,missing=30
					29:leaf=-0.0680555403
					30:[f5<259.356873] yes=51,no=52,missing=52
						51:leaf=-0.0444320552
						52:leaf=0.071623385
				16:[f7<0.775097966] yes=31,no=32,missing=32
					31:[f7<0.771714389] yes=53,no=54,missing=54
						53:leaf=-0.0679788515
						54:leaf=0.0295934137
					32:leaf=-0.0846625492
			8:[f8<1.13971221] yes=17,no=18,missing=18
				17:[f4<0.460985899] yes=33,no=34,missing=34
					33:[f6<0.359763592] yes=55,no=56,missing=56
						55:leaf=-0.0852104872
						56:leaf=-0.0352097265
					34:[f9<0.688695908] yes=57,no=58,missing=58
						57:leaf=-0.0786338374
						58:leaf=0.00452828174
				18:leaf=0.0761835203
		4:[f8<1.19993603] yes=9,no=10,missing=10
			9:[f7<1.46339893] yes=19,no=20,missing=20
				19:[f6<0.233079866] yes=35,no=36,missing=36
					35:[f2<105.061569] yes=59,no=60,missing=60
						59:leaf=-0.0633166358
						60:leaf=0.058709681
					36:[f6<0.245212391] yes=61,no=62,missing=62
						61:leaf=0.0661864355
						62:leaf=-0.0414397456
				20:[f0<259.531616] yes=37,no=38,missing=38
					37:[f6<0.066215612] yes=63,no=64,missing=64
						63:leaf=-0.0459892079
						64:leaf=0.064863123
					38:[f9<0.343641907] yes=65,no=66,missing=66
						65:leaf=-0.0690437183
						66:leaf=0.056951087
			10:[f3<82.2010956] yes=21,no=22,missing=22
				21:[f9<0.698515058] yes=39,no=40,missing=40
					39:[f8<1.22729659] yes=67,no=68,missing=68
						67:leaf=0.0324003398
						68:leaf=-0.0728137121
					40:[f4<0.582621872] yes=69,no=70,missing=70
						69:leaf=-0.0487096533
						70:leaf=0.0606815219
				22:[f7<1.08582413] yes=41,no=42,missing=42
					41:[f4<0.372183681] yes=71,no=72,missing=72
						71:leaf=-0.0349419676
						72:leaf=0.0728256851
					42:leaf=-0.0469966494
	2:[f2<130.670502] yes=5,no=6,missing=6
		5:[f1<21.3395157] yes=11,no=12,missing=12
			11:[f6<0.210626543] yes=23,no=24,missing=24
				23:leaf=-0.0834694654
				24:[f3<120.47287] yes=43,no=44,missing=44
					43:[f5<183.553787] yes=73,no=74,missing=74
						73:leaf=-0.0664082542
						74:leaf=-0.0190767664
					44:[f3<154.289124] yes=75,no=76,missing=76
						75:leaf=0.0741732717
						76:leaf=-0.00904608984
			12:[f4<0.41746363] yes=25,no=26,missing=26
				25:[f3<106.774094] yes=45,no=46,missing=46
					45:[f7<1.40841758] yes=77,no=78,missing=78
						77:leaf=-0.0376203768
						78:leaf=0.0632799789
					46:[f1<147.550308] yes=79,no=80,missing=80
						79:leaf=0.0355132595
						80:leaf=0.0739985108
				26:[f1<39.1424942] yes=47,no=48,missing=48
					47:[f9<-0.168745145] yes=81,no=82,missing=82
						81:leaf=-0.0769326612
						82:leaf=0.0597943738
					48:[f3<109.664818] yes=83,no=84,missing=84
						83:leaf=0.0642697513
						84:leaf=0.0816858932
		6:[f2<136.487335] yes=13,no=14,missing=14
			13:[f5<33.3973351] yes=27,no=28,missing=28
				27:[f3<136.181686] yes=49,no=50,missing=50
					49:leaf=-0.0507338941
					50:[f3<136.946793] yes=85,no=86,missing=86
						85:leaf=0.066575788
						86:leaf=0.0298812781
				28:leaf=-0.054278858
			14:leaf=-0.0848058537
booster[4]:
0:[f3<98.3566513] yes=1,no=2,missing=2
	1:[f2<72.9497375] yes=3,no=4,missing=4
		3:[f3<87.4805984] yes=7,no=8,missing=8
			7:[f7<0.429590136] yes=15,no=16,missing=16
				15:[f8<1.58811259] yes=29,no=30,missing=30
					29:leaf=-0.0666584447
					30:[f3<79.4223175] yes=53,no=54,missing=54
						53:leaf=-0.0435519777
						54:leaf=0.0699386671
				16:[f7<0.775097966] yes=31,no=32,missing=32
					31:[f7<0.771714389] yes=55,no=56,missing=56
						55:leaf=-0.0652016476
						56:leaf=0.0284939259
					32:leaf=-0.0815612003
			8:[f8<1.13971221] yes=17,no=18,missing=18
				17:[f9<1.22986531] yes=33,no=34,missing=34
					33:[f9<1.15736985] yes=57,no=58,missing=58
						57:leaf=-0.0463504046
						58:leaf=0.0445760414
					34:[f1<26.0836983] yes=59,no=60,missing=60
						59:leaf=0.000569975062
						60:leaf=-0.0834534988
				18:leaf=0.0733078569
		4:[f8<1.19993603] yes=9,no=10,missing=10
			9:[f7<1.52533638] yes=19,no=20,missing=20
				19:[f6<0.233079866] yes=35,no=36,missing=36
					35:[f0<176.844681] yes=61,no=62,missing=62
						61:leaf=0.0214099493
						62:leaf=-0.0643564537
					36:[f3<92.7663193] yes=63,no=64,missing=64
						63:leaf=-0.0408801176
						64:leaf=0.061423935
				20:[f0<259.531616] yes=37,no=38,missing=38
					37:[f3<89.6199875] yes=65,no=66,missing=66
						65:leaf=0.0330974795
						66:leaf=0.0765819624
					38:[f9<0.343641907] yes=67,no=68,missing=68
						67:leaf=-0.0644353256
						68:leaf=0.0563896075
			10:[f3<82.2010956] yes=21,no=22,missing=22
				21:[f9<0.698515058] yes=39,no=40,missing=40
					39:[f8<1.22729659] yes=69,no=70,missing=70
						69:leaf=0.0312021133
						70:leaf=-0.0699271783
					40:[f0<369.849976] yes=71,no=72,missing=72
						71:leaf=0.0584366806
						72:leaf=-0.0484086759
				22:[f0<582.363953] yes=41,no=42,missing=42
					41:[f1<177.914825] yes=73,no=74,missing=74
						73:leaf=0.0716705248
						74:leaf=0.00241840049
					42:leaf=-0.0492831059
	2:[f2<130.670502] yes=5,no=6,missing=6
		5:[f1<21.3395157] yes=11,no=12,missing=12
			11:[f6<0.210626543] yes=23,no=24,missing=24
				23:[f6<0.184264973] yes=43,no=44,missing=44
					43:leaf=-0.0820811242
					44:[f3<127.097717] yes=75,no=76,missing=76
						75:leaf=-0.0416192859
						76:leaf=-0.00887182448
				24:[f3<120.47287] yes=45,no=46,missing=46
					45:[f5<183.553787] yes=77,no=78,missing=78
						77:leaf=-0.0642398968
						78:leaf=-0.0185904317
					46:[f3<181.762482] yes=79,no=80,missing=80
						79:leaf=0.0653843209
						80:leaf=-0.0530694388
			12:[f4<0.41746363] yes=25,no=26,missing=26
				25:[f3<126.803474] yes=47,no=48,missing=48
					47:[f1<131.493744] yes=81,no=82,missing=82
						81:leaf=-0.00868702587
						82:leaf=0.0519533753
					48:[f0<731.054138] yes=83,no=84,missing=84
						83:leaf=0.0718084201
						84:leaf=-0.0586051308
				26:[f1<49.3600006] yes=49,no=50,missing=50
					49:[f9<0.0279153697] yes=85,no=86,missing=86
						85:leaf=-0.0124766408
						86:leaf=0.0625837073
					50:[f3<105.164948] yes=87,no=88,missing=88
						87:leaf=0.0563664101
						88:leaf=0.0787254721
		6:[f2<136.487335] yes=13,no=14,missing=14
			13:[f9<-0.131155491] yes=27,no=28,missing=28
				27:leaf=-0.0602088049
				28:[f5<33.3973351] yes=51,no=52,missing=52
					51:[f6<0.0651479885] yes=89,no=90,missing=90
						89:leaf=0.0266348608
						90:leaf=0.0644633472
					52:[f9<0.343641907] yes=91,no=92,missing=92
						91:leaf=-0.0130691705
						92:leaf=-0.0477199219
			14:leaf=-0.0817590132
booster[5]:
0:[f3<98.3566513] yes=1,no=2,missing=2
	1:[f2<72.9497375] yes=3,no=4,missing=4
		3:[f3<87.4805984] yes=7,no=8,missing=8
			7:[f7<0.429590136] yes=15,no=16,missing=16
				15:[f2<60.596714] yes=29,no=30,missing=30
					29:leaf=-0.0635810718
					30:[f5<259.356873] yes=55,no=56,missing=56
						55:leaf=-0.0419822633
						56:leaf=0.0670220032
				16:[f9<1.40800607] yes=31,no=32,missing=32
					31:[f4<0.453352362] yes=57,no=58,missing=58
						57:leaf=-0.0799508318
						58:leaf=-0.0626114905
					32:[f7<0.619124293] yes=59,no=60,missing=60
						59:leaf=0.0762516409
						60:leaf=-0.0726186112
			8:[f4<0.460985899] yes=17,no=18,missing=18
				17:[f6<0.359763592] yes=33,no=34,missing=34
					33:leaf=-0.0802571997
					34:[f5<176.400284] yes=61,no=62,missing=62
						61:leaf=0.0487618558
						62:leaf=-0.0456677489
				18:[f5<122.327301] yes=35,no=36,missing=36
					35:[f4<0.617855549] yes=63,no=64,missing=64
						63:leaf=-0.0609639883
						64:leaf=0.00676203519
					36:[f9<1.19491231] yes=65,no=66,missing=66
						65:leaf=0.0572269261
						66:leaf=-0.0310909599
		4:[f8<1.19993603] yes=9,no=10,missing=10
			9:[f7<1.52533638] yes=19,no=20,missing=20
				19:[f6<0.233079866] yes=37,no=38,missing=38
					37:[f2<105.061569] yes=67,no=68,missing=68
						67:leaf=-0.0592362545
						68:leaf=0.0574138537
					38:[f3<92.7663193] yes=69,no=70,missing=70
						69:leaf=-0.0397684388
						70:leaf=0.0590806305
				20:[f0<259.531616] yes=39,no=40,missing=40
					39:[f3<89.6199875] yes=71,no=72,missing=72
						71:leaf=0.0317224525
						72:leaf=0.0738242492
					40:[f9<0.343641907] yes=73,no=74,missing=74
						73:leaf=-0.062378943
						74:leaf=0.0546694882
			10:[f3<84.4075089] yes=21,no=22,missing=22
				21:[f9<0.698515058] yes=41,no=42,missing=42
					41:[f8<1.22729659] yes=75,no=76,missing=76
						75:leaf=0.026633013
						76:leaf=-0.0672913417
					42:[f0<369.849976] yes=77,no=78,missing=78
						77:leaf=0.0603009164
						78:leaf=-0.0412114188
				22:[f7<1.08582413] yes=43,no=44,missing=44
					43:[f1<177.914825] yes=79,no=80,missing=80
						79:leaf=0.0711885318
						80:leaf=0.0164332595
					44:leaf=-0.0432881527
	2:[f2<130.670502] yes=5,no=6,missing=6
		5:[f1<21.3395157] yes=11,no=12,missing=12
			11:[f6<0.210626543] yes=23,no=24,missing=24
				23:[f6<0.184264973] yes=45,no=46,missing=46
					45:leaf=-0.0793545917
					46:[f3<127.097717] yes=81,no=82,missing=82
						81:leaf=-0.0407007039
						82:leaf=-0.00865480769
				24:[f3<120.47287] yes=47,no=48,missing=48
					47:[f5<183.553787] yes=83,no=84,missing=84
						83:leaf=-0.0622346886
						84:leaf=-0.0181181356
					48:[f3<154.289124] yes=85,no=86,missing=86
						85:leaf=0.0688562989
						86:leaf=-0.00989609119
			12:[f4<0.41746363] yes=25,no=26,missing=26
				25:[f3<106.774094] yes=49,no=50,missing=50
					49:[f9<1.02339184] yes=87,no=88,missing=88
						87:leaf=0.0225200318
						88:leaf=-0.0581600145
					50:[f1<147.550308] yes=89,no=90,missing=90
						89:leaf=0.032290455
						90:leaf=0.0686935559
				26:[f1<39.1424942] yes=51,no=52,missing=52
					51:[f9<0.591998577] yes=91,no=92,missing=92
						91:leaf=-0.00910161715
						92:leaf=0.0609355047
					52:[f3<109.664818] yes=93,no=94,missing=94
						93:leaf=0.0588725023
						94:leaf=0.0758784711
		6:[f2<136.487335] yes=13,no=14,missing=14
			13:[f5<33.3973351] yes=27,no=28,missing=28
				27:[f3<136.181686] yes=53,no=54,missing=54
					53:leaf=-0.0484759472
					54:[f3<136.946793] yes=95,no=96,missing=96
						95:leaf=0.0636376143
						96:leaf=0.0271329526
				28:leaf=-0.0506902002
			14:leaf=-0.0790448561
booster[6]:
0:[f3<98.3566513] yes=1,no=2,missing=2
	1:[f2<72.9497375] yes=3,no=4,missing=4
		3:[f3<87.4805984] yes=7,no=8,missing=8
			7:[f7<0.429590136] yes=15,no=16,missing=16
				15:[f8<1.58811259] yes=29,no=30,missing=30
					29:leaf=-0.0625613853
					30:[f3<79.4223175] yes=55,no=56,missing=56
						55:leaf=-0.0411037281
						56:leaf=0.0657326505
				16:[f7<0.775097966] yes=31,no=32,missing=32
					31:[f7<0.771714389] yes=57,no=58,missing=58
						57:leaf=-0.060156215
						58:leaf=0.0298136827
					32:leaf=-0.0764318928
			8:[f4<0.460985899] yes=17,no=18,missing=18
				17:[f6<0.359763592] yes=33,no=34,missing=34
					33:leaf=-0.0776277483
					34:[f9<1.22173738] yes=59,no=60,missing=60
						59:leaf=-0.00591553887
						60:leaf=-0.077644743
				18:[f5<122.327301] yes=35,no=36,missing=36
					35:[f4<0.617855549] yes=61,no=62,missing=62
						61:leaf=-0.0585545413
						62:leaf=0.00645194435
					36:[f9<1.19491231] yes=63,no=64,missing=64
						63:leaf=0.0548497438
						64:leaf=-0.0297686849
		4:[f8<1.19993603] yes=9,no=10,missing=10
			9:[f7<1.52533638] yes=19,no=20,missing=20
				19:[f6<0.233079866] yes=37,no=38,missing=38
					37:[f0<176.844681] yes=65,no=66,missing=66
						65:leaf=0.0231175013
						66:leaf=-0.0596680716
					38:[f3<92.7663193] yes=67,no=68,missing=68
						67:leaf=-0.0387042128
						68:leaf=0.0569028854
				20:[f0<259.531616] yes=39,no=40,missing=40
					39:[f3<89.6199875] yes=69,no=70,missing=70
						69:leaf=0.0304140989
						70:leaf=0.0713229179
					40:[f9<0.343641907] yes=71,no=72,missing=72
						71:leaf=-0.0604708605
						72:leaf=0.0530541837
			10:[f3<84.4075089] yes=21,no=22,missing=22
				21:[f9<0.698515058] yes=41,no=42,missing=42
					41:[f8<1.22729659] yes=73,no=74,missing=74
						73:leaf=0.0256510675
						74:leaf=-0.06474635
					42:[f0<369.849976] yes=75,no=76,missing=76
						75:leaf=0.058024805
						76:leaf=-0.0399395935
				22:[f7<1.08837497] yes=43,no=44,missing=44
					43:[f1<177.914825] yes=77,no=78,missing=78
						77:leaf=0.0686508119
						78:leaf=0.0157113131
					44:leaf=-0.0432575941
	2:[f2<130.670502] yes=5,no=6,missing=6
		5:[f1<21.3395157] yes=11,no=12,missing=12
			11:[f6<0.210626543] yes=23,no=24,missing=24
				23:[f6<0.184264973] yes=45,no=46,missing=46
					45:leaf=-0.0769127309
					46:[f3<127.097717] yes=79,no=80,missing=80
						79:leaf=-0.0398191288
						80:leaf=-0.00844326708
				24:[f3<120.47287] yes=47,no=48,missing=48
					47:[f5<183.553787] yes=81,no=82,missing=82
						81:leaf=-0.0603730381
						82:leaf=-0.0176593605
					48:[f3<181.762482] yes=83,no=84,missing=84
						83:leaf=0.0606991239
						84:leaf=-0.0511899069
			12:[f4<0.41746363] yes=25,no=26,missing=26
				25:[f3<136.181686] yes=49,no=50,missing=50
					49:[f1<131.493744] yes=85,no=86,missing=86
						85:leaf=-0.00153920962
						86:leaf=0.0489409752
					50:[f9<0.504265845] yes=87,no=88,missing=88
						87:leaf=-0.0434555821
						88:leaf=0.0741890222
				26:[f0<609.482483] yes=51,no=52,missing=52
					51:[f3<105.408844] yes=89,no=90,missing=90
						89:leaf=0.0475437567
						90:leaf=0.070733659
					52:[f9<1.25507915] yes=91,no=92,missing=92
						91:leaf=-0.0875403211
						92:leaf=0.0439891182
		6:[f2<136.487335] yes=13,no=14,missing=14
			13:[f9<-0.131155491] yes=27,no=28,missing=28
				27:leaf=-0.0568503849
				28:[f5<33.3973351] yes=53,no=54,missing=54
					53:[f6<0.0651479885] yes=93,no=94,missing=94
						93:leaf=0.0240560975
						94:leaf=0.0617530905
					54:[f9<0.343641907] yes=95,no=96,missing=96
						95:leaf=-0.0115103787
						96:leaf=-0.0452691428
			14:leaf=-0.0766122341
booster[7]:
0:[f3<98.3566513] yes=1,no=2,missing=2
	1:[f2<72.9497375] yes=3,no=4,missing=4
		3:[f3<87.4805984] yes=7,no=8,missing=8
			7:[f1<255.66185] yes=15,no=16,missing=16
				15:[f7<0.319289535] yes=29,no=30,missing=30
					29:[f2<54.2303047] yes=49,no=50,missing=50
						49:leaf=-0.032079678
						50:leaf=0.0559531264
					30:[f9<1.40800607] yes=51,no=52,missing=52
						51:leaf=-0.0701154321
						52:leaf=-0.0246008411
				16:leaf=0.0426274352
			8:[f8<1.13971221] yes=17,no=18,missing=18
				17:[f9<1.22986531] yes=31,no=32,missing=32
					31:[f9<1.15736985] yes=53,no=54,missing=54
						53:leaf=-0.0419433154
						54:leaf=0.0417863503
					32:[f1<26.0836983] yes=55,no=56,missing=56
						55:leaf=0.00369487447
						56:leaf=-0.0765052661
				18:leaf=0.0673274919
		4:[f7<0.728752911] yes=9,no=10,missing=10
			9:[f4<0.465255916] yes=19,no=20,missing=20
				19:[f6<0.332395017] yes=33,no=34,missing=34
					33:[f2<85.4569321] yes=57,no=58,missing=58
						57:leaf=-0.0663038343
						58:leaf=-0.0156831667
					34:[f1<79.7012024] yes=59,no=60,missing=60
						59:leaf=0.0547558181
						60:leaf=0.00771797448
				20:[f2<73.7431488] yes=35,no=36,missing=36
					35:leaf=-0.0094256131
					36:[f5<69.5482864] yes=61,no=62,missing=62
						61:leaf=-0.012256626
						62:leaf=0.0708369985
			10:[f2<97.8568497] yes=21,no=22,missing=22
				21:[f7<1.46339893] yes=37,no=38,missing=38
					37:[f4<0.565571308] yes=63,no=64,missing=64
						63:leaf=-0.0570377409
						64:leaf=-0.00851120055
					38:[f0<259.531616] yes=65,no=66,missing=66
						65:leaf=0.0479848795
						66:leaf=-0.0209243726
				22:[f0<397.283997] yes=39,no=40,missing=40
					39:[f3<85.0158691] yes=67,no=68,missing=68
						67:leaf=-0.0249117296
						68:leaf=0.0605328642
					40:[f7<0.998396099] yes=69,no=70,missing=70
						69:leaf=0.0126582598
						70:leaf=-0.0582145564
	2:[f2<130.670502] yes=5,no=6,missing=6
		5:[f0<703.427673] yes=11,no=12,missing=12
			11:[f2<73.4456863] yes=23,no=24,missing=24
				23:[f3<113.969017] yes=41,no=42,missing=42
					41:[f5<83.7418747] yes=71,no=72,missing=72
						71:leaf=-0.0895464495
						72:leaf=0.0202914719
					42:[f6<0.189793453] yes=73,no=74,missing=74
						73:leaf=-0.0197514594
						74:leaf=0.0616862886
				24:[f1<27.4651527] yes=43,no=44,missing=44
					43:[f5<84.6375046] yes=75,no=76,missing=76
						75:leaf=-0.0354798697
						76:leaf=0.0495160632
					44:[f9<0.504265845] yes=77,no=78,missing=78
						77:leaf=0.058863502
						78:leaf=0.0705441982
			12:[f7<0.932162464] yes=25,no=26,missing=26
				25:[f4<0.444249451] yes=45,no=46,missing=46
					45:leaf=0.0628418848
					46:leaf=-0.0669260398
				26:leaf=-0.0820410475
		6:[f2<136.487335] yes=13,no=14,missing=14
			13:[f9<-0.131155491] yes=27,no=28,missing=28
				27:leaf=-0.0550664961
				28:[f5<33.3973351] yes=47,no=48,missing=48
					47:[f6<0.0651479885] yes=79,no=80,missing=80
						79:leaf=0.0231517553
						80:leaf=0.05996833
					48:[f9<0.343641907] yes=81,no=82,missing=82
						81:leaf=-0.0112302378
						82:leaf=-0.0441814326
			14:leaf=-0.0744198784
booster[8]:
0:[f3<98.3566513] yes=1,no=2,missing=2
	1:[f4<0.453352362] yes=3,no=4,missing=4
		3:[f2<85.4569321] yes=7,no=8,missing=8
			7:[f6<0.359763592] yes=15,no=16,missing=16
				15:[f3<96.2611313] yes=29,no=30,missing=30
					29:leaf=-0.074986428
					30:[f3<96.5915146] yes=51,no=52,missing=52
						51:leaf=0.037457414
						52:leaf=-0.0597521737
				16:[f6<0.418971688] yes=31,no=32,missing=32
					31:[f3<80.2492828] yes=53,no=54,missing=54
						53:leaf=-0.0620208047
						54:leaf=0.0191859864
					32:[f9<0.867138922] yes=55,no=56,missing=56
						55:leaf=8.79348954e-05
						56:leaf=-0.0667909682
			8:[f2<86.1069107] yes=17,no=18,missing=18
				17:leaf=0.0582863577
				18:[f2<105.061569] yes=33,no=34,missing=34
					33:[f7<0.841912687] yes=57,no=58,missing=58
						57:leaf=0.0225061607
						58:leaf=-0.0757269114
					34:leaf=0.0599739663
		4:[f8<1.19993603] yes=9,no=10,missing=10
			9:[f1<88.3088989] yes=19,no=20,missing=20
				19:[f5<72.4027252] yes=35,no=36,missing=36
					35:[f4<0.617855549] yes=59,no=60,missing=60
						59:leaf=-0.0726629719
						60:leaf=-0.0396531336
					36:[f8<1.13971221] yes=61,no=62,missing=62
						61:leaf=-0.0244584493
						62:leaf=0.0503560975
				20:[f8<0.75898999] yes=37,no=38,missing=38
					37:[f9<1.18474555] yes=63,no=64,missing=64
						63:leaf=0.0547143109
						64:leaf=-0.0607435405
					38:[f0<333.905548] yes=65,no=66,missing=66
						65:leaf=-0.0515930429
						66:leaf=0.0399761684
			10:[f3<72.2638245] yes=21,no=22,missing=22
				21:[f5<87.006218] yes=39,no=40,missing=40
					39:[f3<39.4393272] yes=67,no=68,missing=68
						67:leaf=-0.0198146682
						68:leaf=-0.0695646927
					40:[f5<99.7546005] yes=69,no=70,missing=70
						69:leaf=0.0257000718
						70:leaf=-0.0410495959
				22:[f3<84.4075089] yes=41,no=42,missing=42
					41:[f5<76.1592102] yes=71,no=72,missing=72
						71:leaf=-0.0245019067
						72:leaf=0.0457198396
					42:[f7<1.08837497] yes=73,no=74,missing=74
						73:leaf=0.0659986064
						74:leaf=-0.0419453792
	2:[f2<130.670502] yes=5,no=6,missing=6
		5:[f1<21.5988941] yes=11,no=12,missing=12
			11:[f6<0.210626543] yes=23,no=24,missing=24
				23:leaf=-0.0724082291
				24:[f3<120.47287] yes=43,no=44,missing=44
					43:leaf=-0.0563046932
					44:[f3<154.289124] yes=75,no=76,missing=76
						75:leaf=0.0632390231
						76:leaf=-0.0131228892
			12:[f4<0.41746363] yes=25,no=26,missing=26
				25:[f3<126.803474] yes=45,no=46,missing=46
					45:[f1<117.651222] yes=77,no=78,missing=78
						77:leaf=-0.0173175763
						78:leaf=0.0389152244
					46:[f0<731.054138] yes=79,no=80,missing=80
						79:leaf=0.0624286197
						80:leaf=-0.0547885261
				26:[f1<49.3600006] yes=47,no=48,missing=48
					47:[f9<0.0279153697] yes=81,no=82,missing=82
						81:leaf=-0.0158808324
						82:leaf=0.0534164272
					48:[f3<181.762482] yes=83,no=84,missing=84
						83:leaf=0.0677663982
						84:leaf=-0.0577185825
		6:[f2<136.487335] yes=13,no=14,missing=14
			13:[f9<-0.131155491] yes=27,no=28,missing=28
				27:leaf=-0.0533922911
				28:[f4<0.607743382] yes=49,no=50,missing=50
					49:leaf=-0.0538065322
					50:[f4<0.794267476] yes=85,no=86,missing=86
						85:leaf=0.0612694286
						86:leaf=-0.0424531661
			14:leaf=-0.0724340901
booster[9]:
0:[f3<98.3566513] yes=1,no=2,missing=2
	1:[f2<72.9497375] yes=3,no=4,missing=4
		3:[f3<87.4805984] yes=7,no=8,missing=8
			7:[f1<255.66185] yes=15,no=16,missing=16
				15:[f7<0.319289535] yes=29,no=30,missing=30
					29:[f2<54.2303047] yes=53,no=54,missing=54
						53:leaf=-0.030057082
						54:leaf=0.053019505
					30:[f9<1.40800607] yes=55,no=56,missing=56
						55:leaf=-0.0663676187
						56:leaf=-0.022077065
				16:leaf=0.0417542756
			8:[f4<0.460985899] yes=17,no=18,missing=18
				17:[f6<0.359763592] yes=31,no=32,missing=32
					31:leaf=-0.0720620379
					32:[f9<1.22173738] yes=57,no=58,missing=58
						57:leaf=-0.00396918273
						58:leaf=-0.0720800459
				18:[f5<122.327301] yes=33,no=34,missing=34
					33:[f4<0.617855549] yes=59,no=60,missing=60
						59:leaf=-0.0532333069
						60:leaf=0.00846405607
					34:[f9<1.19491231] yes=61,no=62,missing=62
						61:leaf=0.0507605337
						62:leaf=-0.0258601997
		4:[f7<0.728752911] yes=9,no=10,missing=10
			9:[f4<0.465255916] yes=19,no=20,missing=20
				19:[f6<0.332395017] yes=35,no=36,missing=36
					35:[f2<85.4569321] yes=63,no=64,missing=64
						63:leaf=-0.0623520911
						64:leaf=-0.0161695909
					36:[f1<88.3088989] yes=65,no=66,missing=66
						65:leaf=0.0525382943
						66:leaf=0.00714277243
				20:[f2<73.7431488] yes=37,no=38,missing=38
					37:leaf=-0.0107861785
					38:[f5<69.5482864] yes=67,no=68,missing=68
						67:leaf=-0.0123106418
						68:leaf=0.0669312403
			10:[f2<97.8568497] yes=21,no=22,missing=22
				21:[f7<1.52533638] yes=39,no=40,missing=40
					39:[f4<0.605001509] yes=69,no=70,missing=70
						69:leaf=-0.0477503762
						70:leaf=-0.00339943217
					40:[f0<259.531616] yes=71,no=72,missing=72
						71:leaf=0.0505537465
						72:leaf=-0.0140286284
				22:[f0<397.283997] yes=41,no=42,missing=42
					41:[f3<85.0158691] yes=73,no=74,missing=74
						73:leaf=-0.0236960668
						74:leaf=0.0565429628
					42:[f7<0.998396099] yes=75,no=76,missing=76
						75:leaf=0.0115476903
						76:leaf=-0.0559458733
	2:[f2<130.670502] yes=5,no=6,missing=6
		5:[f0<667.254883] yes=11,no=12,missing=12
			11:[f2<73.7431488] yes=23,no=24,missing=24
				23:[f3<113.969017] yes=43,no=44,missing=44
					43:[f5<83.7418747] yes=77,no=78,missing=78
						77:leaf=-0.0872642472
						78:leaf=0.0171606764
					44:[f6<0.189793453] yes=79,no=80,missing=80
						79:leaf=-0.0197328962
						80:leaf=0.058008749
				24:[f1<27.4651527] yes=45,no=46,missing=46
					45:[f9<0.116802946] yes=81,no=82,missing=82
						81:leaf=-0.0735698268
						82:leaf=0.0256047081
					46:[f9<0.504265845] yes=83,no=84,missing=84
						83:leaf=0.0551380627
						84:leaf=0.0666293427
			12:[f7<0.932162464] yes=25,no=26,missing=26
				25:[f1<51.7313194] yes=47,no=48,missing=48
					47:leaf=-0.062944822
					48:leaf=0.0579867922
				26:[f1<99.0662155] yes=49,no=50,missing=50
					49:leaf=-0.0802735314
					50:leaf=-0.0153400321
		6:[f2<136.487335] yes=13,no=14,missing=14
			13:[f5<33.3973351] yes=27,no=28,missing=28
				27:[f3<136.181686] yes=51,no=52,missing=52
					51:leaf=-0.0445712991
					52:[f3<136.946793] yes=85,no=86,missing=86
						85:leaf=0.0586892143
						86:leaf=0.022202136
				28:leaf=-0.045099441
			14:leaf=-0.0706270114
booster[10]:
0:[f3<98.3566513] yes=1,no=2,missing=2
	1:[f4<0.453352362] yes=3,no=4,missing=4
		3:[f2<85.4569321] yes=7,no=8,missing=8
			7:[f5<173.972702] yes=15,no=16,missing=16
				15:[f3<96.2611313] yes=29,no=30,missing=30
					29:leaf=-0.0718609244
					30:[f1<166.784729] yes=53,no=54,missing=54
						53:leaf=-0.0558705293
						54:leaf=0.0429571085
				16:[f5<176.400284] yes=31,no=32,missing=32
					31:leaf=0.0651420355
					32:[f2<65.3334274] yes=55,no=56,missing=56
						55:leaf=-0.0470852293
						56:leaf=0.0183816478
			8:[f2<86.1069107] yes=17,no=18,missing=18
				17:[f8<0.509954751] yes=33,no=34,missing=34
					33:leaf=0.0646470264
					34:leaf=0.0293847322
				18:[f2<95.1105499] yes=35,no=36,missing=36
					35:[f9<0.534747899] yes=57,no=58,missing=58
						57:leaf=-0.0727922991
						58:leaf=-0.0191719066
					36:[f1<177.914825] yes=59,no=60,missing=60
						59:leaf=0.0532763079
						60:leaf=-0.0538907163
		4:[f8<1.19993603] yes=9,no=10,missing=10
			9:[f1<88.3088989] yes=19,no=20,missing=20
				19:[f6<0.0738959238] yes=37,no=38,missing=38
					37:leaf=-0.0704491884
					38:[f4<0.607743382] yes=61,no=62,missing=62
						61:leaf=-0.0425410084
						62:leaf=0.00454263669
				20:[f8<0.75898999] yes=39,no=40,missing=40
					39:[f9<1.18474555] yes=63,no=64,missing=64
						63:leaf=0.0519392751
						64:leaf=-0.0579999797
					40:[f0<333.905548] yes=65,no=66,missing=66
						65:leaf=-0.0486418083
						66:leaf=0.0373648517
			10:[f3<72.2638245] yes=21,no=22,missing=22
				21:[f5<87.006218] yes=41,no=42,missing=42
					41:[f0<157.714706] yes=67,no=68,missing=68
						67:leaf=-0.0188521855
						68:leaf=-0.0663909093
					42:[f5<99.7546005] yes=69,no=70,missing=70
						69:leaf=0.0252994187
						70:leaf=-0.0380852036
				22:[f3<84.4075089] yes=43,no=44,missing=44
					43:[f5<76.1592102] yes=71,no=72,missing=72
						71:leaf=-0.0224769507
						72:leaf=0.04363456
					44:[f7<1.08582413] yes=73,no=74,missing=74
						73:leaf=0.062440265
						74:leaf=-0.0399808735
	2:[f2<130.670502] yes=5,no=6,missing=6
		5:[f1<21.5988941] yes=11,no=12,missing=12
			11:[f6<0.210626543] yes=23,no=24,missing=24
				23:leaf=-0.0693236068
				24:[f3<120.47287] yes=45,no=46,missing=46
					45:leaf=-0.055140119
					46:[f3<154.289124] yes=75,no=76,missing=76
						75:leaf=0.0596936904
						76:leaf=-0.0145397233
			12:[f4<0.41746363] yes=25,no=26,missing=26
				25:[f3<136.181686] yes=47,no=48,missing=48
					47:[f1<131.493744] yes=77,no=78,missing=78
						77:leaf=-0.00527688069
						78:leaf=0.0406764448
					48:[f5<221.345444] yes=79,no=80,missing=80
						79:leaf=0.0114632873
						80:leaf=0.0673529878
				26:[f1<49.3600006] yes=49,no=50,missing=50
					49:[f9<0.0279153697] yes=81,no=82,missing=82
						81:leaf=-0.0160875674
						82:leaf=0.0498787239
					50:[f3<105.164948] yes=83,no=84,missing=84
						83:leaf=0.0431317873
						84:leaf=0.0657457337
		6:[f2<136.487335] yes=13,no=14,missing=14
			13:[f9<-0.131155491] yes=27,no=28,missing=28
				27:leaf=-0.0507372506
				28:[f4<0.607743382] yes=51,no=52,missing=52
					51:leaf=-0.0520083979
					52:[f4<0.794267476] yes=85,no=86,missing=86
						85:leaf=0.0583303086
						86:leaf=-0.0404968485
			14:leaf=-0.0689754933
booster[11]:
0:[f3<98.3566513] yes=1,no=2,missing=2
	1:[f4<0.453352362] yes=3,no=4,missing=4
		3:[f2<85.4569321] yes=7,no=8,missing=8
			7:[f6<0.359763592] yes=15,no=16,missing=16
				15:[f3<96.2611313] yes=29,no=30,missing=30
					29:leaf=-0.0697769821
					30:[f3<96.5915146] yes=55,no=56,missing=56
						55:leaf=0.0372101925
						56:leaf=-0.0557031222
				16:[f6<0.418971688] yes=31,no=32,missing=32
					31:[f3<93.7815323] yes=57,no=58,missing=58
						57:leaf=0.0204493906
						58:leaf=-0.0627650023
					32:[f9<0.867138922] yes=59,no=60,missing=60
						59:leaf=0.00238370872
						60:leaf=-0.0617050491
			8:[f2<86.1069107] yes=17,no=18,missing=18
				17:[f8<0.509954751] yes=33,no=34,missing=34
					33:leaf=0.0629340634
					34:leaf=0.028377017
				18:[f2<105.061569] yes=35,no=36,missing=36
					35:[f7<0.841912687] yes=61,no=62,missing=62
						61:leaf=0.0228437111
						62:leaf=-0.0708253905
					36:leaf=0.0550181083
		4:[f8<1.11506259] yes=9,no=10,missing=10
			9:[f1<88.3088989] yes=19,no=20,missing=20
				19:[f1<22.3672447] yes=37,no=38,missing=38
					37:leaf=-0.0701230094
					38:[f4<0.607743382] yes=63,no=64,missing=64
						63:leaf=-0.047549095
						64:leaf=0.00426853634
				20:[f8<0.75898999] yes=39,no=40,missing=40
					39:[f9<1.18474555] yes=65,no=66,missing=66
						65:leaf=0.0498133861
						66:leaf=-0.0565563813
					40:[f9<1.30605102] yes=67,no=68,missing=68
						67:leaf=-0.056166362
						68:leaf=0.00693056965
			10:[f3<84.4075089] yes=21,no=22,missing=22
				21:[f5<76.1592102] yes=41,no=42,missing=42
					41:[f3<80.5819016] yes=69,no=70,missing=70
						69:leaf=-0.0619237237
						70:leaf=0.00194614369
					42:[f2<74.0235062] yes=71,no=72,missing=72
						71:leaf=-0.0126264114
						72:leaf=0.045102302
				22:[f7<1.08837497] yes=43,no=44,missing=44
					43:[f0<418.76593] yes=73,no=74,missing=74
						73:leaf=0.0599506162
						74:leaf=-0.0194459744
					44:leaf=-0.0419605039
	2:[f2<130.670502] yes=5,no=6,missing=6
		5:[f0<667.254883] yes=11,no=12,missing=12
			11:[f2<73.7431488] yes=23,no=24,missing=24
				23:[f3<113.969017] yes=45,no=46,missing=46
					45:[f9<1.36214173] yes=75,no=76,missing=76
						75:leaf=0.019198142
						76:leaf=-0.042569302
					46:[f6<0.208666295] yes=77,no=78,missing=78
						77:leaf=-0.0139375404
						78:leaf=0.0548328832
				24:[f1<30.1565952] yes=47,no=48,missing=48
					47:[f5<84.6375046] yes=79,no=80,missing=80
						79:leaf=-0.0326389037
						80:leaf=0.0519722514
					48:[f4<0.410856128] yes=81,no=82,missing=82
						81:leaf=0.0462375246
						82:leaf=0.0627548695
			12:[f7<0.932162464] yes=25,no=26,missing=26
				25:[f1<51.7313194] yes=49,no=50,missing=50
					49:leaf=-0.0616102479
					50:leaf=0.054681398
				26:[f1<99.0662155] yes=51,no=52,missing=52
					51:leaf=-0.0773456022
					52:leaf=-0.0156064499
		6:[f2<136.487335] yes=13,no=14,missing=14
			13:[f5<33.3973351] yes=27,no=28,missing=28
				27:[f3<136.181686] yes=53,no=54,missing=54
					53:leaf=-0.0423334055
					54:[f3<136.946793] yes=83,no=84,missing=84
						83:leaf=0.0556322336
						84:leaf=0.0204895865
				28:leaf=-0.0427315719
			14:leaf=-0.0674600527
booster[12]:
0:[f3<102.013199] yes=1,no=2,missing=2
	1:[f2<72.9497375] yes=3,no=4,missing=4
		3:[f7<0.505808353] yes=7,no=8,missing=8
			7:[f2<53.7899055] yes=15,no=16,missing=16
				15:[f3<99.335144] yes=29,no=30,missing=30
					29:leaf=-0.062866576
					30:leaf=0.0314712003
				16:[f3<85.2798615] yes=31,no=32,missing=32
					31:[f2<65.3334274] yes=55,no=56,missing=56
						55:leaf=-0.0547027774
						56:leaf=0.0351528861
					32:[f1<172.702621] yes=57,no=58,missing=58
						57:leaf=0.0573782995
						58:leaf=-0.0367030725
			8:[f4<0.431372672] yes=17,no=18,missing=18
				17:[f9<1.40800607] yes=33,no=34,missing=34
					33:[f8<0.100576513] yes=59,no=60,missing=60
						59:leaf=-0.0164555386
						60:leaf=-0.0666151345
					34:[f9<1.40900695] yes=61,no=62,missing=62
						61:leaf=0.0701254979
						62:leaf=-0.0537951477
				18:[f3<86.3376999] yes=35,no=36,missing=36
					35:[f8<1.13971221] yes=63,no=64,missing=64
						63:leaf=-0.0635509342
						64:leaf=-0.0340046063
					36:[f9<1.22986531] yes=65,no=66,missing=66
						65:leaf=0.00686612306
						66:leaf=-0.047499653
		4:[f8<1.19993603] yes=9,no=10,missing=10
			9:[f6<0.230751455] yes=19,no=20,missing=20
				19:[f2<96.4164352] yes=37,no=38,missing=38
					37:[f7<1.52533638] yes=67,no=68,missing=68
						67:leaf=-0.0543495193
						68:leaf=0.0208741203
					38:[f3<90.7075119] yes=69,no=70,missing=70
						69:leaf=-0.0522463284
						70:leaf=0.047252547
				20:[f9<1.02339184] yes=39,no=40,missing=40
					39:[f9<-0.882860899] yes=71,no=72,missing=72
						71:leaf=-0.0376621522
						72:leaf=0.0590266772
					40:[f0<326.63031] yes=73,no=74,missing=74
						73:leaf=-0.0666186735
						74:leaf=0.0354686044
			10:[f3<84.4075089] yes=21,no=22,missing=22
				21:[f9<0.698515058] yes=41,no=42,missing=42
					41:[f8<1.22729659] yes=75,no=76,missing=76
						75:leaf=0.0245512091
						76:leaf=-0.0559335425
					42:[f4<0.533785403] yes=77,no=78,missing=78
						77:leaf=-0.041501116
						78:leaf=0.050664939
				22:[f0<543.98584] yes=43,no=44,missing=44
					43:[f1<177.914825] yes=79,no=80,missing=80
						79:leaf=0.0615297966
						80:leaf=0.0143919019
					44:leaf=-0.039003212
	2:[f2<130.670502] yes=5,no=6,missing=6
		5:[f1<21.3395157] yes=11,no=12,missing=12
			11:[f6<0.210626543] yes=23,no=24,missing=24
				23:[f6<0.184264973] yes=45,no=46,missing=46
					45:leaf=-0.0676626638
					46:leaf=-0.0274616759
				24:[f7<0.775097966] yes=47,no=48,missing=48
					47:[f2<75.8017883] yes=81,no=82,missing=82
						81:leaf=-0.0636584461
						82:leaf=0.0465796255
					48:[f0<435.734985] yes=83,no=84,missing=84
						83:leaf=0.0545502603
						84:leaf=-0.0555919409
			12:[f4<0.395323664] yes=25,no=26,missing=26
				25:[f3<124.145309] yes=49,no=50,missing=50
					49:[f1<125.633583] yes=85,no=86,missing=86
						85:leaf=-0.0227545667
						86:leaf=0.0307204761
					50:[f3<148.614395] yes=87,no=88,missing=88
						87:leaf=0.0365915932
						88:leaf=0.0691879243
				26:[f1<79.7012024] yes=51,no=52,missing=52
					51:[f9<0.58323431] yes=89,no=90,missing=90
						89:leaf=0.0223516077
						90:leaf=0.054015208
					52:[f3<177.92897] yes=91,no=92,missing=92
						91:leaf=0.0637712628
						92:leaf=-0.0614681207
		6:[f2<136.487335] yes=13,no=14,missing=14
			13:[f4<0.607743382] yes=27,no=28,missing=28
				27:leaf=-0.0555515401
				28:[f1<82.9672241] yes=53,no=54,missing=54
					53:leaf=-0.0437827073
					54:[f8<0.938662171] yes=93,no=94,missing=94
						93:leaf=0.0535863452
						94:leaf=-0.0371519625
			14:leaf=-0.0660602972
booster[13]:
0:[f3<102.013199] yes=1,no=2,missing=2
	1:[f2<72.9497375] yes=3,no=4,missing=4
		3:[f7<0.505808353] yes=7,no=8,missing=8
			7:[f2<53.7899055] yes=15,no=16,missing=16
				15:[f3<99.335144] yes=29,no=30,missing=30
					29:leaf=-0.0611379631
					30:leaf=0.0304795336
				16:[f3<85.2798615] yes=31,no=32,missing=32
					31:[f2<65.3334274] yes=55,no=56,missing=56
						55:leaf=-0.0532341301
						56:leaf=0.0337634347
					32:[f1<172.702621] yes=57,no=58,missing=58
						57:leaf=0.0551291779
						58:leaf=-0.0357728712
			8:[f4<0.431372672] yes=17,no=18,missing=18
				17:[f9<1.40800607] yes=33,no=34,missing=34
					33:[f5<282.085541] yes=59,no=60,missing=60
						59:leaf=-0.0661185905
						60:leaf=-0.0279326923
					34:[f9<1.40900695] yes=61,no=62,missing=62
						61:leaf=0.0668302551
						62:leaf=-0.0520668998
				18:[f3<86.3376999] yes=35,no=36,missing=36
					35:[f8<1.13971221] yes=63,no=64,missing=64
						63:leaf=-0.0620106459
						64:leaf=-0.0327495448
					36:[f9<0.688695908] yes=65,no=66,missing=66
						65:leaf=-0.0713259801
						66:leaf=-0.000170002546
		4:[f8<1.19993603] yes=9,no=10,missing=10
			9:[f6<0.230751455] yes=19,no=20,missing=20
				19:[f2<96.4164352] yes=37,no=38,missing=38
					37:[f7<1.52533638] yes=67,no=68,missing=68
						67:leaf=-0.0523321927
						68:leaf=0.0199646782
					38:[f3<90.7075119] yes=69,no=70,missing=70
						69:leaf=-0.0508106314
						70:leaf=0.0455390736
				20:[f9<1.02339184] yes=39,no=40,missing=40
					39:[f9<-0.882860899] yes=71,no=72,missing=72
						71:leaf=-0.0368271768
						72:leaf=0.0571253113
					40:[f0<326.63031] yes=73,no=74,missing=74
						73:leaf=-0.0642159209
						74:leaf=0.0344784521
			10:[f3<84.4075089] yes=21,no=22,missing=22
				21:[f9<0.698515058] yes=41,no=42,missing=42
					41:[f7<1.20739257] yes=75,no=76,missing=76
						75:leaf=-0.056566596
						76:leaf=0.0138225378
					42:[f1<34.0238686] yes=77,no=78,missing=78
						77:leaf=-0.0407056771
						78:leaf=0.0492771082
				22:[f0<543.98584] yes=43,no=44,missing=44
					43:[f1<177.914825] yes=79,no=80,missing=80
						79:leaf=0.059900023
						80:leaf=0.0137903858
					44:leaf=-0.0379877351
	2:[f2<130.670502] yes=5,no=6,missing=6
		5:[f0<667.254883] yes=11,no=12,missing=12
			11:[f2<73.7431488] yes=23,no=24,missing=24
				23:[f5<73.193222] yes=45,no=46,missing=46
					45:[f3<126.341858] yes=81,no=82,missing=82
						81:leaf=-0.0801753029
						82:leaf=-0.0158192776
					46:[f3<113.969017] yes=83,no=84,missing=84
						83:leaf=0.0177068338
						84:leaf=0.0505868569
				24:[f1<30.1565952] yes=47,no=48,missing=48
					47:[f5<84.6375046] yes=85,no=86,missing=86
						85:leaf=-0.0304814819
						86:leaf=0.04917733
					48:[f4<0.405033499] yes=87,no=88,missing=88
						87:leaf=0.0437474586
						88:leaf=0.0603873394
			12:[f7<0.932162464] yes=25,no=26,missing=26
				25:[f1<51.7313194] yes=49,no=50,missing=50
					49:leaf=-0.0599975847
					50:leaf=0.0520478077
				26:[f1<90.0704346] yes=51,no=52,missing=52
					51:leaf=-0.0750976652
					52:leaf=-0.0131331999
		6:[f2<136.487335] yes=13,no=14,missing=14
			13:[f4<0.607743382] yes=27,no=28,missing=28
				27:leaf=-0.0540364869
				28:[f1<82.9672241] yes=53,no=54,missing=54
					53:leaf=-0.0425505303
					54:[f8<0.938662171] yes=89,no=90,missing=90
						89:leaf=0.0517962463
						90:leaf=-0.0364085399
			14:leaf=-0.064770028
booster[14]:
0:[f3<102.013199] yes=1,no=2,missing=2
	1:[f2<72.9497375] yes=3,no=4,missing=4
		3:[f7<0.505808353] yes=7,no=8,missing=8
			7:[f2<53.7899055] yes=15,no=16,missing=16
				15:[f3<99.335144] yes=29,no=30,missing=30
					29:leaf=-0.0595178492
					30:leaf=0.029525077
				16:[f3<85.2798615] yes=31,no=32,missing=32
					31:[f8<1.58811259] yes=53,no=54,missing=54
						53:leaf=-0.0558976419
						54:leaf=0.0279778
					32:[f1<172.702621] yes=55,no=56,missing=56
						55:leaf=0.0530163012
						56:leaf=-0.0348775648
			8:[f3<86.3376999] yes=17,no=18,missing=18
				17:[f9<1.40800607] yes=33,no=34,missing=34
					33:[f8<1.13971221] yes=57,no=58,missing=58
						57:leaf=-0.0634920374
						58:leaf=-0.0456213169
					34:[f7<0.619124293] yes=59,no=60,missing=60
						59:leaf=0.0749326721
						60:leaf=-0.0592819862
				18:[f4<0.460985899] yes=35,no=36,missing=36
					35:[f1<92.4156342] yes=61,no=62,missing=62
						61:leaf=-0.0323448703
						62:leaf=-0.0734082535
					36:[f9<0.688695908] yes=63,no=64,missing=64
						63:leaf=-0.068797864
						64:leaf=0.00629084557
		4:[f8<1.19993603] yes=9,no=10,missing=10
			9:[f6<0.230751455] yes=19,no=20,missing=20
				19:[f2<96.4164352] yes=37,no=38,missing=38
					37:[f0<176.844681] yes=65,no=66,missing=66
						65:leaf=0.0368628986
						66:leaf=-0.0478351526
					38:[f3<90.7075119] yes=67,no=68,missing=68
						67:leaf=-0.0494471863
						68:leaf=0.0439061597
				20:[f9<1.02339184] yes=39,no=40,missing=40
					39:[f9<-0.882860899] yes=69,no=70,missing=70
						69:leaf=-0.0360222682
						70:leaf=0.0553346053
					40:[f0<326.63031] yes=71,no=72,missing=72
						71:leaf=-0.0619709603
						72:leaf=0.0335239135
			10:[f3<84.4075089] yes=21,no=22,missing=22
				21:[f9<0.698515058] yes=41,no=42,missing=42
					41:[f8<1.22729659] yes=73,no=74,missing=74
						73:leaf=0.0238690469
						74:leaf=-0.0526563823
					42:[f0<369.849976] yes=75,no=76,missing=76
						75:leaf=0.048274599
						76:leaf=-0.0368072353
				22:[f0<582.363953] yes=43,no=44,missing=44
					43:[f1<177.914825] yes=77,no=78,missing=78
						77:leaf=0.0582886226
						78:leaf=0.0131873293
					44:leaf=-0.0413332395
	2:[f2<130.670502] yes=5,no=6,missing=6
		5:[f1<21.5988941] yes=11,no=12,missing=12
			11:[f6<0.210626543] yes=23,no=24,missing=24
				23:leaf=-0.0645138323
				24:[f3<120.47287] yes=45,no=46,missing=46
					45:leaf=-0.0510668233
					46:[f3<154.289124] yes=79,no=80,missing=80
						79:leaf=0.0537380949
						80:leaf=-0.018013915
			12:[f4<0.395323664] yes=25,no=26,missing=26
				25:[f3<136.181686] yes=47,no=48,missing=48
					47:[f1<184.579361] yes=81,no=82,missing=82
						81:leaf=0.00027430008
						82:leaf=0.0515107512
					48:[f1<38.6128922] yes=83,no=84,missing=84
						83:leaf=-0.0467511863
						84:leaf=0.0595918372
				26:[f1<79.7012024] yes=49,no=50,missing=50
					49:[f9<0.58323431] yes=85,no=86,missing=86
						85:leaf=0.0200802293
						86:leaf=0.0510895364
					50:[f3<177.92897] yes=87,no=88,missing=88
						87:leaf=0.060988266
						88:leaf=-0.061317917
		6:[f2<136.487335] yes=13,no=14,missing=14
			13:[f4<0.607743382] yes=27,no=28,missing=28
				27:leaf=-0.0526054092
				28:[f4<0.794267476] yes=51,no=52,missing=52
					51:[f8<0.938662171] yes=89,no=90,missing=90
						89:leaf=0.053552378
						90:leaf=-0.0408859961
					52:leaf=-0.0419366919
			14:leaf=-0.0635732263
booster[15]:
0:[f3<102.013199] yes=1,no=2,missing=2
	1:[f2<72.9497375] yes=3,no=4,missing=4
		3:[f5<122.327301] yes=7,no=8,missing=8
			7:[f4<0.617855549] yes=15,no=16,missing=16
				15:[f7<0.775097966] yes=29,no=30,missing=30
					29:[f0<337.632202] yes=55,no=56,missing=56
						55:leaf=-0.0545371175
						56:leaf=0.0615447052
					30:[f0<179.867889] yes=57,no=58,missing=58
						57:leaf=-0.0395906381
						58:leaf=-0.065422371
				16:[f4<0.620514572] yes=31,no=32,missing=32
					31:leaf=0.0576034486
					32:[f5<71.5933228] yes=59,no=60,missing=60
						59:leaf=-0.0576945655
						60:leaf=0.00985771697
			8:[f4<0.428227574] yes=17,no=18,missing=18
				17:[f4<0.362369239] yes=33,no=34,missing=34
					33:[f4<0.356790036] yes=61,no=62,missing=62
						61:leaf=-0.0371562615
						62:leaf=0.0387884118
					34:[f9<1.41045856] yes=63,no=64,missing=64
						63:leaf=-0.067772992
						64:leaf=0.000390995439
				18:[f9<1.22173738] yes=35,no=36,missing=36
					35:[f3<87.4805984] yes=65,no=66,missing=66
						65:leaf=-0.0317852423
						66:leaf=0.0441628173
					36:[f0<281.206696] yes=67,no=68,missing=68
						67:leaf=-0.0761095211
						68:leaf=0.0384765118
		4:[f8<1.19993603] yes=9,no=10,missing=10
			9:[f6<0.230751455] yes=19,no=20,missing=20
				19:[f2<96.4164352] yes=37,no=38,missing=38
					37:[f7<1.52533638] yes=69,no=70,missing=70
						69:leaf=-0.0490567274
						70:leaf=0.0202929955
					38:[f3<90.7075119] yes=71,no=72,missing=72
						71:leaf=-0.0481500402
						72:leaf=0.0423461758
				20:[f9<1.02339184] yes=39,no=40,missing=40
					39:[f3<92.7663193] yes=73,no=74,missing=74
						73:leaf=-0.00794257876
						74:leaf=0.0571881793
					40:[f3<100.538857] yes=75,no=76,missing=76
						75:leaf=-0.0603010245
						76:leaf=0.0325999185
			10:[f3<84.4075089] yes=21,no=22,missing=22
				21:[f9<0.698515058] yes=41,no=42,missing=42
					41:[f7<1.20739257] yes=77,no=78,missing=78
						77:leaf=-0.0534199253
						78:leaf=0.0138775827
					42:[f4<0.533785403] yes=79,no=80,missing=80
						79:leaf=-0.0419392362
						80:leaf=0.0462067425
				22:[f0<543.98584] yes=43,no=44,missing=44
					43:[f1<177.914825] yes=81,no=82,missing=82
						81:leaf=0.0569203906
						82:leaf=0.0126622049
					44:leaf=-0.0363974087
	2:[f2<130.670502] yes=5,no=6,missing=6
		5:[f0<667.254883] yes=11,no=12,missing=12
			11:[f2<76.5945282] yes=23,no=24,missing=24
				23:[f6<0.210626543] yes=45,no=46,missing=46
					45:[f1<23.1018581] yes=83,no=84,missing=84
						83:leaf=-0.0664801523
						84:leaf=-0.00338778528
					46:[f3<113.695358] yes=85,no=86,missing=86
						85:leaf=0.0184037108
						86:leaf=0.0500636213
				24:[f1<30.1565952] yes=47,no=48,missing=48
					47:[f3<142.924545] yes=87,no=88,missing=88
						87:leaf=-0.0715998039
						88:leaf=0.0264000986
					48:[f9<0.504265845] yes=89,no=90,missing=90
						89:leaf=0.0475928038
						90:leaf=0.0590349324
			12:[f7<0.932162464] yes=25,no=26,missing=26
				25:[f1<51.7313194] yes=49,no=50,missing=50
					49:leaf=-0.0589236729
					50:leaf=0.0495180264
				26:[f1<90.0704346] yes=51,no=52,missing=52
					51:leaf=-0.0730589256
					52:leaf=-0.0135960793
		6:[f2<136.487335] yes=13,no=14,missing=14
			13:[f5<33.3973351] yes=27,no=28,missing=28
				27:[f9<-0.0450525284] yes=53,no=54,missing=54
					53:leaf=-0.040926788
					54:[f6<0.0651479885] yes=91,no=92,missing=92
						91:leaf=0.0166592859
						92:leaf=0.0510212444
				28:leaf=-0.0392029062
			14:leaf=-0.0624594763
booster[16]:
0:[f3<105.164948] yes=1,no=2,missing=2
	1:[f4<0.48750788] yes=3,no=4,missing=4
		3:[f3<88.4186935] yes=7,no=8,missing=8
			7:[f7<0.841912687] yes=15,no=16,missing=16
				15:[f0<343.060852] yes=29,no=30,missing=30
					29:[f2<95.1105499] yes=51,no=52,missing=52
						51:leaf=-0.0485887267
						52:leaf=0.0480935015
					30:[f0<345.920715] yes=53,no=54,missing=54
						53:leaf=0.0688336417
						54:leaf=-0.0188293271
				16:[f2<85.4569321] yes=31,no=32,missing=32
					31:leaf=-0.0631928667
					32:[f2<85.7527771] yes=55,no=56,missing=56
						55:leaf=0.0462982804
						56:leaf=-0.0613775812
			8:[f9<1.33288062] yes=17,no=18,missing=18
				17:[f1<88.3088989] yes=33,no=34,missing=34
					33:[f6<0.359763592] yes=57,no=58,missing=58
						57:leaf=-0.0731392205
						58:leaf=-0.0144814178
					34:[f5<69.5482864] yes=59,no=60,missing=60
						59:leaf=-0.0419130102
						60:leaf=0.0161961634
				18:[f3<101.081444] yes=35,no=36,missing=36
					35:[f9<1.41045856] yes=61,no=62,missing=62
						61:leaf=-0.070964247
						62:leaf=-0.0282570031
					36:leaf=-0.0976660177
		4:[f1<22.3672447] yes=9,no=10,missing=10
			9:[f7<0.625940561] yes=19,no=20,missing=20
				19:leaf=-0.0181324519
				20:leaf=-0.0653977692
			10:[f8<1.18774569] yes=21,no=22,missing=22
				21:[f6<0.239035353] yes=37,no=38,missing=38
					37:[f2<91.8518906] yes=63,no=64,missing=64
						63:leaf=-0.0262139384
						64:leaf=0.0300670657
					38:[f3<87.4805984] yes=65,no=66,missing=66
						65:leaf=-0.0429080389
						66:leaf=0.0410236306
				22:[f3<72.2638245] yes=39,no=40,missing=40
					39:[f5<94.5972214] yes=67,no=68,missing=68
						67:leaf=-0.0522201434
						68:leaf=-0.00987955462
					40:[f0<418.76593] yes=69,no=70,missing=70
						69:leaf=0.0533049516
						70:leaf=-0.046203386
	2:[f2<130.670502] yes=5,no=6,missing=6
		5:[f0<667.254883] yes=11,no=12,missing=12
			11:[f8<0.487041891] yes=23,no=24,missing=24
				23:[f9<0.163330153] yes=41,no=42,missing=42
					41:[f2<96.4164352] yes=71,no=72,missing=72
						71:leaf=-0.0525331572
						72:leaf=0.0352032818
					42:[f3<120.47287] yes=73,no=74,missing=74
						73:leaf=0.025735585
						74:leaf=0.0489973612
				24:[f4<0.971646965] yes=43,no=44,missing=44
					43:[f3<181.762482] yes=75,no=76,missing=76
						75:leaf=0.0570137762
						76:leaf=-0.0663828254
					44:[f6<0.142015323] yes=77,no=78,missing=78
						77:leaf=-0.0863834545
						78:leaf=0.028649006
			12:[f7<0.932162464] yes=25,no=26,missing=26
				25:[f1<51.7313194] yes=45,no=46,missing=46
					45:leaf=-0.0572647154
					46:leaf=0.0486162789
				26:[f1<90.0704346] yes=47,no=48,missing=48
					47:leaf=-0.0715124458
					48:leaf=-0.0122647202
		6:[f2<136.487335] yes=13,no=14,missing=14
			13:[f4<0.607743382] yes=27,no=28,missing=28
				27:leaf=-0.0502178036
				28:[f1<82.9672241] yes=49,no=50,missing=50
					49:leaf=-0.0392514318
					50:[f7<1.01444447] yes=79,no=80,missing=80
						79:leaf=-0.0306320842
						80:leaf=0.0483171828
			14:leaf=-0.0614195839
booster[17]:
0:[f3<105.164948] yes=1,no=2,missing=2
	1:[f4<0.48750788] yes=3,no=4,missing=4
		3:[f3<88.4186935] yes=7,no=8,missing=8
			7:[f7<0.841912687] yes=15,no=16,missing=16
				15:[f0<343.060852] yes=29,no=30,missing=30
					29:[f2<95.1105499] yes=51,no=52,missing=52
						51:leaf=-0.047097031
						52:leaf=0.0469906591
					30:[f4<0.372183681] yes=53,no=54,missing=54
						53:leaf=-0.0421674512
						54:leaf=0.0396604799
				16:[f2<85.4569321] yes=31,no=32,missing=32
					31:leaf=-0.0621099174
					32:[f2<85.7527771] yes=55,no=56,missing=56
						55:leaf=0.0450533554
						56:leaf=-0.0598321632
			8:[f9<1.33288062] yes=17,no=18,missing=18
				17:[f1<88.3088989] yes=33,no=34,missing=34
					33:[f5<282.085541] yes=57,no=58,missing=58
						57:leaf=-0.0537771285
						58:leaf=0.00860071369
					34:[f5<69.5482864] yes=59,no=60,missing=60
						59:leaf=-0.0400427319
						60:leaf=0.0154218068
				18:[f0<304.752808] yes=35,no=36,missing=36
					35:leaf=-0.0794799253
					36:[f0<305.573364] yes=61,no=62,missing=62
						61:leaf=0.0433590375
						62:leaf=-0.0646631345
		4:[f1<22.3672447] yes=9,no=10,missing=10
			9:[f7<0.625940561] yes=19,no=20,missing=20
				19:leaf=-0.0176791511
				20:leaf=-0.0639222935
			10:[f8<1.18774569] yes=21,no=22,missing=22
				21:[f6<0.239035353] yes=37,no=38,missing=38
					37:[f2<91.8518906] yes=63,no=64,missing=64
						63:leaf=-0.0250237789
						64:leaf=0.0288776513
					38:[f3<87.4805984] yes=65,no=66,missing=66
						65:leaf=-0.0416844934
						66:leaf=0.0394788347
				22:[f3<72.2638245] yes=39,no=40,missing=40
					39:[f5<94.5972214] yes=67,no=68,missing=68
						67:leaf=-0.0509279333
						68:leaf=-0.00950271357
					40:[f0<418.76593] yes=69,no=70,missing=70
						69:leaf=0.0518115051
						70:leaf=-0.0446617492
	2:[f2<130.670502] yes=5,no=6,missing=6
		5:[f1<29.3618965] yes=11,no=12,missing=12
			11:[f6<0.208666295] yes=23,no=24,missing=24
				23:[f3<154.289124] yes=41,no=42,missing=42
					41:[f6<0.0769386366] yes=71,no=72,missing=72
						71:leaf=-0.0351737961
						72:leaf=-0.0720913932
					42:[f1<21.5988941] yes=73,no=74,missing=74
						73:leaf=-0.0578335002
						74:leaf=0.0217019822
				24:[f9<1.41204119] yes=43,no=44,missing=44
					43:[f3<200.723862] yes=75,no=76,missing=76
						75:leaf=0.0461369939
						76:leaf=-0.0660851598
					44:leaf=-0.0778247043
			12:[f4<0.395323664] yes=25,no=26,missing=26
				25:[f3<136.181686] yes=45,no=46,missing=46
					45:[f1<184.579361] yes=77,no=78,missing=78
						77:leaf=-0.00072453887
						78:leaf=0.0497552752
					46:[f3<148.614395] yes=79,no=80,missing=80
						79:leaf=0.0353187062
						80:leaf=0.0632292703
				26:[f1<85.8699493] yes=47,no=48,missing=48
					47:[f9<0.504265845] yes=81,no=82,missing=82
						81:leaf=0.0243218988
						82:leaf=0.0499517769
					48:[f2<123.776154] yes=83,no=84,missing=84
						83:leaf=0.0595046766
						84:leaf=0.0123703443
		6:[f2<136.487335] yes=13,no=14,missing=14
			13:[f4<0.607743382] yes=27,no=28,missing=28
				27:leaf=-0.0489722006
				28:[f4<0.794267476] yes=49,no=50,missing=50
					49:[f8<0.938662171] yes=85,no=86,missing=86
						85:leaf=0.0502580777
						86:leaf=-0.0388744473
					50:leaf=-0.0386990942
			14:leaf=-0.0604459532
booster[18]:
0:[f3<105.164948] yes=1,no=2,missing=2
	1:[f4<0.48750788] yes=3,no=4,missing=4
		3:[f3<88.4186935] yes=7,no=8,missing=8
			7:[f7<0.841912687] yes=15,no=16,missing=16
				15:[f0<284.053497] yes=29,no=30,missing=30
					29:[f9<1.40800607] yes=51,no=52,missing=52
						51:leaf=-0.0569380336
						52:leaf=0.0230153166
					30:[f9<0.942134261] yes=53,no=54,missing=54
						53:leaf=0.0212074369
						54:leaf=-0.055308938
				16:[f2<85.4569321] yes=31,no=32,missing=32
					31:leaf=-0.0610948764
					32:[f2<85.7527771] yes=55,no=56,missing=56
						55:leaf=0.0438636765
						56:leaf=-0.058372952
			8:[f9<1.18474555] yes=17,no=18,missing=18
				17:[f5<118.980682] yes=33,no=34,missing=34
					33:[f2<84.9004745] yes=57,no=58,missing=58
						57:leaf=-0.073312819
						58:leaf=0.00719641661
					34:[f4<0.428227574] yes=59,no=60,missing=60
						59:leaf=-0.00786510855
						60:leaf=0.0533871129
				18:[f3<89.0812836] yes=35,no=36,missing=36
					35:[f8<0.27390486] yes=61,no=62,missing=62
						61:leaf=0.0698786154
						62:leaf=-0.0317037813
					36:[f7<0.48657155] yes=63,no=64,missing=64
						63:leaf=0.0126222689
						64:leaf=-0.0647518188
		4:[f1<22.3672447] yes=9,no=10,missing=10
			9:[f7<0.625940561] yes=19,no=20,missing=20
				19:leaf=-0.0172380395
				20:leaf=-0.0625396669
			10:[f9<1.22986531] yes=21,no=22,missing=22
				21:[f3<82.6516037] yes=37,no=38,missing=38
					37:[f2<73.4456863] yes=65,no=66,missing=66
						65:leaf=-0.0397537984
						66:leaf=0.0072759809
					38:[f8<1.13971221] yes=67,no=68,missing=68
						67:leaf=0.021224549
						68:leaf=0.0526412614
				22:[f8<0.38697648] yes=39,no=40,missing=40
					39:[f1<26.0836983] yes=69,no=70,missing=70
						69:leaf=0.0736314356
						70:leaf=0.0159264486
					40:[f8<0.62155211] yes=71,no=72,missing=72
						71:leaf=-0.0889522433
						72:leaf=-0.0346145071
	2:[f2<130.670502] yes=5,no=6,missing=6
		5:[f0<609.482483] yes=11,no=12,missing=12
			11:[f8<0.487041891] yes=23,no=24,missing=24
				23:[f3<120.47287] yes=41,no=42,missing=42
					41:[f0<352.323334] yes=73,no=74,missing=74
						73:leaf=0.0270470139
						74:leaf=-0.0330771394
					42:[f0<289.558777] yes=75,no=76,missing=76
						75:leaf=0.0539356582
						76:leaf=0.0322454683
				24:[f4<0.971646965] yes=43,no=44,missing=44
					43:[f3<181.762482] yes=77,no=78,missing=78
						77:leaf=0.0547466837
						78:leaf=-0.0658144504
					44:[f6<0.142015323] yes=79,no=80,missing=80
						79:leaf=-0.0828521103
						80:leaf=0.0265272018
			12:[f7<0.932162464] yes=25,no=26,missing=26
				25:[f1<44.5053978] yes=45,no=46,missing=46
					45:leaf=-0.0542032681
					46:[f3<154.289124] yes=81,no=82,missing=82
						81:leaf=0.0238173101
						82:leaf=0.0551773123
				26:[f1<105.846985] yes=47,no=48,missing=48
					47:leaf=-0.0706704482
					48:leaf=-0.00440957304
		6:[f2<136.487335] yes=13,no=14,missing=14
			13:[f4<0.607743382] yes=27,no=28,missing=28
				27:leaf=-0.047785271
				28:[f1<82.9672241] yes=49,no=50,missing=50
					49:leaf=-0.0373276584
					50:[f3<136.181686] yes=83,no=84,missing=84
						83:leaf=-0.0282346215
						84:leaf=0.0460311733
			14:leaf=-0.0595314801
booster[19]:
0:[f3<105.164948] yes=1,no=2,missing=2
	1:[f4<0.48750788] yes=3,no=4,missing=4
		3:[f3<88.4186935] yes=7,no=8,missing=8
			7:[f7<0.841912687] yes=15,no=16,missing=16
				15:[f0<343.060852] yes=29,no=30,missing=30
					29:[f1<255.66185] yes=51,no=52,missing=52
						51:leaf=-0.0448363386
						52:leaf=0.0441931002
					30:[f0<345.920715] yes=53,no=54,missing=54
						53:leaf=0.0644694418
						54:leaf=-0.0178876761
				16:[f2<85.4569321] yes=31,no=32,missing=32
					31:leaf=-0.0601404496
					32:[f2<85.7527771] yes=55,no=56,missing=56
						55:leaf=0.0427246504
						56:leaf=-0.0569902249
			8:[f9<1.33288062] yes=17,no=18,missing=18
				17:[f1<88.3088989] yes=33,no=34,missing=34
					33:[f6<0.359763592] yes=57,no=58,missing=58
						57:leaf=-0.0691036284
						58:leaf=-0.0126058487
					34:[f5<69.5482864] yes=59,no=60,missing=60
						59:leaf=-0.0377497002
						60:leaf=0.0147233037
				18:[f0<304.752808] yes=35,no=36,missing=36
					35:leaf=-0.075312309
					36:[f0<305.573364] yes=61,no=62,missing=62
						61:leaf=0.0438625365
						62:leaf=-0.0612473376
		4:[f1<22.3672447] yes=9,no=10,missing=10
			9:[f7<0.625940561] yes=19,no=20,missing=20
				19:leaf=-0.0168087184
				20:leaf=-0.0612392016
			10:[f9<1.22986531] yes=21,no=22,missing=22
				21:[f3<78.4268799] yes=37,no=38,missing=38
					37:[f5<76.1592102] yes=63,no=64,missing=64
						63:leaf=-0.0471754186
						64:leaf=0.00939722825
					38:[f8<1.18774569] yes=65,no=66,missing=66
						65:leaf=0.0196306091
						66:leaf=0.0490667447
				22:[f8<0.38697648] yes=39,no=40,missing=40
					39:[f4<0.542981029] yes=67,no=68,missing=68
						67:leaf=-0.00314017618
						68:leaf=0.061070174
					40:[f8<0.625389814] yes=69,no=70,missing=70
						69:leaf=-0.0839544311
						70:leaf=-0.0319282673
	2:[f2<130.670502] yes=5,no=6,missing=6
		5:[f1<29.3618965] yes=11,no=12,missing=12
			11:[f6<0.208666295] yes=23,no=24,missing=24
				23:[f3<154.289124] yes=41,no=42,missing=42
					41:[f6<0.0769386366] yes=71,no=72,missing=72
						71:leaf=-0.0338665582
						72:leaf=-0.0703638121
					42:[f1<21.5988941] yes=73,no=74,missing=74
						73:leaf=-0.0566504188
						74:leaf=0.0200809166
				24:[f9<1.41204119] yes=43,no=44,missing=44
					43:[f3<200.723862] yes=75,no=76,missing=76
						75:leaf=0.0435958244
						76:leaf=-0.0643644258
					44:leaf=-0.0759590268
			12:[f4<0.403047621] yes=25,no=26,missing=26
				25:[f3<136.181686] yes=45,no=46,missing=46
					45:[f1<162.851944] yes=77,no=78,missing=78
						77:leaf=-0.00207340228
						78:leaf=0.0386885218
					46:[f3<148.614395] yes=79,no=80,missing=80
						79:leaf=0.0341150388
						80:leaf=0.0615702569
				26:[f1<85.8699493] yes=47,no=48,missing=48
					47:[f4<0.463596314] yes=81,no=82,missing=82
						81:leaf=0.00208612555
						82:leaf=0.0459451601
					48:[f2<123.776154] yes=83,no=84,missing=84
						83:leaf=0.0579979122
						84:leaf=0.0096544167
		6:[f2<136.487335] yes=13,no=14,missing=14
			13:[f4<0.607743382] yes=27,no=28,missing=28
				27:leaf=-0.0466520153
				28:[f4<0.794267476] yes=49,no=50,missing=50
					49:[f8<0.938662171] yes=85,no=86,missing=86
						85:leaf=0.0476968549
						86:leaf=-0.0376795195
					50:leaf=-0.0369744636
			14:leaf=-0.05867007
booster[20]:
0:[f3<105.164948] yes=1,no=2,missing=2
	1:[f4<0.48750788] yes=3,no=4,missing=4
		3:[f3<88.4186935] yes=7,no=8,missing=8
			7:[f7<0.841912687] yes=15,no=16,missing=16
				15:[f2<95.1105499] yes=29,no=30,missing=30
					29:[f0<343.060852] yes=53,no=54,missing=54
						53:leaf=-0.043475274
						54:leaf=0.0086351214
					30:leaf=0.045291476
				16:[f2<85.4569321] yes=31,no=32,missing=32
					31:leaf=-0.0592402183
					32:[f2<85.7527771] yes=55,no=56,missing=56
						55:leaf=0.0416322462
						56:leaf=-0.0556755774
			8:[f9<1.18474555] yes=17,no=18,missing=18
				17:[f5<118.980682] yes=33,no=34,missing=34
					33:[f2<99.5582275] yes=57,no=58,missing=58
						57:leaf=-0.0519167297
						58:leaf=0.0403390303
					34:[f4<0.428227574] yes=59,no=60,missing=60
						59:leaf=-0.00771875819
						60:leaf=0.0513464808
				18:[f3<89.0812836] yes=35,no=36,missing=36
					35:[f8<0.27390486] yes=61,no=62,missing=62
						61:leaf=0.0678197369
						62:leaf=-0.0299921464
					36:[f1<170.84816] yes=63,no=64,missing=64
						63:leaf=-0.0616579615
						64:leaf=0.0109831626
		4:[f1<22.3672447] yes=9,no=10,missing=10
			9:[f7<0.625940561] yes=19,no=20,missing=20
				19:leaf=-0.0163907986
				20:leaf=-0.0600116067
			10:[f8<1.18774569] yes=21,no=22,missing=22
				21:[f6<0.233079866] yes=37,no=38,missing=38
					37:[f2<91.8518906] yes=65,no=66,missing=66
						65:leaf=-0.0251850579
						66:leaf=0.0262195356
					38:[f3<92.7663193] yes=67,no=68,missing=68
						67:leaf=-0.0143500036
						68:leaf=0.0395036899
				22:[f3<72.2638245] yes=39,no=40,missing=40
					39:[f1<35.1305847] yes=69,no=70,missing=70
						69:leaf=-0.0101726418
						70:leaf=-0.0502039567
					40:[f0<418.76593] yes=71,no=72,missing=72
						71:leaf=0.0481263213
						72:leaf=-0.0459755249
	2:[f2<130.670502] yes=5,no=6,missing=6
		5:[f1<29.3618965] yes=11,no=12,missing=12
			11:[f6<0.208666295] yes=23,no=24,missing=24
				23:[f3<154.289124] yes=41,no=42,missing=42
					41:[f6<0.0769386366] yes=73,no=74,missing=74
						73:leaf=-0.0323996134
						74:leaf=-0.0682109371
					42:[f1<21.5988941] yes=75,no=76,missing=76
						75:leaf=-0.0556185544
						76:leaf=0.019253036
				24:[f9<1.41204119] yes=43,no=44,missing=44
					43:[f3<200.723862] yes=77,no=78,missing=78
						77:leaf=0.0422849618
						78:leaf=-0.0621854179
					44:leaf=-0.0728703737
			12:[f4<0.403047621] yes=25,no=26,missing=26
				25:[f3<148.614395] yes=45,no=46,missing=46
					45:[f1<133.411926] yes=79,no=80,missing=80
						79:leaf=-0.00272120419
						80:leaf=0.0310268607
					46:leaf=0.0604906678
				26:[f1<85.8699493] yes=47,no=48,missing=48
					47:[f9<0.504265845] yes=81,no=82,missing=82
						81:leaf=0.0202233382
						82:leaf=0.0465199165
					48:[f2<123.776154] yes=83,no=84,missing=84
						83:leaf=0.0570161529
						84:leaf=0.00924608577
		6:[f2<136.487335] yes=13,no=14,missing=14
			13:[f5<33.3973351] yes=27,no=28,missing=28
				27:[f9<-0.0450525284] yes=49,no=50,missing=50
					49:leaf=-0.0371296331
					50:[f6<0.0651479885] yes=85,no=86,missing=86
						85:leaf=0.0139472885
						86:leaf=0.0462742113
				28:[f3<154.289124] yes=51,no=52,missing=52
					51:leaf=-0.0142774405
					52:leaf=-0.042932339
			14:leaf=-0.0578562804
booster[21]:
0:[f3<105.164948] yes=1,no=2,missing=2
	1:[f4<0.48750788] yes=3,no=4,missing=4
		3:[f3<88.4186935] yes=7,no=8,missing=8
			7:[f5<195.225601] yes=15,no=16,missing=16
				15:[f4<0.410856128] yes=29,no=30,missing=30
					29:leaf=-0.0604129545
					30:[f2<85.4569321] yes=47,no=48,missing=48
						47:leaf=-0.0447015427
						48:leaf=0.0133554703
				16:[f9<1.40800607] yes=31,no=32,missing=32
					31:[f2<65.3334274] yes=49,no=50,missing=50
						49:leaf=-0.050516773
						50:leaf=0.0386056155
					32:leaf=0.0679698661
			8:[f9<1.33288062] yes=17,no=18,missing=18
				17:[f1<88.3088989] yes=33,no=34,missing=34
					33:[f5<282.085541] yes=51,no=52,missing=52
						51:leaf=-0.0496535711
						52:leaf=0.00955775008
					34:[f5<69.5482864] yes=53,no=54,missing=54
						53:leaf=-0.0355078429
						54:leaf=0.0141153112
				18:[f9<1.41045856] yes=35,no=36,missing=36
					35:leaf=-0.0711151883
					36:[f0<304.752808] yes=55,no=56,missing=56
						55:leaf=-0.0590218306
						56:leaf=0.0173417609
		4:[f1<22.3672447] yes=9,no=10,missing=10
			9:[f7<0.625940561] yes=19,no=20,missing=20
				19:leaf=-0.0159839205
				20:leaf=-0.0588487945
			10:[f9<1.22986531] yes=21,no=22,missing=22
				21:[f3<82.6516037] yes=37,no=38,missing=38
					37:[f5<76.1592102] yes=57,no=58,missing=58
						57:leaf=-0.0307277124
						58:leaf=0.0125972694
					38:[f2<58.4769707] yes=59,no=60,missing=60
						59:leaf=-0.0557420142
						60:leaf=0.0366929136
				22:[f8<0.38697648] yes=39,no=40,missing=40
					39:[f1<26.0836983] yes=61,no=62,missing=62
						61:leaf=0.067291759
						62:leaf=0.012685298
					40:[f2<69.9401016] yes=63,no=64,missing=64
						63:leaf=-0.0772379637
						64:leaf=-0.0262423195
	2:[f0<609.482483] yes=5,no=6,missing=6
		5:[f2<136.487335] yes=11,no=12,missing=12
			11:[f8<0.487041891] yes=23,no=24,missing=24
				23:[f3<120.47287] yes=41,no=42,missing=42
					41:[f9<0.176764786] yes=65,no=66,missing=66
						65:leaf=-0.0875640586
						66:leaf=0.0201799311
					42:[f0<289.558777] yes=67,no=68,missing=68
						67:leaf=0.0508239642
						68:leaf=0.0288568027
				24:[f4<0.971646965] yes=43,no=44,missing=44
					43:[f2<123.776154] yes=69,no=70,missing=70
						69:leaf=0.0521257035
						70:leaf=0.0174036752
					44:[f6<0.142015323] yes=71,no=72,missing=72
						71:leaf=-0.0808800608
						72:leaf=0.0232655704
			12:leaf=-0.0562834926
		6:[f7<0.932162464] yes=13,no=14,missing=14
			13:[f1<44.5053978] yes=25,no=26,missing=26
				25:leaf=-0.0545471124
				26:[f8<0.534487665] yes=45,no=46,missing=46
					45:leaf=0.0490780026
					46:leaf=0.0146048805
			14:[f1<153.276016] yes=27,no=28,missing=28
				27:leaf=-0.0670087934
				28:leaf=-0.00837331638
booster[22]:
0:[f3<105.164948] yes=1,no=2,missing=2
	1:[f2<56.031086] yes=3,no=4,missing=4
		3:[f5<321.333099] yes=7,no=8,missing=8
			7:[f9<1.21850252] yes=15,no=16,missing=16
				15:[f4<0.654708982] yes=29,no=30,missing=30
					29:leaf=-0.0619317889
					30:[f1<25.0365562] yes=49,no=50,missing=50
						49:leaf=-0.0457147919
						50:leaf=0.0373667479
				16:[f6<0.382493109] yes=31,no=32,missing=32
					31:[f6<0.378054798] yes=51,no=52,missing=52
						51:leaf=-0.0357484743
						52:leaf=0.0848187804
					32:leaf=-0.0669884235
			8:[f8<0.607908547] yes=17,no=18,missing=18
				17:[f5<326.491608] yes=33,no=34,missing=34
					33:leaf=0.0553538799
					34:[f7<1.28730249] yes=53,no=54,missing=54
						53:leaf=-0.0649193749
						54:leaf=-0.0194170866
				18:[f3<99.335144] yes=35,no=36,missing=36
					35:[f6<0.745970786] yes=55,no=56,missing=56
						55:leaf=-0.0338279791
						56:leaf=-0.00673843315
					36:leaf=0.0692881569
		4:[f2<95.1105499] yes=9,no=10,missing=10
			9:[f5<68.4395828] yes=19,no=20,missing=20
				19:[f0<176.844681] yes=37,no=38,missing=38
					37:[f8<0.75898999] yes=57,no=58,missing=58
						57:leaf=0.0564578772
						58:leaf=-0.0488567464
					38:[f4<0.607743382] yes=59,no=60,missing=60
						59:leaf=-0.0597219579
						60:leaf=-0.0239742044
				20:[f9<1.22986531] yes=39,no=40,missing=40
					39:[f4<0.493358254] yes=61,no=62,missing=62
						61:leaf=0.00338630076
						62:leaf=0.0371669345
					40:[f8<0.421882927] yes=63,no=64,missing=64
						63:leaf=0.0272420347
						64:leaf=-0.048032824
			10:[f0<428.029968] yes=21,no=22,missing=22
				21:[f1<177.914825] yes=41,no=42,missing=42
					41:[f4<0.914923012] yes=65,no=66,missing=66
						65:leaf=0.0496921428
						66:leaf=-0.0472844802
					42:[f8<1.50924742] yes=67,no=68,missing=68
						67:leaf=-0.0357311554
						68:leaf=0.0406729542
				22:leaf=-0.052338887
	2:[f0<609.482483] yes=5,no=6,missing=6
		5:[f2<136.487335] yes=11,no=12,missing=12
			11:[f4<0.395323664] yes=23,no=24,missing=24
				23:[f3<126.803474] yes=43,no=44,missing=44
					43:[f1<151.905243] yes=69,no=70,missing=70
						69:leaf=-0.0162685942
						70:leaf=0.0318232961
					44:[f3<148.614395] yes=71,no=72,missing=72
						71:leaf=0.0283967294
						72:leaf=0.0586570203
				24:[f1<39.1424942] yes=45,no=46,missing=46
					45:[f9<0.591998577] yes=73,no=74,missing=74
						73:leaf=-0.0246546548
						74:leaf=0.0340050235
					46:[f2<123.776154] yes=75,no=76,missing=76
						75:leaf=0.0504513457
						76:leaf=0.010907989
			12:leaf=-0.0555415638
		6:[f7<0.932162464] yes=13,no=14,missing=14
			13:[f1<44.5053978] yes=25,no=26,missing=26
				25:leaf=-0.0530552976
				26:[f8<0.534487665] yes=47,no=48,missing=48
					47:leaf=0.0480763353
					48:leaf=0.0141379312
			14:[f1<153.276016] yes=27,no=28,missing=28
				27:leaf=-0.0656148568
				28:leaf=-0.00816289987
booster[23]:
0:[f3<105.164948] yes=1,no=2,missing=2
	1:[f2<76.8312912] yes=3,no=4,missing=4
		3:[f6<0.239035353] yes=7,no=8,missing=8
			7:[f4<0.611351073] yes=15,no=16,missing=16
				15:[f0<186.673965] yes=29,no=30,missing=30
					29:[f0<171.786774] yes=49,no=50,missing=50
						49:leaf=-0.0580430217
						50:leaf=0.0197911728
					30:[f7<0.775097966] yes=51,no=52,missing=52
						51:leaf=-0.0272255745
						52:leaf=-0.0612964407
				16:[f1<22.3672447] yes=31,no=32,missing=32
					31:[f9<1.3529458] yes=53,no=54,missing=54
						53:leaf=-0.057674326
						54:leaf=-0.00205301144
					32:[f4<0.620514572] yes=55,no=56,missing=56
						55:leaf=0.062235117
						56:leaf=-0.00443932693
			8:[f4<0.428227574] yes=17,no=18,missing=18
				17:[f5<301.150391] yes=33,no=34,missing=34
					33:[f6<0.418971688] yes=57,no=58,missing=58
						57:leaf=-0.0266521815
						58:leaf=-0.0663404688
					34:[f1<125.633583] yes=59,no=60,missing=60
						59:leaf=-0.036196705
						60:leaf=0.0394261852
				18:[f2<56.031086] yes=35,no=36,missing=36
					35:[f6<0.272905946] yes=61,no=62,missing=62
						61:leaf=0.0209226925
						62:leaf=-0.0496052876
					36:[f9<1.27603292] yes=63,no=64,missing=64
						63:leaf=0.0317483246
						64:leaf=-0.0317300819
		4:[f7<0.728752911] yes=9,no=10,missing=10
			9:[f9<1.02339184] yes=19,no=20,missing=20
				19:[f3<82.2010956] yes=37,no=38,missing=38
					37:leaf=-0.0366713032
					38:[f1<170.84816] yes=65,no=66,missing=66
						65:leaf=0.0569286235
						66:leaf=0.0210239924
				20:leaf=-0.0480541475
			10:[f2<95.1105499] yes=21,no=22,missing=22
				21:[f7<1.52533638] yes=39,no=40,missing=40
					39:[f5<69.5482864] yes=67,no=68,missing=68
						67:leaf=-0.0486635379
						68:leaf=-0.000252835016
					40:[f0<259.531616] yes=69,no=70,missing=70
						69:leaf=0.048287984
						70:leaf=-0.0128867282
				22:[f0<428.029968] yes=41,no=42,missing=42
					41:[f1<177.914825] yes=71,no=72,missing=72
						71:leaf=0.0442924611
						72:leaf=-0.0106102377
					42:[f7<0.993058383] yes=73,no=74,missing=74
						73:leaf=-0.0146747446
						74:leaf=-0.0548672341
	2:[f0<609.482483] yes=5,no=6,missing=6
		5:[f2<136.487335] yes=11,no=12,missing=12
			11:[f8<0.487041891] yes=23,no=24,missing=24
				23:[f3<120.47287] yes=43,no=44,missing=44
					43:[f0<358.445282] yes=75,no=76,missing=76
						75:leaf=0.0211199131
						76:leaf=-0.0381424576
					44:[f0<289.558777] yes=77,no=78,missing=78
						77:leaf=0.0488288999
						78:leaf=0.0265722368
				24:[f4<0.971646965] yes=45,no=46,missing=46
					45:[f2<123.776154] yes=79,no=80,missing=80
						79:leaf=0.0502368771
						80:leaf=0.0161441304
					46:[f6<0.142015323] yes=81,no=82,missing=82
						81:leaf=-0.0783330128
						82:leaf=0.0211154614
			12:leaf=-0.0548326448
		6:[f7<0.932162464] yes=13,no=14,missing=14
			13:[f1<44.5053978] yes=25,no=26,missing=26
				25:leaf=-0.0516344123
				26:[f9<1.26499534] yes=47,no=48,missing=48
					47:leaf=0.0125136543
					48:leaf=0.0468602404
			14:[f1<153.276016] yes=27,no=28,missing=28
				27:leaf=-0.0642945096
				28:leaf=-0.00795780774
booster[24]:
0:[f3<105.164948] yes=1,no=2,missing=2
	1:[f2<76.8312912] yes=3,no=4,missing=4
		3:[f6<0.239035353] yes=7,no=8,missing=8
			7:[f4<0.611351073] yes=15,no=16,missing=16
				15:[f0<186.673965] yes=29,no=30,missing=30
					29:[f3<86.3376999] yes=49,no=50,missing=50
						49:leaf=-0.0513969474
						50:leaf=0.0250426568
					30:[f7<0.775097966] yes=51,no=52,missing=52
						51:leaf=-0.0262196511
						52:leaf=-0.0604023747
				16:[f1<22.3672447] yes=31,no=32,missing=32
					31:[f9<1.3529458] yes=53,no=54,missing=54
						53:leaf=-0.056677293
						54:leaf=-0.00199531158
					32:[f4<0.620514572] yes=55,no=56,missing=56
						55:leaf=0.0593576133
						56:leaf=-0.00423239777
			8:[f4<0.428227574] yes=17,no=18,missing=18
				17:[f5<301.150391] yes=33,no=34,missing=34
					33:[f6<0.418971688] yes=57,no=58,missing=58
						57:leaf=-0.0255656596
						58:leaf=-0.0647951886
					34:[f9<0.867138922] yes=59,no=60,missing=60
						59:leaf=0.0535038896
						60:leaf=-0.027240077
				18:[f2<56.031086] yes=35,no=36,missing=36
					35:[f6<0.704129636] yes=61,no=62,missing=62
						61:leaf=-0.0441839322
						62:leaf=0.0376369618
					36:[f9<1.27603292] yes=63,no=64,missing=64
						63:leaf=0.0304439124
						64:leaf=-0.0302455556
		4:[f7<0.728752911] yes=9,no=10,missing=10
			9:[f9<1.02339184] yes=19,no=20,missing=20
				19:[f3<82.2010956] yes=37,no=38,missing=38
					37:leaf=-0.0357660502
					38:[f1<170.84816] yes=65,no=66,missing=66
						65:leaf=0.0558919087
						66:leaf=0.0202599429
				20:leaf=-0.0464300588
			10:[f2<97.0863876] yes=21,no=22,missing=22
				21:[f7<1.52533638] yes=39,no=40,missing=40
					39:[f0<368.068939] yes=67,no=68,missing=68
						67:leaf=-0.0417411141
						68:leaf=0.000867881987
					40:[f0<259.531616] yes=69,no=70,missing=70
						69:leaf=0.0462346487
						70:leaf=-0.0150497258
				22:[f4<0.866348088] yes=41,no=42,missing=42
					41:[f1<177.914825] yes=71,no=72,missing=72
						71:leaf=0.0456245057
						72:leaf=-0.00736768171
					42:leaf=-0.0571281202
	2:[f0<609.482483] yes=5,no=6,missing=6
		5:[f2<136.487335] yes=11,no=12,missing=12
			11:[f4<0.403047621] yes=23,no=24,missing=24
				23:[f3<136.181686] yes=43,no=44,missing=44
					43:[f1<209.029541] yes=73,no=74,missing=74
						73:leaf=0.000178290124
						74:leaf=0.0513844006
					44:[f3<148.614395] yes=75,no=76,missing=76
						75:leaf=0.0299593657
						76:leaf=0.0575350337
				24:[f1<39.1424942] yes=45,no=46,missing=46
					45:[f9<0.591998577] yes=77,no=78,missing=78
						77:leaf=-0.0246047266
						78:leaf=0.0313664377
					46:[f2<123.776154] yes=79,no=80,missing=80
						79:leaf=0.0489836149
						80:leaf=0.00993459206
			12:leaf=-0.0541533604
		6:[f7<0.932162464] yes=13,no=14,missing=14
			13:[f1<44.5053978] yes=25,no=26,missing=26
				25:leaf=-0.0502790622
				26:[f8<0.534487665] yes=47,no=48,missing=48
					47:leaf=0.0463569202
					48:leaf=0.0125789614
			14:[f5<168.134064] yes=27,no=28,missing=28
				27:leaf=-0.0630873293
				28:leaf=-0.0071062902
booster[25]:
0:[f3<105.164948] yes=1,no=2,missing=2
	1:[f2<76.8312912] yes=3,no=4,missing=4
		3:[f6<0.239035353] yes=7,no=8,missing=8
			7:[f4<0.611351073] yes=15,no=16,missing=16
				15:[f0<186.673965] yes=29,no=30,missing=30
					29:[f0<171.786774] yes=53,no=54,missing=54
						53:leaf=-0.0566163957
						54:leaf=0.0190839041
					30:[f7<0.775097966] yes=55,no=56,missing=56
						55:leaf=-0.0252484065
						56:leaf=-0.0595488325
				16:[f1<22.3672447] yes=31,no=32,missing=32
					31:[f9<1.3529458] yes=57,no=58,missing=58
						57:leaf=-0.0557256937
						58:leaf=-0.00193922874
					32:[f4<0.620514572] yes=59,no=60,missing=60
						59:leaf=0.0567035973
						60:leaf=-0.00403503282
			8:[f4<0.428227574] yes=17,no=18,missing=18
				17:[f5<301.150391] yes=33,no=34,missing=34
					33:[f6<0.418971688] yes=61,no=62,missing=62
						61:leaf=-0.0245200153
						62:leaf=-0.0633393899
					34:[f1<125.633583] yes=63,no=64,missing=64
						63:leaf=-0.0346564353
						64:leaf=0.0377874449
				18:[f2<56.031086] yes=35,no=36,missing=36
					35:[f6<0.272905946] yes=65,no=66,missing=66
						65:leaf=0.0219532773
						66:leaf=-0.0468676127
					36:[f3<87.4805984] yes=67,no=68,missing=68
						67:leaf=-0.0213959739
						68:leaf=0.0306226555
		4:[f7<0.728752911] yes=9,no=10,missing=10
			9:[f9<1.02339184] yes=19,no=20,missing=20
				19:[f3<82.2010956] yes=37,no=38,missing=38
					37:leaf=-0.0348889492
					38:[f1<170.84816] yes=69,no=70,missing=70
						69:leaf=0.0548984073
						70:leaf=0.0195241179
				20:leaf=-0.0448844545
			10:[f2<95.1105499] yes=21,no=22,missing=22
				21:[f7<1.52533638] yes=39,no=40,missing=40
					39:[f1<44.0064697] yes=71,no=72,missing=72
						71:leaf=0.00771950651
						72:leaf=-0.0438038409
					40:[f0<259.531616] yes=73,no=74,missing=74
						73:leaf=0.0454627573
						74:leaf=-0.011720025
				22:[f0<421.582184] yes=41,no=42,missing=42
					41:[f1<177.914825] yes=75,no=76,missing=76
						75:leaf=0.0423216335
						76:leaf=-0.00970713329
					42:[f9<-0.0450525284] yes=77,no=78,missing=78
						77:leaf=-0.0544413403
						78:leaf=-0.00743841147
	2:[f2<130.670502] yes=5,no=6,missing=6
		5:[f1<29.3618965] yes=11,no=12,missing=12
			11:[f6<0.208666295] yes=23,no=24,missing=24
				23:[f3<154.289124] yes=43,no=44,missing=44
					43:[f6<0.0769386366] yes=79,no=80,missing=80
						79:leaf=-0.0301723816
						80:leaf=-0.0676496401
					44:[f1<21.5988941] yes=81,no=82,missing=82
						81:leaf=-0.053823866
						82:leaf=0.0170487743
				24:[f9<1.41204119] yes=45,no=46,missing=46
					45:[f3<193.983154] yes=83,no=84,missing=84
						83:leaf=0.0375128947
						84:leaf=-0.0570821129
					46:leaf=-0.0748861358
			12:[f4<0.414760828] yes=25,no=26,missing=26
				25:[f3<148.614395] yes=47,no=48,missing=48
					47:[f1<133.411926] yes=85,no=86,missing=86
						85:leaf=-0.00382691692
						86:leaf=0.0280856993
					48:leaf=0.0562351309
				26:[f1<78.85289] yes=49,no=50,missing=50
					49:[f4<0.560553432] yes=87,no=88,missing=88
						87:leaf=0.016607089
						88:leaf=0.0418839566
					50:[f3<177.92897] yes=89,no=90,missing=90
						89:leaf=0.0521103442
						90:leaf=-0.0772070214
		6:[f2<136.487335] yes=13,no=14,missing=14
			13:[f4<0.607743382] yes=27,no=28,missing=28
				27:leaf=-0.0452839099
				28:[f4<0.794267476] yes=51,no=52,missing=52
					51:[f8<0.938662171] yes=91,no=92,missing=92
						91:leaf=0.0444149561
						92:leaf=-0.0365693718
					52:leaf=-0.0343597196
			14:leaf=-0.0543897711
booster[26]:
0:[f3<105.164948] yes=1,no=2,missing=2
	1:[f4<0.48750788] yes=3,no=4,missing=4
		3:[f3<88.4186935] yes=7,no=8,missing=8
			7:[f5<195.225601] yes=15,no=16,missing=16
				15:[f4<0.410856128] yes=29,no=30,missing=30
					29:leaf=-0.0574494191
					30:[f2<85.4569321] yes=49,no=50,missing=50
						49:leaf=-0.0401983447
						50:leaf=0.0126125384
				16:[f9<1.40800607] yes=31,no=32,missing=32
					31:[f2<65.3334274] yes=51,no=52,missing=52
						51:leaf=-0.0461627245
						52:leaf=0.0345864221
					32:leaf=0.066419743
			8:[f9<1.33288062] yes=17,no=18,missing=18
				17:[f5<69.5482864] yes=33,no=34,missing=34
					33:[f2<103.136986] yes=53,no=54,missing=54
						53:leaf=-0.0625833794
						54:leaf=0.0395180397
					34:[f2<82.1189957] yes=55,no=56,missing=56
						55:leaf=-0.00488441717
						56:leaf=0.0457897857
				18:[f9<1.41045856] yes=35,no=36,missing=36
					35:[f8<0.75898999] yes=57,no=58,missing=58
						57:leaf=-0.0673039928
						58:leaf=-0.02214255
					36:[f0<304.752808] yes=59,no=60,missing=60
						59:leaf=-0.0538862348
						60:leaf=0.0202745963
		4:[f1<22.3672447] yes=9,no=10,missing=10
			9:[f7<0.625940561] yes=19,no=20,missing=20
				19:leaf=-0.0123312417
				20:[f9<1.3529458] yes=37,no=38,missing=38
					37:leaf=-0.0578434579
					38:[f4<0.731495261] yes=61,no=62,missing=62
						61:leaf=-0.0423857979
						62:leaf=0.00739307422
			10:[f8<1.18774569] yes=21,no=22,missing=22
				21:[f5<21.281723] yes=39,no=40,missing=40
					39:[f7<0.935333788] yes=63,no=64,missing=64
						63:leaf=-0.00839151256
						64:leaf=-0.0588212013
					40:[f9<1.22986531] yes=65,no=66,missing=66
						65:leaf=0.0165004637
						66:leaf=-0.0233394615
				22:[f3<72.2638245] yes=41,no=42,missing=42
					41:[f1<35.1305847] yes=67,no=68,missing=68
						67:leaf=-0.00775607256
						68:leaf=-0.0466842167
					42:[f0<418.76593] yes=69,no=70,missing=70
						69:leaf=0.0428697541
						70:leaf=-0.0429485999
	2:[f0<609.482483] yes=5,no=6,missing=6
		5:[f2<136.487335] yes=11,no=12,missing=12
			11:[f2<83.3858719] yes=23,no=24,missing=24
				23:[f6<0.210626543] yes=43,no=44,missing=44
					43:[f4<0.486386269] yes=71,no=72,missing=72
						71:leaf=-0.118936136
						72:leaf=-0.0128418906
					44:[f4<0.399948478] yes=73,no=74,missing=74
						73:leaf=0.0131874559
						74:leaf=0.041937504
				24:[f1<32.1588745] yes=45,no=46,missing=46
					45:[f9<0.116802946] yes=75,no=76,missing=76
						75:leaf=-0.073310338
						76:leaf=0.0237833224
					46:[f2<123.776154] yes=77,no=78,missing=78
						77:leaf=0.0490663387
						78:leaf=0.0109377708
			12:leaf=-0.0528616086
		6:[f7<0.932162464] yes=13,no=14,missing=14
			13:[f1<44.5053978] yes=25,no=26,missing=26
				25:leaf=-0.0494635552
				26:[f9<1.26499534] yes=47,no=48,missing=48
					47:leaf=0.0102534425
					48:leaf=0.0444917716
			14:[f1<105.846985] yes=27,no=28,missing=28
				27:leaf=-0.0626758188
				28:leaf=-0.0141197219
booster[27]:
0:[f3<105.164948] yes=1,no=2,missing=2
	1:[f2<56.031086] yes=3,no=4,missing=4
		3:[f5<321.333099] yes=7,no=8,missing=8
			7:[f9<1.21850252] yes=15,no=16,missing=16
				15:[f4<0.654708982] yes=31,no=32,missing=32
					31:leaf=-0.0585383251
					32:[f1<25.0365562] yes=61,no=62,missing=62
						61:leaf=-0.0416246541
						62:leaf=0.0373971872
				16:[f6<0.382493109] yes=33,no=34,missing=34
					33:[f6<0.378054798] yes=63,no=64,missing=64
						63:leaf=-0.0300219636
						64:leaf=0.0830586478
					34:[f5<301.150391] yes=65,no=66,missing=66
						65:leaf=-0.0641979799
						66:leaf=-0.0244164728
			8:[f8<0.607908547] yes=17,no=18,missing=18
				17:[f5<326.491608] yes=35,no=36,missing=36
					35:leaf=0.0544256382
					36:[f7<1.28730249] yes=67,no=68,missing=68
						67:leaf=-0.060971614
						68:leaf=-0.0180097129
				18:[f3<99.335144] yes=37,no=38,missing=38
					37:[f0<211.993027] yes=69,no=70,missing=70
						69:leaf=-0.0338483602
						70:leaf=-0.00579130976
					38:leaf=0.0665722713
		4:[f8<1.13971221] yes=9,no=10,missing=10
			9:[f6<0.230751455] yes=19,no=20,missing=20
				19:[f2<97.0863876] yes=39,no=40,missing=40
					39:[f0<186.673965] yes=71,no=72,missing=72
						71:leaf=0.010731726
						72:leaf=-0.0364015438
					40:[f5<60.0623207] yes=73,no=74,missing=74
						73:leaf=0.030139653
						74:leaf=-0.0699450299
				20:[f9<1.22173738] yes=41,no=42,missing=42
					41:[f3<87.4805984] yes=75,no=76,missing=76
						75:leaf=-0.0413213931
						76:leaf=0.028808251
					42:[f5<117.504204] yes=77,no=78,missing=78
						77:leaf=0.0268009193
						78:leaf=-0.0519779623
			10:[f3<84.4075089] yes=21,no=22,missing=22
				21:[f9<0.698515058] yes=43,no=44,missing=44
					43:[f7<1.20739257] yes=79,no=80,missing=80
						79:leaf=-0.0492932387
						80:leaf=0.000568752468
					44:[f9<0.731384575] yes=81,no=82,missing=82
						81:leaf=0.0442417301
						82:leaf=-0.00515870703
				22:[f0<582.363953] yes=45,no=46,missing=46
					45:[f1<177.914825] yes=83,no=84,missing=84
						83:leaf=0.0468472876
						84:leaf=0.0129081672
					46:leaf=-0.0368893892
	2:[f0<385.057983] yes=5,no=6,missing=6
		5:[f4<0.395323664] yes=11,no=12,missing=12
			11:[f8<0.224387899] yes=23,no=24,missing=24
				23:[f4<0.311837256] yes=47,no=48,missing=48
					47:[f4<0.295402527] yes=85,no=86,missing=86
						85:leaf=-0.0128303571
						86:leaf=-0.0582007654
					48:[f0<208.261337] yes=87,no=88,missing=88
						87:leaf=0.00442058966
						88:leaf=0.0593828559
				24:[f1<147.550308] yes=49,no=50,missing=50
					49:[f0<235.712006] yes=89,no=90,missing=90
						89:leaf=-0.0688789412
						90:leaf=-0.0100893667
					50:[f5<301.150391] yes=91,no=92,missing=92
						91:leaf=0.00207379647
						92:leaf=0.0517981164
			12:[f2<125.796188] yes=25,no=26,missing=26
				25:[f1<85.8699493] yes=51,no=52,missing=52
					51:[f7<1.35140884] yes=93,no=94,missing=94
						93:leaf=0.0376919694
						94:leaf=-0.0146213388
					52:[f3<177.92897] yes=95,no=96,missing=96
						95:leaf=0.0511555672
						96:leaf=-0.0708234906
				26:[f1<194.467743] yes=53,no=54,missing=54
					53:[f4<0.638727725] yes=97,no=98,missing=98
						97:leaf=0.0427913144
						98:leaf=-0.0351972133
					54:[f7<1.44843018] yes=99,no=100,missing=100
						99:leaf=-0.0808621049
						100:leaf=0.01824563
		6:[f1<24.2020855] yes=13,no=14,missing=14
			13:[f9<1.40037143] yes=27,no=28,missing=28
				27:leaf=-0.0651931465
				28:[f9<1.40513539] yes=55,no=56,missing=56
					55:leaf=0.0424074456
					56:leaf=-0.0434960499
			14:[f2<88.3651428] yes=29,no=30,missing=30
				29:[f5<430.942749] yes=57,no=58,missing=58
					57:[f4<0.473602146] yes=101,no=102,missing=102
						101:leaf=-0.051474072
						102:leaf=0.0110010086
					58:[f1<104.095253] yes=103,no=104,missing=104
						103:leaf=0.00669138506
						104:leaf=0.060313005
				30:[f2<130.670502] yes=59,no=60,missing=60
					59:[f0<786.297729] yes=105,no=106,missing=106
						105:leaf=0.0385106131
						106:leaf=-0.0545087531
					60:leaf=-0.0516320765
booster[28]:
0:[f3<105.164948] yes=1,no=2,missing=2
	1:[f4<0.48750788] yes=3,no=4,missing=4
		3:[f5<68.4395828] yes=7,no=8,missing=8
			7:[f2<95.1105499] yes=15,no=16,missing=16
				15:leaf=-0.0581662767
				16:[f7<1.05171096] yes=31,no=32,missing=32
					31:[f7<0.841912687] yes=57,no=58,missing=58
						57:leaf=0.0495481528
						58:leaf=0.00652826577
					32:leaf=-0.0482430607
			8:[f2<76.8312912] yes=17,no=18,missing=18
				17:[f0<216.575867] yes=33,no=34,missing=34
					33:[f6<0.359763592] yes=59,no=60,missing=60
						59:leaf=-0.0380491465
						60:leaf=0.00587846152
					34:[f3<100.767426] yes=61,no=62,missing=62
						61:leaf=-0.0305819269
						62:leaf=-0.073524408
				18:[f5<163.113174] yes=35,no=36,missing=36
					35:[f2<82.7798386] yes=63,no=64,missing=64
						63:leaf=-0.0522418283
						64:leaf=0.0289400257
					36:leaf=0.0506573804
		4:[f1<22.3672447] yes=9,no=10,missing=10
			9:[f7<0.625940561] yes=19,no=20,missing=20
				19:leaf=-0.0111309765
				20:[f9<1.3529458] yes=37,no=38,missing=38
					37:leaf=-0.0564800277
					38:[f4<0.731495261] yes=65,no=66,missing=66
						65:leaf=-0.0410981029
						66:leaf=0.00813938864
			10:[f8<1.18774569] yes=21,no=22,missing=22
				21:[f5<21.281723] yes=39,no=40,missing=40
					39:[f7<0.935333788] yes=67,no=68,missing=68
						67:leaf=-0.00803851243
						68:leaf=-0.0567619912
					40:[f9<1.22986531] yes=69,no=70,missing=70
						69:leaf=0.0157998558
						70:leaf=-0.0212719049
				22:[f3<72.2638245] yes=41,no=42,missing=42
					41:[f1<35.1305847] yes=71,no=72,missing=72
						71:leaf=-0.00663032709
						72:leaf=-0.0451024249
					42:[f4<0.927453697] yes=73,no=74,missing=74
						73:leaf=0.0404580832
						74:leaf=-0.0665855929
	2:[f0<385.057983] yes=5,no=6,missing=6
		5:[f4<0.395323664] yes=11,no=12,missing=12
			11:[f8<0.224387899] yes=23,no=24,missing=24
				23:[f4<0.311837256] yes=43,no=44,missing=44
					43:[f4<0.295402527] yes=75,no=76,missing=76
						75:leaf=-0.0124695962
						76:leaf=-0.0560548864
					44:[f0<208.261337] yes=77,no=78,missing=78
						77:leaf=0.0042519602
						78:leaf=0.0577999726
				24:[f1<147.550308] yes=45,no=46,missing=46
					45:[f0<235.712006] yes=79,no=80,missing=80
						79:leaf=-0.0645489916
						80:leaf=-0.00956394058
					46:[f5<301.150391] yes=81,no=82,missing=82
						81:leaf=0.00197540713
						82:leaf=0.0508949235
			12:[f2<125.796188] yes=25,no=26,missing=26
				25:[f1<49.3600006] yes=47,no=48,missing=48
					47:[f6<0.208666295] yes=83,no=84,missing=84
						83:leaf=0.00575863523
						84:leaf=0.03714801
					48:[f3<177.92897] yes=85,no=86,missing=86
						85:leaf=0.0474602282
						86:leaf=-0.0937361717
				26:[f1<194.467743] yes=49,no=50,missing=50
					49:[f4<0.638727725] yes=87,no=88,missing=88
						87:leaf=0.0416402891
						88:leaf=-0.0338696241
					50:[f3<113.969017] yes=89,no=90,missing=90
						89:leaf=0.0257800855
						90:leaf=-0.0772370547
		6:[f1<24.2020855] yes=13,no=14,missing=14
			13:[f9<1.40037143] yes=27,no=28,missing=28
				27:leaf=-0.0639468506
				28:[f9<1.40513539] yes=51,no=52,missing=52
					51:leaf=0.0415337682
					52:leaf=-0.0424891226
			14:[f2<88.3651428] yes=29,no=30,missing=30
				29:[f6<0.64988476] yes=53,no=54,missing=54
					53:[f4<0.473602146] yes=91,no=92,missing=92
						91:leaf=-0.0492527895
						92:leaf=0.0105758077
					54:[f4<0.311837256] yes=93,no=94,missing=94
						93:leaf=0.056614276
						94:leaf=-0.0311380327
				30:[f2<130.670502] yes=55,no=56,missing=56
					55:[f0<721.09021] yes=95,no=96,missing=96
						95:leaf=0.0385683551
						96:leaf=-0.0279121157
					56:leaf=-0.0509188958
booster[29]:
0:[f3<106.774094] yes=1,no=2,missing=2
	1:[f2<56.031086] yes=3,no=4,missing=4
		3:[f5<321.333099] yes=7,no=8,missing=8
			7:[f9<1.21850252] yes=15,no=16,missing=16
				15:[f4<0.654708982] yes=31,no=32,missing=32
					31:[f7<1.80407321] yes=61,no=62,missing=62
						61:leaf=-0.0590923429
						62:leaf=-0.0282268375
					32:[f1<25.0365562] yes=63,no=64,missing=64
						63:leaf=-0.0409782492
						64:leaf=0.0355586819
				16:[f6<0.424102455] yes=33,no=34,missing=34
					33:[f5<155.071243] yes=65,no=66,missing=66
						65:leaf=-0.045200292
						66:leaf=0.0255233925
					34:[f0<317.797638] yes=67,no=68,missing=68
						67:leaf=-0.0645961761
						68:leaf=-0.0181925297
			8:[f8<0.607908547] yes=17,no=18,missing=18
				17:[f8<0.100576513] yes=35,no=36,missing=36
					35:leaf=0.0520586632
					36:leaf=-0.057683941
				18:[f3<99.335144] yes=37,no=38,missing=38
					37:[f0<211.993027] yes=69,no=70,missing=70
						69:leaf=-0.0333658159
						70:leaf=-0.00501039578
					38:leaf=0.0638508424
		4:[f2<95.1105499] yes=9,no=10,missing=10
			9:[f5<68.4395828] yes=19,no=20,missing=20
				19:[f0<179.867889] yes=39,no=40,missing=40
					39:[f8<0.75898999] yes=71,no=72,missing=72
						71:leaf=0.0484053306
						72:leaf=-0.0452719666
					40:[f3<99.335144] yes=73,no=74,missing=74
						73:leaf=-0.0361968093
						74:leaf=-0.0851676613
				20:[f9<1.22986531] yes=41,no=42,missing=42
					41:[f3<84.7274857] yes=75,no=76,missing=76
						75:leaf=-0.00667669624
						76:leaf=0.0254898556
					42:[f3<102.868805] yes=77,no=78,missing=78
						77:leaf=-0.0496755652
						78:leaf=-0.000370553898
			10:[f3<84.4075089] yes=21,no=22,missing=22
				21:[f7<1.00660014] yes=43,no=44,missing=44
					43:leaf=-0.0133627756
					44:leaf=-0.0413884893
				22:[f4<0.866348088] yes=45,no=46,missing=46
					45:[f4<0.398247451] yes=79,no=80,missing=80
						79:leaf=-0.0457664244
						80:leaf=0.0407925807
					46:[f7<0.800811052] yes=81,no=82,missing=82
						81:leaf=0.0320468023
						82:leaf=-0.0639418662
	2:[f0<385.057983] yes=5,no=6,missing=6
		5:[f4<0.395323664] yes=11,no=12,missing=12
			11:[f3<125.351311] yes=23,no=24,missing=24
				23:[f9<1.33584535] yes=47,no=48,missing=48
					47:[f4<0.380788267] yes=83,no=84,missing=84
						83:leaf=0.0204124935
						84:leaf=-0.0357668325
					48:[f3<117.667526] yes=85,no=86,missing=86
						85:leaf=-0.0722608641
						86:leaf=-0.00696931919
				24:[f5<275.030518] yes=49,no=50,missing=50
					49:[f1<202.963715] yes=87,no=88,missing=88
						87:leaf=-0.133046731
						88:leaf=0.0334424973
					50:[f9<1.30264807] yes=89,no=90,missing=90
						89:leaf=0.0497443229
						90:leaf=0.0270703528
			12:[f2<123.776154] yes=25,no=26,missing=26
				25:[f1<85.8699493] yes=51,no=52,missing=52
					51:[f7<1.35140884] yes=91,no=92,missing=92
						91:leaf=0.0365447216
						92:leaf=-0.0149367703
					52:[f3<177.92897] yes=93,no=94,missing=94
						93:leaf=0.050590694
						94:leaf=-0.0604776442
				26:[f1<194.467743] yes=53,no=54,missing=54
					53:[f4<0.794267476] yes=95,no=96,missing=96
						95:leaf=0.024723582
						96:leaf=-0.0543929599
					54:[f7<1.44843018] yes=97,no=98,missing=98
						97:leaf=-0.0814026743
						98:leaf=0.0181109793
		6:[f1<24.2020855] yes=13,no=14,missing=14
			13:[f9<1.40037143] yes=27,no=28,missing=28
				27:leaf=-0.0631138161
				28:[f9<1.40513539] yes=55,no=56,missing=56
					55:leaf=0.0434220731
					56:leaf=-0.0411050208
			14:[f0<721.09021] yes=29,no=30,missing=30
				29:[f2<95.1105499] yes=57,no=58,missing=58
					57:[f3<131.744156] yes=99,no=100,missing=100
						99:leaf=-0.0257905666
						100:leaf=0.0262083169
					58:[f2<130.670502] yes=101,no=102,missing=102
						101:leaf=0.0418361276
						102:leaf=-0.0463995039
				30:[f9<1.39638412] yes=59,no=60,missing=60
					59:[f6<0.314485043] yes=103,no=104,missing=104
						103:leaf=-0.0594222322
						104:leaf=-0.00702115614
					60:leaf=0.02401275
booster[30]:
0:[f3<106.774094] yes=1,no=2,missing=2
	1:[f2<56.031086] yes=3,no=4,missing=4
		3:[f5<321.333099] yes=7,no=8,missing=8
			7:[f9<1.21850252] yes=15,no=16,missing=16
				15:[f4<0.654708982] yes=31,no=32,missing=32
					31:[f7<1.80407321] yes=61,no=62,missing=62
						61:leaf=-0.0583657436
						62:leaf=-0.027571639
					32:[f1<25.0365562] yes=63,no=64,missing=64
						63:leaf=-0.0402623676
						64:leaf=0.0342198573
				16:[f6<0.424102455] yes=33,no=34,missing=34
					33:[f5<155.071243] yes=65,no=66,missing=66
						65:leaf=-0.0442395322
						66:leaf=0.0242143832
					34:[f0<317.797638] yes=67,no=68,missing=68
						67:leaf=-0.0633542687
						68:leaf=-0.0178284179
			8:[f8<0.607908547] yes=17,no=18,missing=18
				17:[f5<326.491608] yes=35,no=36,missing=36
					35:leaf=0.0509878285
					36:[f7<1.28730249] yes=69,no=70,missing=70
						69:leaf=-0.0592041612
						70:leaf=-0.0149999252
				18:[f3<99.335144] yes=37,no=38,missing=38
					37:[f0<211.993027] yes=71,no=72,missing=72
						71:leaf=-0.032775715
						72:leaf=-0.00487615308
					38:leaf=0.0620685518
		4:[f2<95.1105499] yes=9,no=10,missing=10
			9:[f5<68.4395828] yes=19,no=20,missing=20
				19:[f0<176.844681] yes=39,no=40,missing=40
					39:[f8<0.75898999] yes=73,no=74,missing=74
						73:leaf=0.0472739413
						74:leaf=-0.0439709984
					40:[f3<99.335144] yes=75,no=76,missing=76
						75:leaf=-0.0347906128
						76:leaf=-0.0815204903
				20:[f9<1.22986531] yes=41,no=42,missing=42
					41:[f4<0.453352362] yes=77,no=78,missing=78
						77:leaf=-5.00338392e-05
