booster[0]:
0:[f2<126.604301] yes=1,no=2,missing=2
	1:[f1<51.8447037] yes=3,no=4,missing=4
		3:[f5<0.485987127] yes=7,no=8,missing=8
			7:leaf=-0.585802674
			8:leaf=0.181614935
		4:[f3<0.475262612] yes=9,no=10,missing=10
			9:leaf=-0.471240461
			10:leaf=0.0632061884
	2:[f1<27.3748665] yes=5,no=6,missing=6
		5:[f5<0.2970559] yes=11,no=12,missing=12
			11:leaf=-0.550334334
			12:leaf=-0.191923261
		6:[f3<0.401149958] yes=13,no=14,missing=14
			13:leaf=-0.0774370283
			14:leaf=0.358412564
booster[1]:
0:[f2<131.437225] yes=1,no=2,missing=2
	1:[f2<112.364616] yes=3,no=4,missing=4
		3:[f5<0.383255422] yes=7,no=8,missing=8
			7:leaf=-0.438597202
			8:leaf=0.0792085603
		4:[f4<49.2678452] yes=9,no=10,missing=10
			9:leaf=0.266870528
			10:leaf=-0.372444689
	2:[f1<28.9632626] yes=5,no=6,missing=6
		5:[f5<0.186923474] yes=11,no=12,missing=12
			11:leaf=-0.482892901
			12:leaf=-0.148328066
		6:[f3<0.372768641] yes=13,no=14,missing=14
			13:leaf=-0.102591977
			14:leaf=0.25743407
booster[2]:
0:[f2<146.84375] yes=1,no=2,missing=2
	1:[f1<98.2834702] yes=3,no=4,missing=4
		3:[f3<0.526655138] yes=7,no=8,missing=8
			7:leaf=-0.395884871
			8:leaf=-0.22146818
		4:[f3<0.438185304] yes=9,no=10,missing=10
			9:leaf=-0.272947073
			10:leaf=0.255404085
	2:[f1<63.0090141] yes=5,no=6,missing=6
		5:[f2<171.377609] yes=11,no=12,missing=12
			11:leaf=-0.361338019
			12:leaf=0.0475612357
		6:[f3<0.399591178] yes=13,no=14,missing=14
			13:leaf=0.0518465489
			14:leaf=0.301098168
booster[3]:
0:[f2<119.005539] yes=1,no=2,missing=2
	1:[f5<0.267878115] yes=3,no=4,missing=4
		3:[f3<0.507618427] yes=7,no=8,missing=8
			7:leaf=-0.367311418
			8:leaf=-0.186893508
		4:[f4<161.265778] yes=9,no=10,missing=10
			9:leaf=0.166888952
			10:leaf=-0.407287449
	2:[f1<85.6062622] yes=5,no=6,missing=6
		5:[f2<171.377609] yes=11,no=12,missing=12
			11:leaf=-0.232936561
			12:leaf=0.0850596353
		6:[f3<0.405937552] yes=13,no=14,missing=14
			13:leaf=0.00632706098
			14:leaf=0.249884352
booster[4]:
0:[f1<26.3323498] yes=1,no=2,missing=2
	1:[f1<19.692028] yes=3,no=4,missing=4
		3:[f5<0.316435844] yes=7,no=8,missing=8
			7:leaf=-0.350826472
			8:leaf=-0.508805513
		4:[f5<0.585218072] yes=9,no=10,missing=10
			9:leaf=-0.255392015
			10:leaf=0.271804571
	2:[f3<0.465351939] yes=5,no=6,missing=6
		5:[f2<179.976974] yes=11,no=12,missing=12
			11:leaf=-0.186485469
			12:leaf=0.188812733
		6:[f5<0.131134152] yes=13,no=14,missing=14
			13:leaf=-0.0230508
			14:leaf=0.200947002
booster[5]:
0:[f1<49.5491142] yes=1,no=2,missing=2
	1:[f5<0.161784768] yes=3,no=4,missing=4
		3:[f3<0.92989862] yes=7,no=8,missing=8
			7:leaf=-0.323799461
			8:leaf=-0.129362151
		4:[f3<0.6444875] yes=9,no=10,missing=10
			9:leaf=-0.192949429
			10:leaf=0.131173745
	2:[f3<0.436187088] yes=5,no=6,missing=6
		5:[f1<160.721573] yes=11,no=12,missing=12
			11:leaf=-0.160196587
			12:leaf=0.216499478
		6:[f3<0.808852077] yes=13,no=14,missing=14
			13:leaf=0.161868542
			14:leaf=-0.519448876
booster[6]:
0:[f2<103.024231] yes=1,no=2,missing=2
	1:[f4<11.5497446] yes=3,no=4,missing=4
		3:[f2<92.2797928] yes=7,no=8,missing=8
			7:leaf=-0.266575187
			8:leaf=0.526803374
		4:[f5<0.851928711] yes=9,no=10,missing=10
			9:leaf=-0.321191311
			10:leaf=0.944760144
	2:[f1<130.98204] yes=5,no=6,missing=6
		5:[f3<0.504730463] yes=11,no=12,missing=12
			11:leaf=-0.141711503
			12:leaf=0.0686253235
		6:[f3<0.65626502] yes=13,no=14,missing=14
			13:leaf=0.181203872
			14:leaf=-0.898608088
booster[7]:
0:[f1<21.2833977] yes=1,no=2,missing=2
	1:[f5<0.186923474] yes=3,no=4,missing=4
		3:[f2<112.364616] yes=7,no=8,missing=8
			7:leaf=-0.322311759
			8:leaf=-0.359780014
		4:[f5<0.19185324] yes=9,no=10,missing=10
			9:leaf=0.633955717
			10:leaf=-0.264883846
	2:[f2<161.929993] yes=5,no=6,missing=6
		5:[f4<163.386993] yes=11,no=12,missing=12
			11:leaf=0.00951777212
			12:leaf=-0.310370892
		6:[f5<0.152933612] yes=13,no=14,missing=14
			13:leaf=-0.237296432
			14:leaf=0.138548031
booster[8]:
0:[f2<140.897171] yes=1,no=2,missing=2
	1:[f4<113.397591] yes=3,no=4,missing=4
		3:[f2<108.966232] yes=7,no=8,missing=8
			7:leaf=-0.241472542
			8:leaf=0.066836752
		4:[f5<0.806264222] yes=9,no=10,missing=10
			9:leaf=-0.366433829
			10:leaf=0.776930749
	2:[f1<106.947929] yes=5,no=6,missing=6
		5:[f3<0.490750641] yes=11,no=12,missing=12
			11:leaf=-0.1214386
			12:leaf=0.0500488319
		6:[f3<0.688354552] yes=13,no=14,missing=14
			13:leaf=0.161323905
			14:leaf=-0.429611057
booster[9]:
0:[f1<19.692028] yes=1,no=2,missing=2
	1:[f0<305.82901] yes=3,no=4,missing=4
		3:[f0<304.278198] yes=7,no=8,missing=8
			7:leaf=-0.238678679
			8:leaf=0.612090468
		4:[f2<171.377609] yes=9,no=10,missing=10
			9:leaf=-0.322747856
			10:leaf=-0.381716579
	2:[f2<193.640945] yes=5,no=6,missing=6
		5:[f3<0.396822542] yes=11,no=12,missing=12
			11:leaf=-0.177353367
			12:leaf=0.0440206155
		6:[f4<105.457443] yes=13,no=14,missing=14
			13:leaf=-0.409616441
			14:leaf=0.134358779
booster[10]:
0:[f1<66.1447372] yes=1,no=2,missing=2
	1:[f5<0.171647146] yes=3,no=4,missing=4
		3:[f4<11.5497446] yes=7,no=8,missing=8
			7:leaf=0.206602097
			8:leaf=-0.237364784
		4:[f3<0.63863498] yes=9,no=10,missing=10
			9:leaf=-0.080294475
			10:leaf=0.0879036486
	2:[f3<0.507618427] yes=5,no=6,missing=6
		5:[f2<204.259857] yes=11,no=12,missing=12
			11:leaf=-0.0549429581
			12:leaf=0.213886335
		6:[f2<263.773132] yes=13,no=14,missing=14
			13:leaf=0.149714753
			14:leaf=-0.658108354
booster[11]:
0:[f1<187.851852] yes=1,no=2,missing=2
	1:[f3<0.341355324] yes=3,no=4,missing=4
		3:[f2<213.775009] yes=7,no=8,missing=8
			7:leaf=-0.255193472
			8:leaf=0.0959486663
		4:[f5<0.2970559] yes=9,no=10,missing=10
			9:leaf=-0.0569545999
			10:leaf=0.0724059343
	2:[f2<112.364616] yes=5,no=6,missing=6
		5:leaf=-0.346073508
		6:[f2<273.494751] yes=11,no=12,missing=12
			11:leaf=0.261321038
			12:leaf=-0.862227678
booster[12]:
0:[f1<15.1711998] yes=1,no=2,missing=2
	1:[f5<0.186923474] yes=3,no=4,missing=4
		3:leaf=-0.315586835
		4:[f2<171.377609] yes=7,no=8,missing=8
			7:leaf=-0.322426528
			8:leaf=-0.39671573
	2:[f1<129.713226] yes=5,no=6,missing=6
		5:[f3<0.526655138] yes=9,no=10,missing=10
			9:leaf=-0.0967446566
			10:leaf=0.0475191809
		6:[f2<112.364616] yes=11,no=12,missing=12
			11:leaf=-0.211134225
			12:leaf=0.109747536
booster[13]:
0:[f5<0.15096356] yes=1,no=2,missing=2
	1:[f4<44.5536766] yes=3,no=4,missing=4
		3:[f2<94.5021362] yes=7,no=8,missing=8
			7:leaf=-0.328335226
			8:leaf=0.0983412787
		4:[f2<126.604301] yes=9,no=10,missing=10
			9:leaf=-0.352681309
			10:leaf=-0.132797554
	2:[f1<172.263153] yes=5,no=6,missing=6
		5:[f4<44.5536766] yes=11,no=12,missing=12
			11:leaf=0.489198506
			12:leaf=0.0054872632
		6:[f2<284.570801] yes=13,no=14,missing=14
			13:leaf=0.207025394
			14:leaf=-0.702675819
booster[14]:
0:[f1<15.1711998] yes=1,no=2,missing=2
	1:[f5<0.186923474] yes=3,no=4,missing=4
		3:leaf=-0.311279804
		4:leaf=-0.353722095
	2:[f1<227.32074] yes=5,no=6,missing=6
		5:[f3<0.369957626] yes=7,no=8,missing=8
			7:leaf=-0.109486617
			8:leaf=0.0207789596
		6:[f3<0.523493946] yes=9,no=10,missing=10
			9:leaf=0.255207151
			10:leaf=-0.764517725
booster[15]:
0:[f5<0.585218072] yes=1,no=2,missing=2
	1:[f3<0.404254556] yes=3,no=4,missing=4
		3:[f0<294.67038] yes=7,no=8,missing=8
			7:leaf=-0.261476487
			8:leaf=0.0233142152
		4:[f1<118.330338] yes=9,no=10,missing=10
			9:leaf=-0.0297226608
			10:leaf=0.117584594
	2:[f0<360.427643] yes=5,no=6,missing=6
		5:[f4<258.009857] yes=11,no=12,missing=12
			11:leaf=0.552416682
			12:leaf=0.105403535
		6:[f0<657.058228] yes=13,no=14,missing=14
			13:leaf=-0.653461576
			14:leaf=0.121626973
booster[16]:
0:[f5<0.161784768] yes=1,no=2,missing=2
	1:[f4<77.5462341] yes=3,no=4,missing=4
		3:[f2<168.767914] yes=7,no=8,missing=8
			7:leaf=0.0130830696
			8:leaf=-0.3920663
		4:[f2<161.929993] yes=9,no=10,missing=10
			9:leaf=-0.410727143
			10:leaf=-0.0711381584
	2:[f4<91.4937286] yes=5,no=6,missing=6
		5:[f2<187.969147] yes=11,no=12,missing=12
			11:leaf=0.202784583
			12:leaf=-0.748048246
		6:[f2<145.003265] yes=13,no=14,missing=14
			13:leaf=-0.169905871
			14:leaf=0.0441282913
booster[17]:
0:[f0<205.656876] yes=1,no=2,missing=2
	1:[f2<159.132614] yes=3,no=4,missing=4
		3:[f3<0.55151552] yes=7,no=8,missing=8
			7:leaf=-0.274495274
			8:leaf=-0.0433728509
		4:[f1<65.3965454] yes=9,no=10,missing=10
			9:leaf=-0.348983526
			10:leaf=0.0440121964
	2:[f1<33.1980362] yes=5,no=6,missing=6
		5:[f3<0.92989862] yes=11,no=12,missing=12
			11:leaf=-0.18089506
			12:leaf=0.178362489
		6:[f2<343.537598] yes=13,no=14,missing=14
			13:leaf=0.0456861071
			14:leaf=-0.300618172
booster[18]:
0:[f5<0.217975289] yes=1,no=2,missing=2
	1:[f4<122.568115] yes=3,no=4,missing=4
		3:[f2<119.005539] yes=7,no=8,missing=8
			7:leaf=-0.169006571
			8:leaf=0.0418935306
		4:[f0<293.260101] yes=9,no=10,missing=10
			9:leaf=-0.495433778
			10:leaf=-0.137495577
	2:[f4<116.204834] yes=5,no=6,missing=6
		5:[f1<31.3359585] yes=11,no=12,missing=12
			11:leaf=-0.454675406
			12:leaf=0.220769629
		6:[f2<103.647011] yes=13,no=14,missing=14
			13:leaf=0.945133984
			14:leaf=0.00730359461
booster[19]:
0:[f1<108.908722] yes=1,no=2,missing=2
	1:[f3<0.575665832] yes=3,no=4,missing=4
		3:[f5<0.455682814] yes=7,no=8,missing=8
			7:leaf=-0.152382314
			8:leaf=0.0326315798
		4:[f1<15.1711998] yes=9,no=10,missing=10
			9:leaf=-0.320663273
			10:leaf=0.037273787
	2:[f0<175.031387] yes=5,no=6,missing=6
		5:[f2<152.463608] yes=11,no=12,missing=12
			11:leaf=-0.3229478
			12:leaf=0.0408644676
		6:[f3<0.63863498] yes=13,no=14,missing=14
			13:leaf=0.0866820514
			14:leaf=-0.351179212
booster[20]:
0:[f2<85.3439407] yes=1,no=2,missing=2
	1:[f5<0.461219281] yes=3,no=4,missing=4
		3:[f5<0.215347454] yes=7,no=8,missing=8
			7:leaf=-0.309354901
			8:leaf=-0.367371857
		4:[f4<11.5497446] yes=9,no=10,missing=10
			9:leaf=0.356304735
			10:leaf=-0.411695927
	2:[f4<18.8090248] yes=5,no=6,missing=6
		5:[f2<135.845108] yes=11,no=12,missing=12
			11:leaf=0.314119279
			12:leaf=-0.610833049
		6:[f5<0.126974136] yes=13,no=14,missing=14
			13:leaf=-0.0865960717
			14:leaf=0.0155694718
booster[21]:
0:[f0<294.67038] yes=1,no=2,missing=2
	1:[f3<0.453639418] yes=3,no=4,missing=4
		3:[f5<0.565012872] yes=7,no=8,missing=8
			7:leaf=-0.197752818
			8:leaf=0.0460532829
		4:[f2<153.094666] yes=9,no=10,missing=10
			9:leaf=-0.0684731752
			10:leaf=0.0673904717
	2:[f1<18.0783405] yes=5,no=6,missing=6
		5:leaf=-0.322008282
		6:[f3<0.300723076] yes=11,no=12,missing=12
			11:leaf=-0.101044148
			12:leaf=0.07203798
booster[22]:
0:[f1<94.5945358] yes=1,no=2,missing=2
	1:[f3<0.29295364] yes=3,no=4,missing=4
		3:[f2<179.976974] yes=7,no=8,missing=8
			7:leaf=-0.327048719
			8:leaf=-0.488061219
		4:[f3<0.309985399] yes=9,no=10,missing=10
			9:leaf=0.388666302
			10:leaf=-0.0383600146
	2:[f3<0.368632942] yes=5,no=6,missing=6
		5:[f0<304.278198] yes=11,no=12,missing=12
			11:leaf=-0.176793545
			12:leaf=0.0546285585
		6:[f3<0.836461604] yes=13,no=14,missing=14
			13:leaf=0.0798804238
			14:leaf=-0.53686142
booster[23]:
0:[f0<235.573975] yes=1,no=2,missing=2
	1:[f5<0.285846114] yes=3,no=4,missing=4
		3:[f4<151.027878] yes=7,no=8,missing=8
			7:leaf=-0.0909214616
			8:leaf=-0.653620481
		4:[f4<199.75853] yes=9,no=10,missing=10
			9:leaf=0.0974945128
			10:leaf=-0.0615560822
	2:[f1<62.3280296] yes=5,no=6,missing=6
		5:[f1<60.1258278] yes=11,no=12,missing=12
			11:leaf=-0.0204784684
			12:leaf=-0.605748296
		6:[f3<0.732223511] yes=13,no=14,missing=14
			13:leaf=0.0723976195
			14:leaf=-0.262107134
booster[24]:
0:[f1<162.750458] yes=1,no=2,missing=2
	1:[f3<0.330990374] yes=3,no=4,missing=4
		3:[f5<0.916382074] yes=7,no=8,missing=8
			7:leaf=-0.235356495
			8:leaf=0.130828947
		4:[f5<0.461219281] yes=9,no=10,missing=10
			9:leaf=-0.0206274278
			10:leaf=0.0703606606
	2:[f3<0.627792835] yes=5,no=6,missing=6
		5:[f5<0.120452896] yes=11,no=12,missing=12
			11:leaf=-0.0359126329
			12:leaf=0.123591967
		6:[f3<0.65626502] yes=13,no=14,missing=14
			13:leaf=-1.31283498
			14:leaf=-0.508404553
booster[25]:
0:[f4<202.102478] yes=1,no=2,missing=2
	1:[f5<0.46697697] yes=3,no=4,missing=4
		3:[f2<140.340805] yes=7,no=8,missing=8
			7:leaf=-0.0388875455
			8:leaf=0.054286249
		4:[f3<0.507618427] yes=9,no=10,missing=10
			9:leaf=0.428017318
			10:leaf=-0.719958484
	2:[f5<0.383255422] yes=5,no=6,missing=6
		5:[f2<189.325455] yes=11,no=12,missing=12
			11:leaf=-0.366808236
			12:leaf=-0.0283098128
		6:[f2<171.377609] yes=13,no=14,missing=14
			13:leaf=-0.114661559
			14:leaf=0.0317134559
booster[26]:
0:[f0<205.656876] yes=1,no=2,missing=2
	1:[f3<0.499077767] yes=3,no=4,missing=4
		3:[f5<0.565012872] yes=7,no=8,missing=8
			7:leaf=-0.272786021
			8:leaf=0.0261978414
		4:[f5<0.264694899] yes=9,no=10,missing=10
			9:leaf=-0.0734252036
			10:leaf=0.105275072
	2:[f1<48.8096581] yes=5,no=6,missing=6
		5:[f3<0.765518367] yes=11,no=12,missing=12
			11:leaf=-0.107582174
			12:leaf=0.0613562725
		6:[f3<0.92989862] yes=13,no=14,missing=14
			13:leaf=0.0401008949
			14:leaf=-0.52475065
booster[27]:
0:[f1<114.007332] yes=1,no=2,missing=2
	1:[f4<11.5497446] yes=3,no=4,missing=4
		3:[f2<128.140518] yes=7,no=8,missing=8
			7:leaf=0.316350102
			8:leaf=-0.646959186
		4:[f0<194.365616] yes=9,no=10,missing=10
			9:leaf=-0.135475695
			10:leaf=-0.0132610407
	2:[f2<284.570801] yes=5,no=6,missing=6
		5:[f3<0.24052465] yes=11,no=12,missing=12
			11:leaf=-0.460668981
			12:leaf=0.0562383607
		6:[f5<0.851928711] yes=13,no=14,missing=14
			13:leaf=-0.71209985
			14:leaf=0.0995450169
booster[28]:
0:[f2<85.3439407] yes=1,no=2,missing=2
	1:[f3<0.555569351] yes=3,no=4,missing=4
		3:[f5<0.378774524] yes=7,no=8,missing=8
			7:leaf=-0.310518086
			8:leaf=-0.388056785
		4:[f3<0.559169054] yes=9,no=10,missing=10
			9:leaf=0.295357704
			10:leaf=-0.316122383
	2:[f4<44.5536766] yes=5,no=6,missing=6
		5:[f2<173.197784] yes=11,no=12,missing=12
			11:leaf=0.101374149
			12:leaf=-0.498549551
		6:[f5<0.126974136] yes=13,no=14,missing=14
			13:leaf=-0.130182385
			14:leaf=0.00696361065
booster[29]:
0:[f0<543.131165] yes=1,no=2,missing=2
	1:[f5<0.353098184] yes=3,no=4,missing=4
		3:[f4<165.464874] yes=7,no=8,missing=8
			7:leaf=0.00183390465
			8:leaf=-0.169034094
		4:[f4<258.009857] yes=9,no=10,missing=10
			9:leaf=0.097899951
			10:leaf=-0.02979392
	2:[f2<105.455849] yes=5,no=6,missing=6
		5:[f4<111.969177] yes=11,no=12,missing=12
			11:leaf=0.337690651
			12:leaf=9.33923912
		6:[f2<273.494751] yes=13,no=14,missing=14
			13:leaf=0.157200247
			14:leaf=-0.615851521
booster[30]:
0:[f1<15.1711998] yes=1,no=2,missing=2
	1:[f3<0.245132118] yes=3,no=4,missing=4
		3:[f0<543.131165] yes=7,no=8,missing=8
			7:leaf=-0.248060271
			8:leaf=-1.54409814
		4:leaf=-0.319189936
	2:[f1<15.3291721] yes=5,no=6,missing=6
		5:[f0<249.829697] yes=9,no=10,missing=10
			9:leaf=0.770891666
			10:leaf=-0.334400743
		6:[f0<313.225006] yes=11,no=12,missing=12
			11:leaf=-0.0208925679
			12:leaf=0.0388675928
booster[31]:
0:[f1<107.897049] yes=1,no=2,missing=2
	1:[f3<0.575665832] yes=3,no=4,missing=4
		3:[f5<0.182336658] yes=7,no=8,missing=8
			7:leaf=-0.237984061
			8:leaf=-0.031038709
		4:[f1<71.0298157] yes=9,no=10,missing=10
			9:leaf=-0.0195367392
			10:leaf=0.106436342
	2:[f2<343.537598] yes=5,no=6,missing=6
		5:[f2<112.364616] yes=11,no=12,missing=12
			11:leaf=-0.133851811
			12:leaf=0.0497285016
		6:[f5<0.620449007] yes=13,no=14,missing=14
			13:leaf=-0.463329703
			14:leaf=-0.759432256
booster[32]:
0:[f5<0.71828419] yes=1,no=2,missing=2
	1:[f0<236.785217] yes=3,no=4,missing=4
		3:[f3<0.465351939] yes=7,no=8,missing=8
			7:leaf=-0.158112779
			8:leaf=0.00801778398
		4:[f1<33.8362007] yes=9,no=10,missing=10
			9:leaf=-0.100105509
			10:leaf=0.0276174936
	2:[f2<145.592667] yes=5,no=6,missing=6
		5:[f2<145.003265] yes=11,no=12,missing=12
			11:leaf=0.395061523
			12:leaf=1.98851144
		6:[f2<190.720993] yes=13,no=14,missing=14
			13:leaf=-0.297388762
			14:leaf=0.108538195
booster[33]:
0:[f3<0.24052465] yes=1,no=2,missing=2
	1:[f2<297.930176] yes=3,no=4,missing=4
		3:[f0<543.131165] yes=7,no=8,missing=8
			7:leaf=-0.402288526
			8:leaf=-0.931372941
		4:[f2<315.961761] yes=9,no=10,missing=10
			9:leaf=0.311135978
			10:leaf=-0.285749108
	2:[f5<0.217975289] yes=5,no=6,missing=6
		5:[f3<0.510488093] yes=11,no=12,missing=12
			11:leaf=-0.123873875
			12:leaf=0.0109306555
		6:[f4<106.792549] yes=13,no=14,missing=14
			13:leaf=0.210004479
			14:leaf=0.00798299909
booster[34]:
0:[f1<114.007332] yes=1,no=2,missing=2
	1:[f3<0.29295364] yes=3,no=4,missing=4
		3:[f2<297.930176] yes=7,no=8,missing=8
			7:leaf=-0.422429919
			8:leaf=0.308768988
		4:[f5<0.585218072] yes=9,no=10,missing=10
			9:leaf=-0.0327445082
			10:leaf=0.0702785179
	2:[f3<0.386844248] yes=5,no=6,missing=6
		5:[f0<395.768341] yes=11,no=12,missing=12
			11:leaf=-0.0616195872
			12:leaf=0.15488562
		6:[f2<284.570801] yes=13,no=14,missing=14
			13:leaf=0.0761813298
			14:leaf=-0.375419736
booster[35]:
0:[f2<461.397766] yes=1,no=2,missing=2
	1:[f0<313.225006] yes=3,no=4,missing=4
		3:[f5<0.308493495] yes=7,no=8,missing=8
			7:leaf=-0.0600947253
			8:leaf=0.0168300737
		4:[f1<19.692028] yes=9,no=10,missing=10
			9:leaf=-0.346210063
			10:leaf=0.0443110652
	2:[f3<0.451238632] yes=5,no=6,missing=6
		5:[f3<0.434250444] yes=11,no=12,missing=12
			11:leaf=-0.455638409
			12:leaf=0.324846596
		6:[f5<0.522146761] yes=13,no=14,missing=14
			13:leaf=-0.480150938
			14:leaf=-0.807754457
booster[36]:
0:[f1<94.5945358] yes=1,no=2,missing=2
	1:[f3<0.695038021] yes=3,no=4,missing=4
		3:[f5<0.383255422] yes=7,no=8,missing=8
			7:leaf=-0.0929739773
			8:leaf=-0.000139810756
		4:[f0<514.259766] yes=9,no=10,missing=10
			9:leaf=0.0579113886
			10:leaf=-0.477626383
	2:[f3<0.368632942] yes=5,no=6,missing=6
		5:[f1<106.947929] yes=11,no=12,missing=12
			11:leaf=-0.420587808
			12:leaf=-0.0240635406
		6:[f2<113.447281] yes=13,no=14,missing=14
			13:leaf=-0.178907052
			14:leaf=0.0639721006
booster[37]:
0:[f0<626.565247] yes=1,no=2,missing=2
	1:[f0<574.468811] yes=3,no=4,missing=4
		3:[f4<11.5497446] yes=7,no=8,missing=8
			7:leaf=0.190380186
			8:leaf=-0.00467332965
		4:[f2<103.647011] yes=9,no=10,missing=10
			9:leaf=-1.01770318
			10:leaf=-0.521785676
	2:[f2<256.805878] yes=5,no=6,missing=6
		5:[f5<0.0735995844] yes=11,no=12,missing=12
			11:leaf=-0.45530957
			12:leaf=0.312180042
		6:leaf=-0.513750255
booster[38]:
0:[f0<167.171173] yes=1,no=2,missing=2
	1:[f2<179.976974] yes=3,no=4,missing=4
		3:[f3<0.559169054] yes=7,no=8,missing=8
			7:leaf=-0.349164337
			8:leaf=0.0226384513
		4:[f3<0.339899838] yes=9,no=10,missing=10
			9:leaf=-0.538083971
			10:leaf=0.0790220574
	2:[f1<83.8605728] yes=5,no=6,missing=6
		5:[f0<171.228745] yes=11,no=12,missing=12
			11:leaf=0.457932085
			12:leaf=-0.0211308412
		6:[f3<0.477570802] yes=13,no=14,missing=14
			13:leaf=-0.00917552598
			14:leaf=0.0887816697
booster[39]:
0:[f0<270.72348] yes=1,no=2,missing=2
	1:[f5<0.74371928] yes=3,no=4,missing=4
		3:[f4<258.009857] yes=7,no=8,missing=8
			7:leaf=-0.00731768552
			8:leaf=-0.130528852
		4:[f2<145.592667] yes=9,no=10,missing=10
			9:leaf=0.438230991
			10:leaf=0.0694046617
	2:[f5<0.0634102598] yes=5,no=6,missing=6
		5:[f4<32.7989922] yes=11,no=12,missing=12
			11:leaf=0.0183659997
			12:leaf=-0.282399625
		6:[f3<0.883199632] yes=13,no=14,missing=14
			13:leaf=0.0447977781
			14:leaf=-0.173521131
booster[40]:
0:[f5<0.293484211] yes=1,no=2,missing=2
	1:[f4<122.568115] yes=3,no=4,missing=4
		3:[f2<238.551971] yes=7,no=8,missing=8
			7:leaf=0.0153761944
			8:leaf=-0.574231029
		4:[f2<103.647011] yes=9,no=10,missing=10
			9:leaf=1.30467415
			10:leaf=-0.117063127
	2:[f4<163.386993] yes=5,no=6,missing=6
		5:[f3<0.267756104] yes=11,no=12,missing=12
			11:leaf=0.887407601
			12:leaf=0.111813419
		6:[f1<134.746521] yes=13,no=14,missing=14
			13:leaf=-0.0229777321
			14:leaf=0.0945826992
booster[41]:
0:[f3<0.249747008] yes=1,no=2,missing=2
	1:[f2<165.570145] yes=3,no=4,missing=4
		3:[f0<543.131165] yes=7,no=8,missing=8
			7:leaf=-0.369500548
			8:leaf=-0.918467104
		4:[f4<341.204834] yes=9,no=10,missing=10
			9:leaf=0.321755946
			10:leaf=-0.305293769
	2:[f5<0.585218072] yes=5,no=6,missing=6
		5:[f0<153.340851] yes=11,no=12,missing=12
			11:leaf=-0.177184254
			12:leaf=-0.00101623521
		6:[f0<360.427643] yes=13,no=14,missing=14
			13:leaf=0.0790003687
			14:leaf=-0.515457451
booster[42]:
0:[f3<0.341355324] yes=1,no=2,missing=2
	1:[f1<175.113556] yes=3,no=4,missing=4
		3:[f2<213.775009] yes=7,no=8,missing=8
			7:leaf=-0.209210545
			8:leaf=0.0229296405
		4:[f2<149.240845] yes=9,no=10,missing=10
			9:leaf=-0.111800216
			10:leaf=0.196459517
	2:[f5<0.461219281] yes=5,no=6,missing=6
		5:[f0<235.573975] yes=11,no=12,missing=12
			11:leaf=-0.0688296929
			12:leaf=0.0219199248
		6:[f3<0.384221941] yes=13,no=14,missing=14
			13:leaf=0.179871589
			14:leaf=0.00934362784
booster[43]:
0:[f4<258.009857] yes=1,no=2,missing=2
	1:[f5<0.383255422] yes=3,no=4,missing=4
		3:[f4<233.74086] yes=7,no=8,missing=8
			7:leaf=0.000694335788
			8:leaf=-0.352664471
		4:[f0<389.637726] yes=9,no=10,missing=10
			9:leaf=0.0948544815
			10:leaf=-0.752912939
	2:[f2<179.976974] yes=5,no=6,missing=6
		5:[f1<50.3867798] yes=11,no=12,missing=12
			11:leaf=0.248506069
			12:leaf=-0.294090271
		6:[f2<182.104095] yes=13,no=14,missing=14
			13:leaf=0.23704879
			14:leaf=-0.0124695404
booster[44]:
0:[f1<87.3499374] yes=1,no=2,missing=2
	1:[f3<0.662516177] yes=3,no=4,missing=4
		3:[f5<0.141477212] yes=7,no=8,missing=8
			7:leaf=-0.200471818
			8:leaf=-0.0359286629
		4:[f0<185.078293] yes=9,no=10,missing=10
			9:leaf=-0.317039013
			10:leaf=0.0483811125
	2:[f3<0.836461604] yes=5,no=6,missing=6
		5:[f2<343.537598] yes=11,no=12,missing=12
			11:leaf=0.0285492446
			12:leaf=-0.695355535
		6:[f1<103.939552] yes=13,no=14,missing=14
			13:leaf=-0.585009277
			14:leaf=-0.408914179
booster[45]:
0:[f0<626.565247] yes=1,no=2,missing=2
	1:[f0<574.468811] yes=3,no=4,missing=4
		3:[f3<0.526655138] yes=7,no=8,missing=8
			7:leaf=-0.0209378153
			8:leaf=0.0220323522
		4:[f2<103.647011] yes=9,no=10,missing=10
			9:leaf=-0.895263374
			10:leaf=-0.461838514
	2:[f2<150.456116] yes=5,no=6,missing=6
		5:[f2<140.340805] yes=11,no=12,missing=12
			11:leaf=-0.432242781
			12:leaf=0.539320529
		6:[f4<192.39827] yes=13,no=14,missing=14
			13:leaf=-0.549360871
			14:leaf=0.219806626
booster[46]:
0:[f1<66.1447372] yes=1,no=2,missing=2
	1:[f0<304.278198] yes=3,no=4,missing=4
		3:[f5<0.4075858] yes=7,no=8,missing=8
			7:leaf=-0.144755766
			8:leaf=-0.0122131892
		4:[f0<374.183289] yes=9,no=10,missing=10
			9:leaf=0.0754164681
			10:leaf=-0.0680089742
	2:[f3<0.526655138] yes=5,no=6,missing=6
		5:[f1<68.5607681] yes=11,no=12,missing=12
			11:leaf=0.274142206
			12:leaf=-0.0188893843
		6:[f2<315.961761] yes=13,no=14,missing=14
			13:leaf=0.0756732896
			14:leaf=-0.433404118
booster[47]:
0:[f1<227.32074] yes=1,no=2,missing=2
	1:[f3<0.259425908] yes=3,no=4,missing=4
		3:[f2<183.182205] yes=7,no=8,missing=8
			7:leaf=-0.368750989
			8:leaf=-0.0182028338
		4:[f5<0.177876472] yes=9,no=10,missing=10
			9:leaf=-0.0366769731
			10:leaf=0.0128624598
	2:[f3<0.453639418] yes=5,no=6,missing=6
		5:[f3<0.296023458] yes=11,no=12,missing=12
			11:leaf=-0.0101097347
			12:leaf=0.228651673
		6:[f3<0.499077767] yes=13,no=14,missing=14
			13:leaf=-2.91122651
			14:leaf=-0.337198079
booster[48]:
0:[f2<85.3439407] yes=1,no=2,missing=2
	1:[f3<0.555569351] yes=3,no=4,missing=4
		3:[f5<0.455682814] yes=7,no=8,missing=8
			7:leaf=-0.316945672
			8:leaf=-0.407653779
		4:[f3<0.559169054] yes=9,no=10,missing=10
			9:leaf=0.234937415
			10:leaf=-0.314851075
	2:[f4<11.5497446] yes=5,no=6,missing=6
		5:[f3<0.533557713] yes=11,no=12,missing=12
			11:leaf=-0.488087595
			12:leaf=0.224660814
		6:[f1<128.508804] yes=13,no=14,missing=14
			13:leaf=-0.0138685917
			14:leaf=0.0359255858
booster[49]:
0:[f0<313.225006] yes=1,no=2,missing=2
	1:[f2<151.852432] yes=3,no=4,missing=4
		3:[f4<45.6160774] yes=7,no=8,missing=8
			7:leaf=0.0710626021
			8:leaf=-0.100343995
		4:[f4<192.39827] yes=9,no=10,missing=10
			9:leaf=0.073766008
			10:leaf=-0.0341838822
	2:[f1<19.692028] yes=5,no=6,missing=6
		5:[f3<0.332450926] yes=11,no=12,missing=12
			11:leaf=-0.637702465
			12:leaf=-0.316275686
		6:[f4<566.057129] yes=13,no=14,missing=14
			13:leaf=0.0381363966
			14:leaf=-0.416347474
