booster[0]:
0:[f3<107.824944] yes=1,no=2,missing=2
	1:[f3<98.1904602] yes=3,no=4,missing=4
		3:[f2<91.0001221] yes=7,no=8,missing=8
			7:leaf=-0.579979837
			8:leaf=-0.426350832
		4:[f4<0.478013277] yes=9,no=10,missing=10
			9:leaf=-0.519758284
			10:leaf=-0.284665316
	2:[f2<124.307327] yes=5,no=6,missing=6
		5:[f9<39.2015343] yes=11,no=12,missing=12
			11:leaf=-0.213816389
			12:leaf=0.170449957
		6:[f2<136.393936] yes=13,no=14,missing=14
			13:leaf=-0.423864573
			14:leaf=-0.599886596
booster[1]:
0:[f3<113.289703] yes=1,no=2,missing=2
	1:[f2<82.7655029] yes=3,no=4,missing=4
		3:[f3<102.890617] yes=7,no=8,missing=8
			7:leaf=-0.444253623
			8:leaf=-0.338267207
		4:[f6<0.181836084] yes=9,no=10,missing=10
			9:leaf=-0.288089365
			10:leaf=0.221274137
	2:[f2<119.834061] yes=5,no=6,missing=6
		5:[f1<27.1357651] yes=11,no=12,missing=12
			11:leaf=-0.401109993
			12:leaf=0.109147869
		6:[f2<133.189697] yes=13,no=14,missing=14
			13:leaf=-0.297259629
			14:leaf=-0.461439818
booster[2]:
0:[f3<105.047356] yes=1,no=2,missing=2
	1:[f4<0.472704351] yes=3,no=4,missing=4
		3:[f2<109.106918] yes=7,no=8,missing=8
			7:leaf=-0.392161071
			8:leaf=0.54543817
		4:[f2<84.435318] yes=9,no=10,missing=10
			9:leaf=-0.329887897
			10:leaf=-0.109808221
	2:[f2<119.834061] yes=5,no=6,missing=6
		5:[f4<0.412791848] yes=11,no=12,missing=12
			11:leaf=-0.235665634
			12:leaf=0.088086538
		6:[f2<129.514435] yes=13,no=14,missing=14
			13:leaf=-0.203168079
			14:leaf=-0.390262544
booster[3]:
0:[f3<116.524193] yes=1,no=2,missing=2
	1:[f2<86.8168182] yes=3,no=4,missing=4
		3:[f4<0.424793273] yes=7,no=8,missing=8
			7:leaf=-0.357346773
			8:leaf=-0.244079262
		4:[f6<0.153131589] yes=9,no=10,missing=10
			9:leaf=-0.153736055
			10:leaf=0.218728006
	2:[f6<0.163278654] yes=5,no=6,missing=6
		5:[f3<139.976318] yes=11,no=12,missing=12
			11:leaf=-0.111291923
			12:leaf=-0.31689629
		6:[f4<0.399358153] yes=13,no=14,missing=14
			13:leaf=-0.0849531591
			14:leaf=0.185694233
booster[4]:
0:[f3<99.3785172] yes=1,no=2,missing=2
	1:[f4<0.470317125] yes=3,no=4,missing=4
		3:[f8<-0.415925533] yes=7,no=8,missing=8
			7:leaf=-0.097559303
			8:leaf=-0.339526057
		4:[f5<145.067383] yes=9,no=10,missing=10
			9:leaf=-0.26810053
			10:leaf=0.0272562243
	2:[f1<20.8778439] yes=5,no=6,missing=6
		5:[f4<0.32334888] yes=11,no=12,missing=12
			11:leaf=1.00137973
			12:leaf=-0.404236823
		6:[f2<129.514435] yes=13,no=14,missing=14
			13:leaf=0.0182994306
			14:leaf=-0.333775133
booster[5]:
0:[f3<98.1904602] yes=1,no=2,missing=2
	1:[f4<0.470317125] yes=3,no=4,missing=4
		3:[f5<170.388489] yes=7,no=8,missing=8
			7:leaf=-0.332128078
			8:leaf=-0.271321863
		4:[f1<22.559] yes=9,no=10,missing=10
			9:leaf=-0.334738702
			10:leaf=-0.149897575
	2:[f9<32.1496162] yes=5,no=6,missing=6
		5:[f6<0.216409713] yes=11,no=12,missing=12
			11:leaf=-0.290162623
			12:leaf=-0.0916080698
		6:[f2<115.944221] yes=13,no=14,missing=14
			13:leaf=0.0778140724
			14:leaf=-0.220292494
booster[6]:
0:[f3<117.402946] yes=1,no=2,missing=2
	1:[f4<0.424793273] yes=3,no=4,missing=4
		3:[f2<106.073608] yes=7,no=8,missing=8
			7:leaf=-0.297981948
			8:leaf=0.275449961
		4:[f6<0.153131589] yes=9,no=10,missing=10
			9:leaf=-0.18584469
			10:leaf=0.0295519065
	2:[f2<133.189697] yes=5,no=6,missing=6
		5:[f9<24.7026749] yes=11,no=12,missing=12
			11:leaf=-0.127989456
			12:leaf=0.0935842544
		6:[f2<136.393936] yes=13,no=14,missing=14
			13:leaf=-0.221429914
			14:leaf=-0.332218349
booster[7]:
0:[f3<93.1548157] yes=1,no=2,missing=2
	1:[f8<-0.463648289] yes=3,no=4,missing=4
		3:[f9<15.4092207] yes=7,no=8,missing=8
			7:leaf=-0.328784645
			8:leaf=0.255882412
		4:[f3<88.0660095] yes=9,no=10,missing=10
			9:leaf=-0.290459156
			10:leaf=-0.182363465
	2:[f4<0.407440186] yes=5,no=6,missing=6
		5:[f3<137.478302] yes=11,no=12,missing=12
			11:leaf=-0.226878807
			12:leaf=0.196375191
		6:[f6<0.153131589] yes=13,no=14,missing=14
			13:leaf=-0.104287408
			14:leaf=0.108702257
booster[8]:
0:[f2<79.3963165] yes=1,no=2,missing=2
	1:[f6<0.312838674] yes=3,no=4,missing=4
		3:[f4<0.52666086] yes=7,no=8,missing=8
			7:leaf=-0.312425613
			8:leaf=-0.206271634
		4:[f4<0.444957078] yes=9,no=10,missing=10
			9:leaf=-0.128935665
			10:leaf=0.111225277
	2:[f6<0.132853061] yes=5,no=6,missing=6
		5:[f2<136.393936] yes=11,no=12,missing=12
			11:leaf=-0.0375476405
			12:leaf=-0.319169551
		6:[f3<169.918198] yes=13,no=14,missing=14
			13:leaf=0.156065121
			14:leaf=-0.222519442
booster[9]:
0:[f3<88.3902054] yes=1,no=2,missing=2
	1:[f8<-0.443306565] yes=3,no=4,missing=4
		3:[f4<0.686817825] yes=7,no=8,missing=8
			7:leaf=0.187470138
			8:leaf=-0.327805459
		4:[f6<0.147700563] yes=9,no=10,missing=10
			9:leaf=-0.303642303
			10:leaf=-0.190952227
	2:[f9<49.7960587] yes=5,no=6,missing=6
		5:[f1<19.4338493] yes=11,no=12,missing=12
			11:leaf=-0.300059706
			12:leaf=-0.0475397669
		6:[f4<0.733916521] yes=13,no=14,missing=14
			13:leaf=0.101506889
			14:leaf=-0.212431997
booster[10]:
0:[f4<0.412791848] yes=1,no=2,missing=2
	1:[f5<351.473816] yes=3,no=4,missing=4
		3:[f2<95.6229324] yes=7,no=8,missing=8
			7:leaf=-0.246317342
			8:leaf=0.0663916841
		4:[f3<127.842949] yes=9,no=10,missing=10
			9:leaf=-0.00917505845
			10:leaf=0.211782739
	2:[f9<16.9997234] yes=5,no=6,missing=6
		5:[f1<15.1398191] yes=11,no=12,missing=12
			11:leaf=-0.326708049
			12:leaf=-0.179012731
		6:[f6<0.219701603] yes=13,no=14,missing=14
			13:leaf=-0.0280109327
			14:leaf=0.11243578
booster[11]:
0:[f3<88.0660095] yes=1,no=2,missing=2
	1:[f4<0.483081967] yes=3,no=4,missing=4
		3:[f5<413.4151] yes=7,no=8,missing=8
			7:leaf=-0.285806566
			8:leaf=0.303845614
		4:[f1<174.753769] yes=9,no=10,missing=10
			9:leaf=-0.138975382
			10:leaf=1.44701195
	2:[f2<136.393936] yes=5,no=6,missing=6
		5:[f9<49.7960587] yes=11,no=12,missing=12
			11:leaf=-0.0442513824
			12:leaf=0.064029485
		6:[f3<112.911613] yes=13,no=14,missing=14
			13:leaf=-0.409492046
			14:leaf=-0.315844208
booster[12]:
0:[f1<19.4338493] yes=1,no=2,missing=2
	1:[f0<289.712738] yes=3,no=4,missing=4
		3:[f1<15.1398191] yes=7,no=8,missing=8
			7:leaf=-0.322441459
			8:leaf=0.10855116
		4:[f7<0.709623694] yes=9,no=10,missing=10
			9:leaf=-0.32634756
			10:leaf=-0.174304277
	2:[f4<0.480419517] yes=5,no=6,missing=6
		5:[f3<121.331154] yes=11,no=12,missing=12
			11:leaf=-0.14442797
			12:leaf=0.0242283326
		6:[f3<157.738678] yes=13,no=14,missing=14
			13:leaf=0.0634031817
			14:leaf=-0.165213153
booster[13]:
0:[f3<86.820282] yes=1,no=2,missing=2
	1:[f5<64.3110962] yes=3,no=4,missing=4
		3:[f8<-0.474846452] yes=7,no=8,missing=8
			7:leaf=-0.0138089741
			8:leaf=-0.290033162
		4:[f4<0.561159909] yes=9,no=10,missing=10
			9:leaf=-0.177165657
			10:leaf=0.183166295
	2:[f2<136.393936] yes=5,no=6,missing=6
		5:[f4<0.400948942] yes=11,no=12,missing=12
			11:leaf=-0.0678798482
			12:leaf=0.0255543198
		6:leaf=-0.312798798
booster[14]:
0:[f6<0.213180304] yes=1,no=2,missing=2
	1:[f2<88.4883957] yes=3,no=4,missing=4
		3:[f4<0.535060585] yes=7,no=8,missing=8
			7:leaf=-0.272930205
			8:leaf=-0.140094548
		4:[f2<119.834061] yes=9,no=10,missing=10
			9:leaf=0.0415958762
			10:leaf=-0.134432077
	2:[f2<76.8406982] yes=5,no=6,missing=6
		5:[f6<0.394455642] yes=11,no=12,missing=12
			11:leaf=-0.104368255
			12:leaf=0.0281248447
		6:[f2<111.323914] yes=13,no=14,missing=14
			13:leaf=0.123573251
			14:leaf=-0.273586988
booster[15]:
0:[f1<18.1693478] yes=1,no=2,missing=2
	1:[f1<15.1398191] yes=3,no=4,missing=4
		3:[f3<179.700592] yes=7,no=8,missing=8
			7:leaf=-0.316647172
			8:leaf=0.0361457169
		4:[f0<289.712738] yes=9,no=10,missing=10
			9:leaf=0.0668352172
			10:leaf=-0.274380356
	2:[f4<0.438414365] yes=5,no=6,missing=6
		5:[f5<345.441406] yes=11,no=12,missing=12
			11:leaf=-0.11895705
			12:leaf=0.0891287029
		6:[f6<0.132853061] yes=13,no=14,missing=14
			13:leaf=-0.0422843657
			14:leaf=0.0575709268
booster[16]:
0:[f1<225.600555] yes=1,no=2,missing=2
	1:[f4<0.399358153] yes=3,no=4,missing=4
		3:[f5<323.349335] yes=7,no=8,missing=8
			7:leaf=-0.194302067
			8:leaf=0.0535529107
		4:[f4<0.802158058] yes=9,no=10,missing=10
			9:leaf=0.0275216401
			10:leaf=-0.123185344
	2:[f8<0.399141073] yes=5,no=6,missing=6
		5:[f3<111.274269] yes=11,no=12,missing=12
			11:leaf=-0.100731857
			12:leaf=0.365511924
		6:[f2<117.502525] yes=13,no=14,missing=14
			13:leaf=-0.520707607
			14:leaf=-0.21180436
booster[17]:
0:[f1<15.1398191] yes=1,no=2,missing=2
	1:[f3<179.700592] yes=3,no=4,missing=4
		3:leaf=-0.311722994
		4:[f2<54.3577347] yes=7,no=8,missing=8
			7:leaf=1.00409317
			8:leaf=-0.316407681
	2:[f2<136.393936] yes=5,no=6,missing=6
		5:[f7<0.933982372] yes=9,no=10,missing=10
			9:leaf=0.0046409741
			10:leaf=-0.542155266
		6:leaf=-0.307973921
booster[18]:
0:[f2<68.9720993] yes=1,no=2,missing=2
	1:[f3<121.331154] yes=3,no=4,missing=4
		3:[f6<0.3518143] yes=7,no=8,missing=8
			7:leaf=-0.172385097
			8:leaf=-0.0712278187
		4:[f2<52.7499504] yes=9,no=10,missing=10
			9:leaf=0.135061771
			10:leaf=-0.0124961557
	2:[f6<0.263926446] yes=5,no=6,missing=6
		5:[f2<86.8168182] yes=11,no=12,missing=12
			11:leaf=-0.122740775
			12:leaf=0.0237075109
		6:[f4<0.407440186] yes=13,no=14,missing=14
			13:leaf=-0.0538549535
			14:leaf=0.1360116
booster[19]:
0:[f3<196.399994] yes=1,no=2,missing=2
	1:[f1<225.600555] yes=3,no=4,missing=4
		3:[f4<0.509036601] yes=7,no=8,missing=8
			7:leaf=-0.0400660224
			8:leaf=0.025089968
		4:[f6<0.12238764] yes=9,no=10,missing=10
			9:leaf=-0.0527627729
			10:leaf=0.317008287
	2:[f0<277.163818] yes=5,no=6,missing=6
		5:[f9<103.762596] yes=11,no=12,missing=12
			11:leaf=-0.698656678
			12:leaf=-0.192484051
		6:[f8<0.115066409] yes=13,no=14,missing=14
			13:leaf=-0.294268548
			14:leaf=0.0837587714
booster[20]:
0:[f6<0.0948817208] yes=1,no=2,missing=2
	1:[f2<97.3993835] yes=3,no=4,missing=4
		3:[f4<0.576354325] yes=7,no=8,missing=8
			7:leaf=-0.274919868
			8:leaf=-0.0964519978
		4:[f0<345.242737] yes=9,no=10,missing=10
			9:leaf=-0.0623592176
			10:leaf=0.140839934
	2:[f2<115.944221] yes=5,no=6,missing=6
		5:[f2<91.5491104] yes=11,no=12,missing=12
			11:leaf=-0.00273844018
			12:leaf=0.0989235714
		6:[f6<0.144327179] yes=13,no=14,missing=14
			13:leaf=-0.0374677964
			14:leaf=-0.331360996
booster[21]:
0:[f7<0.77666527] yes=1,no=2,missing=2
	1:[f2<136.393936] yes=3,no=4,missing=4
		3:[f1<15.1398191] yes=7,no=8,missing=8
			7:leaf=-0.274572372
			8:leaf=0.0069504492
		4:leaf=-0.304571062
	2:[f0<438.576141] yes=5,no=6,missing=6
		5:[f0<165.921005] yes=9,no=10,missing=10
			9:leaf=-0.521356642
			10:leaf=-0.218771353
		6:[f3<160.404831] yes=11,no=12,missing=12
			11:leaf=-0.000500749389
			12:leaf=0.85000056
booster[22]:
0:[f4<0.999708354] yes=1,no=2,missing=2
	1:[f1<16.0030079] yes=3,no=4,missing=4
		3:[f7<0.730445385] yes=7,no=8,missing=8
			7:leaf=-0.314593792
			8:leaf=0.0652716905
		4:[f2<136.393936] yes=9,no=10,missing=10
			9:leaf=0.00474988716
			10:leaf=-0.303016365
	2:[f9<15.6829014] yes=5,no=6,missing=6
		5:[f1<15.1398191] yes=11,no=12,missing=12
			11:leaf=-0.271206141
			12:leaf=3.12683272
		6:[f8<0.903939128] yes=13,no=14,missing=14
			13:leaf=-0.46733889
			14:leaf=-0.0612112395
booster[23]:
0:[f6<0.343520761] yes=1,no=2,missing=2
	1:[f2<82.7655029] yes=3,no=4,missing=4
		3:[f4<0.520304143] yes=7,no=8,missing=8
			7:leaf=-0.198112637
			8:leaf=-0.0304699205
		4:[f0<142.789047] yes=9,no=10,missing=10
			9:leaf=-0.43638739
			10:leaf=0.0198665224
	2:[f3<169.918198] yes=5,no=6,missing=6
		5:[f2<64.8939362] yes=11,no=12,missing=12
			11:leaf=-0.0116087086
			12:leaf=0.0929256976
		6:[f0<277.163818] yes=13,no=14,missing=14
			13:leaf=-0.339828342
			14:leaf=-0.0368872657
booster[24]:
0:[f6<0.12238764] yes=1,no=2,missing=2
	1:[f2<86.3607712] yes=3,no=4,missing=4
		3:[f3<28.9330101] yes=7,no=8,missing=8
			7:leaf=0.597247005
			8:leaf=-0.204345137
		4:[f1<167.58667] yes=9,no=10,missing=10
			9:leaf=-0.0399230272
			10:leaf=0.129471838
	2:[f4<0.535060585] yes=5,no=6,missing=6
		5:[f9<81.1781082] yes=11,no=12,missing=12
			11:leaf=-0.0244229641
			12:leaf=0.164607584
		6:[f3<157.738678] yes=13,no=14,missing=14
			13:leaf=0.0725833252
			14:leaf=-0.111702859
booster[25]:
0:[f2<136.393936] yes=1,no=2,missing=2
	1:[f6<0.74086386] yes=3,no=4,missing=4
		3:[f4<0.3947649] yes=5,no=6,missing=6
			5:leaf=-0.0817367285
			6:leaf=0.0114381593
		4:[f3<166.845337] yes=7,no=8,missing=8
			7:leaf=0.10943643
			8:leaf=-0.167789117
	2:leaf=-0.301666051
booster[26]:
0:[f7<0.234726518] yes=1,no=2,missing=2
	1:[f5<4.21141624] yes=3,no=4,missing=4
		3:[f8<0.0860378444] yes=7,no=8,missing=8
			7:leaf=0.870865226
			8:leaf=-0.333989322
		4:[f6<0.12398982] yes=9,no=10,missing=10
			9:leaf=-0.0479166321
			10:leaf=0.0318419449
	2:[f4<0.397636473] yes=5,no=6,missing=6
		5:[f1<37.9953957] yes=11,no=12,missing=12
			11:leaf=0.656294346
			12:leaf=-0.172884017
		6:[f1<199.00267] yes=13,no=14,missing=14
			13:leaf=-0.0105704796
			14:leaf=0.270064056
booster[27]:
0:[f1<260.920959] yes=1,no=2,missing=2
	1:[f2<115.944221] yes=3,no=4,missing=4
		3:[f9<94.1621094] yes=7,no=8,missing=8
			7:leaf=-0.00162120175
			8:leaf=0.21530202
		4:[f5<76.4627304] yes=9,no=10,missing=10
			9:leaf=-0.0295094922
			10:leaf=-0.289758027
	2:[f3<137.478302] yes=5,no=6,missing=6
		5:[f3<111.274269] yes=11,no=12,missing=12
			11:leaf=-0.110511415
			12:leaf=0.464921683
		6:[f8<0.338047206] yes=13,no=14,missing=14
			13:leaf=-0.295044214
			14:leaf=0.458938241
booster[28]:
0:[f6<0.0556702018] yes=1,no=2,missing=2
	1:[f5<31.284029] yes=3,no=4,missing=4
		3:[f7<-0.667029381] yes=7,no=8,missing=8
			7:leaf=0.274291515
			8:leaf=-0.0734195188
		4:[f2<107.775276] yes=9,no=10,missing=10
			9:leaf=-0.405059427
			10:leaf=-0.660874367
	2:[f2<121.734077] yes=5,no=6,missing=6
		5:[f2<79.3963165] yes=11,no=12,missing=12
			11:leaf=-0.0158863496
			12:leaf=0.0380790234
		6:[f6<0.0564576536] yes=13,no=14,missing=14
			13:leaf=2.2226429
			14:leaf=-0.13996461
booster[29]:
0:[f6<0.343520761] yes=1,no=2,missing=2
	1:[f0<197.095978] yes=3,no=4,missing=4
		3:[f3<129.213852] yes=7,no=8,missing=8
			7:leaf=-0.0851903036
			8:leaf=-0.384403586
		4:[f4<0.379624993] yes=9,no=10,missing=10
			9:leaf=-0.162817717
			10:leaf=0.0118210176
	2:[f2<64.8939362] yes=5,no=6,missing=6
		5:[f3<121.331154] yes=11,no=12,missing=12
			11:leaf=-0.0600034446
			12:leaf=0.0416555777
		6:[f0<243.842911] yes=13,no=14,missing=14
			13:leaf=0.144482508
			14:leaf=-0.000978457974
booster[30]:
0:[f1<260.920959] yes=1,no=2,missing=2
	1:[f1<19.4338493] yes=3,no=4,missing=4
		3:[f7<-0.921549559] yes=7,no=8,missing=8
			7:leaf=0.42509684
			8:leaf=-0.173860118
		4:[f9<13.3122082] yes=9,no=10,missing=10
			9:leaf=0.162422538
			10:leaf=-0.00291617098
	2:[f3<137.478302] yes=5,no=6,missing=6
		5:[f0<786.755615] yes=11,no=12,missing=12
			11:leaf=0.289123058
			12:leaf=1.33051467
		6:[f4<0.328125596] yes=13,no=14,missing=14
			13:leaf=-0.801317692
			14:leaf=-0.0431317687
booster[31]:
0:[f4<0.999708354] yes=1,no=2,missing=2
	1:[f1<15.4045677] yes=3,no=4,missing=4
		3:[f3<179.700592] yes=7,no=8,missing=8
			7:leaf=-0.306064337
			8:leaf=0.24681218
		4:[f2<136.393936] yes=9,no=10,missing=10
			9:leaf=0.00312012248
			10:leaf=-0.299986273
	2:[f3<90.8881302] yes=5,no=6,missing=6
		5:[f3<90.6809158] yes=11,no=12,missing=12
			11:leaf=-0.279192984
			12:leaf=0.486288399
		6:[f8<0.903939128] yes=13,no=14,missing=14
			13:leaf=-0.391109198
			14:leaf=0.00939460285
booster[32]:
0:[f7<0.819156408] yes=1,no=2,missing=2
	1:[f9<50.8103752] yes=3,no=4,missing=4
		3:[f1<117.876266] yes=7,no=8,missing=8
			7:leaf=-0.0037454511
			8:leaf=-0.126083449
		4:[f3<162.553253] yes=9,no=10,missing=10
			9:leaf=0.0316959992
			10:leaf=-0.219967991
	2:[f9<27.7984352] yes=5,no=6,missing=6
		5:[f2<89.7468948] yes=11,no=12,missing=12
			11:leaf=-0.244962245
			12:leaf=0.302792549
		6:[f4<0.827119887] yes=13,no=14,missing=14
			13:leaf=0.361075163
			14:leaf=-0.335673183
booster[33]:
0:[f6<0.213180304] yes=1,no=2,missing=2
	1:[f2<91.5491104] yes=3,no=4,missing=4
		3:[f4<0.538772047] yes=7,no=8,missing=8
			7:leaf=-0.19972758
			8:leaf=-0.0295942686
		4:[f0<295.166138] yes=9,no=10,missing=10
			9:leaf=-0.0324578583
			10:leaf=0.0514623523
	2:[f5<107.140923] yes=5,no=6,missing=6
		5:[f6<0.253202021] yes=11,no=12,missing=12
			11:leaf=0.233137742
			12:leaf=2.60080957
		6:[f1<225.600555] yes=13,no=14,missing=14
			13:leaf=0.00614974508
			14:leaf=0.185395181
booster[34]:
0:[f6<0.0474612005] yes=1,no=2,missing=2
	1:[f6<0.0434341058] yes=3,no=4,missing=4
		3:[f8<-0.266213715] yes=7,no=8,missing=8
			7:leaf=-0.15861553
			8:leaf=0.0522675291
		4:[f4<0.529609442] yes=9,no=10,missing=10
			9:leaf=0.0159354489
			10:leaf=-0.453713328
	2:[f5<22.3173599] yes=5,no=6,missing=6
		5:[f2<100.68541] yes=11,no=12,missing=12
			11:leaf=-0.251743078
			12:leaf=1.14265597
		6:[f8<-0.258119911] yes=13,no=14,missing=14
			13:leaf=0.0394753851
			14:leaf=-0.0105908345
booster[35]:
0:[f6<0.74086386] yes=1,no=2,missing=2
	1:[f4<0.399358153] yes=3,no=4,missing=4
		3:[f3<142.599503] yes=7,no=8,missing=8
			7:leaf=-0.0882763863
			8:leaf=0.183541059
		4:[f2<68.9720993] yes=9,no=10,missing=10
			9:leaf=-0.0456085242
			10:leaf=0.0210800897
	2:[f4<0.396358728] yes=5,no=6,missing=6
		5:[f0<176.310333] yes=11,no=12,missing=12
			11:leaf=-0.167201906
			12:leaf=0.13547051
		6:[f0<188.697998] yes=13,no=14,missing=14
			13:leaf=0.144572169
			14:leaf=-0.215268478
booster[36]:
0:[f6<0.267983079] yes=1,no=2,missing=2
	1:[f5<148.929352] yes=3,no=4,missing=4
		3:[f1<170.84816] yes=7,no=8,missing=8
			7:leaf=-0.0242352393
			8:leaf=0.0794054717
		4:[f2<98.211937] yes=9,no=10,missing=10
			9:leaf=-0.493864149
			10:leaf=-0.0865031332
	2:[f5<134.766342] yes=5,no=6,missing=6
		5:[f1<52.8471985] yes=11,no=12,missing=12
			11:leaf=0.351938069
			12:leaf=0.0427123122
		6:[f9<74.2588043] yes=13,no=14,missing=14
			13:leaf=0.0189448614
			14:leaf=-0.123972841
booster[37]:
0:[f9<121.914894] yes=1,no=2,missing=2
	1:[f9<116.24263] yes=3,no=4,missing=4
		3:[f1<290.949524] yes=7,no=8,missing=8
			7:leaf=-0.00186893682
			8:leaf=0.277333885
		4:[f8<-0.0459886044] yes=9,no=10,missing=10
			9:leaf=1.08562624
			10:leaf=-0.090536885
	2:[f2<129.514435] yes=5,no=6,missing=6
		5:leaf=-0.419470102
		6:leaf=-0.305748343
booster[38]:
0:[f0<297.275208] yes=1,no=2,missing=2
	1:[f3<149.34996] yes=3,no=4,missing=4
		3:[f6<0.0851383284] yes=7,no=8,missing=8
			7:leaf=-0.0822464004
			8:leaf=0.00941368472
		4:[f7<0.276317537] yes=9,no=10,missing=10
			9:leaf=-0.042362377
			10:leaf=-0.301617414
	2:[f9<75.0552979] yes=5,no=6,missing=6
		5:[f1<19.4338493] yes=11,no=12,missing=12
			11:leaf=-0.224809125
			12:leaf=0.0153157786
		6:[f1<182.087051] yes=13,no=14,missing=14
			13:leaf=0.417744279
			14:leaf=0.0413378179
booster[39]:
0:[f2<129.514435] yes=1,no=2,missing=2
	1:[f2<126.585388] yes=3,no=4,missing=4
		3:[f2<124.307327] yes=7,no=8,missing=8
			7:leaf=0.00176751416
			8:leaf=-0.175145358
		4:[f9<37.4234314] yes=9,no=10,missing=10
			9:leaf=1.70903885
			10:leaf=0.126504362
	2:[f5<39.2806053] yes=5,no=6,missing=6
		5:[f3<116.524193] yes=11,no=12,missing=12
			11:leaf=1.37582862
			12:leaf=-0.0217074603
		6:[f4<0.26526767] yes=13,no=14,missing=14
			13:leaf=0.473492086
			14:leaf=-0.346274257
booster[40]:
0:[f4<0.506510496] yes=1,no=2,missing=2
	1:[f5<234.60878] yes=3,no=4,missing=4
		3:[f9<82.3609543] yes=7,no=8,missing=8
			7:leaf=-0.0790706128
			8:leaf=0.0933333412
		4:[f6<0.369934231] yes=9,no=10,missing=10
			9:leaf=-0.461082131
			10:leaf=0.0281649791
	2:[f2<50.5720406] yes=5,no=6,missing=6
		5:[f0<200.853439] yes=11,no=12,missing=12
			11:leaf=0.101074539
			12:leaf=-0.270495564
		6:[f3<107.074409] yes=13,no=14,missing=14
			13:leaf=0.0711423457
			14:leaf=0.00384715083
booster[41]:
0:[f6<0.153131589] yes=1,no=2,missing=2
	1:[f1<167.58667] yes=3,no=4,missing=4
		3:[f4<0.547190726] yes=7,no=8,missing=8
			7:leaf=-0.12977843
			8:leaf=-0.0137301851
		4:[f4<0.431885213] yes=9,no=10,missing=10
			9:leaf=-0.102892376
			10:leaf=0.168802679
	2:[f2<117.502525] yes=5,no=6,missing=6
		5:[f5<92.0899734] yes=11,no=12,missing=12
			11:leaf=0.13864091
			12:leaf=0.00323729543
		6:[f7<-0.513679266] yes=13,no=14,missing=14
			13:leaf=0.279012978
			14:leaf=-0.374941766
booster[42]:
0:[f0<313.160583] yes=1,no=2,missing=2
	1:[f2<119.834061] yes=3,no=4,missing=4
		3:[f8<-0.658865869] yes=7,no=8,missing=8
			7:leaf=-0.181406647
			8:leaf=-0.00236840174
		4:[f7<0.606111288] yes=9,no=10,missing=10
			9:leaf=-0.176355094
			10:leaf=0.297517866
	2:[f5<628.407471] yes=5,no=6,missing=6
		5:[f2<55.1308174] yes=11,no=12,missing=12
			11:leaf=0.180508897
			12:leaf=0.00996318273
		6:[f4<0.226108879] yes=13,no=14,missing=14
			13:leaf=0.2454236
			14:leaf=-0.581137776
booster[43]:
0:[f9<50.8103752] yes=1,no=2,missing=2
	1:[f0<199.549835] yes=3,no=4,missing=4
		3:[f6<0.32161805] yes=7,no=8,missing=8
			7:leaf=-0.269611448
			8:leaf=-0.0446160734
		4:[f4<0.326471835] yes=9,no=10,missing=10
			9:leaf=-0.112197883
			10:leaf=0.00696625141
	2:[f7<-0.17496492] yes=5,no=6,missing=6
		5:[f8<-0.683135986] yes=11,no=12,missing=12
			11:leaf=-0.452036202
			12:leaf=0.070961073
		6:[f3<185.940262] yes=13,no=14,missing=14
			13:leaf=-0.0142250536
			14:leaf=-0.433138251
booster[44]:
0:[f7<0.933982372] yes=1,no=2,missing=2
	1:[f2<136.393936] yes=3,no=4,missing=4
		3:[f2<80.2115021] yes=5,no=6,missing=6
			5:leaf=-0.0131791867
			6:leaf=0.013989673
		4:leaf=-0.297885776
	2:leaf=-0.349273622
booster[45]:
0:[f6<0.343520761] yes=1,no=2,missing=2
	1:[f0<202.061188] yes=3,no=4,missing=4
		3:[f5<147.10878] yes=7,no=8,missing=8
			7:leaf=-0.0619361512
			8:leaf=-0.294767886
		4:[f5<199.167542] yes=9,no=10,missing=10
			9:leaf=0.00227484223
			10:leaf=-0.296297729
	2:[f9<79.6752853] yes=5,no=6,missing=6
		5:[f1<197.143387] yes=11,no=12,missing=12
			11:leaf=0.016450895
			12:leaf=0.225881994
		6:[f6<0.379453808] yes=13,no=14,missing=14
			13:leaf=0.158722982
			14:leaf=-0.296710312
booster[46]:
0:[f6<0.213180304] yes=1,no=2,missing=2
	1:[f5<117.308968] yes=3,no=4,missing=4
		3:[f4<0.429708809] yes=7,no=8,missing=8
			7:leaf=-0.128051281
			8:leaf=-0.00392520567
		4:[f0<569.515198] yes=9,no=10,missing=10
			9:leaf=-0.493481457
			10:leaf=-0.0132944286
	2:[f2<76.8406982] yes=5,no=6,missing=6
		5:[f6<0.444993824] yes=11,no=12,missing=12
			11:leaf=-0.0460217632
			12:leaf=0.0195584558
		6:[f3<119.957123] yes=13,no=14,missing=14
			13:leaf=0.145257473
			14:leaf=0.0146621959
booster[47]:
0:[f3<28.9330101] yes=1,no=2,missing=2
	1:[f2<34.3891716] yes=3,no=4,missing=4
		3:leaf=-0.268149346
		4:leaf=3.23227811
	2:[f3<59.9643784] yes=5,no=6,missing=6
		5:leaf=-0.300929964
		6:[f3<60.82304] yes=7,no=8,missing=8
			7:leaf=1.47150493
			8:leaf=-0.000200905779
booster[48]:
0:[f6<0.0474612005] yes=1,no=2,missing=2
	1:[f5<22.651041] yes=3,no=4,missing=4
		3:[f8<-0.328845859] yes=7,no=8,missing=8
			7:leaf=-0.166214973
			8:leaf=0.0433357432
		4:[f3<28.9330101] yes=9,no=10,missing=10
			9:leaf=0.407853395
			10:leaf=-0.377857924
	2:[f6<0.0483060144] yes=5,no=6,missing=6
		5:[f8<0.0817368776] yes=11,no=12,missing=12
			11:leaf=0.806418478
			12:leaf=-0.090749532
		6:[f8<-0.400659353] yes=13,no=14,missing=14
			13:leaf=0.052403003
			14:leaf=-0.00670799566
booster[49]:
0:[f8<0.0787118971] yes=1,no=2,missing=2
	1:[f8<-0.0397176147] yes=3,no=4,missing=4
		3:[f7<-0.63141191] yes=7,no=8,missing=8
			7:leaf=-0.12397971
			8:leaf=0.0105703222
		4:[f3<105.342064] yes=9,no=10,missing=10
			9:leaf=-0.231050238
			10:leaf=-0.0449080393
	2:[f3<83.3070908] yes=5,no=6,missing=6
		5:[f0<451.199219] yes=11,no=12,missing=12
			11:leaf=0.0691373721
			12:leaf=1.89846563
		6:[f3<86.820282] yes=13,no=14,missing=14
			13:leaf=-0.320111543
			14:leaf=0.0124034937
